16 100
O -0.34408244 -0.01183163 -0.49145755 0.17952049 -1.3209085 0.056098513 -0.33184752 -0.11902048 0.5477442 -0.024050323 0.33019575 0.5127995 0.40933144 -0.47188592 -0.12738957 -0.4242305 -0.44783556 -0.09901045 -0.14630303 -0.17035401 0.83216536 -0.3726373 -0.30205116 -1.0178845 0.091175556 0.64880574 -0.08941527 0.00053987367 0.24459927 -0.49512774 0.29534715 -0.27226067 0.16473745 0.012942879 0.4893869 0.17408724 -0.3190814 -0.85067147 0.28614828 0.16781218 0.2469333 -0.12918249 -0.34320515 -0.14946961 -0.29905233 0.21284343 -0.24731508 0.2031676 0.13581696 0.6907174 -0.3618678 0.1199228 0.20603321 -0.80999154 -0.24326096 0.15812941 -0.5369105 -0.75183594 -0.62141687 -0.16164745 0.2652149 0.78408015 0.9362903 -0.8902538 0.94342816 -0.9337355 -0.07824498 -0.19715136 0.7586122 -0.4608292 -0.1297461 0.028747126 -0.264533 0.29071298 -0.7160863 0.28793854 -0.5752013 0.6888654 -0.54387486 -0.05049306 -0.0430849 0.23844568 -0.04624411 0.054125544 -0.11017986 -0.07242222 -0.59556997 -0.7211902 0.049907178 0.2407349 -0.74583167 0.03187311 -0.44362903 -0.091129735 0.50287414 0.43349275 -0.12849337 0.10595668 -0.3424474 0.10579737
I-c -0.3857653 0.10506398 -0.3670616 0.10080615 -1.4287581 -0.036736857 -0.4315291 -0.19569296 0.6239482 -0.2424881 0.62688905 0.6314808 0.5487277 -0.64231795 -0.13210917 -0.18198933 -0.5016853 -0.10984721 -0.27627805 -0.21388617 1.117973 -0.47549224 -0.28803825 -1.1394502 -0.058792792 0.63843304 -0.21062692 -0.046721127 0.20320135 -0.5195817 0.30721182 -0.27534932 0.18177018 -0.1274357 0.6175922 0.23993663 -0.4562474 -0.8802122 0.2664613 0.26597115 0.3886374 -0.036771778 -0.2442186 -0.39346153 -0.39312282 0.121416256 -0.33631438 0.23261262 0.29532242 0.6661752 -0.3658968 0.19020355 0.12443817 -0.89367676 -0.31306544 0.16462184 -0.591199 -0.98182714 -0.5942999 -0.32371163 0.32535625 0.7870354 1.1557809 -0.8228186 1.2026695 -0.9456233 -0.03841623 -0.29716426 0.9170348 -0.5878384 -0.06289365 0.038987488 -0.27951455 0.1835257 -0.8595186 0.5157568 -0.59803325 1.0181667 -0.6570879 -0.2051333 -0.12984161 0.53474736 -0.055300407 0.16375643 -0.22396506 -0.12436049 -0.53446454 -0.7954841 -0.035913806 0.43492246 -1.0749246 -0.19229434 -0.50244796 -0.157485 0.5164779 0.4957131 -0.25454873 0.11801812 -0.0317002 0.045230854
B-b -0.41962948 0.098705396 -0.5730036 0.30345413 -1.3613219 -0.2203971 -0.23827302 -0.19311997 0.72198635 -0.13767579 0.49598742 0.7485075 0.35352474 -0.45794657 -0.044188652 -0.42913434 -0.44270158 -0.102486975 -0.07017826 -0.100875005 1.0043505 -0.39855015 -0.34871614 -1.0654924 0.17509218 0.7258792 0.006673407 -0.06792794 0.15021273 -0.71468484 0.39290988 -0.30125767 0.10114327 0.0590716 0.3363545 0.1678332 -0.4640758 -0.8690655 0.42223656 0.31660435 0.24069975 -0.116142906 -0.3009005 -0.18704934 -0.23090543 0.26658118 -0.28167722 0.111332625 0.09394966 0.6989274 -0.29220703 0.27827457 0.07209875 -0.7975486 -0.38850406 0.11223551 -0.5158029 -0.60378516 -0.4883219 -0.13588378 0.19086167 0.77756006 1.052849 -0.84163946 0.928797 -0.931431 0.0039875377 -0.114660546 0.7660788 -0.45424184 -0.13322134 0.0045264903 -0.38419524 0.44535765 -0.8342717 0.21747093 -0.6508825 0.78094125 -0.60125476 -0.14527509 0.034407128 0.29508346 -0.10608283 0.14283557 -0.027486492 -0.12906212 -0.64859504 -0.86209786 -0.05424598 0.35004243 -0.85778284 -0.1528348 -0.5263054 -0.24710415 0.6399829 0.4543144 -0.077856064 0.10224598 -0.3410339 0.011501552
I-b -0.39272386 0.35801145 -0.47154891 0.23233384 -1.3184375 -0.16495219 -0.27862898 -0.1973692 0.60746694 0.04733724 0.5556623 0.74861526 0.3608975 -0.5159866 -0.11393197 -0.5428142 -0.57495886 -0.10463768 0.009510581 -0.07595972 0.9740913 -0.3299659 -0.42666897 -0.9900358 0.20944822 0.8116463 -0.13770469 0.088586785 0.1417264 -0.6770985 0.48333743 -0.21199815 0.19858637 -0.0701639 0.35774 0.22877668 -0.6616679 -1.0976394 0.49528313 0.11826582 0.27337757 -0.120738514 -0.40641952 -0.20337933 -0.43894687 0.19648069 -0.42844787 0.27259597 0.2039316 0.7072547 -0.15321185 0.3447344 0.16990776 -0.7881661 -0.3571631 -0.042956263 -0.5277782 -0.7092795 -0.4342553 -0.308164 0.36968368 0.73520863 1.1354346 -0.91459113 0.9730303 -0.96270925 -0.1265962 -0.12731273 0.97568005 -0.5582371 -0.29906848 -0.016887633 -0.42990687 0.4426726 -0.84571284 0.35657564 -0.66675466 0.8550953 -0.69809914 -0.096420765 -0.04442464 0.43757898 0.132306 0.1876285 -0.15861446 -0.11785578 -0.7876161 -0.8449068 0.07501106 0.46771616 -0.9376928 -0.16291806 -0.6024658 -0.26569203 0.8093762 0.5478025 0.036996033 0.19751388 -0.38366753 0.0127927605
B-c -0.33971858 0.030242437 -0.4565013 0.0747272 -1.2453996 -0.09473342 -0.4309014 -0.09768462 0.5918083 -0.25644037 0.5777948 0.52438015 0.49237204 -0.6160552 -0.17486267 -0.29261088 -0.46196938 -0.0049381624 -0.21777105 -0.30241466 1.0184625 -0.52792805 -0.27381033 -1.0824059 0.015541506 0.43979228 -0.1487194 -0.041058544 0.22750974 -0.5026965 0.2511339 -0.31415486 0.18475907 0.010458307 0.48055515 0.22853442 -0.37393326 -0.8519959 0.32090855 0.21403022 0.15692627 -0.2395322 -0.26139003 -0.3074315 -0.32022217 0.15174578 -0.32562461 0.24745418 0.17460725 0.57965034 -0.24159443 0.21493094 0.09404622 -0.74253345 -0.32548466 0.27813855 -0.50541323 -0.8734637 -0.509973 -0.22736703 0.33651647 0.7228401 0.9751616 -0.7116464 1.0422227 -0.8585014 0.017298201 -0.3289526 0.86133164 -0.5366116 -0.1496172 0.028438004 -0.25936374 0.17284678 -0.7989638 0.4038253 -0.56270003 0.9255345 -0.58979857 -0.16752565 -0.05664923 0.5065684 -0.01597458 0.17014843 -0.1922793 -0.0016120209 -0.4896953 -0.80619687 -0.020182606 0.4376688 -1.0019246 -0.18817016 -0.54153824 -0.20607908 0.50778794 0.61253303 -0.22093403 0.079446815 -0.08586579 0.07312107
E-b -0.6470932 0.11478312 -0.46790186 0.33856666 -1.3474813 0.10823929 -0.29411203 -0.2613842 0.5724078 -0.035295393 0.5027479 0.5893878 0.3092321 -0.44858396 -0.06031909 -0.46080884 -0.51154053 -0.1028419 -0.08767557 -0.14515717 1.0687786 -0.55238855 -0.5406139 -1.0519865 0.10783231 0.66002905 -0.030387286 0.079433836 0.19947007 -0.7210095 0.4451163 -0.21315978 0.097815394 -0.09003745 0.4140355 0.08395493 -0.50126153 -0.9977589 0.42748302 0.2603876 0.26969972 -0.036980987 -0.39618585 -0.22971475 -0.28952456 0.20536877 -0.2783984 0.17743635 0.13866706 0.71672094 -0.24106346 0.18358007 0.24416699 -0.6854896 -0.45479703 -0.03642312 -0.54372317 -0.87056583 -0.41872165 -0.14708795 0.48127568 0.7945699 1.0183274 -0.83008856 0.95453125 -0.97192645 -0.042163964 -0.26618788 1.0480925 -0.55123425 -0.20992684 0.11961159 -0.28802776 0.4276846 -0.76121694 0.3584332 -0.6840348 0.7753263 -0.56610185 -0.034853697 -0.09733307 0.3326294 -0.016026145 0.17024888 -0.07924318 -0.014757134 -0.68153477 -0.79947114 -0.017102638 0.53203344 -0.7473933 -0.22844021 -0.5077311 -0.36655712 0.571493 0.46850753 -0.127766 0.11853988 -0.3402357 0.1089411
B-s -0.42916498 0.11830808 -0.46824366 0.35704422 -1.2032851 -0.17853956 -0.0699824 -0.12852891 0.60281724 -0.076276675 0.32073337 0.49830765 0.24348404 -0.4108016 -0.009143496 -0.52068454 -0.5270605 -0.1427593 -0.06973049 -0.106290326 0.74501 -0.35422656 -0.27985123 -1.0055535 0.122635074 0.5868101 -0.048286203 0.14715673 0.19132489 -0.5020793 0.30042294 -0.29067552 -0.0013992768 0.16371515 0.3113365 0.07914178 -0.37896597 -1.0240731 0.4602002 0.12283019 0.062274378 -0.3195763 -0.35557532 0.09272645 -0.24842705 0.3560638 -0.34457687 0.0034486372 -0.014900404 0.63579994 -0.10863882 0.08176689 0.107051365 -0.59675825 -0.21561152 0.21082982 -0.67477566 -0.5835172 -0.49241483 -0.15060234 0.51315373 0.56905615 0.76774627 -0.7542341 0.96355695 -0.8597532 -0.010277909 -0.09654867 0.85318494 -0.54655963 -0.1797041 0.03910267 -0.34986216 0.4699526 -0.66661733 0.35142964 -0.5650955 0.7240579 -0.6916576 -0.006793157 -0.136431 0.32501647 0.04251944 0.09220309 -0.066153504 -0.1799681 -0.49787152 -0.8751286 -0.18352897 0.54584813 -0.7045105 -0.1943237 -0.6042072 -0.5048834 0.7530516 0.2876373 -0.1040997 0.1487742 -0.28411332 0.10035531
E-s -0.39083835 0.015683312 -0.5872256 0.35821345 -1.3301368 -0.08131741 -0.10141911 -0.15154049 0.54372674 0.020667627 0.3570829 0.7056345 0.5095078 -0.50499916 -0.00460727 -0.580415 -0.39559147 -0.07137906 0.033905026 -0.097579956 0.72268516 -0.40778223 -0.4204512 -0.9788112 0.19764176 0.6401967 0.010905555 0.10964002 0.24690828 -0.58982855 0.39702806 -0.16284338 0.0931132 0.04809312 0.5212278 0.21022327 -0.33202532 -0.9106578 0.45473468 -0.041004173 0.10516876 -0.16826218 -0.34733805 -0.14084095 -0.21217772 0.36907026 -0.21124339 0.11021394 -0.01922955 0.64842695 -0.16886704 0.12479216 0.17461494 -0.826117 -0.08406526 0.17421347 -0.4295191 -0.47002608 -0.54482156 -0.02657118 0.39277974 0.7728643 0.7054144 -0.6936435 0.8555171 -1.0135766 -0.0171489 -0.06203323 0.9304996 -0.61478156 -0.24610427 0.17804922 -0.3257631 0.57563686 -0.7802769 0.33950078 -0.50904304 0.68785214 -0.48714802 0.015025972 0.09963088 0.2744347 0.10235602 0.11751005 0.018523948 -0.07420886 -0.7360112 -0.83811045 -0.060829032 0.4526162 -0.7611797 -0.14757152 -0.43070528 -0.3681403 0.5760538 0.27377284 -0.16077453 0.030797878 -0.3246673 0.026250571
E-c -0.39406154 0.061891146 -0.3686289 0.17708331 -1.4077814 -0.047544975 -0.27865538 -0.15887764 0.6470205 -0.15228626 0.49485075 0.6588246 0.5128937 -0.4372105 0.04038627 -0.16743018 -0.49414918 -0.05921562 -0.2764327 -0.13926584 0.85486174 -0.32199118 -0.2889814 -0.99318814 -0.061987974 0.7472144 -0.17867097 -0.109359264 0.22925527 -0.51925635 0.19956456 -0.27871227 0.121355124 -0.12385236 0.57444984 0.16080883 -0.41010728 -0.7974965 0.12542388 0.2953538 0.34528485 0.010837496 -0.19433564 -0.2587253 -0.29720375 0.2304801 -0.13059628 0.22201882 0.15945525 0.6938281 -0.48371378 0.179764 -0.0015839727 -0.93178535 -0.26897055 0.09564011 -0.49835792 -0.92060983 -0.55664456 -0.28167784 0.19159219 0.77771854 1.0081004 -0.9545451 1.0984485 -0.90822196 -0.06873671 -0.13596168 0.7636233 -0.5030392 -0.0016213044 0.03657394 -0.32875043 0.1965496 -0.8576097 0.40647915 -0.590392 0.90215933 -0.63044584 -0.17817657 -0.0901688 0.37276825 -0.13964584 0.12504423 -0.21066023 -0.2414639 -0.5833502 -0.7044596 0.054173555 0.28194457 -0.9241471 -0.15065074 -0.38664538 -0.12170329 0.39825213 0.3590305 -0.19292714 0.21296445 -0.11350171 0.056226104
I-s -0.3725732 -0.04060196 -0.6449105 0.37382713 -1.298985 -0.0045822565 -0.12377535 -0.016435748 0.6184201 -0.10244046 0.4268486 0.5295339 0.4135291 -0.46924236 0.10488308 -0.40988466 -0.5866919 -0.13314864 -0.12898608 -0.14588524 0.90792054 -0.6025171 -0.4187285 -1.0387143 0.049036156 0.7122684 0.0028849044 -0.079107165 0.50633246 -0.70264304 0.34842035 -0.30481148 0.12792301 0.05668886 0.5794385 0.17498803 -0.4102669 -0.8432188 0.39308715 0.23406428 0.12423771 -0.122348435 -0.37752992 -0.13774703 -0.08522947 0.34639344 -0.3318685 0.0031020346 0.03322437 0.7921302 -0.17711061 0.049974427 0.054887522 -0.79298776 -0.22361545 0.29648784 -0.62777823 -0.71978664 -0.7738534 -0.01715711 0.3707851 0.7151868 0.7487717 -0.7604428 0.97217464 -0.8779591 0.022859707 -0.22507486 0.9315787 -0.60725415 -0.03024057 0.17820476 -0.36953646 0.45172805 -0.7348332 0.4643511 -0.61290056 0.784385 -0.53356755 -0.08391568 -0.09541155 0.24699552 -0.13813956 0.16860555 0.07054103 -0.2103269 -0.5645835 -0.8561881 -0.26730865 0.4382589 -0.9191975 -0.33549055 -0.5457214 -0.39205813 0.50626856 0.2833099 -0.27329051 0.12495673 -0.13557553 -0.014220876
I-t -0.62467647 -0.2586554 -0.7982139 0.23850022 -1.9165307 0.22777161 -0.66774243 -0.09693399 0.8864837 -0.04864654 0.33114213 0.4228454 0.29421365 -0.6957271 -0.34154773 -0.7470947 -0.5241527 0.1651905 -0.39302665 -0.5412781 1.2305995 -0.6303142 -0.24837942 -1.4104896 0.2837032 0.7154095 -0.18034212 -0.008070877 0.5613428 -0.5665766 0.05595009 -0.37302163 0.2582976 0.12704071 0.4477206 -0.032061785 -0.27249908 -1.21229 0.3714613 0.37797305 0.25823966 -0.31014153 -0.45385778 -0.10218159 -0.31491536 0.050867148 -0.30850887 0.39650592 0.23077962 1.000281 -0.71986306 0.04582542 0.36099848 -0.948488 -0.5504325 0.3399217 -0.69592553 -1.2934228 -0.9729959 -0.15403491 0.25748768 1.0256317 1.3254962 -1.3889421 1.5541575 -1.4732919 -0.06744155 -0.5194957 1.0626222 -0.4871124 -0.11317358 -0.29098934 -0.30263153 0.2847749 -1.1061575 0.09891924 -1.3153728 1.1363939 -0.8634773 -0.14818999 0.062449854 0.5443512 -0.37700522 0.12225166 -0.37075326 0.06147345 -0.8198979 -0.96367633 0.11225706 0.18726183 -1.0427523 0.1653809 -0.6881919 -0.21278098 0.4307554 0.7928608 -0.48750803 0.18588334 -0.30266234 0.46044225
I-d -0.29429236 0.07672807 -0.62130237 0.023285136 -1.5331717 -0.062076498 -0.1292192 0.048433363 0.65045637 0.01943918 0.27767196 0.3581978 0.46504942 -0.47302657 -0.39348143 -0.47621998 -0.5231245 -0.28352916 -0.121709146 -0.061991803 0.99488056 -0.5021151 -0.21594721 -1.3724108 0.028756019 0.8178851 0.057141613 0.23608863 0.3735309 -0.1727732 0.53305405 -0.5626465 0.302853 0.10438085 1.0527426 0.5313167 -0.5071552 -0.7512062 0.16903438 0.12917732 0.22441426 -0.35508046 -0.18027091 -0.12819347 -0.53423476 0.11974987 -0.27493683 0.020113172 0.032295223 0.56319207 -0.5164021 0.17346293 0.42633203 -1.0172898 -0.05786229 0.36053747 -0.9004696 -0.9839007 -0.931673 -0.28944877 0.38799903 0.8376453 0.884702 -1.207428 1.1769507 -1.2660285 0.2892366 -0.22537482 1.1224542 -0.7274827 -0.38256142 0.059048407 -0.62992644 0.007949556 -0.81936085 0.6124199 -0.6416789 0.98220897 -0.56120616 -0.23384394 0.0102570355 0.6231613 0.16085568 0.34758255 -0.39138925 -0.3001527 -0.61818224 -0.7158119 0.12853402 0.29450074 -0.98419255 0.1388939 -0.65239584 0.05641467 0.6822963 0.48105887 -0.08565711 0.35382912 -0.26516545 0.18995912
B-t -0.23737647 -0.11532831 -0.72579443 0.05541468 -1.5138032 0.051384006 -0.5837114 0.040770113 0.5890458 -0.332062 0.2993695 0.49155205 0.46241242 -0.51477915 -0.40147024 -0.42601684 -0.48957896 -0.15459996 -0.27416354 -0.23766658 0.9614798 -0.59023756 -0.3628088 -1.1262748 0.23815043 0.6295914 0.026594268 -0.12752296 0.31481728 -0.63653696 0.24084823 -0.31881583 0.1717505 0.14933802 0.36203226 -0.021242743 -0.17034166 -0.8452099 0.22791377 0.4093869 0.34090358 0.031860013 -0.5325976 -0.0776691 -0.27724037 0.11477435 -0.22561856 0.3978457 0.14984277 0.8990787 -0.59595925 0.07662984 0.26192498 -0.7568946 -0.45757225 0.27642766 -0.42471325 -0.8897349 -0.79907244 -0.008059169 0.02717772 0.8850958 1.1385229 -1.1136274 1.2327278 -1.23156 -0.0029954524 -0.3716261 1.0422504 -0.22723435 0.21807492 -0.045057956 -0.25034782 0.24056427 -0.9974262 0.26495394 -1.137493 0.9167752 -0.5576106 -0.1491315 -0.08768565 0.39480048 -0.5183898 0.18162939 -0.2074046 0.0712917 -0.5797252 -0.7896027 0.07369055 0.20119967 -1.0207268 -0.05971016 -0.6307705 0.0910866 0.30265602 0.7019688 -0.32084057 0.13053639 -0.27922204 0.24292995
E-t -0.5523112 -0.09728044 -0.5897642 0.13971743 -1.4717737 0.16477238 -0.55145097 -0.1249678 0.8902399 0.16320227 0.35455066 0.42163062 0.1968677 -0.5254812 -0.117225364 -0.4657878 -0.38496235 0.20296751 -0.28520253 -0.42220333 1.0696081 -0.47816488 -0.24732648 -1.018292 0.17077611 0.7983266 -0.07794341 -0.16041464 0.5883909 -0.60347044 0.14495848 -0.38286564 0.35219574 0.0056621903 0.41622996 0.115193866 -0.2267776 -0.7600498 0.26083505 0.45488277 0.21805099 -0.21033685 -0.34188905 -0.12188645 -0.104588754 0.034762893 -0.21396121 0.21649246 0.19148521 0.86986756 -0.6616299 0.08706819 0.36856836 -0.7900081 -0.52484465 0.077759326 -0.6452926 -1.0318168 -0.87758195 -0.101504974 -0.03113403 0.94366693 1.0713224 -1.2743025 1.1685938 -1.2283627 0.0463692 -0.35276127 0.85293186 -0.4123026 -0.0039528473 -0.28308412 -0.47871733 0.2344027 -1.0157043 0.048730023 -1.260149 0.96929026 -0.5794375 -0.26961574 -0.030445099 0.49208367 -0.40805694 0.3134462 -0.42422497 0.02884988 -0.75947183 -0.58601743 -0.036555786 0.123703085 -0.938293 0.053986672 -0.6023181 -0.22401927 0.17440361 0.6519238 -0.4611048 0.23284812 -0.053708605 0.362137
E-d -0.10509036 0.071287125 -0.39323413 0.018310584 -1.3466536 0.10202158 -0.27826652 -0.13744467 0.4326617 0.17526482 0.2370988 0.39688894 0.43215168 -0.53050154 -0.3127137 -0.36852348 -0.4228825 -0.43872657 -0.017189367 0.01506971 0.69267195 -0.22214325 -0.14696063 -1.1092986 0.015192471 0.7844195 -0.05828432 0.17936169 0.31900513 -0.20545417 0.46605238 -0.42707208 0.3471558 0.07302604 0.8246874 0.3708957 -0.25608364 -0.7988796 0.2626772 0.03473351 0.37190035 -0.1968679 -0.46763057 -0.084850885 -0.4539149 0.1430767 -0.31810308 -0.04655876 0.16641173 0.73026544 -0.46529236 0.004615519 0.55801904 -0.9062337 0.018790439 0.176806 -0.840743 -0.7416303 -0.98050636 -0.24048054 0.31141984 0.8630936 0.88127005 -1.0522203 1.1606892 -1.1826886 0.064372376 -0.19055283 0.92310476 -0.6338831 -0.11193893 0.04021056 -0.48732695 0.15562144 -0.78065383 0.5606436 -0.6160446 0.8328792 -0.5067725 -0.17588088 -0.23357493 0.42765957 0.071663804 0.2251132 -0.3417917 -0.18740432 -0.5926391 -0.5716808 -0.05784223 0.29549295 -0.85621816 0.18606427 -0.5436517 0.0443869 0.6219017 0.35192105 -0.1414108 0.14244545 -0.23634842 0.07754681
B-d -0.14962392 0.116134115 -0.71530217 0.039434038 -1.3695551 -0.25924462 -0.011415745 0.2471388 0.48082575 -0.20571952 0.2917431 0.38684747 0.46822113 -0.32310298 -0.39699256 -0.48666123 -0.56491965 -0.21766195 -0.08962415 0.00407899 0.68882656 -0.50094223 -0.24152681 -1.0928636 0.13391583 0.635162 0.0143804215 0.24459036 0.3616975 -0.21211813 0.3093286 -0.44340625 0.24548627 0.13454022 0.82678366 0.29437822 -0.5570218 -0.8390577 0.12985666 0.09099968 0.13614856 -0.2270482 -0.22856511 -0.14097564 -0.5535157 0.07894504 -0.132173 0.21217878 -0.081251495 0.5362594 -0.4418311 0.31655693 0.11637208 -0.8476497 -0.05992731 0.38980496 -0.44066107 -0.9691865 -0.6861265 -0.30923766 0.30459142 0.61341333 0.73886216 -1.090642 1.0080281 -1.0455765 0.15035181 -0.1966432 1.0768692 -0.533638 -0.3453555 0.08585673 -0.45901722 0.03374356 -0.77471155 0.52823424 -0.5936468 0.9112947 -0.58155227 -0.21749239 0.13478109 0.5726282 0.047313087 0.25547767 -0.23589234 -0.34404314 -0.60991365 -0.77039 0.33564332 0.22641362 -1.0124307 -0.0634118 -0.49505562 0.17588086 0.6228508 0.5111151 0.04071693 0.40243676 -0.29602098 0.12961805
