2850 100
，O 0.015623 0.024603 0.335416 0.037244 -0.279174 0.363287 -0.393276 -0.044926 -0.178961 -0.003171 0.115916 0.472172 -0.317516 -0.331877 0.035254 -0.113761 0.216775 0.035993 0.177360 -0.921311 0.122186 0.087248 -0.211112 -0.443509 0.082039 -0.562934 0.420373 -0.103237 -0.884043 0.002982 -0.080352 -0.130555 0.316048 -0.339974 -0.913743 0.302524 -0.051538 -0.408051 -0.381423 0.856896 0.426916 -0.581608 0.179327 -0.204738 -0.849197 0.487279 1.048396 0.412431 -0.385988 0.921601 -0.946871 -0.075577 -0.379606 -0.458935 -0.730511 -0.180981 0.125038 -0.219726 -0.482953 -0.143837 0.316424 0.075340 -0.139034 -0.599622 0.096698 0.077816 0.343132 0.226745 0.545108 -0.060867 0.348395 0.385795 0.128561 -0.304986 -0.373124 -0.418473 0.356377 -0.009552 0.721884 0.656963 -0.557035 0.396608 -0.282350 0.365093 -0.131518 0.622196 -0.695038 0.287805 0.457169 -0.265121 0.202270 -0.075648 -0.190891 -0.730659 0.665072 0.015037 -0.588687 -0.214098 -0.040044 0.257598
1O -0.207276 -0.471367 1.000398 -0.451114 -0.735117 -0.884772 -0.575296 1.297371 -0.465483 1.282824 -0.464503 0.325066 -0.626816 0.022169 0.401370 -0.745472 -0.495765 0.182679 1.184234 -0.942520 -0.888772 0.429684 0.645900 -0.019163 -1.003774 0.395872 0.605344 0.650025 -1.321990 0.354447 -1.312737 -0.612618 -1.348035 0.811913 -1.025149 -1.007414 -0.525893 0.882551 0.540085 0.329525 -1.107215 0.394729 -0.239442 -0.687255 -0.120751 1.238440 0.463558 0.442716 -0.582144 -0.308499 -1.504313 -1.436150 0.114441 0.351282 -0.162096 0.272861 -0.081533 0.343103 1.074220 0.205526 0.337031 0.639193 -0.504429 0.263487 0.091069 0.238112 -0.368457 -0.298180 0.485733 -0.298723 -0.869860 0.494597 1.061398 -0.501952 0.139903 -1.229276 0.222686 0.746843 1.723679 0.812160 1.892386 0.561833 -0.886560 -0.546268 -0.428144 -1.224971 -0.705352 0.834986 1.223554 0.557566 -0.567003 -0.529957 -1.236432 0.409541 -0.332593 -0.809419 0.452111 1.003768 -0.217978 0.474277
0O 0.479141 -0.505292 1.069425 -0.656576 -0.930015 -0.827528 -0.740953 1.250848 -0.297667 1.318951 -0.260798 0.526347 -0.605066 0.122276 0.347843 -0.386683 -0.222958 -0.259272 1.395147 -0.994597 -1.040211 0.263469 0.964028 -0.059162 -1.469338 0.639853 0.543857 0.662834 -1.203551 0.354541 -1.143410 -0.422026 -1.143803 1.016954 -0.866835 -0.859659 -0.692357 1.260676 0.733098 0.450763 -0.875230 0.558432 -0.109071 -0.872362 -0.125998 1.637901 0.553229 0.672712 -0.568243 -0.268352 -1.972467 -1.362836 0.096031 0.343840 0.121529 0.464837 -0.047507 0.575541 1.402530 0.440646 0.463912 0.485741 -0.182068 0.182041 -0.028802 -0.072199 -0.336857 -0.230224 0.395123 -0.272215 -1.195654 0.614493 1.270210 -0.494599 0.304596 -1.105508 0.005353 0.948457 1.805270 0.636531 2.062480 0.411761 -1.135494 -0.470526 -0.401752 -1.473595 -0.680141 1.042604 1.203779 0.763994 -0.638586 -0.405082 -1.291707 0.081959 -0.355975 -0.716892 0.526897 1.142054 -0.105181 0.430468
2O -0.057325 -0.417793 0.855923 -0.487556 -0.591517 -0.969439 -0.572831 1.027370 -0.535839 1.148445 -0.429329 0.524132 -0.748434 -0.094290 0.451527 -0.861826 -0.544709 0.124144 1.240557 -0.977120 -0.904784 0.468111 0.573537 0.061451 -0.807811 0.316901 0.438081 0.699818 -1.115440 0.314503 -1.183458 -0.495320 -1.305759 0.986530 -1.129166 -0.939451 -0.591416 0.941474 0.585467 0.504446 -0.862719 0.333557 -0.305221 -0.915392 0.067785 1.236957 0.288689 0.538520 -0.727776 -0.266678 -1.533285 -1.303437 -0.024053 0.418344 0.129182 0.254145 0.031671 0.226226 0.966406 0.037637 0.243366 0.524729 -0.595650 0.142975 0.088981 0.089884 -0.373378 -0.329724 0.586904 -0.196229 -0.913202 0.621522 1.029044 -0.297748 0.065170 -1.083727 0.220279 0.685885 1.628144 0.582135 1.835663 0.467579 -1.017639 -0.489720 -0.350351 -1.082692 -0.598985 0.830025 0.990425 0.607647 -0.788819 -0.593330 -1.140290 0.182025 -0.314827 -0.519175 0.515755 0.912899 -0.253750 0.474602
、O -0.651366 -0.808210 0.306591 0.707661 0.492096 -0.007477 -0.202502 0.065884 0.126071 -0.012317 -0.464600 -0.549436 -0.294314 -0.199145 -0.441751 0.240823 1.839142 0.694494 0.059108 -0.427063 -0.822257 0.700405 -0.411712 -0.067001 -0.199999 0.502406 0.300824 -1.260776 -0.271596 0.353983 -0.504776 0.449871 0.527023 0.713877 -0.617494 0.126110 -0.364505 -1.002812 0.694277 0.903742 0.708092 -0.818336 0.305873 0.207428 -0.124841 0.891691 0.480270 -0.726367 0.850901 0.175886 -1.569756 0.141933 -0.553415 0.126554 -0.483206 -1.148563 -0.571341 0.147241 0.344292 0.580357 -0.766641 -0.106562 0.326747 0.144793 -0.113638 0.716102 -0.726317 -0.784316 -0.418418 0.459046 -0.506207 1.037941 -0.871719 -0.372855 0.717189 -0.632701 -0.821722 -0.434842 -0.865957 -0.295253 -1.054477 1.044738 -0.279431 0.422796 0.591246 -0.383059 0.152479 -0.205541 0.534908 -0.817473 0.481139 0.613672 -1.292332 -0.654330 -0.136465 -0.276210 0.772617 0.499330 -0.078368 0.146758
。O -0.079078 0.012086 0.596989 -0.113240 -0.658461 0.072903 -0.667235 0.257046 -0.484021 0.524810 0.370999 0.655200 -0.402045 -0.406776 -0.133833 0.184446 -0.457425 -0.487205 0.130372 -0.403129 -0.706802 -0.049026 -0.606395 -0.628211 -0.295742 -0.080344 -0.406852 0.419107 -1.012731 0.224971 -0.500433 -0.609934 -0.564209 -0.249051 -0.869950 0.047883 -0.324092 0.373566 -0.216775 0.742106 -0.186069 0.440865 0.211569 -1.055518 -0.618643 1.391253 1.083963 -0.460898 -0.892980 0.526415 -0.407377 0.137769 -0.398115 -0.133751 -0.412705 0.280337 -0.527995 -0.885779 -0.919843 -0.474578 0.316192 -0.315712 -0.564634 -0.464211 -0.518399 0.225789 0.651755 0.272510 0.483849 -0.177432 -0.428331 0.246080 0.827641 -0.806268 -0.611707 -0.755160 1.113142 0.215218 1.331557 0.858070 -0.665228 0.271009 -0.168622 0.246084 0.467386 0.473344 -0.417762 0.625190 0.087865 0.329758 0.162886 -0.391098 -0.380147 -0.509015 0.890619 0.152521 -0.902936 -0.120754 0.218363 0.126605
无O -0.741502 -0.026485 -0.016046 0.267862 1.600640 -0.493594 0.911509 -0.804779 -0.032871 -0.662236 0.756595 -0.224146 -0.340401 -1.074851 -1.013429 0.043179 1.609453 0.124567 0.024307 -0.185255 -0.613966 0.310916 -1.061221 -0.771443 -0.023491 -1.571913 -0.332060 -0.926830 -0.916990 0.495606 0.492298 0.336097 -0.252318 -0.895412 -0.714646 -0.463650 -0.725094 0.555118 -0.828412 0.483546 0.762644 -1.169640 1.438361 -0.980099 0.372350 0.722499 -0.656963 0.091757 0.656036 0.744473 -1.184267 1.300629 -0.055001 0.503167 1.033783 -0.974825 0.445308 0.464631 0.445323 0.088531 -0.115033 0.394792 -0.254396 -0.467198 0.605705 0.642529 -0.964777 -2.093594 1.159823 0.252181 0.150592 0.208237 -0.662322 0.135933 -0.164051 0.297486 -1.344829 -0.122251 0.446430 0.838038 -0.628808 0.604326 -0.358521 0.259727 -0.031097 1.080119 0.918663 0.248559 0.240574 -0.633589 -0.805411 0.202199 -1.525152 -1.029522 0.549584 0.287965 0.173723 0.389977 0.035834 0.389745
-O 0.002565 -0.784176 1.228987 -0.176454 -0.341296 -1.012951 -0.310022 1.393721 -0.551880 1.487175 -0.417365 -0.029907 -0.783314 0.316796 0.457641 -0.555994 -0.378244 -0.518548 1.575480 -0.936213 -1.611444 0.517041 0.551486 0.112798 -1.679630 0.719394 0.156112 0.157614 -1.399323 0.898273 -1.100420 -0.836934 -1.610814 0.789739 -1.162902 -0.757105 -0.920550 1.005342 0.422152 0.308441 -1.355650 0.538448 -0.114145 -0.331818 -0.115288 1.923883 0.232242 0.278887 -0.491803 -0.607738 -1.914782 -1.297789 -0.194217 0.692035 -0.039996 0.066501 -0.693256 0.663944 1.617830 -0.284093 0.113385 1.081894 -0.654446 0.348299 0.143148 0.072283 -0.627997 -0.106142 0.199303 -0.647364 -0.776592 -0.185399 0.925646 -0.336751 0.069907 -0.983136 -0.078577 0.441352 1.767131 1.312178 1.869855 1.082706 -0.745573 -0.821421 -0.706441 -1.381488 -0.564854 0.489392 1.462605 0.575211 -0.624439 -0.631197 -1.310901 0.446363 -0.935405 -0.694275 0.270471 1.571333 -0.196182 0.437439
）O 0.651538 -0.872308 0.363979 -0.159338 -0.807783 -0.359525 0.205171 0.284790 -0.920379 0.789529 -0.821367 -0.888355 -0.774919 0.713651 -0.296441 -0.054765 -0.682918 0.117174 0.043994 0.625983 -1.266298 0.846053 0.421158 -0.720031 -1.036960 0.289477 -0.596342 0.154105 -0.228345 0.866010 -0.485485 -0.967424 -0.402935 0.785177 -0.499051 -0.842297 -0.078651 -0.575439 -0.339050 0.533882 -0.761609 0.519181 -0.804500 0.381760 -0.185631 0.516228 -0.553132 -0.328562 -0.709799 -1.160612 0.332157 -1.974757 0.219610 0.548504 -0.384889 0.180718 -0.199386 -0.206741 0.682188 0.570627 -0.672016 -0.252679 0.278039 0.383691 -0.772347 0.257072 0.158848 0.020445 0.029395 0.329607 -0.393521 0.143378 0.434951 -0.611498 -0.110653 -0.996355 0.008909 0.591899 0.376555 0.048935 0.499965 0.248644 -0.375764 -0.416936 -0.488183 -1.146783 -0.206206 0.297058 0.698580 0.914713 0.011405 0.233772 -0.152263 1.457494 -0.753450 -1.070430 0.474882 1.401359 0.516279 -0.411579
院O -1.381412 1.323091 0.069114 -0.299626 0.351040 -0.626884 -0.112880 1.613983 -0.342700 0.758271 1.443272 0.105484 0.788208 -1.217775 -0.432806 0.227448 -0.928772 -1.314534 -0.182233 -1.034439 -1.232468 -0.242789 0.059827 -0.464979 -0.670016 -0.394786 -0.859949 0.978968 -0.625181 -0.406126 0.232264 -0.282548 -0.416913 -1.474568 -0.684790 -0.509303 -1.400975 1.400697 0.553869 -0.725292 -1.439574 0.272492 0.335863 -2.374593 -0.447570 0.839005 1.918155 -0.044604 -1.257645 0.043373 -1.450535 0.072658 0.272013 -0.001281 0.609974 1.537331 -0.171162 0.942752 1.000208 -0.747805 2.256613 0.400128 -1.246601 0.387598 0.351801 -0.440076 1.188137 -0.406689 0.461515 -1.390185 -0.443832 -2.292247 1.215966 0.298410 0.107021 0.293705 1.043427 0.681532 2.205262 1.668299 0.441573 0.429734 1.088464 -0.651094 -0.708097 0.360530 -0.715825 0.370590 1.123483 1.048607 0.064225 -1.231594 -0.076259 -0.519035 0.556426 0.521231 -0.715232 -0.037559 -0.063317 0.131241
后O 0.138165 0.367721 -0.064801 -0.365859 -0.291257 -0.410160 -0.835350 0.560962 0.265881 0.526135 -0.098425 0.734435 -0.983688 0.410551 -0.139529 0.143421 -0.884642 -0.130464 0.784736 0.206057 -0.970699 0.373079 0.093275 -0.865973 -0.302293 -0.368738 -0.305366 0.760650 -0.904375 -0.052740 -0.953711 -1.034063 -0.447801 0.057988 -0.431735 -0.050970 -0.496819 0.964282 0.249719 0.676999 0.159867 0.914122 -0.229321 -0.749010 0.094325 0.922016 0.534203 -0.001842 -1.444208 0.406070 -0.769921 0.105428 0.031632 -0.045200 0.017346 1.300696 -0.931556 -0.525992 -0.259536 -1.304247 1.076336 -0.915374 -0.365783 0.247630 -0.809444 -0.896915 0.312596 0.872805 0.977395 -0.708149 -0.729599 -0.373896 1.113283 -0.397553 -1.361771 -0.267399 1.338029 -0.019952 1.643484 1.299437 -0.591202 -0.013175 -0.888726 0.677623 0.522158 0.408320 -1.080377 0.462035 -0.157453 0.481305 -1.232564 -0.207734 0.039369 0.101798 0.764340 1.323130 -0.627614 0.232735 -0.446514 -0.115097
癌O -0.378348 1.491049 0.011465 -0.491386 -0.024734 -1.138241 0.286097 0.466388 -1.994469 1.722393 -0.954379 0.114130 -0.555032 0.026363 -0.764547 -0.238995 -2.260180 -0.090315 -0.022659 0.107247 -1.184981 -0.148020 -1.428458 0.235764 -0.482598 0.352404 -1.414820 0.873446 -0.366187 0.659776 -0.291305 -0.902551 -0.261752 1.034108 -0.587729 -0.569337 -1.555647 -0.859206 0.174555 -0.551875 -0.254563 0.796946 -0.373213 -0.188064 -0.733922 0.226174 0.217188 -0.597135 -1.160267 -0.919036 0.432329 -1.902078 0.457956 1.163705 -0.638533 1.333642 -0.795492 -0.228048 -0.845203 -0.544351 0.080382 -0.562917 -0.686533 0.654976 -0.164042 0.816271 0.521633 0.711486 -0.221650 0.546261 -0.737093 -1.027450 0.903519 0.735066 -0.178978 -0.505734 1.497291 0.684569 0.749493 -0.201491 0.332370 0.201880 0.412673 -0.223805 0.067749 -0.319567 -0.743955 0.915586 1.396115 1.835022 0.599857 -0.734233 -0.766923 0.553380 -0.485163 -0.337113 0.267685 0.362936 1.519650 0.418943
（O 0.699397 -1.152766 0.380932 -0.463752 -1.018461 0.181385 -0.270731 0.547370 -0.881220 0.717424 -0.460481 -0.742351 -0.575944 0.977834 0.039394 0.454489 -0.791350 0.211981 0.211708 0.264305 -1.362391 1.029369 -0.005769 -0.763055 -0.864101 0.679195 -0.374225 -0.321602 -0.355726 1.067824 -0.555016 -0.879064 -0.473227 0.884267 -0.563416 -0.563991 -0.202270 -0.476955 -0.318481 0.741134 -0.253361 0.328838 -0.109643 0.732794 -0.452509 0.981765 0.084874 -0.170742 -0.739264 -1.013343 -0.296440 -2.050830 -0.026830 0.932601 -0.647657 0.126818 -0.065507 -0.580458 0.788182 0.530482 -0.574897 0.130896 0.135217 0.544124 -1.057039 0.665524 0.318064 0.291067 0.318789 0.512875 -0.981683 0.236005 0.574997 -0.559534 0.029101 -1.740820 0.687297 0.635738 0.751022 0.054980 0.489455 0.036223 -0.543343 -0.364822 -0.171011 -1.384253 -0.172672 0.709471 0.644721 0.566169 0.527694 0.445764 -0.487263 0.876197 -0.925048 -1.115624 0.310880 0.801165 0.870491 -0.141201
化O -0.737736 0.628748 -0.115559 -0.140412 -0.569903 -1.210905 0.065426 0.610433 -0.321669 0.354650 -0.018515 -0.170870 -1.166857 -0.085004 -0.078775 0.342343 -1.284660 -0.973262 0.581103 0.306292 -0.772401 -0.013340 0.164685 -0.944862 0.174333 0.460991 0.145759 0.112970 -1.627571 0.510938 0.199308 -1.678792 -1.919009 -1.223599 -1.505523 -0.241616 0.011554 -0.179991 0.036784 0.895562 -0.574314 0.307375 0.038287 0.865924 -0.870270 1.937051 0.439274 -0.748894 -0.504046 0.960540 -0.694132 0.376365 1.106768 0.208921 0.081964 0.062714 -0.791724 -0.818555 0.369306 0.215898 0.825012 -0.692183 -0.702243 0.051433 0.462792 -0.906255 0.215239 -0.287888 0.871471 -0.600250 0.004757 -0.613324 0.503591 -0.519604 -1.050583 -1.135738 1.701809 -1.154647 1.145345 1.848203 -0.601069 0.219866 0.119261 0.266736 -0.641080 0.131993 -0.986661 0.703786 0.600032 0.402376 -0.677477 -0.596475 -1.061397 0.541065 0.461903 -0.722857 1.279992 0.454801 -0.112840 0.211647
疗O -1.105655 -0.053870 -0.028317 1.072058 -0.176175 -1.121109 -0.095223 1.019144 -0.190048 -0.439080 0.298095 -0.027721 -0.899858 -0.209955 -0.667999 0.387949 -0.184477 -1.546653 -0.155169 -0.278168 -1.331403 0.330289 -0.392744 -1.216827 0.022933 -1.258254 -0.158418 0.087588 -1.136081 -0.119634 0.333833 -1.618219 -2.377949 -2.205213 -0.850278 -0.303715 -0.804306 0.698752 0.685577 0.813833 -1.060014 0.655798 -0.497030 -0.611418 -0.557248 1.877397 0.941094 -0.889860 -1.357705 0.663988 -1.407812 0.828387 0.205755 0.153892 0.762082 0.292153 -1.269868 -0.680515 1.164445 -0.675755 0.796803 -0.956633 -1.115177 -0.385435 0.666491 -0.740251 0.512705 -0.589253 1.234984 -1.687376 0.855626 -0.852701 0.597918 -0.489374 -0.459238 0.191638 1.235495 -0.689594 1.937144 1.940043 -0.739619 0.558879 0.149773 0.682290 -0.637596 1.045059 -0.730342 0.712665 1.145071 0.307519 -1.178188 -1.376562 -1.071143 0.164362 0.347408 0.164426 1.391854 0.954333 -0.238984 0.044409
术O -0.111702 -0.933547 -0.653137 -0.910771 -0.269228 -0.278648 -0.698884 0.364109 -0.052878 1.861760 0.039915 0.571017 -0.737722 1.253574 0.663163 -0.013283 -2.018796 0.270530 0.402660 -0.110947 -1.261681 0.998425 -0.452097 -0.508421 0.020354 -0.393555 -0.749661 0.839008 -0.539531 0.459259 -0.271468 -1.077508 -1.399657 -0.558586 -1.113840 -0.885601 -0.128888 1.383370 0.467780 0.886651 -0.843313 1.160105 -0.185188 -0.248229 0.047127 0.745729 0.121618 -0.517020 -1.860965 0.143385 0.708451 -0.013496 -0.119337 1.000035 0.188279 -0.071208 -0.564188 -0.787329 -1.027954 -0.705971 0.289843 -0.509081 -1.029525 0.014965 -0.697935 -0.264272 0.789264 0.653248 1.192057 -0.845310 -0.893078 -0.816327 1.132471 0.176752 -1.446136 -0.949864 1.213890 0.313637 1.172117 0.816340 -0.110425 -0.164263 -0.712905 0.025567 0.445258 -0.477002 -0.138332 0.452431 -0.048703 1.478054 -1.342196 0.165630 0.278722 0.155729 0.162331 0.947214 0.847541 1.480903 -0.826509 -0.742715
+O 2.207195 -1.777611 0.913288 -0.255508 -1.099693 -0.380904 0.751003 -0.060157 0.362305 0.444537 0.031237 -1.058432 -0.296698 1.948834 0.346196 1.239347 -0.189550 -0.257228 0.402578 1.441503 -1.855853 1.376243 0.730054 -1.429439 -1.633731 0.117243 0.246739 -0.625438 -0.224454 0.956274 -0.089083 0.260613 0.080626 0.555995 0.013750 -0.368477 0.082086 0.236296 0.764072 0.365220 -0.864795 0.908917 0.439277 1.592864 1.094027 0.328214 -1.033502 0.960936 0.000745 -1.994367 -0.576775 -0.865649 -0.193246 0.349763 -1.016137 -0.330724 0.340966 1.080481 1.885814 1.314951 -0.179457 0.015837 0.957028 0.454817 -2.106442 0.287856 0.175056 -0.040637 -0.094830 0.221818 -0.743167 0.169600 0.106443 -1.570425 0.584909 -0.577334 -1.558130 0.383229 0.736673 0.176352 0.213969 -0.356625 -0.491246 -0.404793 0.116420 -2.249875 0.518304 0.825064 0.063804 -0.296835 0.706625 1.515580 -0.379845 1.616031 -0.703464 -1.196488 0.714110 1.269486 -0.581739 -1.265898
患O -0.482523 0.348783 -0.118716 0.539195 0.124367 -0.318043 0.195480 0.713060 0.971641 0.251334 1.605382 1.030779 0.144496 -0.473565 -1.214958 -0.147673 -0.055044 -0.398407 0.178267 -1.390242 -2.252500 0.328442 1.066510 -0.951573 -1.336861 -0.934926 -0.264950 0.029639 -1.868863 -0.643742 0.477851 -0.158416 -1.405140 -0.426155 0.586620 -0.422044 -0.893802 1.519053 0.192617 0.492505 0.403750 1.257110 0.807162 -1.209675 0.097814 1.787872 1.578461 0.641344 -1.251766 -0.787811 -1.543912 -0.189029 -0.173431 0.335554 1.277144 0.193772 -0.477724 -0.391858 0.489420 -0.167138 1.074237 0.077132 -0.313730 -1.456321 0.221191 -0.086946 0.146606 -0.781070 1.782408 -0.691224 -0.766022 -0.891065 0.877606 -0.539954 -1.041520 -0.415653 -0.113854 1.056728 1.664790 1.428791 -0.226594 -0.226139 0.650849 0.045435 0.610112 1.012715 -0.867073 1.260396 -0.091015 0.382860 -0.139610 -0.291149 -1.627451 -1.063067 1.203907 0.260818 -1.366942 0.582720 0.654315 0.379667
5O 0.346946 -0.327076 1.091462 -0.331948 -0.705585 -0.995023 -0.442243 0.860955 -0.516796 1.138832 -0.483041 0.222314 -0.953030 -0.002832 0.259780 -0.422911 -0.187164 -0.164212 1.247428 -0.710171 -0.506882 0.164172 0.633728 -0.099624 -1.128480 0.105092 0.669097 0.573930 -1.104893 0.554206 -1.133795 -0.400941 -0.727202 0.962689 -0.889745 -0.788420 -0.530736 0.682533 0.335591 0.186559 -0.784733 0.154467 -0.067667 -0.470919 -0.137778 1.009705 -0.004244 0.786851 -0.328337 -0.458992 -1.424813 -1.372973 0.373387 0.401940 -0.186673 0.485134 -0.044301 0.608346 1.206226 0.431257 0.457176 0.700937 -0.310329 0.250870 0.170161 0.436733 -0.335696 -0.170922 -0.025304 -0.194824 -0.513686 0.980244 0.783694 -0.525109 0.106401 -0.812700 -0.270895 0.997307 1.731575 0.389592 2.153766 0.275256 -0.884473 -0.688425 -0.565425 -1.142052 -0.567646 0.957020 1.245423 0.291333 -0.347792 -0.499175 -1.175180 0.126041 -0.255799 -1.126051 0.636386 0.787470 -0.049493 0.581251
者O -0.037583 -0.293717 0.133359 -0.214249 0.130417 -0.004450 -0.481004 1.004445 0.933631 0.465115 1.149802 0.866200 -0.233314 -1.048414 -0.935549 -0.827459 -0.097230 -0.299419 0.378075 -1.581695 -1.615485 -0.358223 0.404534 -1.124304 -1.424131 -0.985176 -0.836529 0.739378 -1.281878 0.093407 0.169746 -1.311641 0.008597 -1.423580 0.613627 -0.949886 -0.836065 1.952211 0.233206 0.279841 -0.175800 -0.184403 0.759771 -2.420550 0.075054 1.925464 0.932709 -0.014404 -0.642739 0.177510 -1.512987 0.287845 -0.331994 -0.934167 0.577833 0.785190 -0.202152 -0.277850 0.326538 0.448135 1.215851 -0.551698 -0.474247 -0.876540 -0.239423 -0.031428 -0.548939 -0.879658 1.766197 -1.233829 -0.662540 -0.039040 1.118055 -0.742534 0.178627 -0.649590 0.216410 1.107084 1.942888 1.683346 -0.428682 0.822906 -0.184462 -0.574748 -0.306167 0.557216 0.120860 -0.323893 0.468175 0.513638 -0.711762 -0.337929 -0.924356 -0.708924 1.594766 0.671757 -0.613619 0.796227 0.681534 0.229175
4O -0.013866 -0.312109 0.837399 -0.310922 -0.906641 -0.671311 -0.600750 1.281911 -0.256946 1.020831 -0.284623 0.214168 -0.583175 0.022565 0.012218 -0.124241 -0.296096 -0.310067 0.812228 -0.777887 -0.949132 0.116350 0.659367 -0.352197 -1.240379 0.311592 0.539591 0.593132 -1.185946 0.194898 -1.063799 -0.824091 -1.172689 0.406645 -0.791678 -0.788940 -0.476474 0.783092 0.646703 0.266750 -1.051939 0.581599 -0.200007 -0.590525 -0.586530 1.452097 0.795237 0.136273 -0.722386 -0.361830 -1.339128 -1.199090 0.465436 0.176487 -0.106277 0.459846 -0.430732 0.176745 1.175059 0.537914 0.563196 0.311161 -0.322591 0.216542 0.120953 0.084433 -0.039759 -0.226066 0.369944 -0.410201 -0.606315 0.552314 1.244156 -0.792320 0.186201 -1.033857 0.469073 0.826364 1.795028 0.770020 1.519964 0.233378 -0.484887 -0.488807 -0.411741 -0.910246 -0.839299 0.805593 1.162185 0.605122 -0.289471 -0.503829 -1.187910 0.234304 -0.081047 -1.050519 0.389077 0.979575 0.088576 0.584402
.O 0.167005 0.082207 0.518988 -0.336732 -0.502420 -1.411791 -1.052238 1.265951 -0.783751 1.071711 -0.718861 0.253885 -0.927886 -0.073813 0.506283 -0.247560 0.368596 0.225711 1.193523 -0.760735 0.025853 0.144880 0.238102 0.634139 -0.626256 -0.133509 1.054879 0.858526 -0.804441 0.520453 -0.983209 0.329250 -0.637617 1.339994 -1.070567 -1.002729 -0.551027 0.757171 0.511026 0.399686 -0.389369 -0.198763 -0.057655 -0.464509 -0.192985 0.716061 0.433019 0.785724 -0.081594 0.244312 -1.866500 -1.340788 0.609632 0.689121 -0.060035 0.585738 -0.031158 1.120234 1.239109 0.629863 0.967419 0.584196 -0.277266 0.636163 0.699632 0.313572 -0.356197 -0.372998 -0.356322 0.078941 -0.953225 1.207316 0.884752 -0.094848 0.176499 -0.959833 -0.165312 1.165841 1.603208 -0.514883 2.563549 -0.091156 -1.858657 -0.145971 -0.637484 -1.179190 -0.548394 1.784199 1.996141 0.398975 -0.667763 -0.668116 -1.175928 -0.310690 -0.156523 -1.018593 1.790071 0.466169 0.237416 0.793136
3O 0.181528 -0.277806 0.876636 -0.424123 -0.714703 -0.760043 -0.279779 0.717237 -0.909802 0.861402 -0.520455 -0.093916 -0.732370 -0.091430 0.058792 -0.280851 -0.170175 -0.209361 0.731693 -0.514114 -0.467937 0.158664 0.324139 -0.256302 -0.893942 0.053141 0.430743 0.526481 -0.848637 0.590390 -0.952017 -0.538236 -0.748429 0.706580 -0.926899 -0.858504 -0.422540 0.306242 -0.034403 0.284856 -0.729660 0.115444 -0.205344 -0.524605 -0.551163 0.903477 0.109502 0.354179 -0.472586 -0.293811 -0.999348 -1.471434 0.448035 0.457808 -0.211732 0.314886 0.128798 0.314566 1.018414 0.583195 0.247608 0.539126 -0.215717 0.321492 0.179240 0.454961 -0.011939 -0.373254 0.081500 0.016379 -0.266493 0.884618 0.868192 -0.535686 0.126645 -0.822672 0.116403 0.952558 1.504783 0.321342 1.776497 0.230562 -0.791969 -0.483865 -0.572231 -0.947378 -0.503302 0.802808 1.164263 0.548812 -0.261316 -0.400832 -1.018634 0.354677 -0.376202 -1.339398 0.582231 0.778994 0.182653 0.462334
行O -1.143542 -0.099493 0.409298 0.777575 0.260581 -1.367301 0.223145 1.683178 0.175732 1.379381 1.102998 -0.376112 -0.118096 0.146815 1.069810 -0.264457 -0.502444 -0.613556 0.396645 -0.725236 0.013477 -0.204484 0.583496 0.053304 -0.878318 -0.157208 0.441016 0.437764 -0.798347 -0.218044 -0.156267 -0.654768 -0.944433 -1.199964 -0.619182 -0.549740 -0.229335 0.382041 0.672396 -0.761841 -1.850020 0.191376 -0.778906 -1.090752 -0.149764 0.351453 1.000158 0.129520 0.232569 0.032205 -0.639257 0.471845 0.104188 -0.450875 -0.612867 0.304460 -0.102274 1.100172 0.603044 -0.566559 1.602778 0.951094 -0.690244 0.257077 0.257156 -0.076690 1.169360 0.243372 -0.100669 -1.791678 0.448608 -1.360180 0.440435 -0.071218 0.140674 -0.049083 -0.040197 0.362921 1.295840 1.766544 0.630911 0.513771 0.429308 -0.154269 -1.045095 0.076808 -0.706519 -0.339779 0.472429 -0.360478 0.036225 -1.356283 0.129033 0.641456 0.571492 -0.030612 -0.445505 0.452026 -1.045352 -0.604052
见O -0.795797 0.586253 0.833663 -0.576383 0.360871 0.936831 -0.386495 -0.358489 -2.060702 1.639360 -1.004000 -0.025917 -0.584262 -0.215498 -1.671857 0.089534 -0.905605 1.106285 -0.231156 1.019184 -1.215388 -0.484237 -2.216728 -0.691308 0.845247 -0.698544 -0.797944 -0.104617 -1.446295 1.633074 -1.547024 -0.576782 -0.094974 0.463332 -1.267701 -0.455892 -0.904384 -0.076658 -2.182806 -0.141833 0.035298 0.366703 0.842898 0.375070 -0.386586 0.020159 -0.578404 -0.849063 -0.570579 -0.214647 1.714778 -1.289306 0.236140 1.473321 -0.640122 0.480926 -1.552497 -1.021088 -2.197501 -0.938446 -0.180202 -0.080156 -1.248369 0.850368 -1.131502 1.970301 -0.324311 0.416436 -0.261983 0.779128 -0.030051 0.024430 0.745812 0.482457 -2.074420 -0.076381 0.769866 0.069276 1.002801 -0.026763 -0.451174 0.790820 -0.203598 -0.034637 1.103647 -0.094877 0.148619 1.176862 1.279641 1.013335 0.496277 -0.017009 -1.075157 -0.203492 0.026939 -0.203327 -0.475150 0.385734 1.436594 0.104055
于O -0.479004 0.994413 1.178524 -0.629529 0.486608 -1.378677 -0.272905 1.526280 -1.143030 1.517793 0.245718 0.141724 0.379817 -0.688884 0.307166 -0.811235 -0.620440 -0.145715 0.586919 -0.900632 -0.780773 -0.023812 -0.560956 0.501089 -0.695089 -0.049680 -0.406488 0.971886 -0.930740 0.122296 -0.406950 0.398551 -1.277815 -0.007684 -0.943433 -0.750169 -0.775504 1.090151 0.129506 -0.699802 -0.904616 0.173919 0.177134 -1.580026 -0.063330 0.589059 1.099384 0.538418 -0.652124 0.108945 -1.157617 -0.550843 -0.121101 0.231046 -0.058430 0.571617 0.124818 0.648881 0.360748 -0.733523 0.913445 1.127899 -0.894238 -0.203418 0.269443 0.214872 0.149883 0.137995 0.640005 -0.274912 -0.643173 -0.750814 1.027245 -0.055085 0.111635 -0.374308 0.618623 0.538942 1.823898 0.560724 1.808555 0.579530 -0.299086 -0.585180 -0.449088 -0.861505 -0.328361 0.672075 0.857434 0.312001 -0.355281 -1.663372 -0.622784 -0.068247 0.106473 0.018822 -0.665066 0.113565 0.224285 0.671579
MO 1.826632 0.283041 1.151329 0.009272 -1.008746 -0.551288 0.040197 0.352054 -0.323083 0.337404 -0.628940 -0.335882 -0.373896 0.373730 -0.625769 0.706723 0.629774 -0.853967 0.572938 0.610443 -0.102640 -0.574313 0.524914 -0.563220 -1.613617 0.266190 1.339910 0.137519 -0.514281 0.408290 -0.595996 0.366247 0.165915 0.474411 -0.362420 0.183026 -0.218083 0.144981 0.645617 -0.284922 -0.575263 0.334500 0.313177 1.077083 -0.101289 0.632085 0.070620 1.150815 0.259304 -0.672314 -1.295524 -0.904795 1.179615 0.410337 -0.858760 0.357402 -0.096967 1.347724 1.668721 1.497195 0.610096 0.206398 0.499823 0.456389 -0.209780 0.134368 -0.052200 0.045724 -0.697381 0.368690 0.003720 1.010595 0.292183 -0.985671 0.645703 0.299074 -0.948120 0.846767 1.355366 -0.631692 1.445838 -0.451044 -0.449975 -0.224282 -0.499929 -1.657805 -0.464015 0.998650 1.581465 -0.331962 0.648459 -0.146552 -1.150660 -0.133385 -0.311660 -2.360049 1.608805 0.491015 0.252998 0.298811
病O 0.610309 -0.434512 -1.530702 -1.185367 0.293046 0.905121 -0.934145 0.307644 -0.116360 0.909230 0.222211 0.788196 -0.686093 1.123991 -0.637385 -0.095507 -0.661516 0.846207 -0.095689 -0.760392 -1.613451 1.292331 0.406241 -1.179850 -0.307727 -0.628493 -0.966753 0.182266 0.245409 -0.477600 0.135281 -1.072735 -0.092312 0.317249 -0.558931 -1.229905 -0.413119 0.352334 0.415984 0.925345 0.249706 -0.078080 -0.522047 -1.162523 -0.084693 0.702842 1.193114 -0.648560 -1.945086 0.978527 -0.491439 -0.911096 0.241563 -0.122227 0.715701 1.632536 -0.310436 -0.746941 -0.333583 -0.263019 0.663284 -0.858846 0.236459 -0.123421 -1.387082 -1.095382 0.950923 0.845349 2.077290 -0.524217 -1.939607 -0.918922 1.889869 0.419046 -1.182141 -1.528717 1.527891 0.651151 1.391243 0.091846 -0.895145 -0.205734 -0.869918 0.591010 0.081607 -0.121716 -0.850356 0.651967 -0.255875 1.476333 -1.293686 0.825700 -0.040689 -0.240604 0.542752 2.124492 -0.035246 1.281005 0.512324 -0.306698
6O 0.425039 -0.827565 0.890432 -0.308070 -0.913807 -1.067456 -0.543051 0.821238 -0.533485 1.014264 -0.408963 -0.048445 -1.059128 0.108933 0.424180 -0.248152 -0.379053 -0.286045 1.229105 -0.529971 -0.871313 0.657158 0.857263 -0.365618 -1.114945 0.311981 0.327610 0.554542 -0.989192 0.729977 -1.175579 -0.709025 -1.218263 1.023690 -1.056760 -1.030010 -0.384274 0.702354 0.255651 0.622559 -0.901135 0.351772 -0.222040 -0.486975 -0.112792 1.590026 0.079545 0.515184 -0.702565 -0.499352 -1.339409 -1.329138 -0.054791 0.699817 0.026974 0.022335 0.014395 0.280007 1.212837 0.296807 -0.015275 0.384014 -0.165414 0.040664 0.041371 0.231512 -0.173263 -0.296436 0.400118 0.007836 -0.810526 0.982890 0.812733 -0.658793 0.121458 -1.332963 -0.042222 0.786755 1.695168 0.608133 1.865539 0.287040 -1.155447 -0.532553 -0.490350 -1.203408 -0.501349 0.861181 0.922624 0.624404 -0.587997 -0.403692 -1.004943 0.334136 -0.411616 -1.091043 0.663217 0.943716 -0.181550 0.268314
诊O -1.188893 1.977290 -0.034448 0.058236 1.596244 -1.784933 0.249675 2.465867 -0.901217 1.523401 0.850923 -0.989676 0.982733 -0.632401 -0.489449 -0.688452 -0.881572 0.105771 -0.923519 -1.256370 -0.785038 0.093955 -0.675026 0.112351 -0.274271 -0.620438 -0.777013 0.357097 0.322910 -1.037206 0.785056 -0.606176 -0.848503 -1.387892 -0.359931 -0.980455 -1.375180 -1.219082 1.193970 -1.848206 -1.626031 -0.321141 -0.918149 -1.284970 -0.926146 -0.268909 2.397638 -0.552002 -0.068353 0.436821 -1.432785 -0.786459 0.807876 -0.120010 0.237788 1.350960 0.027907 1.144064 1.029447 -0.830303 1.803160 0.749928 -0.335348 0.509808 0.635537 -0.088506 1.231012 0.660554 1.004618 -0.919808 -0.399991 -3.666460 0.140223 1.434622 0.933007 -0.551206 1.238402 0.118789 0.602024 0.548382 0.319005 0.833831 1.314639 0.176187 -1.255948 -0.367077 -1.005677 -0.149749 1.765725 0.606419 0.617823 -2.211924 0.062992 -0.037954 -0.175629 0.804166 0.669648 -0.319007 1.282223 0.047093
“O 0.163741 0.401833 0.141007 -0.181172 0.848968 -1.590847 -0.255858 1.233473 0.071113 1.547689 0.336967 -0.374418 0.811416 -0.016597 1.412258 -0.109317 -0.612373 0.478432 0.204494 -0.928200 -0.294955 0.104067 0.131221 0.654017 -0.680539 0.422908 0.255216 0.658067 0.188461 -0.416230 -0.384776 0.146434 -0.217293 0.123886 -0.488848 -0.917375 -0.516936 -0.225041 1.520540 -1.093941 -0.783169 0.174434 -0.588928 -0.767481 -0.614405 -0.220658 1.581461 0.031145 0.208596 -0.149925 -1.084998 -0.547378 -0.052652 -0.117222 -1.191243 -0.005619 0.344640 1.153953 0.501058 -0.437229 1.089823 0.732574 0.095765 0.498327 0.221683 0.124725 1.157903 0.719661 -0.303213 0.007640 -0.769375 -1.091229 0.182268 0.223369 1.186262 -1.052807 0.377390 0.724786 0.348161 0.050419 0.723031 0.267678 0.183526 0.268357 -0.305845 -0.924270 -0.547407 -0.347063 0.608228 0.232665 0.534246 -0.952493 0.356108 -0.334266 -0.257865 0.124438 0.155306 -0.477392 -0.174728 0.157290
”O -0.053492 0.172633 0.127749 -0.424812 -0.058520 -1.130971 -0.164646 0.891796 -0.145599 0.970839 0.404666 -0.041968 0.354856 -0.113461 0.841779 0.251050 -0.861801 -0.235413 0.081352 -0.444287 -1.261115 0.395106 -0.531592 0.139955 -0.498600 0.244050 -0.369784 0.846689 -0.080150 -0.153432 -0.238740 -0.558537 -0.833329 -0.289873 -0.620305 -0.421687 -0.833696 0.640105 1.047279 -0.113734 -0.583643 0.721165 -0.114963 -0.765682 -0.551308 0.785566 1.475606 -0.465823 -0.668790 -0.091836 -0.622338 -0.040100 -0.053033 0.098123 -0.447979 0.139196 -0.150928 0.358304 0.418611 -0.536595 0.930011 0.195954 -0.623578 0.116921 -0.168018 -0.246471 0.984465 0.041553 0.771780 0.182720 -0.646989 -0.842121 0.903749 -0.217307 0.359345 -0.769111 1.223146 0.072191 1.002847 0.547779 0.359126 0.114010 -0.114504 0.185288 0.249505 -0.168831 -0.313438 0.225813 0.356688 0.912994 -0.148908 -0.719352 -0.172137 0.235834 -0.251803 0.520245 -0.039755 -0.077780 0.115091 0.339194
：O 1.460894 -0.559608 -0.674813 -0.464653 0.025613 0.160426 -0.333160 1.085865 -1.469808 1.062000 -0.750724 -1.208024 -0.872696 1.817124 0.206341 -0.042091 -0.239083 0.628497 -0.281341 0.397125 -0.590995 0.759297 0.236614 -0.171618 -0.644028 -0.098404 -0.506959 0.028363 0.707713 0.532763 0.016541 -0.505188 -0.138876 0.457064 -0.886391 -0.742707 0.206912 -0.564703 -0.223299 0.090503 -0.381971 -0.687135 -1.672149 0.793528 -0.482340 0.157634 0.423616 -0.244611 -1.211726 -0.038543 0.271572 -2.168248 0.671357 1.078336 -0.662505 0.741973 0.180483 0.490180 0.940307 0.726067 0.345482 0.215990 0.388276 0.632025 -1.090333 0.102221 1.305359 1.002876 0.703813 0.605645 -0.799160 -0.643562 0.607832 0.573193 -0.516897 -1.564934 0.366774 0.785293 0.284544 -0.919009 0.277141 -0.117098 -1.279650 0.363983 -1.012466 -1.804398 -0.584860 0.452744 1.118762 1.057423 -0.441262 -0.273570 0.774727 1.248644 -1.001999 0.139920 1.074609 1.141980 1.035954 -1.058339
明O -1.320389 0.532724 -0.015449 0.469368 1.379721 -0.712259 1.001977 -1.026028 -1.540710 -0.238594 0.689194 -0.078072 -0.778450 -1.133043 -0.470092 0.355049 0.804980 -0.546498 -0.234315 0.364961 -0.355123 -0.410873 -2.704782 -0.989179 0.638702 -2.068439 -1.117541 -0.025613 -1.388978 1.338031 0.393025 -0.269335 -0.538898 -1.136938 -1.324205 -0.802895 -0.952296 1.041223 -2.063381 0.497985 0.743764 -1.298959 1.407588 -0.723438 -0.090424 0.557395 -0.382811 -0.753684 -0.539317 0.559553 0.547938 1.386301 0.144428 1.340386 0.298668 0.069512 -0.175588 0.896152 -0.545369 -0.714810 0.297360 0.170482 -1.385460 -0.613245 0.248591 1.477969 0.476684 -1.501316 1.051004 0.159581 0.305410 0.241082 -0.203837 0.461201 -1.586050 -0.585454 -0.660393 -0.019572 1.161529 1.357270 -0.890836 0.475655 -0.842071 -0.030959 0.379935 1.827869 1.035502 1.378450 0.509899 -0.579318 -0.429898 -0.430342 -1.340522 -0.457063 1.049249 0.797188 -0.742397 -0.521978 0.654573 0.366218
未O -1.125363 0.212366 0.531689 -0.244339 0.805165 0.495276 0.147074 -0.758834 -1.378980 0.802560 -0.587141 0.217332 -0.663000 -0.710970 -0.895872 0.212485 -0.211858 -0.189708 -0.032796 0.415664 -0.584363 -0.280636 -2.392838 -0.696703 0.925252 -1.019988 -1.340331 -0.306413 -0.929284 1.310798 -0.955981 -0.534360 -0.585171 0.092082 -1.175366 0.019078 -1.050241 0.515124 -1.640388 -0.089900 0.185089 -0.169395 0.810187 -0.691947 -0.384795 0.422279 -0.540936 -1.610036 -0.308740 0.268872 0.779999 -0.090599 0.311794 1.072342 0.028112 0.761686 -1.318633 -1.073986 -1.344033 -1.316949 0.078039 0.282563 -1.168113 0.373714 -0.674124 1.856803 0.200412 0.040934 -0.501883 0.220810 -0.095308 0.022579 0.268556 0.555814 -1.774098 -0.153845 0.739207 0.145475 0.966037 0.720721 -0.688747 0.635815 -0.157229 0.195176 0.822754 0.346399 0.230663 0.784249 0.645440 0.329192 0.433981 0.056163 -0.967049 -0.576700 0.376366 0.636477 -0.198229 -0.619416 0.931936 0.093345
IO 2.849234 1.200839 1.916971 -1.008265 -1.052968 -1.115264 0.130780 -0.178582 -0.785697 0.733043 -0.720121 -0.566743 -0.527128 -0.209987 -1.655879 1.075873 -1.967627 -2.356786 1.109712 1.163162 -1.769304 -0.046189 0.450887 -1.453600 -2.118076 1.100595 -0.446482 0.654078 -0.254424 0.836359 -0.591979 -0.944525 -1.034756 0.135843 -0.953189 0.970883 -0.826666 0.093607 0.159124 0.067346 -0.472198 2.191459 0.244295 0.736242 -0.853055 2.433556 0.143575 1.457280 -1.370115 -0.605317 -1.574354 -0.329702 0.141381 1.351169 0.012315 -0.551666 -0.380153 -0.070194 1.012812 -0.023339 -0.290500 -1.244071 0.386463 -0.296291 -0.256544 -1.229106 -0.407370 0.934093 1.265694 0.796618 0.232542 -0.931419 -0.135453 -1.083266 0.781083 0.870628 0.627489 -0.022002 1.507646 0.674122 0.198696 0.111730 0.473062 0.113965 -0.324506 -1.649910 -1.000810 -0.474991 0.760266 1.334499 0.011821 -0.894115 -0.268688 -0.560830 -0.808584 -2.511119 1.110305 0.653873 0.012597 0.208636
显O -0.905502 0.396839 -0.496652 0.496164 1.647945 -0.951776 0.526917 -0.851932 -1.072500 -0.332691 0.598818 -0.691424 -1.426091 -1.184339 -0.556748 0.802305 0.379179 -0.477448 -0.368738 0.698116 -0.618770 -0.211102 -2.481679 -0.741269 0.776888 -2.124510 -1.162947 -0.183600 -1.151796 1.254529 -0.083204 -0.196319 -0.643117 -0.837131 -1.613107 -0.989189 -0.354301 0.770348 -2.072640 0.059632 0.100873 -1.339306 1.292917 -0.697326 -0.104095 1.049851 -0.343152 -0.958023 -0.261202 0.588184 0.787954 1.510425 0.201995 1.137143 0.156777 -0.320490 -0.045871 0.193496 -0.968586 -0.955945 0.623798 0.462429 -0.820084 -0.312957 0.342546 1.880386 0.317040 -1.782160 0.968927 0.792993 -0.251979 0.644642 0.163502 0.130822 -1.203769 -0.410492 -0.205725 -0.021375 1.471397 0.984000 -1.224671 -0.227138 -0.887738 0.193779 0.454436 1.721753 1.057650 1.232546 0.437009 -0.334929 -0.489981 -0.015701 -1.323109 -0.642051 1.130212 0.146948 -0.876330 -0.344616 0.688697 0.452903
为O -1.134425 0.786139 -0.139176 0.704148 0.371129 -0.626035 0.140561 0.890124 -0.363375 0.655141 0.178336 -0.497877 -1.067850 -0.424723 -0.661611 -0.748035 -0.962973 0.042039 0.141250 -0.531853 0.106645 -0.383012 0.161243 -0.499199 0.120844 -0.659638 -0.313383 -0.172299 -0.880266 0.325726 0.475797 -1.195495 -0.944824 -1.247192 -0.823517 -0.362973 0.307443 -0.856960 -0.913421 -0.122421 -0.334559 -0.265914 -0.687465 -0.172057 -0.537647 0.815506 0.817751 -0.332958 -0.511199 0.559842 0.091669 -0.238829 0.617285 0.136965 0.097718 0.472974 -0.556696 -0.943002 -0.173088 -0.267960 0.648694 0.032594 -0.776913 -0.314738 0.544983 0.646611 0.268665 0.511423 1.235973 -0.712540 0.749216 -1.006709 -0.418240 0.062847 -0.348172 -0.576522 0.754360 0.192688 0.624699 1.100591 -0.665393 0.658722 0.832314 -0.119929 -1.136439 0.391934 -0.956034 -0.302446 0.412519 -0.168848 0.077520 -1.603585 -0.103693 -0.130906 0.913284 -0.468394 0.096581 0.061907 0.692128 0.009763
可O -0.325541 0.800772 -0.430115 -0.478947 1.100817 0.671317 -0.062429 -0.647943 -1.011182 0.299529 -0.033800 0.549354 0.219396 -0.644155 -1.675665 -1.496173 -0.206824 1.125298 0.266035 -0.643294 -0.337713 -0.246236 -0.085274 -0.513584 0.883036 -1.323263 -0.313840 -0.262497 -0.544156 0.323549 0.054130 0.065254 0.521250 -0.049283 0.149271 0.113511 -0.745241 -0.433894 -1.169338 0.459780 1.018698 -0.156791 0.243276 -0.895028 0.000971 -0.750762 -0.638227 1.033201 -0.322682 0.390547 -0.240395 -0.888874 -0.016835 0.473929 0.251335 0.358766 0.515216 -0.591914 -1.115019 -0.798727 -0.001734 -0.404018 -0.415910 -0.331393 -0.033396 0.211248 -0.660782 -0.058936 0.922817 -0.095752 0.571895 -0.985093 -0.009786 1.301375 -0.731751 0.974935 0.153341 0.603664 0.015616 0.176868 -0.819630 0.806690 -0.113699 0.200647 0.112534 0.805430 -0.206572 -0.401688 0.858832 0.785138 -0.077986 0.178901 -0.168219 -1.101652 0.685689 0.456391 0.042915 0.137596 0.747603 -0.227373
我O -1.108167 1.220775 0.720660 -0.192723 1.043565 -1.680040 0.382306 2.341199 -0.747075 1.678493 1.135246 -0.234427 0.775124 -0.908727 0.174645 -0.924977 -0.335576 -0.673651 -0.066060 -1.569036 -0.856866 -0.193108 -0.414040 0.211577 -0.694362 -0.366411 -0.218788 0.497296 -0.438944 -0.781433 0.014983 -0.601900 -1.346748 -1.093690 -0.909592 -0.586199 -1.339082 0.296103 0.896364 -1.352832 -2.298686 0.058733 -0.584960 -2.436658 -0.539982 0.362084 1.834587 -0.430544 -0.064712 0.457933 -1.783136 -0.152204 0.343302 -0.774055 0.244153 1.213284 0.029240 1.235149 1.287296 -1.039747 2.022877 1.442734 -0.825493 0.566532 0.267603 -0.198612 1.117523 -0.243804 0.851767 -1.747668 -0.287918 -2.743448 1.189836 0.826254 0.463599 -0.065553 0.928196 0.120859 1.825185 1.328036 1.492542 0.876466 0.539704 -0.275927 -0.994281 -0.200687 -0.757502 -0.023611 1.224200 0.476306 -0.097300 -1.966800 -0.609453 0.439522 0.036534 0.793507 -0.385817 0.067902 0.167443 -0.131094
CO 2.212360 0.209511 0.802770 0.012943 -0.418430 -0.532684 -0.220697 0.508384 -0.758981 0.597690 -0.622547 -0.529698 -1.193830 0.406144 -0.223024 0.623901 0.018253 -0.863266 0.619718 0.462600 -0.498414 -0.461152 0.213019 -0.118514 -0.892186 0.313214 0.099640 0.420921 -0.262792 0.917258 -0.879870 -0.644271 -0.355855 0.666359 -0.492866 0.441618 -0.325625 -0.380684 -0.405137 -0.572109 -0.431408 -0.414509 -1.094248 1.384544 -0.680371 0.898933 -0.276188 0.487078 -0.522952 -0.972279 -0.097846 -1.267859 1.106878 0.961708 -1.298468 0.376949 -0.066485 1.181357 1.190769 0.668138 0.703176 0.658372 -0.111211 0.273645 -0.867166 0.533361 0.904884 0.205145 -0.401795 0.580926 -0.253086 0.261218 0.024662 0.062634 -0.159382 -0.528892 -0.244426 0.996828 1.128454 -0.306107 1.086293 -0.122167 -0.286514 -0.385034 -0.568550 -1.067719 -0.155943 0.244946 1.597061 0.303941 0.537821 -0.318183 -0.640702 0.138931 -0.727559 -1.276187 1.205482 0.456933 1.009660 -0.435266
及O -0.063687 0.572186 0.050589 -0.008979 0.655647 0.293768 -0.165130 -0.723661 -0.498166 0.602476 -0.377819 -0.363653 -0.466393 -0.425093 -1.310008 0.126324 -0.006100 0.158362 -0.216055 0.693491 0.138386 -0.445871 -1.044204 -0.194725 0.138821 -0.069070 -0.221764 -0.243547 0.268031 0.459575 -0.860312 -0.294027 1.197710 0.831004 0.020559 0.164315 -0.592987 -1.110970 -0.464613 -0.161927 0.624966 -0.036362 0.268915 -0.303596 -0.375511 -0.301941 -0.423766 -0.609356 0.387030 -0.040327 0.404362 0.055113 0.038868 0.460780 -0.706890 0.350655 -0.496944 -0.088477 -1.317200 -0.337523 0.001551 -0.375976 -0.015963 0.854193 -0.554804 0.904660 0.250186 0.275929 -1.318443 0.386593 0.046188 0.072202 -0.536679 0.370041 -0.483334 0.621286 -0.191637 0.566188 -0.204396 -0.562165 -0.770647 0.215267 0.384297 0.632939 0.831418 0.338373 -0.207437 -0.331425 0.073182 -0.037546 0.797116 0.474013 -0.113120 -0.972171 0.335839 -0.435268 0.385337 -0.420389 0.310409 -0.299221
入O -0.912516 0.390130 0.507018 -0.538709 0.427404 -1.243680 0.087698 1.521571 -0.258872 1.222348 1.353387 0.319957 0.753712 -0.605413 -0.105431 -0.189786 -0.628584 -0.831737 -0.244731 -1.084727 -2.227274 0.279454 -0.852037 -0.533282 -1.162006 -0.342125 -0.689392 0.753863 -0.872738 -0.693650 0.078932 -0.840862 -1.274247 -1.195892 -0.562480 -0.573735 -1.408611 1.259750 0.996123 -0.258307 -1.331858 1.172079 0.442798 -2.696764 -0.631317 1.168210 1.918693 -0.983157 -0.924257 0.002332 -1.287174 0.433956 -0.059431 -0.699966 0.064480 0.810410 -0.393683 0.188872 0.544818 -0.702902 1.600784 0.309186 -1.028434 0.081429 -0.426632 -0.415101 1.181428 -0.772419 1.077649 -1.229862 -0.453857 -1.800580 2.006329 -0.489412 0.334436 -0.293263 1.603177 0.334424 2.002605 1.414887 0.356162 0.296724 0.422582 -0.182442 0.374811 0.394103 -0.422452 0.299954 0.174895 1.035635 -0.453989 -0.668119 -1.123396 0.298541 0.382171 0.753711 -0.880638 0.463198 0.084493 0.209123
巴I -2.075368 -0.592631 0.854231 -0.793570 -0.760878 0.795894 -0.435640 1.258736 -2.322755 2.160385 -1.139355 -0.593624 -0.397902 0.378475 -2.259075 0.207046 -0.342410 1.976232 -0.682563 0.927193 -0.729713 0.408284 -1.664912 -1.101629 -0.670057 -0.129520 -0.399401 0.236934 -1.688452 1.325458 -2.005130 0.370772 0.064319 1.840572 -0.275210 -1.650317 -0.109471 -0.704781 -1.503911 -0.113989 -1.122146 0.712192 1.410339 -0.624757 0.460558 -0.468352 -0.510165 -0.554957 -0.027903 -1.007775 1.202699 -2.538793 0.008239 0.965274 -0.375982 1.430743 -0.574050 -0.095622 -1.717407 0.921701 -0.680161 0.179741 -0.101779 1.604370 -1.969975 3.016068 -1.494898 0.041887 0.247264 0.000191 -1.805927 0.710998 1.173723 -1.200523 -0.327581 -0.522698 -0.502327 1.591816 1.559031 0.418822 0.404352 0.317839 -0.494016 -0.506522 1.218325 -1.512772 -0.340016 1.992697 0.685384 0.160390 1.180215 0.492340 -1.520382 0.550149 0.703623 -1.634541 -1.170366 1.207903 1.384199 0.184601
结E -1.820981 -0.089720 1.303684 -1.027553 -0.418502 1.067044 -0.576290 0.929894 -2.289244 2.062572 -1.292149 -0.197901 -0.202091 0.200621 -2.410446 -0.422900 -0.178295 1.829315 -0.346968 0.873124 -1.136758 0.313916 -1.414925 -0.720600 -0.644032 -0.241689 -0.348263 0.427413 -1.838903 1.353173 -1.834580 0.258669 0.037535 1.916760 -0.385253 -1.665212 -0.246814 -0.162005 -1.282048 0.074127 -0.950372 0.642521 1.061778 -0.726621 0.268610 -0.191747 -0.230500 -0.288749 -0.172127 -1.229273 0.824472 -2.700294 0.072324 1.159839 -0.077675 1.161105 -0.717461 -0.533895 -1.309859 0.667787 -0.814766 0.098451 -0.121771 1.369469 -1.477666 2.760506 -1.526108 0.417566 -0.083760 0.439638 -1.528775 1.018767 1.349482 -1.280899 -0.386112 -0.818348 -0.424193 1.505173 1.447014 -0.058964 0.420711 0.740519 -0.249103 -1.081154 1.020578 -1.918984 -0.307747 1.523742 1.347754 0.117960 0.915477 0.619731 -1.623738 0.395499 0.396878 -2.007284 -1.038766 1.335488 1.437622 -0.002963
治O -1.204065 1.075323 0.303529 0.154389 -0.146309 -1.124727 -0.071764 1.167235 0.579903 0.283609 0.584289 0.479929 -0.320574 -1.004868 -0.805757 -0.518123 -0.963295 -0.798536 0.477400 -0.269969 -1.503818 -0.024635 0.416187 -0.685355 0.394104 0.515861 -0.361952 -0.212233 -1.315249 -0.215455 0.484241 -0.954027 -1.757930 -1.166157 -1.017214 0.403636 -0.577423 0.744222 0.867215 0.477410 -0.952697 0.701259 0.070359 -0.737736 0.375234 1.701552 0.785086 -0.927258 -0.520737 0.937927 -1.785728 0.969114 0.168111 -0.700488 0.868833 0.863327 -1.423395 -1.151411 0.550628 -0.802862 1.391543 -0.900646 -0.963567 -0.119252 -0.105038 -1.197528 0.272631 -0.265125 0.521954 -1.453979 -0.575241 -1.999127 0.216761 0.246388 -1.073071 -0.417233 1.727536 -1.444628 0.989363 1.472881 -1.022712 0.575020 0.456847 0.258859 -0.297114 0.011912 -1.005770 0.336251 0.195202 0.128312 -0.615444 -1.136724 -1.078665 0.134550 0.876105 0.974888 1.361071 -0.124964 -0.375241 -0.664145
腹S -1.178476 0.969339 -0.562839 0.625134 2.631781 -1.229590 0.237716 -0.176739 0.517992 0.743688 0.607190 0.481300 -0.536541 -0.873605 -1.546165 -1.063564 0.354454 1.364514 0.375732 -1.261678 -1.459312 0.166857 -1.146814 0.523385 -0.738096 -0.515963 -0.530050 -0.646770 -1.403785 0.019964 -0.386086 -0.518687 -0.625407 -0.082499 -0.654345 -0.349687 -1.310469 0.135658 0.015346 -0.354825 0.924981 -1.287426 1.464908 -0.866898 0.078124 1.251435 -0.118003 0.030901 0.505948 -0.213182 -0.934646 1.664878 0.003563 1.060348 0.573620 -1.326187 -0.497064 1.580547 -0.373012 -0.405814 -0.411970 0.592296 -0.463869 -0.687546 0.707270 0.719147 -1.703316 -1.951276 2.285888 0.464220 -1.221501 -0.758368 -0.807059 0.486734 0.326307 -0.202410 -1.947208 0.339689 -0.052117 0.866594 -0.772171 1.391479 0.592455 -0.274104 0.848631 1.197835 0.571171 -0.870578 0.667533 -0.446182 -0.868706 0.026232 -2.555665 -2.099784 0.692995 0.350887 0.023480 1.033551 0.518940 1.122998
前O -0.918966 0.661759 0.713024 0.111145 0.689331 -0.970538 0.639513 1.101612 -0.863196 0.348748 1.183928 0.005810 0.255009 -1.734324 -0.475745 -0.494735 0.600362 -0.528909 -0.267314 -1.379306 -1.126277 -0.028790 -0.753769 -0.510040 -0.761984 -1.688514 -0.817543 0.812399 -1.408777 0.185216 0.419188 -0.061667 -0.514510 -0.661813 -0.106781 -1.350857 -0.887600 1.171075 -0.842016 -0.445706 -0.500571 -0.784918 0.876497 -2.295012 -0.134240 0.909654 1.380954 -0.056352 -0.345071 -0.035525 -1.493405 -0.516180 -0.189397 -0.436617 0.369239 1.001088 0.681306 0.808144 0.783109 -0.075515 1.657113 1.081656 -0.767658 -0.889216 -0.013455 1.296144 0.462019 -1.141494 1.308789 -0.371898 -0.563627 -0.263393 0.854794 -0.618056 -0.286683 -1.050911 -0.112672 1.145839 2.543470 1.398881 0.725421 0.480159 -0.161139 -0.626370 -0.265090 0.428332 0.065055 1.235612 0.768684 -0.147268 0.140112 -0.975771 -1.484894 -0.119641 1.029867 0.386563 -1.511860 -0.552230 1.268692 0.549784
查O 0.249685 0.447216 -0.034746 0.457788 0.916463 0.506441 -0.414742 1.488729 -0.919116 1.807746 -0.088047 -0.328384 -0.849461 -0.138551 -0.739537 -0.654457 -0.406931 -0.186592 -0.078229 -0.696218 -0.953611 -0.270443 -0.600653 -0.178231 -0.318706 -0.736924 -1.444358 0.547691 -0.631679 0.504887 -0.646217 -1.074625 -1.150831 -0.451696 -0.952801 0.003532 -0.363005 0.478337 -1.431309 -1.078187 -1.338451 -0.728859 -1.520057 -0.137938 -0.539645 1.345323 1.246667 -1.216693 -1.715534 0.045405 0.598939 -0.606691 0.854210 0.704160 -0.587067 1.008534 -1.125570 0.549107 -0.375671 -1.180165 1.136857 0.603201 -1.117845 -0.661841 -1.351225 0.997632 1.539292 0.765468 1.387553 -0.521779 -0.728955 -1.294167 0.442459 0.941626 -1.727882 -0.898732 0.815620 0.804013 1.211877 0.482627 -0.522343 0.807758 -0.158433 -0.350817 -0.014263 -0.715403 -0.421660 -0.377972 1.411272 0.329210 -0.256061 -1.058429 -0.317395 -0.234831 0.504600 0.931578 -0.063006 0.596696 1.240798 -1.212852
GO 1.938296 -0.432197 1.890636 0.046299 -1.645262 -1.297974 0.376370 0.907372 0.639145 0.030632 -0.275918 -0.359709 -0.109872 0.928452 -0.131520 1.473156 0.813300 -1.060609 0.952071 1.158759 -1.245795 0.094940 1.270670 -1.372550 -1.975122 0.319119 2.112782 -0.159943 -1.081147 0.072346 -0.286925 0.700944 -0.771774 -0.141511 -0.576398 -0.017690 -0.022288 1.015692 2.096879 0.310102 -1.209020 1.234483 0.576669 1.503870 0.636517 1.191603 0.102945 1.796872 0.172852 -0.961633 -2.652705 -0.271447 0.776822 0.104465 -0.821813 -0.379751 0.041817 1.592805 3.126703 2.225899 0.608614 -0.318788 0.710219 0.291455 -0.613306 -0.574166 -0.378225 -0.319095 -0.199195 -0.074502 -0.097153 0.991652 0.376012 -2.115709 1.791268 0.281823 -1.479184 -0.038481 1.655605 0.351291 0.978216 -0.517154 -0.485409 -0.229401 -0.647269 -2.668150 -0.541166 1.286897 1.278409 -0.634383 0.507072 -0.058656 -1.730084 0.676844 -0.387824 -2.651248 2.115162 1.294541 -1.014535 -0.260612
/O -0.507228 -0.118379 1.489700 -0.677302 -1.210663 0.509140 -0.354093 0.882340 -1.322765 1.330135 -1.387524 -0.055698 -0.468060 0.169107 -1.764467 -0.139984 -0.050321 0.283976 0.317180 0.025859 -0.946040 0.239707 -0.000035 -0.403035 -1.292079 0.609423 0.114481 0.148902 -1.398654 0.874839 -1.421685 -0.253720 -0.383311 1.534872 0.201344 -0.563531 -0.439298 -0.508213 -0.157344 0.263341 -0.692544 0.780192 0.493428 -0.036652 -0.354582 0.768903 -0.499006 0.010590 0.024608 -1.136723 -0.750114 -2.487231 0.406258 0.550428 0.089440 0.697243 -0.706702 -0.332180 0.298224 1.093246 -0.794397 -0.017038 0.336256 0.836055 -0.600056 1.165341 -1.622379 0.059005 -0.471765 -0.026585 -0.787921 0.962977 0.949827 -1.427443 0.163995 -0.393963 -0.286213 0.976627 1.095160 0.196398 1.240596 0.724032 0.085035 -0.852855 0.301995 -1.901791 -0.657064 0.942752 1.426652 0.429157 0.599024 0.507332 -1.779941 0.321053 -0.449660 -2.248947 0.456681 1.447689 0.893791 0.405020
7O 0.240784 -0.931317 1.007117 -0.384851 -0.824380 -0.787064 -0.487170 1.008607 -0.856533 1.351290 -0.542314 -0.424362 -1.045081 0.169356 0.114251 -0.223834 -0.302914 -0.200728 1.014279 -0.542249 -0.893894 0.791890 0.696927 -0.308946 -1.470007 0.449821 0.036983 0.499999 -0.901805 0.918621 -1.316556 -0.826759 -0.777565 1.367414 -0.862448 -1.165272 -0.461345 0.331700 -0.043352 0.375693 -0.872008 0.173875 -0.196443 -0.641536 -0.394310 1.451715 0.042461 0.271537 -0.566957 -0.772158 -1.224334 -1.907046 -0.076375 0.735927 -0.108506 0.243537 0.033134 0.358582 1.151181 0.488871 -0.096871 0.679316 -0.058281 0.355441 -0.219131 0.676170 -0.153220 -0.156026 0.048746 0.070448 -0.827066 0.990578 0.761305 -0.769092 0.131733 -1.404377 -0.203377 1.175222 1.651640 0.541861 2.114370 0.511211 -0.927569 -0.698003 -0.520581 -1.512813 -0.565487 0.752566 0.935257 0.583506 -0.266117 -0.231513 -1.001802 0.504922 -0.614611 -1.314512 0.368505 1.050292 0.101196 0.250698
便E -1.097494 -0.425449 0.456193 -0.304075 1.709746 0.534109 1.487810 -1.624306 -0.818074 -0.320843 0.310668 -0.254020 -0.140321 -1.123800 -2.193930 -0.933009 1.528995 0.815504 -0.291501 -0.995442 -0.604720 0.772052 -0.582760 -1.450960 -0.177076 -2.701330 -0.336703 -1.614979 -0.395470 0.786138 1.257276 0.969142 1.892527 -0.343559 -0.460060 -0.898377 -1.004234 -0.002057 -2.229711 0.752043 1.374101 -1.047449 2.114397 -2.023336 0.045702 -1.143502 -1.313127 0.797122 0.818166 1.028635 -1.973039 -0.683904 -0.693589 0.082842 1.390129 0.146940 1.023797 -0.198512 0.318450 0.483786 -0.105688 0.419104 -0.125528 -0.187925 0.144551 1.005494 -1.317772 -1.179489 0.487600 -0.396314 1.590344 -0.303065 -0.845601 0.431917 -0.116528 1.236839 -1.783917 0.728896 -0.064564 0.424109 -0.325718 1.320292 -0.500247 -0.073167 -0.823671 0.370009 -0.024864 0.151950 0.112834 0.175704 -0.495641 1.100078 -1.162583 -0.696182 0.250041 0.283565 0.292626 0.647735 0.035668 0.076543
出O -0.275770 0.540087 0.663831 -0.045748 0.755859 -0.915190 0.092844 -0.072600 0.513867 1.485507 1.199831 1.016211 -0.752962 -1.180002 -1.211690 -0.386829 -0.234946 -1.101675 0.335306 -0.791850 -0.910356 -0.365852 -0.936430 -0.694033 -1.825528 -1.092644 -0.819480 0.781925 -1.000974 0.098413 -0.232908 -1.036397 -0.178238 -0.461396 0.346204 -0.055089 -0.806829 0.381648 -0.316336 -0.226589 -0.175260 0.910614 1.142719 -2.336022 -0.337334 1.760704 0.405081 -0.251520 -0.434566 -0.035720 -0.443242 1.907266 -0.193710 -0.111924 0.761453 -0.183235 -0.348710 0.104509 -1.261313 -0.872068 0.428581 -0.068786 -0.295329 -0.998359 0.218333 0.412991 -0.346486 -0.467608 1.130400 -1.490902 -0.209851 -0.346568 0.667304 -0.595416 -0.427031 0.384514 -0.334211 1.183734 1.338229 1.378708 -0.225056 0.337586 0.618538 -0.511123 1.249305 1.576537 0.078060 -0.568896 -0.550781 0.188655 -0.826286 0.137246 -1.542593 -2.118542 1.381591 -0.322958 -1.368294 0.744314 -0.150912 0.351031
DO 1.233274 -0.552097 1.378561 -0.072631 -1.534555 -1.469761 0.495156 0.932489 0.248603 0.363748 -0.368885 -0.560567 -0.091316 0.886903 0.190555 0.945511 -0.509156 -1.373518 0.988300 0.758828 -1.674618 0.726982 1.137720 -1.219352 -1.974299 0.783680 1.136602 0.123009 -1.219318 0.347286 -0.123471 -0.162985 -1.632943 -0.330505 -0.723178 -0.038759 -0.148348 1.037724 1.725594 0.461849 -1.487652 1.585526 0.501600 1.227831 0.362190 1.748433 0.319214 0.975628 -0.155047 -0.701448 -2.427085 -0.289872 0.355119 -0.044289 -0.565169 -0.570830 -0.268507 1.006898 2.484097 1.423337 0.344159 -0.604749 0.292487 0.064018 -0.654765 -0.965183 -0.299252 -0.389358 0.430963 -0.343872 -0.152397 0.176391 0.614572 -2.131283 1.082230 -0.177518 -0.541257 -0.522465 1.815573 1.145925 0.767602 0.087142 -0.321160 -0.013761 -0.544584 -2.360999 -0.680539 1.057654 0.818733 -0.276395 -0.127957 0.099265 -1.460482 1.314252 -0.617691 -2.132404 1.712722 1.398879 -1.123152 -0.300061
常O -0.961398 -0.454684 0.026056 -0.438278 1.536663 0.999910 1.183048 -1.609295 -1.268431 -0.274020 0.541200 -0.360879 -0.177738 -0.573659 -1.500329 -0.245000 1.154116 0.357902 -0.609827 -0.144521 -0.466708 0.408695 -1.250965 -1.961495 0.643662 -3.129030 -0.767097 -1.132311 -0.179849 1.059908 1.153523 0.543162 1.525854 -1.003780 -0.839942 -0.942338 -0.808804 0.598430 -2.637867 0.840734 1.005372 -0.714772 1.570835 -1.797993 0.043512 -1.361271 -1.349637 -0.021070 -0.027942 0.985939 -0.459667 -0.458013 -0.309093 0.477547 1.134138 0.921943 0.733197 -0.497502 -0.165375 -0.315806 0.346217 0.118187 -0.433538 -0.048282 -0.248681 0.860184 0.313050 -0.829143 0.324904 -0.620647 1.490606 -0.516862 0.068840 1.011166 -1.333982 1.006222 -0.768017 0.543956 0.521569 0.520380 -0.775023 0.410109 -1.194882 0.268220 -0.586767 0.829610 0.210678 0.731701 0.243575 0.747378 -0.717082 0.976837 -0.400617 -0.150710 0.482662 1.024281 0.005785 0.419295 0.056114 -0.686353
以O -0.051077 0.269512 -1.287456 -0.103658 0.883277 -0.302327 -0.264642 0.812232 1.553162 0.526494 1.406158 0.085034 1.240831 0.230611 -0.344564 0.762483 0.680022 0.055991 -0.314653 -0.805682 -1.124278 0.321076 0.196362 -0.637910 -1.199995 -0.156553 -0.234940 -0.133181 0.683764 -1.267758 0.325462 -0.795569 0.511966 -0.822000 0.365296 -0.420649 -1.294135 0.437657 1.953884 0.055256 -0.301116 0.621837 -0.122260 -1.546075 -1.136895 0.535514 2.103216 -0.572590 -0.189354 0.193196 -1.732769 0.315234 0.466930 -0.245870 0.814232 0.170432 -0.041769 0.680190 1.061909 0.246237 1.270414 -0.274538 0.636353 0.650691 0.320718 -1.122540 0.996583 -0.500053 0.894500 -0.903429 -1.091161 -1.847117 0.695643 0.789743 0.573889 -0.462810 0.892510 0.822203 0.359552 0.524184 -0.426678 0.029340 0.083592 0.896650 0.150753 1.159154 -0.456162 -0.245192 0.711267 1.297671 0.078570 0.150506 0.169700 -0.786885 0.660438 1.687190 0.372207 0.318107 0.053268 0.273868
个O -2.366020 -0.660645 0.895948 -0.360084 -0.293064 0.382994 0.009785 1.259465 -1.261721 1.648306 -0.643226 -0.338507 0.399747 -0.511757 -1.721049 -0.735555 0.293131 1.220562 -0.400081 -0.609635 -1.261976 0.575973 -0.704762 -0.124021 -1.223244 -0.043971 -0.275933 0.288940 -1.569219 0.689158 -1.215994 -0.410002 -0.429168 1.315992 0.533369 -1.781462 -0.715704 -0.143224 -0.269197 -0.008260 -0.979044 0.456291 0.998892 -1.343077 -0.467068 0.403681 0.107521 -1.033590 0.488212 -1.231226 -0.407943 -2.368108 -0.096881 0.307330 0.144429 0.738765 -0.521561 -0.231557 -0.148417 0.854410 -0.366963 0.480364 -0.039698 0.868241 -0.560270 2.350178 -1.423274 -0.783265 -0.196062 -0.115155 -1.053951 0.612785 1.020628 -1.315601 0.211178 -1.235137 -0.462310 1.331420 1.124550 0.899172 0.966236 1.131773 0.225938 -0.961001 0.936073 -1.206049 -0.188190 1.068400 1.080527 0.173994 0.928913 0.753819 -2.121287 0.629830 -0.021842 -1.547975 -0.576847 1.223694 1.082361 0.479318
体O 0.307358 -0.394807 -0.063029 0.059843 0.636939 0.141532 1.195925 -1.282225 -0.986611 -0.784678 0.256084 -0.285102 -0.979233 -0.230776 -0.699850 -0.006740 0.593007 -0.640812 0.092802 -0.025718 -0.332513 0.350362 -0.703636 -1.622683 0.335538 -2.191477 -0.481810 -1.072712 -0.468455 1.174597 1.077218 -0.519489 0.287204 -1.098652 -1.534585 -0.492640 -0.570270 0.301879 -2.199718 0.950818 0.646836 -1.003002 0.634971 -0.126322 -0.663473 0.041611 -0.727576 -0.022497 -0.380019 1.218625 -0.656064 -0.417467 0.177135 0.476203 0.548767 0.467347 0.381394 -0.570534 0.545583 -0.074382 0.390908 0.339915 -0.593306 -0.389827 0.310277 0.447360 0.668955 -0.258362 0.443755 0.011391 1.697159 -0.206879 -0.364558 0.479168 -1.347783 0.036637 0.125916 0.103903 1.201887 0.933929 -0.587384 0.224950 -1.009293 0.519262 -1.381764 0.819984 -0.153158 0.624092 0.543981 0.443505 -0.420845 0.063007 -0.216499 0.231687 0.182693 0.639670 0.419195 0.233633 0.283800 -0.177854
月O -1.676122 0.310922 1.112103 0.131253 0.853420 -1.139795 0.751575 1.789743 -0.692003 0.980001 1.060061 -0.311543 0.670328 -1.678664 -0.084728 -0.551882 0.862185 -0.249155 -0.128813 -1.659483 -1.169858 0.350498 -0.599458 0.069257 -1.345809 -1.249326 -0.709412 0.560295 -1.541425 0.143222 0.278562 0.524754 -0.790846 -0.417059 -0.181132 -1.725855 -0.905191 1.460656 -0.550616 -0.803495 -1.029744 -0.876052 1.212234 -2.470063 0.072957 0.853706 1.486999 0.017315 0.217763 -0.207885 -1.933763 -0.921520 -0.345138 -0.306943 0.362775 0.746104 0.580594 1.236521 1.304158 0.180555 1.404293 1.749266 -0.722953 -0.512831 0.337862 1.574776 0.001169 -1.245821 0.631102 -0.520855 -0.722147 -0.267578 0.828184 -0.844305 0.370881 -1.014176 -0.780899 1.146691 2.395029 1.335381 1.767677 0.849659 0.103232 -1.069462 -0.749834 -0.412754 0.072541 1.167947 0.897977 -0.652305 0.253852 -1.101379 -1.691490 0.215435 0.473038 -0.113726 -1.425218 -0.093234 0.896910 0.671064
次O -1.892181 0.653095 0.612362 0.167588 -0.558374 -0.344441 -0.005895 1.638144 0.200787 0.308802 0.628007 -0.027781 -0.181917 -0.651932 -2.006173 0.593544 -0.136711 -1.512414 -0.405597 -0.755397 -1.141635 -0.082929 0.240830 -1.202934 -1.714633 -0.282105 -0.216633 0.001326 -1.487369 -0.373265 0.238393 -1.568969 -0.654298 -1.406589 0.177300 -0.324961 -0.927319 0.170384 0.167470 -0.082971 -1.081851 0.820260 0.797151 -1.333282 -1.283176 1.408334 1.419359 -0.672377 -0.314708 0.387501 -1.877480 -0.038409 0.490203 -0.748864 1.090059 1.131511 -1.388930 -0.155228 0.829367 0.455924 1.001196 -0.390003 -0.464650 0.325552 0.618949 -0.357066 -0.273205 -0.402135 0.109172 -1.928829 0.573913 -1.075870 0.720897 -1.174803 0.291953 0.194504 0.849732 0.181193 1.832090 2.056551 0.059567 0.658670 1.810194 -0.388217 -0.753353 0.540671 -1.295761 0.176539 0.644689 0.220076 0.052574 -0.261126 -1.351411 -0.270311 0.459779 -0.951996 -0.294830 1.115617 0.411609 0.668742
性O 1.582258 1.835902 -0.810787 -0.023524 1.081908 -1.253224 -0.545471 -0.237554 -1.019411 -0.661601 0.168201 -0.525689 -0.341968 -0.555667 -0.697827 0.362743 -0.104466 0.821365 0.135853 0.204024 -0.524101 -0.532366 -0.536948 0.091685 0.720621 0.361558 -0.554018 -0.292495 0.580166 0.201326 0.567257 0.146150 -0.145383 0.104664 -1.632972 0.459619 -0.208391 -1.629226 0.063701 0.560620 1.220878 -0.774749 -0.582597 0.052249 -0.894983 0.862054 1.387894 0.211900 -0.773931 0.574339 -0.325490 -0.125603 0.748287 1.202488 -0.211027 -0.464840 0.312978 -0.260352 -0.054866 0.036033 -0.519549 -0.304613 0.177653 -0.114668 0.602451 0.067449 0.528559 -0.428845 1.663716 2.109451 -0.956386 -0.635273 -0.633392 0.911002 1.245248 -1.020308 1.286296 0.273629 -0.602306 -1.683810 -1.176602 -0.226458 0.002892 0.491222 -0.232595 0.907340 0.219002 0.098531 0.833718 0.491744 0.563003 -1.390075 0.432762 -1.593605 0.386652 0.000015 0.965625 -0.859309 1.939415 1.008980
组O -1.513558 -0.823194 -0.384573 -0.052434 -0.691842 0.440329 -1.104624 1.025347 -2.438923 0.240596 -1.984570 -1.745160 -1.660866 0.552787 -2.245183 0.516368 -0.000309 0.745909 -0.782480 1.576345 -1.553765 0.775119 -0.867501 -1.107028 0.600058 0.479953 -0.538501 -0.513200 -0.495133 1.690896 -1.890928 -1.558187 -1.149075 0.920415 -0.900867 -0.693270 -0.057068 -1.812362 -1.139262 1.428365 -0.457158 0.252518 -0.719555 0.933583 -1.078659 1.606724 -0.035692 -2.088688 -1.112741 -0.066543 0.754188 -1.995441 0.466301 1.938856 -0.232704 -0.103615 -2.096368 -1.465743 -0.246063 1.043140 -1.040529 -1.288607 -0.671202 1.756781 -1.138430 1.392384 -0.086266 -0.585360 -0.499624 0.957281 -0.309256 0.841284 0.447611 -0.574527 -0.473856 -1.262992 1.126691 -0.210705 0.295630 -0.121273 -1.033626 1.050562 -0.426820 0.648029 0.688935 -1.238365 -0.788963 0.092364 1.524432 0.988922 0.101687 0.336981 -1.334386 0.947242 -0.917760 -2.107316 2.039293 1.605872 1.557085 -0.360039
现O -0.734247 1.365451 -0.081201 0.731529 0.554163 -0.260593 0.010682 0.398013 0.472978 0.028229 0.891807 0.441703 -0.967334 -0.745319 -1.492216 0.650213 -0.382156 -0.400579 0.062724 -0.026674 0.092832 -0.788027 -0.029293 -0.561916 -0.785103 -0.396583 -0.742965 0.364350 -1.552016 0.019934 0.392340 -0.078229 0.147526 -1.130756 0.414109 0.213848 -0.074494 0.617735 -0.625544 -0.448407 0.333864 -0.637087 0.796759 -0.694804 0.523493 1.014262 0.477943 0.894909 -0.086969 -0.168367 -0.033867 0.895286 0.348597 0.154356 0.225533 0.543374 -0.578147 0.577743 -0.857927 0.225393 1.039663 -0.098046 -0.598948 -0.565004 -0.187635 0.714453 -0.697134 -0.426210 1.216727 -0.346484 -0.521366 -0.186060 -0.721222 -0.784811 0.135455 0.258000 -1.052803 1.004547 0.835261 1.119623 -1.346165 0.062710 1.676111 -0.592467 -0.030683 1.409346 0.106454 -0.004026 -0.194128 -1.096562 0.314206 -0.626895 -0.254083 -1.490665 1.764397 -0.369949 -1.250182 -0.053001 0.777338 0.427667
术E 0.013252 -1.677063 -0.875698 -1.053592 -0.333149 0.001894 0.205347 0.287660 0.488354 1.434680 0.455904 -0.073527 0.000802 2.950081 1.025787 0.131461 -2.138065 1.589453 -0.250736 1.683004 -1.976387 2.292120 -0.160069 -1.473382 -0.200876 -0.960765 -0.442340 0.337607 -0.230226 -0.036819 0.025563 0.491863 -0.388545 -0.246182 -0.156472 -1.376489 0.421892 1.347322 1.300401 0.818335 -0.971260 1.818362 0.122622 -0.103988 2.029996 -1.341694 -0.769630 0.175484 -1.302345 -0.813148 1.124371 0.258155 -0.768637 0.000446 -0.267322 0.328683 0.128758 -0.089694 -0.942987 -0.152397 0.258450 -1.279108 0.297960 0.812817 -2.694270 -0.656226 0.648954 0.709819 1.400500 -1.101289 -1.534426 -1.345551 1.520015 -0.848202 -1.028397 -0.441977 -0.131084 -0.066147 0.577482 0.705058 -1.219940 -0.650654 -1.418944 0.628513 1.038792 -1.416502 0.132394 1.205746 -1.408299 0.698245 -1.174968 1.636558 1.067238 2.290076 0.649713 1.505668 -0.304383 1.894848 -2.122788 -2.167383
示O 1.934213 -0.376407 -0.824794 -0.216206 -0.039739 0.534313 -0.927370 1.502850 -1.139718 1.460236 -0.730934 -0.933349 -0.631764 1.985956 0.259300 0.033006 -0.255587 1.084601 -0.333226 0.599231 -0.639074 0.598039 0.465962 -0.362852 -0.360374 0.348107 -0.262628 0.263062 0.948056 0.135636 -0.708710 -0.560375 -0.092480 0.546021 -1.139410 -0.329196 0.305135 -0.830849 0.423072 0.037548 -0.703032 -0.396031 -2.601934 0.826854 -0.541522 0.405708 1.357719 -0.591271 -1.495597 0.022283 0.541616 -2.037352 0.733804 1.136188 -1.205299 0.666408 -0.071120 0.673760 0.322030 0.489483 0.662501 0.051726 0.236504 0.806716 -1.798492 -0.154972 2.285087 1.457044 0.683443 0.687760 -1.416574 -1.121603 0.681024 1.085013 -0.572275 -1.753350 0.731144 1.086686 -0.029345 -1.467193 -0.428546 -0.052139 -1.426420 0.888084 -0.417977 -1.848736 -0.850610 0.102762 1.550212 1.441481 -0.068931 -0.630319 1.177289 0.585157 -0.774764 0.398998 1.419884 1.149849 0.982788 -1.760570
肠E 0.288939 0.611276 0.202033 -1.147999 0.156124 -1.478392 -0.094243 0.805087 -1.112806 2.355211 -0.285536 -0.792471 -0.003207 1.148832 0.726431 -0.362594 -2.832178 1.298102 -0.306750 -0.651672 -0.843379 0.816936 -0.614012 0.110338 -0.748802 -0.066186 -0.417608 1.201525 0.697628 0.265396 -0.028540 0.244730 0.049028 0.262309 -0.703927 -2.355627 -0.118249 -0.483496 0.061912 -0.964831 -0.957253 1.323410 -0.674817 -0.595153 -1.347352 -1.383722 2.080286 -0.173330 -0.862771 -0.051854 0.802118 -2.546233 -0.247560 0.288490 -1.195510 1.340674 0.290854 0.199821 -0.629710 0.012829 1.481402 0.714774 0.020311 0.964040 -0.280500 0.762925 0.914584 1.774957 1.601655 0.195667 -0.581309 -2.062749 0.657884 0.286717 0.770934 -2.212367 1.850196 1.855631 0.710195 0.003653 0.868076 0.148587 -0.353442 0.160591 -0.406729 -0.784832 -1.060209 0.998413 0.486219 1.815339 0.724515 -1.194114 1.694261 0.900833 -0.341375 -0.108086 -0.818910 0.008025 0.719033 0.860260
理O 1.134414 -0.699938 -1.212575 -0.816531 -0.448695 0.919867 -1.450350 1.600270 -0.257790 1.395763 -0.224881 -0.116435 -1.039003 2.034950 -0.715200 -0.778341 -0.572005 1.061999 -0.306594 0.054312 -1.433092 1.152431 0.405145 -0.972052 -0.972340 -0.664690 -0.817550 0.256959 0.128433 -0.282046 -0.036749 -1.104687 -0.846917 -0.051487 -0.807688 -0.889916 0.131350 0.939918 0.514799 1.531960 -0.372331 0.899209 -1.247286 -0.735917 -0.538105 0.830776 0.837062 -1.241541 -2.916918 0.196529 0.102846 -1.664891 0.344164 1.152159 1.167567 0.980388 -0.456909 -1.265285 0.291355 0.482717 0.007539 -1.137103 0.423207 0.450830 -0.657932 -0.735958 1.130049 0.710690 1.733163 -0.330534 -1.573765 -0.920376 1.677226 0.393591 -2.174632 -1.894617 1.290617 1.114299 0.586737 -0.465765 -0.081811 -0.519433 -2.220873 0.855280 -0.068080 -0.971824 -1.319434 1.251457 0.592030 2.253986 -2.010767 -0.144605 1.066145 0.702967 0.376408 1.579013 0.893690 2.166625 0.240800 -1.440033
来O -0.947459 0.684220 -0.690014 -0.343719 1.374987 0.719758 -0.133383 0.994122 1.318049 0.235976 2.364663 0.380686 1.503268 -0.622133 -2.329612 -0.344860 0.977248 -0.051791 -0.875359 -1.679060 -1.848774 -0.032130 0.520277 -1.562438 -1.349891 -1.375056 -0.546362 -0.551205 -0.478897 -1.452321 0.884482 -0.609438 0.449331 -1.649238 1.067886 -0.499955 -1.807572 0.696823 0.963660 -0.187344 -0.162123 0.472773 0.821089 -2.840626 -0.917859 0.571496 1.716551 -0.504361 -0.299295 0.120258 -2.398076 0.437692 0.158342 -0.675679 1.868855 0.841876 0.021006 0.216388 0.904361 0.004922 1.306222 -0.278164 0.597526 -0.065157 0.387989 -0.978197 0.547656 -1.104379 1.120140 -1.740021 -0.575390 -2.668308 1.278327 0.898840 0.084486 0.250048 0.352526 1.005199 0.762364 1.513461 -0.866362 0.485450 0.904804 0.318914 0.281425 1.257392 -0.565610 -0.134091 0.853380 1.121243 -0.081992 0.585520 -0.842458 -1.460476 1.257242 1.396935 -0.679887 0.913178 0.561980 -0.038674
分O 1.442052 1.274596 -0.104837 -0.630464 -0.707603 -1.283829 0.509216 -0.098533 -1.896543 -0.235795 -1.144372 -0.871327 -1.308174 1.079369 -0.681964 0.427658 -2.503112 -0.409801 0.148254 1.261706 -0.839347 0.033335 -0.690784 -1.061550 0.046444 -0.049511 -0.182161 -0.051474 -0.105069 0.677811 0.648697 -1.447927 -1.254279 -0.888302 -1.824857 -0.308061 -0.190054 -1.400180 -0.454659 0.920642 0.383029 0.751261 -0.813943 1.716848 -1.524353 0.577748 0.100603 0.776813 -1.607418 0.604751 0.195843 -1.294114 1.045631 1.501792 -0.255494 -0.079706 -0.087680 -0.906367 0.692270 0.457604 -0.673832 -1.173502 -0.294894 0.771562 0.914190 -0.626166 0.105642 0.795047 2.002800 0.909731 1.070090 -0.991091 -0.288863 0.185167 0.561608 0.044707 1.882671 -0.528580 0.378749 -0.226020 -0.486622 -0.203276 0.046521 0.495687 -1.818292 -0.261188 -1.032609 0.356740 1.185424 1.771939 -0.296603 -1.669304 0.796080 0.684846 -1.148261 -1.807595 1.441864 0.927003 1.271245 0.691438
复O 0.876176 0.397658 0.315386 0.608010 0.198827 0.899855 -0.675919 0.704599 0.170788 0.650980 0.238031 1.639814 -1.120036 0.175800 -1.386530 -0.741759 -0.002447 -0.082809 0.712003 -0.786960 -1.061413 -0.367491 0.916554 -0.513734 -0.521200 -0.104311 -0.765726 0.480801 -2.258443 0.298283 -0.511953 -0.758450 -1.105591 -0.705116 -0.278896 1.146981 -0.366285 1.344566 -0.264051 -0.086226 -0.200906 -0.656845 -1.002412 0.222502 1.022161 2.188478 0.101761 0.533348 -1.173987 -0.405032 -0.493932 -0.341254 -0.044529 0.204289 0.224800 0.807492 -0.919367 -0.305076 -0.778903 -0.621120 1.173481 0.309864 -1.018450 -1.782992 -1.716087 -0.197709 0.018339 0.346453 1.149485 -0.761399 -1.236573 -0.914368 0.583190 0.021911 -2.464042 -0.714455 -0.338011 0.544345 1.926920 1.221326 -1.056105 0.760988 0.271138 0.021628 0.425336 0.050930 -0.238987 0.519660 1.166610 0.008742 -0.568376 -0.485166 -1.447121 -1.189304 0.896110 1.448415 -0.257526 1.010346 0.901193 -1.120575
转O -0.816824 1.398508 1.200030 -1.444318 0.334888 0.384896 -0.995604 0.028914 -1.755741 1.799022 -0.866192 1.891073 -0.679947 -0.334673 -1.069599 -0.202546 -1.147224 0.207155 0.474933 -0.221348 -1.427683 0.028395 -1.608510 -0.461976 0.463363 0.017778 -1.911864 0.789513 -2.451797 0.725494 -1.495156 0.457743 -2.159995 0.323523 -0.448731 -0.084268 -1.269202 1.341565 -0.458345 1.143092 0.245966 0.895246 -0.207418 -1.844999 -0.304923 1.116660 0.487177 -0.324934 -0.876915 -0.491135 0.349523 -1.634503 0.157005 1.620144 0.824330 0.556566 -1.851251 -1.561409 -2.524750 -0.613173 -0.703324 0.195027 -0.752579 -0.425094 -1.122806 0.378314 -0.252444 -0.858876 0.968336 0.186401 -1.792526 0.098061 1.790678 0.242630 -1.238148 -0.973588 1.286395 1.353515 1.312903 0.793727 0.510929 0.578445 -0.078074 0.142528 2.068514 0.557951 0.544079 1.663178 1.565791 1.793059 0.460206 -0.190143 -1.156329 -1.327777 0.715793 0.123304 -0.191561 0.350199 1.678320 1.351247
TO 2.706650 0.327971 0.488615 0.364544 -0.480084 -0.065291 0.166823 0.847707 -0.393753 0.563451 -0.354942 -0.488608 -0.378353 1.169883 -0.082382 0.602248 0.085075 -0.663624 0.223754 0.706856 -1.016891 -0.544505 0.731089 -0.517150 -0.994766 0.961808 0.092990 0.098923 -0.320838 0.415142 -0.410542 -0.321437 -1.095926 -0.418994 -0.999535 0.990538 0.271157 -0.000296 0.410976 -0.599753 -1.316480 0.038691 -1.781611 1.963862 -0.272781 1.471088 0.833282 0.007494 -0.864011 -0.611611 0.087346 -0.579260 1.291790 0.702092 -1.479262 -0.064013 -0.514744 1.185668 1.180593 0.606646 0.551701 0.221981 0.286596 -0.178621 -1.461645 -0.317013 1.463277 0.460874 0.589380 0.550191 -0.760244 -0.931836 0.336791 -0.066754 -0.087259 -0.742341 -0.079943 0.241806 0.633892 -0.299875 -0.598178 0.002026 -0.056659 0.178969 -0.316490 -1.567798 -0.154202 -0.136872 1.748282 0.300980 0.604972 -0.589331 -0.266556 0.326155 -0.730463 -0.925205 1.236478 1.023484 0.869721 -1.319007
大B -1.047277 -0.395370 0.367626 -0.674341 1.041264 0.884518 0.980997 -1.106045 -0.685396 0.316503 0.035884 0.132916 0.186139 -0.576469 -1.723251 -1.136577 0.702699 1.575513 -0.235095 -0.559358 -0.132791 0.790890 -0.314447 -1.035725 0.107110 -1.783545 -0.335054 -1.135851 -0.345000 0.576948 0.657500 0.874790 1.912239 0.548152 0.215709 -0.807246 -0.567810 -0.304593 -1.822886 0.769567 1.300883 -0.461123 1.376219 -1.534127 0.558037 -1.674322 -1.139319 0.960441 0.684881 0.613147 -0.933686 -1.283003 -0.639591 0.136343 0.793620 0.278610 1.101723 -0.689500 -0.622662 0.465664 -0.519655 0.032016 0.113761 0.215282 -0.195905 0.928810 -1.228004 -0.188169 0.060554 0.041181 0.907984 -0.194374 -0.674023 0.460817 0.047105 1.026659 -1.377930 1.066254 -0.366689 -0.156690 -0.233861 0.758927 -0.348795 0.193803 -0.258787 0.093188 -0.058020 -0.163430 -0.165790 0.307386 -0.177546 0.975340 -0.370318 -0.374811 0.122151 0.196207 -0.016124 0.583891 -0.016549 -0.175935
下O -1.163998 -1.429583 -0.250150 0.726323 0.870191 -0.939405 0.632979 -0.128210 -0.338717 1.350634 0.545525 -1.073003 -1.356036 0.747080 1.238751 -0.040297 -0.896052 -0.196818 0.943773 0.113896 0.645326 -0.345485 0.065267 -0.528698 -0.451793 -0.600559 0.589694 -0.498198 -0.446990 1.069861 -1.087820 -1.653386 0.384237 -0.570348 -1.556001 -1.360423 -0.148928 -0.163640 -0.901743 -0.164436 -1.067785 0.019417 -0.225036 -0.814410 -0.827220 -0.569645 -0.753997 -0.696214 0.514798 -0.185143 0.853514 0.139660 0.077137 0.554237 -1.312987 0.238560 -0.372757 0.660428 -0.445734 -0.937966 0.974354 1.440630 -1.072172 1.684630 0.491193 1.250629 1.763009 0.470126 -1.689317 -1.382619 1.683614 -0.723636 -0.239408 0.571200 -0.396233 0.172012 -0.609359 1.129702 0.595871 1.898067 0.461876 0.328591 0.059130 -0.153957 -1.027292 0.887235 -0.623216 -0.933677 0.089902 0.030051 0.467240 -0.069101 0.837926 0.402132 -0.033714 -0.526741 -0.700557 0.676692 -1.535016 -0.601071
一O -2.256112 0.912922 0.177336 0.453718 0.222381 0.174823 0.281695 0.502736 -0.832333 0.549176 0.410526 0.149338 -0.137193 -0.887439 -1.316704 -1.379840 -1.344664 0.270924 -0.190536 -0.935340 -0.123971 -0.378953 0.194519 -0.918915 0.766239 -1.330538 -0.333984 -0.396854 -1.475835 0.005230 0.804472 -0.595021 -0.629104 -1.505083 -0.128604 -0.143027 -0.154886 -0.708735 -0.888887 0.109740 -0.457804 0.338457 -0.196201 -1.227089 -0.078934 -0.293099 0.493275 0.137528 -0.061691 0.601633 -0.188194 -0.692237 0.060384 -0.495961 0.284135 0.941545 -0.562226 -1.584377 -0.916456 -0.653642 0.917761 -0.408288 -1.059320 -0.341041 0.302063 0.523917 -0.255825 0.240288 0.786272 -1.394583 1.488816 -1.712350 -0.046964 0.329398 -0.488813 0.583373 0.891339 0.122058 0.609151 1.540132 -1.232958 0.960164 1.278249 -0.085071 -0.919773 1.117476 -0.995276 0.013850 0.643330 0.215008 0.612278 -1.024330 -0.134804 -0.068230 1.326281 -0.222424 -0.426653 -0.092754 0.535896 -0.353940
胃S 0.235908 0.258883 -0.648978 -0.125167 1.367253 -0.260797 -0.610278 0.907463 -0.357953 1.055435 -0.107625 -0.408174 0.087826 0.030441 0.142687 -0.795068 -0.396571 0.943251 0.475103 -1.118306 -0.383138 0.039246 0.328516 0.354111 -0.065249 0.260014 0.024796 -0.231286 0.422483 -0.279854 -0.529785 -1.300002 -0.265665 -0.137066 -0.876147 -0.347794 -0.616117 -0.770653 0.360431 -0.344194 -0.105685 -0.288046 -1.127139 -0.322831 -1.426888 0.352767 1.172452 -0.472317 -0.286676 0.364479 -0.781803 -1.142080 0.483384 0.568427 -0.564941 -0.127296 -0.260623 -0.009134 0.404256 -0.663809 0.608630 0.620273 -0.656319 0.572685 0.569349 -0.081460 0.867342 0.625543 0.353411 0.113839 0.131879 -1.644884 -0.142711 1.336767 0.112566 -0.807059 1.152645 0.582104 -0.124773 -0.084377 0.203314 0.844808 0.169584 0.359983 -0.682984 -0.128526 -0.808022 -1.115682 1.417047 1.213071 0.138064 -0.952532 0.335662 -0.765113 -0.682248 0.668752 0.948766 0.174488 0.693779 0.305762
重O -0.309484 0.055620 0.169534 0.154712 1.756696 -0.710500 1.607664 -1.655882 -1.368799 -1.013778 0.959694 -0.712690 -0.650503 -1.255512 -0.636793 0.458932 1.051963 -1.159862 -0.047616 0.018122 -0.487196 0.082918 -1.803398 -1.956613 0.566261 -3.032382 -0.762265 -0.998722 -0.792180 1.184418 1.500218 -0.286397 0.152822 -1.849430 -2.016131 -1.109843 -1.045028 1.254473 -2.481961 0.749016 0.702671 -1.272708 1.702190 -1.293721 -0.300788 0.045023 -1.064346 -0.190531 -0.532105 1.067293 -1.079913 0.871659 0.001363 0.894649 0.906229 0.045915 0.983805 0.116604 1.011451 -0.605809 0.574632 0.303440 -0.828971 -0.707501 0.887269 0.670345 0.748419 -1.716257 0.812908 -0.215994 1.501806 -0.243358 -0.277107 0.550072 -1.294872 0.385424 -0.537739 -0.227172 1.595425 1.411865 -0.344196 0.114606 -1.435478 0.108485 -1.105111 1.352388 0.676631 1.406839 0.669321 0.233636 -0.922500 -0.206056 -1.092600 -0.035900 0.527797 0.741921 0.107130 -0.303007 0.013886 0.172845
8O 0.107955 -0.590811 0.876132 -0.390695 -0.804511 -0.764567 -0.485233 0.816609 -0.742779 1.103396 -0.556906 -0.074521 -0.937249 0.153160 0.182994 -0.336043 -0.223376 0.079969 1.002018 -0.585063 -0.302592 0.281630 0.666834 -0.218232 -1.020457 0.178711 0.610958 0.523332 -0.990459 0.706640 -1.165063 -0.513291 -0.550594 1.068231 -0.781002 -1.063192 -0.303772 0.279774 -0.000306 0.399201 -0.681965 0.132915 -0.181642 -0.450040 -0.401054 0.791666 -0.039141 0.599227 -0.282451 -0.447126 -1.062338 -1.713714 0.280934 0.542349 -0.213561 0.355775 0.143704 0.382763 0.915283 0.623740 0.192554 0.619249 -0.123433 0.486322 0.175338 0.627373 -0.216675 -0.121094 -0.057575 -0.109892 -0.448680 1.068808 0.706625 -0.562527 0.134112 -0.982939 -0.191749 1.209880 1.456360 0.380227 1.994298 0.256512 -0.970438 -0.555086 -0.603341 -1.103060 -0.636968 0.812144 1.139434 0.460643 -0.207420 -0.294643 -0.901530 0.281268 -0.311650 -1.411436 0.546585 0.901847 0.014853 0.401151
9O -0.136882 -0.818892 1.031308 -0.346314 -0.618388 -0.656744 -0.659862 1.419297 -0.722423 1.674056 -0.428496 -0.041227 -0.783647 0.290528 0.189182 -0.597998 -0.025177 0.260394 1.030599 -0.965975 -0.702505 0.422437 0.773592 -0.052310 -1.413754 0.434642 0.464484 0.505562 -1.090668 0.579681 -1.497372 -0.553768 -0.737123 1.276888 -0.828322 -1.197180 -0.479407 0.413417 0.333614 0.228417 -1.195743 0.154499 -0.439719 -0.950976 -0.259068 1.073910 0.266224 0.411155 -0.361499 -0.708484 -1.303320 -1.889729 0.065045 0.483839 -0.174966 0.453305 -0.011131 0.604446 1.053054 0.407030 0.205695 0.930625 -0.151219 0.553623 -0.103373 0.720119 -0.197219 -0.074269 0.007073 -0.462999 -0.958842 0.686025 1.053303 -0.458426 0.180061 -1.220740 -0.244620 1.395486 1.542523 0.528815 2.126501 0.581621 -0.933035 -0.765751 -0.459989 -1.503206 -0.712187 0.624878 1.318343 0.578478 -0.257921 -0.391095 -1.103899 0.295878 -0.359615 -1.052527 0.252699 1.303083 -0.059929 0.172234
发O 0.945309 1.075174 -0.535339 0.034941 0.956963 0.429864 -0.619991 0.714980 0.367442 0.730072 1.429079 0.404463 0.473441 -0.488065 -1.582303 -0.215017 0.588057 0.639643 -0.820797 -1.071615 -1.567006 -0.786979 -0.231630 -0.624478 -1.168401 -0.596681 -1.098722 0.366976 -0.199677 -0.287785 0.349533 0.109074 0.250686 -0.221694 -0.045263 -0.030197 -0.496622 -0.062010 -0.160033 -0.491292 0.184863 0.124664 -0.519338 -1.443801 -0.954469 1.298392 2.656104 -0.664580 -1.247178 -0.375672 0.464262 0.168273 0.722058 0.165768 0.272813 0.328453 -0.164157 0.169824 -0.657064 0.346376 0.495407 0.066116 0.650197 -0.898653 -0.284068 0.488386 1.035441 -0.307867 2.190845 0.399476 -1.606955 -1.185324 1.304271 0.517542 0.266410 -1.173300 0.675857 1.843106 0.370949 -0.486191 -1.385214 -0.074151 0.244882 -0.132458 0.731522 1.008591 0.030815 0.003679 0.840251 0.918850 0.582987 -0.319840 -0.404998 -1.898133 1.657178 0.444088 -1.508541 0.421159 2.163502 0.251686
期O 0.340915 0.897363 0.339714 -0.031148 -0.452383 -0.041403 -0.238563 0.563028 -0.131958 0.012119 -0.055899 0.434865 -0.721877 -0.458935 -1.335451 0.154023 -0.630498 -1.629509 0.602735 -0.230794 -0.533884 -0.874138 0.758975 -1.305053 -0.512703 -0.513920 0.529298 0.382872 -1.624716 0.162666 -0.241247 -1.876250 -1.359617 -1.639130 -0.219933 0.249656 -0.626929 0.814824 -0.061312 0.628174 -0.407064 0.702327 0.033827 0.027333 -1.231431 1.756836 0.553458 -0.145856 -1.359897 0.533659 -1.197649 -0.401315 1.002945 0.176433 0.048316 0.584133 -0.880817 -0.642612 0.555781 -0.232948 1.228183 -0.589084 -0.610301 -0.644340 0.608185 -0.834341 0.409986 -0.044333 0.571784 -0.995026 1.134943 -0.405638 0.942249 -0.754429 -1.199244 0.224823 1.221018 0.113743 2.201646 1.967292 -0.188214 0.276780 0.191415 0.482795 -0.449522 0.558920 -1.225522 0.168862 1.068573 0.842395 -0.564877 -0.632876 -1.153670 -0.432173 0.669478 -0.762138 0.774850 0.730191 0.080975 0.036628
腺O 1.186949 1.799733 0.816154 -1.619244 -0.030654 -1.595306 0.188261 -0.031512 -1.944443 0.923683 -0.925673 -0.855806 -0.487626 0.397917 -0.372681 0.096036 -3.030118 -0.103697 0.405994 1.082872 -0.808508 0.032747 -1.327921 -0.658422 -0.076355 0.148223 -0.585519 0.530651 0.340265 0.632467 -0.088035 -0.941009 -0.854022 -0.219098 -1.507118 -0.750447 -0.598773 -1.043582 -0.409589 0.069211 0.230130 1.563878 -0.078876 0.332741 -1.788503 -0.102922 0.417822 0.505427 -1.252995 0.456663 0.023363 -1.299103 0.654653 1.552060 -0.162882 0.086441 -0.069065 -0.820760 0.012002 -0.301101 -0.484974 -0.551243 -0.380028 1.266048 0.910498 -0.237353 -0.076796 1.255652 1.394227 1.060645 0.578142 -1.379529 -0.263047 0.253176 0.981875 0.222401 2.013420 0.087852 0.332357 -0.454660 0.407830 0.184436 0.122947 0.413757 -1.005529 -0.676099 -1.086054 -0.106394 0.738844 2.050048 0.010824 -1.935554 1.233249 0.110014 -1.064857 -1.826794 0.798990 0.078480 1.143533 1.294706
淋I -2.210837 -0.668848 1.826741 -1.247099 -0.448827 1.364322 -0.142243 0.622071 -2.060089 2.444163 -0.815011 -0.288454 0.631587 0.507707 -2.125120 -0.715427 0.256036 2.993255 -0.782763 1.211150 -0.410922 0.656396 -1.126317 -0.681840 -0.658812 -0.595659 0.259789 0.078796 -1.605479 1.101314 -1.559186 2.092691 1.132390 2.411675 0.389260 -2.058860 -0.112038 -0.311915 -0.925784 -0.295054 -1.199426 0.769058 1.922180 -1.456823 1.409355 -1.580617 -1.002224 0.873555 1.060689 -1.577778 0.624088 -2.749173 -0.590444 0.707463 -0.238647 0.889136 0.333625 0.367940 -1.435061 1.412633 -1.062649 0.149989 0.458495 1.766293 -2.112061 3.312299 -2.157318 0.292343 -0.608564 0.218262 -1.845878 1.491103 1.111320 -1.642832 1.004479 -0.221208 -2.245239 1.825495 0.572487 -0.633562 0.534958 0.672498 -0.526053 -1.430365 1.363681 -2.892555 0.158571 1.815479 0.798365 -0.781188 1.418581 1.500663 -1.171670 0.731155 0.761915 -2.642743 -1.616705 1.442391 0.682735 -0.660399
因O -0.325318 0.251848 0.184145 0.578772 1.080649 -1.174981 0.626450 0.898021 0.525543 0.830262 1.198413 -0.583019 0.441132 -0.849801 0.241803 0.485240 0.816846 0.293700 -0.270280 -0.702257 -0.547397 0.205509 -0.910559 0.399904 -1.657903 -0.798294 -1.013681 0.831360 -0.478175 0.200951 0.037426 0.350643 0.401594 -0.060373 0.733728 -1.303993 -0.385822 0.999766 -0.079791 -1.086639 0.055600 -0.917502 0.723359 -1.016703 0.018685 0.972329 1.602899 0.125770 0.492063 -0.947163 -0.415231 0.155862 -0.243171 0.382263 -0.390819 -0.325898 0.808243 1.817451 0.293778 0.568883 1.173267 1.227330 0.008332 -0.841633 -0.084669 1.854495 0.219802 -0.811828 1.196117 0.785068 -1.434983 0.257123 -0.379371 -0.702742 0.633987 -1.598746 -1.359033 1.731416 0.938775 0.517848 0.225532 0.200099 0.125642 -0.429429 0.334718 0.324314 0.771934 0.331377 0.338633 -0.905595 0.875879 -0.570897 -0.663352 -0.589052 1.024613 0.142977 -1.473499 -0.620198 1.196425 0.730769
食O -1.714470 0.626687 -1.004594 -0.219391 2.003870 0.615531 0.203756 -1.321046 0.663569 -0.131374 1.467060 1.085482 0.980896 -1.075432 -2.423629 -1.596493 0.233439 1.570009 0.379495 -1.127009 -0.602786 0.242541 0.223985 -1.213215 0.749219 -1.944268 0.129997 -1.185554 -0.938509 -0.788477 0.919293 -0.070325 0.405516 -1.199597 0.575188 -0.032407 -1.166073 -0.141311 -0.135999 1.288457 1.094803 0.185228 1.504862 -1.934918 0.168384 -0.792635 -0.608642 1.024147 0.637818 0.913083 -1.405321 0.805205 -0.455127 0.372527 1.744065 -0.772055 0.837122 -0.721286 -1.240843 -0.956063 -0.043305 -0.993360 -0.203672 -0.387846 0.815960 -0.616060 -1.484448 -1.502616 1.362599 -1.080585 0.712871 -2.149215 -0.390861 1.600400 -0.275675 1.577327 -0.491671 0.051208 -0.600715 1.471161 -1.990882 1.093691 0.295498 0.667048 0.869780 2.471064 0.178309 -0.687574 0.508803 0.871904 -0.409679 1.174512 -0.861645 -2.343459 1.395248 1.259438 0.373729 0.528489 -0.542622 -0.241469
检O 0.376169 -0.371763 -1.156197 0.491954 1.131925 1.367618 -0.719425 1.778002 -1.471684 1.189850 -0.123236 -0.741832 -1.117431 1.160772 -1.048241 -0.466988 0.087275 0.460548 -0.786687 -0.235520 -0.413596 0.194063 0.107838 -0.736395 -0.356780 -0.460856 -1.055723 -0.278449 -0.157818 0.061670 -0.021762 -1.791647 -0.285317 -0.730936 -1.371416 -0.057907 -0.243758 -0.816523 -0.784890 -0.382893 -0.937305 -1.206755 -2.127662 -0.052739 -0.700661 0.796679 0.844737 -1.707130 -1.559100 -0.029201 0.519364 -1.991678 0.713626 0.940663 -0.386960 1.550501 -0.594861 -0.363404 0.042946 -0.160666 1.153567 0.536079 -0.868366 0.357819 -1.568866 0.568236 2.373985 1.098240 0.339735 -0.739338 -0.699063 -2.099251 0.675800 1.293331 -2.202967 -1.856504 0.947053 0.953482 0.707977 0.073586 -0.951123 0.287829 -0.277212 0.257209 -0.851875 -0.672271 -0.957942 0.237571 1.674473 1.132281 -0.245723 -0.679489 0.357764 0.221083 -0.142061 1.480108 0.428934 1.053045 1.637251 -1.866038
予O 0.123525 -0.608993 -0.371544 0.398450 0.089599 -1.583226 -1.022053 0.432081 1.497712 0.710181 0.385346 0.745479 -0.466434 0.420866 1.730973 0.905467 0.242148 -0.416170 1.099472 -0.465288 -0.670096 0.857043 0.110055 -0.151860 -0.147165 0.428017 0.462097 0.303218 -0.010652 -0.516224 -0.797520 -0.736613 -1.114804 -0.169525 -0.682541 -0.060698 -1.007408 1.182983 2.808301 0.730469 -0.531739 1.220105 -0.215478 -0.080299 0.166545 1.342092 0.166491 -0.589160 -0.090940 0.150422 -2.161851 1.555393 -0.136951 0.408642 -0.112411 -0.447846 -0.961831 0.242064 0.919802 -1.403335 0.681249 -1.023385 -0.423121 0.351868 0.328015 -1.635241 0.875059 0.192449 -0.434445 -1.153433 -0.992777 -0.306317 0.657614 0.490902 -0.405438 -0.607858 1.028130 -0.677053 0.555851 0.736617 0.127243 -0.196527 -1.183320 0.861626 0.861153 -0.002561 -0.056815 0.231068 0.564819 0.572479 -1.151168 -0.203671 -0.685356 -0.815471 -0.076436 1.689435 2.488088 0.494581 -1.883296 -0.190551
肠I -0.461328 -0.518119 -0.046506 -0.735358 0.254785 -0.969786 0.442156 0.178637 -0.444431 2.060907 0.567595 -1.094557 0.607803 1.717858 1.131467 -0.086314 -2.238927 1.957384 -0.680875 0.849224 -0.309745 1.144727 -0.198403 -0.609535 0.255358 -0.154038 0.248568 0.244248 0.761924 0.141647 -0.183440 1.539008 1.045077 0.271047 -0.349462 -1.894428 0.353389 -0.626607 0.772614 -0.564590 -1.451190 1.407279 -0.275988 -0.758950 0.848990 -2.899236 0.568083 0.401726 0.478290 -0.532150 1.325526 -0.881019 -0.970334 -0.179256 -1.551233 0.856765 0.917158 0.746667 -1.292956 -0.071972 1.001469 0.054431 0.470716 1.746039 -1.613910 0.721701 1.207479 1.308727 0.105632 -0.534114 -0.807329 -2.181421 0.145741 0.219761 0.996634 -0.806992 -0.093088 1.098684 -0.346082 -0.013188 -0.534404 -0.276310 -0.231472 0.518537 0.436076 -1.062849 -0.197238 0.715770 -0.523942 0.490367 1.248431 0.403372 2.115838 1.279526 0.400634 -0.040024 -0.799576 0.122511 -1.242576 -1.240306
(O 1.404583 -1.206056 0.994479 -0.373436 -1.293497 0.452024 -0.352498 0.262192 -0.728645 1.154727 -0.566352 -0.766578 -0.796821 1.322953 -0.578414 0.397618 -0.274048 -0.274547 0.723357 0.445075 -0.764425 0.471638 1.413541 -1.088915 -1.244086 1.005688 0.145124 -0.172456 -0.334722 1.302355 -1.377710 -0.539637 0.684904 1.873436 -0.197279 -0.543783 0.017260 -0.442843 -0.529489 0.469940 -0.566842 0.752027 -0.853327 0.434442 -0.291129 0.516283 -0.343706 0.601370 -0.220326 -1.083436 -0.371917 -2.490647 -0.329827 0.967377 -0.710898 0.280746 0.316356 0.421043 0.674027 0.769009 -0.463482 -0.071149 0.711347 0.944489 -1.363978 0.434169 0.295103 0.797780 -1.106122 -0.005307 -0.306230 0.498648 0.368218 -0.398384 -0.062501 -0.570080 -0.365442 1.294961 0.772130 -0.205393 0.865276 0.634606 -0.814165 -0.066136 -0.380549 -2.274502 -0.888629 0.219420 0.960520 1.092227 0.848017 0.922185 -0.186428 0.431355 -0.782992 -1.361059 0.777598 1.136751 -0.123123 -1.371147
变O 0.789064 0.298262 -0.437179 -0.001614 0.506849 -0.949893 0.378291 -0.505696 -1.402949 -0.849763 0.567384 -1.088100 -0.550626 -0.123535 0.024688 1.301589 0.338320 -0.864128 -0.667806 1.110177 -1.197864 -0.104328 -1.881322 -1.227102 0.437151 -1.430868 -1.184842 0.042615 0.143906 1.001724 0.406231 -0.100776 -0.786634 -0.957498 -1.823972 -0.678123 -0.343674 0.772907 -1.078137 0.704194 0.025848 -0.208548 0.173094 -0.344801 -0.565436 0.858976 0.621370 -0.911962 -1.461860 0.049573 0.895244 0.586224 0.486135 1.446610 0.288147 -0.096235 0.110799 0.285417 0.579956 -0.189476 0.052996 -0.195076 -0.312267 0.033488 0.247901 0.600848 1.479550 -1.366902 1.352253 1.143813 -0.216173 0.199486 0.778793 0.346838 -0.283515 -0.817432 0.802502 -0.023634 1.000600 -0.210815 -0.713691 -0.796908 -1.453054 0.297288 0.017370 0.867752 0.865896 1.420511 0.718743 0.911159 -0.309556 -0.594511 -0.008390 0.176230 0.208749 0.191959 -0.235983 -0.117507 1.103132 0.155353
)O 1.474407 -0.878976 0.636580 -0.333331 -0.985352 0.375116 -0.178355 0.057712 -0.690063 1.291449 -0.710529 -0.791322 -0.879440 1.253739 -0.737964 0.143276 -0.568991 -0.376554 0.599621 0.453137 -0.606398 0.181342 1.524245 -0.965710 -1.141345 0.831005 -0.159442 -0.020248 -0.136158 1.038521 -1.242625 -0.823844 0.416717 1.568257 -0.231117 -0.375031 -0.057004 -0.503591 -0.548241 0.234697 -0.718872 0.692333 -1.257004 0.434146 -0.353688 0.437258 -0.857605 0.521108 -0.345186 -1.263316 0.149122 -2.274998 0.141678 1.035438 -0.378715 0.206485 0.279586 0.428798 0.439721 0.693125 -0.440354 -0.238545 0.683804 0.861195 -1.186177 0.192492 0.328239 0.680373 -0.832654 -0.144727 -0.021641 0.241770 0.287064 -0.049618 -0.240663 -0.023443 -0.363743 1.348776 0.472138 -0.110374 0.822800 0.552357 -0.620805 -0.059400 -0.462566 -1.830587 -0.884799 -0.198012 0.905144 1.452192 0.485349 0.665812 0.038379 0.442033 -0.791571 -1.223012 0.884821 1.418242 -0.071845 -1.336333
正O -0.780100 -0.618294 -0.138958 -0.746419 1.486560 0.985306 1.621933 -1.965440 -1.136217 -0.557009 0.465768 -0.215333 -0.071416 -0.557038 -2.250374 -0.675731 1.332626 0.789742 -0.706327 -0.226909 -0.631506 1.125987 -0.932003 -2.516197 0.549738 -3.546200 -0.745382 -1.838899 -0.194270 0.918396 1.523940 1.008760 2.162612 -0.670084 -0.593497 -1.054342 -1.124525 0.338317 -2.637616 1.259452 1.426886 -0.806994 1.954200 -1.956578 0.487585 -1.835163 -1.526944 0.696992 0.082968 1.528519 -1.489989 -0.665637 -0.477107 0.138836 1.499922 0.717945 1.169813 -0.942632 0.128810 0.385379 0.089348 -0.248610 -0.040351 0.156753 -0.450190 0.558312 -0.518087 -0.613608 0.371116 -0.454307 1.780910 -0.691390 -0.385950 0.880464 -1.146930 1.486857 -1.114451 0.683968 0.426888 0.354885 -0.832012 0.667456 -1.232075 0.632285 -0.840056 0.351396 0.036291 0.704095 -0.059547 0.723138 -0.770653 1.256152 -0.391308 0.033179 0.396763 1.148593 0.467430 0.641760 -0.282854 -0.634203
切O 0.621281 -1.014896 0.223842 0.018459 1.217682 0.075004 0.759357 -1.908196 0.768660 2.024395 0.007103 -0.545080 -1.056223 0.672096 -0.446750 0.592258 -1.422450 -0.650267 0.927393 0.014403 -1.283275 0.504989 -1.179529 -0.976835 -1.274593 -0.070229 -1.100635 -0.830063 0.283910 1.261810 -1.347894 -2.592675 1.002088 0.924161 -1.504790 -0.662826 -1.789942 -0.249400 -0.712737 -0.436148 0.046147 0.954450 -0.018400 -0.317458 -2.126250 0.181588 -0.743947 -2.541555 -0.285548 -0.592423 0.468459 0.045639 -0.142131 1.290334 -0.762988 0.186386 -1.264116 -0.351594 -1.285636 -1.776701 0.012231 0.009133 -0.188995 1.197107 -0.644501 1.053889 1.937853 0.948941 -1.897734 0.013933 0.714691 -1.267334 -0.509279 0.828879 -1.777866 -0.576676 0.347162 0.867392 0.693597 1.354675 -0.591095 1.228583 0.200393 1.023096 0.515879 0.261983 -0.592755 -0.875621 0.120011 1.865059 0.845938 1.637246 -0.369270 -0.585715 -0.488629 1.098653 0.386217 0.794424 -0.999120 -0.738477
移O -1.136688 1.307930 1.262078 -0.495629 -0.505765 -0.417645 -0.627695 0.622509 -2.009399 1.878050 -1.270823 0.748474 -0.337859 -0.863580 -2.064428 -0.741604 -0.878833 1.238131 0.056660 0.035872 -2.667619 -0.449615 -1.256910 0.031530 0.474974 0.330683 -1.464347 1.072538 -1.050560 1.800229 -2.203028 -0.078789 -0.689229 1.996361 -0.603463 -0.435864 -0.611362 0.134809 -0.190573 -0.307331 -0.991376 1.335546 -0.205040 -1.057534 0.334451 1.233625 0.133135 -1.091563 -1.838561 -0.578135 0.931194 -0.903503 -0.026892 0.571971 -0.092980 1.115650 -1.935923 -0.726306 -1.558641 -1.667416 -0.696892 -0.688842 -0.470774 0.372434 -0.617602 1.959763 -1.938069 0.480896 1.084510 0.298772 -1.871187 -0.374559 1.564026 0.017999 -0.572874 -0.369838 1.352092 0.269765 1.024003 -0.224776 -1.013472 1.353424 -0.167389 -1.062447 1.868524 -0.561674 0.111455 0.452224 1.646349 1.436351 -0.179581 -0.349132 -1.561102 -0.393062 0.220326 -0.170070 -0.807817 1.355961 1.283610 0.285883
胃B 0.290362 -0.202009 -0.421689 -0.810909 0.804004 0.104932 0.181378 0.170207 -0.804581 1.311761 0.060985 -0.628681 0.111762 0.855894 0.707547 -0.816881 -0.917026 1.747367 -0.288918 0.022558 0.583939 0.427281 -0.157943 0.133072 0.390343 -0.138303 -0.075084 -0.213389 1.037703 0.037548 -0.075057 0.259838 1.288963 0.692626 -0.610351 -0.754213 0.002476 -1.018687 -0.064240 -0.378345 0.047437 -0.389741 -0.695537 -0.551113 -0.376712 -1.888519 0.221937 0.135374 0.142016 0.123904 0.666022 -1.174701 0.022661 0.501728 -0.745560 0.417685 0.960878 0.214804 -0.667507 -0.013300 0.125858 0.542673 0.032687 1.305572 -0.355670 0.567946 1.216742 1.105104 -0.313357 0.579399 -0.183928 -1.038218 -0.172047 1.215577 0.417313 -0.328858 -0.037562 0.847044 -0.784948 -1.108498 0.345132 0.054184 -0.443206 0.327327 -0.555704 -0.713072 -0.610172 -0.495648 0.145827 0.726232 0.587429 -0.150904 1.502640 0.187943 -0.355723 0.277698 -0.028566 0.079256 0.071542 -0.707925
中O -0.328308 0.365206 -0.249156 -0.281814 -0.243096 -0.842774 0.301481 0.183256 -1.121512 0.706488 -0.511205 -0.358418 -1.186756 1.001602 0.370445 -0.129338 -1.903050 0.606923 0.166296 0.668464 -0.499748 0.420222 -0.891352 -0.351534 0.131606 -0.362846 -0.502945 0.477897 -0.869944 0.659855 -0.248803 -0.972745 -0.946493 -0.296560 -1.090065 -0.858916 0.142528 -0.615279 -0.559627 0.401115 -0.036619 0.202568 -0.392813 0.539699 -0.705301 -0.002154 0.113456 -0.257734 -1.181093 0.042405 1.178730 -0.513090 0.378469 0.618309 -0.804647 0.326355 -0.327328 -0.442245 -0.894445 -0.382178 -0.214296 -0.142980 -0.486871 0.421664 -0.018469 0.540856 0.392704 0.550897 1.373722 0.397284 0.031079 -0.395143 0.481085 -0.334361 -0.370971 -0.890625 0.887401 0.022014 0.557113 0.826124 -0.502876 0.131759 -0.245938 0.165481 -0.357365 0.364973 -0.639232 0.475186 0.144062 0.531803 -0.298575 -0.663423 0.400826 1.206407 0.040308 -0.430593 -0.774420 0.737484 0.432321 0.271722
痛S -0.838471 0.693539 -0.387194 0.719198 2.313207 -0.767820 0.338823 -0.341481 0.913457 0.326201 0.772383 0.540664 -0.333573 -1.148196 -1.593878 -1.056879 0.863148 1.112493 0.342942 -1.314387 -1.185599 0.288442 -0.546722 0.405074 -0.636677 -0.389184 -0.244333 -0.914275 -1.199158 0.004590 -0.144453 -0.208818 -0.420468 -0.118633 -0.235099 -0.040217 -1.220193 0.123115 0.048576 -0.400061 0.862141 -1.193721 1.295449 -0.942898 0.032152 1.069698 -0.224730 0.073517 0.647555 -0.005571 -1.397533 1.618238 -0.026395 0.710977 0.914015 -1.260850 -0.223886 1.223328 -0.361716 -0.399725 -0.485456 0.535650 -0.347478 -0.833820 0.584390 0.590636 -1.624169 -1.975738 1.785589 0.204913 -0.839422 -0.738527 -0.984602 0.697511 0.510453 0.005154 -1.893608 0.294179 -0.523610 0.820114 -0.932960 1.396110 0.690303 -0.120343 0.860300 1.347181 0.569124 -0.964592 0.355209 -0.565035 -0.493347 0.069847 -2.266247 -2.205256 0.765018 0.514420 0.183791 0.843958 0.407361 0.584426
好O 0.058979 1.232362 0.762276 -0.257590 0.309705 0.100121 -0.102708 -1.016920 0.071975 0.125655 0.224131 1.545140 -0.837919 -1.023191 -2.661826 -1.346594 -0.790078 -0.169227 0.948619 -0.419645 -1.862438 0.093009 0.069699 -1.344337 0.622660 -0.900115 -1.176030 0.092922 -1.095718 0.761054 -0.207271 -0.208065 -0.149687 0.079499 -0.133201 0.677226 -0.836288 1.190097 -0.555625 0.667968 0.520879 0.909450 0.399736 -1.274632 1.241623 1.325045 -0.946325 0.396289 -1.616546 0.623130 -1.051470 1.126438 -0.846210 0.002242 1.769350 0.710008 -0.723446 -1.385371 -1.342306 -2.094237 -0.076294 -1.464544 -0.394070 -1.217688 -0.389916 -0.462484 -1.751574 0.328924 1.784281 -0.903868 -0.454381 -1.224826 -0.131642 0.454507 -1.781009 1.168595 0.379826 -0.585066 0.915445 0.970586 -2.199799 1.196000 -0.348971 0.283724 1.120713 0.498315 -0.403628 -0.182799 0.075658 0.722049 -1.547277 0.168196 -1.074449 -1.766282 1.235112 1.630188 -0.080224 0.786038 -0.476388 -0.983972
切I 0.511718 -1.420238 -0.627021 -0.742496 -0.319818 -0.373056 0.333919 -0.288885 0.292990 1.059654 0.794264 -0.763319 0.307085 2.742157 1.169545 0.442539 -1.738179 1.958192 -0.338717 2.039263 -1.467855 1.975699 0.117341 -1.441395 0.004602 -0.413472 0.248126 -0.519787 0.459690 0.178243 -0.041160 1.278634 0.785940 0.205112 -0.417253 -0.967043 0.583319 -0.094707 1.533958 0.830440 -0.693979 1.472319 0.011818 0.160481 2.065971 -1.834552 -0.659880 0.973813 -0.036343 -1.061320 0.826561 0.181919 -1.071011 0.011501 -1.251858 -0.499567 0.711875 0.617454 -0.742209 0.319549 0.018130 -0.933203 0.883540 1.353398 -2.651307 -0.171285 0.963675 0.624834 0.466099 -0.174300 -1.165101 -1.348094 0.251092 -0.661274 0.677651 -0.175560 -1.020362 0.096850 -0.700028 -0.353602 -1.760913 -0.738838 -0.968730 1.037250 0.962624 -1.465696 0.342795 0.635764 -1.132207 0.266391 0.415362 1.677075 1.540008 1.493080 0.443736 0.293074 0.142239 1.056704 -1.994769 -2.429610
侵O 1.357933 1.752049 0.202673 -1.326048 0.495746 -1.055019 -0.329951 -1.199137 -1.405226 0.938794 -1.574600 -0.609844 -1.782306 -0.028456 -1.897989 1.187290 -1.921043 -0.844383 0.794403 2.655885 0.758285 -0.778775 -1.683545 -0.543634 -0.434154 0.094239 0.422411 0.690802 0.349259 0.903385 -1.560506 -0.907762 1.255142 1.268086 0.036433 0.374402 -0.979537 -1.281509 -0.301930 0.048301 1.299614 1.007716 1.211054 0.745492 -0.726865 -0.348471 -2.189458 1.065574 0.138912 -0.436937 0.349729 0.198582 1.135219 2.059411 -1.010068 0.559578 -0.173756 0.832738 -0.958531 0.101715 0.368645 -1.221328 -0.404573 2.282344 -0.260592 0.345378 -0.511422 0.650590 -1.406102 0.826531 0.601660 0.620906 -1.040742 -0.187971 -0.254252 2.214074 -0.329935 1.181383 0.384085 -0.567915 0.395103 -0.710390 0.430755 0.561903 0.914478 0.102084 -0.388628 -0.275120 0.124646 0.176025 -0.117036 0.531250 0.138704 -1.356852 -0.169704 -2.707524 1.924940 -0.271670 -0.301792 0.667770
状O 1.301902 2.306587 0.641600 -0.753524 0.638942 -1.646445 0.492336 -1.401603 -0.505298 -0.304787 0.119785 0.484581 -0.192610 -1.179368 -0.823066 -0.162457 -1.861158 -0.737844 1.005393 0.156989 -0.596977 -0.200286 -1.073568 -0.437940 0.441748 0.194995 -0.733998 -0.093564 0.156683 0.253544 0.848425 -0.095138 -0.366263 -0.308256 -1.607874 0.436709 -1.140544 -0.231007 -0.237940 0.440046 1.322026 0.853692 0.835812 -0.709101 -0.722757 0.610976 0.261516 0.821386 -0.803514 1.290886 -1.244034 0.953661 -0.363722 0.678752 0.625664 -0.215010 0.281212 -1.065362 -0.655657 -1.179617 -0.358803 -0.936370 -0.370727 -0.462914 1.153782 -0.857465 -0.068644 0.406662 1.300307 1.036471 0.298068 -1.270264 -0.925181 0.672177 0.506788 0.723908 1.467841 -0.614128 0.217188 -0.128974 -0.844983 0.134731 0.185228 0.740102 -0.446379 0.881346 -0.476515 -0.099167 -0.256290 1.185558 -0.254091 -1.659723 0.340194 -1.491462 0.271406 0.118265 0.586363 -0.962567 0.241074 0.928239
年O -1.287309 0.009433 1.050888 0.005845 0.251050 -0.820417 0.168150 1.296240 -0.575151 0.679286 0.590558 0.351798 0.244730 -1.219013 -0.178522 -0.549803 0.928865 -0.087387 0.309529 -1.286116 -0.971236 0.239838 -0.396966 -0.036576 -1.024866 -1.126700 -0.144080 0.638609 -1.729370 0.236281 0.011968 0.679754 -0.957654 -0.074060 -0.305224 -1.356642 -0.640610 1.829205 -0.252922 0.039778 -0.633602 -0.474186 1.324405 -1.920413 0.588240 1.133951 0.919103 0.501575 -0.079339 0.013003 -1.830521 -0.492303 -0.412704 -0.106350 0.614776 0.516440 0.334013 0.816080 1.007550 0.312048 0.948054 1.038513 -0.705422 -0.703082 0.224931 1.084966 -0.782999 -1.161620 0.938299 -0.486969 -0.836746 0.625433 0.962844 -1.022335 -0.011291 -0.688530 -0.784156 0.839152 2.257114 1.068195 1.453983 0.593715 -0.638498 -0.851330 -0.258196 -0.507030 0.124993 1.602182 0.700423 -0.534454 -0.432949 -0.775688 -1.806754 -0.001569 0.693872 -0.173777 -0.841951 0.223760 0.424171 0.719210
等O -0.824899 0.311686 -0.254041 1.014579 0.922959 -0.978405 0.056558 -0.014716 0.797363 -0.592210 0.378821 0.508657 -0.951971 -0.786659 -0.654016 -0.643717 0.406271 0.227537 0.517696 -0.282906 -0.855809 0.422125 -0.151949 -0.409639 1.015259 0.152749 0.024128 -1.250528 -0.575439 -0.246188 0.603851 -0.125781 -1.166758 -0.574970 -1.271257 0.685308 -0.515236 -0.052203 0.722266 1.016439 0.458198 -0.591187 0.098301 -0.440672 1.036479 1.229478 -0.101112 -0.507077 0.105289 1.384705 -1.726611 1.844684 -0.360124 -0.081940 0.693664 -0.349573 -0.904905 -0.808311 0.197769 -0.744710 -0.028195 -0.929834 -0.663290 -0.257504 -0.068178 -0.635739 -0.404480 -0.696889 0.715560 -0.563730 -0.518170 -0.870453 -1.215176 0.729877 -0.283080 0.144393 0.007001 -1.546260 -0.499781 0.287603 -1.902163 0.867982 0.036955 0.932829 -0.067547 0.446977 -0.216180 -0.363396 -0.325383 -0.813033 -1.013529 -0.896017 -1.190368 -1.008459 0.618860 1.215921 2.098558 -0.086374 -0.683115 -0.602198
