5 100
O -0.181253 0.037434 -0.087868 -0.008103 0.154308 -0.036875 -0.180108 -0.064460 0.098591 -0.102383 -0.087647 0.087485 0.170963 -0.213774 0.026496 0.025593 0.127228 0.095416 -0.001322 -0.003095 -0.088106 -0.224902 0.184681 0.110942 0.181315 0.010478 0.065383 -0.015082 -0.114336 -0.129439 -0.123338 0.060473 -0.016071 0.047041 -0.079817 -0.241756 0.103039 -0.119860 0.067030 -0.002369 0.118383 0.158013 0.157045 -0.144826 0.152408 -0.121843 0.039755 -0.076796 0.031414 -0.148546 -0.096323 0.027479 -0.251818 -0.196611 0.101833 0.020551 0.089732 -0.056992 0.097251 0.122043 -0.035498 -0.083850 0.079634 -0.028052 0.066447 0.040289 0.026334 0.102607 -0.088859 0.107266 0.161853 0.039090 0.123934 -0.271099 -0.232374 -0.165837 -0.065411 -0.188065 0.048582 -0.105783 -0.249423 -0.138278 0.024892 -0.005085 -0.016456 0.026383 0.032403 0.095841 -0.195700 0.132023 -0.108916 0.092505 0.102227 -0.115051 0.214183 -0.014222 0.240605 0.124476 -0.082671 0.106553
I 0.511716 -0.808222 -1.045815 -0.884570 0.691516 -0.185461 -0.457394 0.210278 0.288240 0.000155 -0.528424 -0.154589 0.385778 -0.058017 -0.288004 -0.134255 0.295783 0.142560 -0.037768 0.394510 0.017512 -0.562745 0.654634 0.581726 0.362974 -0.302321 0.380051 0.194866 -0.718615 0.226641 -0.449698 -0.236753 0.370041 -0.287736 0.089637 0.386715 0.590718 -0.494158 -0.142184 -0.260736 -0.412736 -0.155813 -0.432847 -0.188813 0.472194 0.170343 0.228572 -0.618031 -0.568815 -0.493372 -0.113875 0.250687 -0.495553 -0.138424 0.370818 0.394975 -0.346426 -0.603223 0.742884 0.050282 -0.392416 -0.163191 0.266612 0.248185 0.149593 -0.014751 0.128753 0.428342 -0.273684 0.434074 0.750141 -0.382626 0.592971 -0.273420 -0.140308 -0.359549 -0.033740 -0.906358 -0.255853 -0.014466 -0.783063 -0.604077 -0.653045 0.226098 0.019860 -0.348433 0.548649 0.209945 0.172577 0.390243 0.152640 -0.336193 -0.165391 -0.683429 -0.022404 0.597881 0.275179 -0.029813 -0.484351 -0.049504
B 0.124591 -0.364313 -0.634298 -0.857584 0.570387 -0.049354 -0.348726 0.270870 0.123260 -0.027603 -0.538928 -0.017263 0.300034 -0.198836 -0.208341 -0.035542 0.354578 0.300645 0.159886 0.275156 -0.357299 -0.284549 0.442880 0.464236 0.553464 -0.229264 0.257516 -0.006328 -0.262092 0.004135 -0.652785 0.244776 0.114959 -0.343328 0.190501 0.193108 0.125321 -0.313923 0.038550 -0.259931 -0.279554 0.085097 -0.041962 -0.209806 0.357740 -0.272306 -0.178969 -0.359756 -0.285047 -0.320125 -0.126245 0.074090 -0.364230 -0.243374 0.254613 0.422415 -0.455572 -0.286977 0.472644 -0.048046 -0.227429 -0.108284 0.237183 0.163173 0.032443 0.098302 0.252474 0.388361 -0.110475 0.007500 0.508102 -0.045730 0.415353 -0.352151 -0.107527 -0.422988 -0.282383 -0.619364 -0.087659 -0.114189 -0.688650 -0.303288 -0.571746 0.127024 -0.182310 0.103213 0.269692 -0.043994 -0.247356 0.357344 0.041860 -0.357487 0.032852 -0.154807 0.130487 0.323958 0.600529 0.131032 -0.271529 0.117771
E 0.010358 -0.612782 -0.818258 -0.331243 0.752755 -0.232647 -0.712668 0.103276 0.389130 -0.194078 -0.211019 0.356632 0.458096 0.010499 -0.357406 -0.358002 0.171626 0.272294 -0.230710 0.361676 0.094502 -0.503048 0.218537 0.345168 0.243739 -0.395244 0.321884 -0.059744 -0.716834 -0.103677 -0.161862 -0.226330 0.416431 -0.169237 -0.028385 0.109390 0.524503 -0.254806 -0.121070 -0.087610 -0.058888 0.130997 -0.078998 -0.479563 0.524341 0.034824 0.368897 -0.536818 -0.529990 -0.183384 -0.143627 0.397277 -0.466280 -0.155900 0.586024 0.359952 0.059533 -0.380512 0.593314 0.113948 -0.262482 -0.415151 0.011455 -0.194179 0.139023 0.061497 -0.015005 0.410537 -0.261129 0.435115 0.773878 -0.350709 0.360843 -0.212009 -0.158222 -0.070978 -0.064512 -0.718784 -0.246363 0.215264 -0.715896 -0.341407 -0.318664 -0.148976 0.004498 -0.161915 0.433899 0.154394 -0.087622 0.494059 0.112859 0.183309 -0.178749 -0.571024 0.395558 0.401029 0.438389 0.345962 -0.133603 0.186653
S -1.051639 0.536399 0.138219 0.073827 0.569038 -0.091408 -0.567212 0.221737 0.098798 -0.365932 -0.273663 0.583659 0.412277 -0.268743 -0.146780 -0.197660 0.173178 0.357623 -0.062808 0.170898 -0.620815 0.003283 -0.175654 0.133487 0.555308 -0.221111 0.187187 -0.499675 0.074021 -0.508682 -0.482907 0.689303 -0.064016 -0.003215 -0.019356 -0.426803 -0.347720 0.085874 0.430102 0.005918 0.507024 0.718295 0.800679 -0.626741 0.385110 -0.810533 -0.294463 -0.137277 0.010742 0.133580 -0.261846 0.179978 -0.314353 -0.463031 0.421318 0.160414 0.092899 0.323556 0.065616 0.010195 0.220039 -0.325503 -0.144731 -0.511709 -0.153641 0.241562 0.080863 0.301958 -0.011970 -0.254865 0.405875 0.280271 0.069183 -0.239753 -0.028550 -0.067795 -0.515239 -0.195510 0.172502 -0.035869 -0.530369 0.133243 0.052453 -0.358724 -0.442503 0.606074 -0.243613 -0.173197 -1.018615 0.482617 -0.152153 0.400913 0.315141 0.353366 0.826358 -0.053426 1.035251 0.617116 0.334492 0.668634
