5 100
O 0.179060 -0.075593 -0.144312 -0.030533 0.050270 0.199724 0.220848 -0.004578 -0.045916 -0.026471 -0.127531 0.030483 -0.181035 0.090669 0.067959 -0.090020 0.157655 -0.128489 -0.083644 0.104729 -0.182737 0.033179 -0.106872 -0.069790 0.187782 0.071175 0.163776 0.146526 0.048096 -0.080695 -0.110696 0.003104 0.105880 0.117189 0.002116 0.151898 -0.087414 -0.012714 -0.179050 -0.133817 0.029736 0.152760 0.072682 0.107396 -0.048429 0.087367 -0.149739 -0.134565 0.118237 -0.110792 -0.008961 0.189971 0.049450 -0.001754 -0.107247 -0.030580 0.045786 0.068326 -0.162769 -0.069600 -0.016129 0.043378 0.059636 0.124298 -0.048402 -0.069050 0.037666 -0.166351 -0.145544 0.042002 0.079231 0.115541 0.196081 0.073782 -0.093448 0.160317 0.063861 0.032293 -0.133944 -0.080837 0.212337 -0.132917 0.056048 0.117622 0.075836 -0.199742 0.012997 -0.030266 0.083397 -0.061881 0.202371 0.090889 0.155850 -0.022260 0.158927 -0.137017 0.074644 0.089540 0.131494 -0.088716
I -0.342727 0.305360 0.242093 -0.466457 -0.361427 -0.637407 -1.106576 0.844333 -0.551394 0.645815 0.764146 -0.044475 0.398833 0.339415 -0.680706 0.805072 -0.598907 -0.135260 0.785662 -0.085207 0.504745 -0.263548 0.096126 -0.700890 -0.129491 0.462059 -0.603118 -0.286629 -0.873950 0.366692 0.089417 -0.749622 -0.411317 0.187852 -0.926385 -0.904720 0.121830 -0.783466 0.582590 0.982382 -0.228787 -0.819792 -0.574001 -0.000324 -0.743922 -0.684296 -0.121977 0.011174 0.249507 -0.338372 1.072055 -0.352932 -1.096044 0.521004 0.960376 0.120295 -0.807833 -0.103050 0.532886 1.101699 0.236722 -0.689767 0.126694 0.002488 0.204000 0.205134 -0.318745 0.176187 -0.041550 0.811101 -0.412624 -0.458485 0.424080 -0.459531 -0.677676 0.010660 -0.297976 -0.295313 -0.371181 0.604350 -0.135221 -0.092330 0.722665 0.603850 -0.333656 0.272433 -0.622532 0.239082 -0.651649 -0.787944 0.333289 0.729350 -0.034159 1.137248 -0.160560 -0.157004 -0.798909 -0.732305 0.159871 0.044061
B 0.066739 -0.048691 -0.365818 -0.550583 -0.472620 -0.066767 -0.166494 0.237937 -0.225167 0.162413 0.258590 -0.462829 -0.212106 0.291368 -0.314842 0.507286 -0.694168 0.029165 0.560923 -0.207731 0.482191 0.161368 0.468077 -0.173277 0.160128 0.341040 -0.329571 -0.247585 -0.668363 0.197171 0.161375 -0.214654 0.173074 -0.472080 -0.641453 -0.517375 0.055439 -0.368101 0.493572 0.313585 -0.606765 -0.504588 -0.437007 -0.032395 -0.531101 0.082221 -0.011613 -0.376547 -0.334600 -0.374676 0.676696 0.153315 -0.332206 0.323077 0.538862 0.056056 -0.754528 -0.116340 0.085318 0.766713 0.580423 -0.157224 0.079945 0.259577 0.270535 0.126763 0.038506 0.238592 0.241683 0.310809 -0.390882 -0.270063 0.090160 -0.240614 -0.109485 -0.183336 -0.080436 0.047591 -0.146855 0.406182 -0.154919 -0.061492 -0.037438 0.298833 -0.373102 0.202077 -0.035775 -0.156506 -0.514574 -0.623509 0.099353 0.540630 -0.090738 0.348834 -0.332565 0.032225 -0.190138 -0.735135 -0.340582 0.247487
E -0.553271 0.476381 0.598627 -0.040592 -0.211632 -0.644521 -0.748138 0.355786 -0.293867 0.333668 0.522308 -0.104394 0.509643 -0.076426 -0.151213 0.405025 -0.414645 0.261863 0.525573 -0.373742 0.441301 0.104063 0.419313 -0.156652 0.178243 0.439638 -0.290499 -0.032873 -0.228724 0.104984 0.344762 -0.238014 -0.069731 -0.355471 -0.575967 -0.024322 0.082256 -0.341984 0.424850 0.373197 -0.261887 -0.197432 -0.044687 -0.104229 -0.346812 0.035221 -0.079628 0.001148 -0.077193 -0.190432 0.652697 0.173694 -0.373962 0.251879 0.205614 -0.357078 -0.303357 0.043227 0.022167 0.450001 0.296190 -0.230655 0.192644 0.435331 0.275336 0.494409 0.271640 -0.035425 0.353531 0.314913 -0.238274 -0.005127 0.294004 0.020237 -0.492098 0.440925 -0.095006 -0.061808 -0.329155 0.097062 0.359245 -0.163510 -0.003638 0.304915 -0.094996 -0.117676 -0.030124 -0.262501 0.044609 -0.742651 0.266155 0.713525 0.394954 0.406174 -0.035849 -0.037138 0.173383 -0.780144 0.088383 -0.319765
S -0.319155 0.193889 0.142425 -0.073836 -0.291286 -0.144814 0.028471 -0.184225 -0.064069 -0.037681 0.093287 -0.488801 -0.021427 -0.118416 0.139215 0.179459 -0.558303 0.406752 0.348740 -0.463291 0.464448 0.476048 0.740362 0.280062 0.472707 0.395255 -0.103633 0.045283 -0.123265 -0.005494 0.409860 0.207458 0.439768 -0.915660 -0.403352 0.277316 -0.029256 -0.009629 0.332876 -0.208022 -0.642136 0.037266 0.015036 -0.093113 -0.223472 0.713192 -0.008644 -0.423791 -0.583626 -0.284287 0.394310 0.664279 0.239847 0.125425 -0.097874 -0.408169 -0.325080 0.074175 -0.353964 0.251440 0.634373 0.215128 0.205738 0.685870 0.303378 0.419920 0.573569 0.010002 0.581544 -0.078479 -0.240288 0.180825 0.014622 0.204841 -0.029842 0.267880 0.129930 0.263695 -0.124136 -0.096022 0.399902 -0.205495 -0.654538 0.087713 -0.185140 -0.184202 0.502539 -0.590966 0.146975 -0.669477 0.076727 0.618666 0.354691 -0.268384 -0.129312 0.084775 0.698408 -0.788606 -0.366743 -0.159926
