5 100
O -0.200829 -0.237141 0.168245 0.399508 0.064412 -0.110172 -0.037356 0.112766 0.189018 0.205065 -0.251181 0.195539 -0.040037 0.009557 0.037580 -0.009214 0.012370 0.056136 0.225612 -0.200268 -0.209236 -0.149761 -0.058824 -0.051840 -0.029699 -0.076019 0.221899 -0.113213 -0.011787 -0.138192 -0.198410 0.028304 0.281066 0.119917 -0.145421 0.082726 0.215096 -0.001591 0.128653 -0.190132 -0.121321 0.088710 0.170013 -0.044357 -0.053191 -0.201067 0.101054 -0.067240 0.152380 0.080159 -0.052966 0.273629 0.062693 0.238465 0.098246 -0.340570 0.297675 -0.054953 -0.079310 -0.049330 0.047561 -0.035167 -0.177033 0.253288 -0.183827 -0.260976 -0.069901 0.008059 -0.016149 0.066243 0.439734 0.145300 0.102224 0.111390 0.012865 -0.035465 0.055690 -0.135265 -0.245530 -0.367451 -0.038089 -0.209758 -0.366345 0.166194 0.299759 0.231332 -0.149547 0.196434 -0.121312 0.145918 -0.079158 -0.046823 0.312562 -0.416369 -0.133963 0.139179 0.367970 0.010679 0.097437 0.099327
I 0.130638 0.167275 -0.496213 -0.357023 -0.391301 0.522562 -0.059979 -0.205528 -1.197780 -0.433957 0.687774 -0.218422 0.613250 0.428604 0.242093 -0.061146 -0.317018 -0.012701 -0.048853 -0.132354 -0.031608 0.754559 -0.453632 0.078322 -0.625522 -0.237380 -0.089080 0.582000 0.543461 0.745620 0.278216 0.435136 -0.574970 -0.486890 0.138257 -0.332632 -0.112195 0.091656 -0.072801 0.877012 0.871825 -0.393665 0.176557 -0.352589 0.519197 0.170812 0.058797 0.397800 0.817628 -0.178799 0.214658 -0.208662 -0.459500 -0.621024 -0.836945 -0.113548 -0.406544 -0.431731 -0.387817 0.515474 -1.179306 -0.300024 0.341275 0.263260 -0.541254 0.283657 0.535317 -0.115632 0.675378 0.052030 -1.143946 -0.596413 0.115335 0.092449 -0.103775 -0.335126 -0.473945 0.367791 0.923279 1.299284 0.417518 0.657609 0.865402 -0.682077 -1.171237 -0.247382 0.222400 -0.148345 0.101881 -0.016506 0.009246 0.770268 -0.664856 1.019598 0.464043 -0.469058 -0.397706 -0.364070 -0.664171 0.015026
E 0.266136 0.131300 -0.356095 -0.615894 0.278788 0.281669 0.016904 -0.142524 -0.325179 -0.118892 0.515347 -0.280939 0.168080 -0.175892 -0.170617 0.021052 -0.309771 -0.010505 0.465651 0.174777 -0.225284 0.263117 0.113360 -0.252376 -0.180318 -0.520490 -0.378606 0.046259 0.621549 -0.135861 0.321146 0.418389 -0.517795 0.180011 0.063196 -0.098857 0.286458 0.328093 0.026788 0.221093 0.143650 -0.354614 -0.030211 -0.088442 0.075668 -0.293650 -0.285777 0.198714 0.349299 0.032051 0.000712 -0.364032 0.022382 -0.249778 -0.270620 0.062776 -0.280537 -0.166333 -0.288201 0.001175 0.036227 0.087928 0.345037 -0.435748 0.308205 -0.227837 -0.254118 -0.219670 -0.577175 -0.360215 -0.638184 -0.445152 -0.420981 -0.065012 -0.674704 -0.458324 0.232097 0.125714 0.636955 0.837082 0.387368 0.310893 0.606266 -0.513885 -0.265129 -0.254928 0.184279 0.137449 0.636190 -0.288951 -0.200995 0.243787 -0.369736 0.619234 0.308512 -0.561911 -0.238889 -0.425351 -0.039402 -0.202892
B 0.050223 0.725113 0.309739 -0.335422 0.114387 0.206916 -0.571533 -0.080955 -0.643072 0.027008 0.388006 -0.108541 0.043377 -0.231019 -0.252392 -0.071205 -0.113973 -0.291693 -0.081727 0.169249 -0.104266 -0.043922 -0.123358 -0.017587 -0.407029 -0.062009 -0.200750 0.274815 0.075119 0.229011 0.197320 0.071807 -0.245764 -0.254191 -0.117477 -0.002743 -0.295577 0.138325 -0.043837 0.114611 0.152891 -0.212795 0.007884 0.442232 -0.086918 -0.235519 -0.335398 0.058782 0.233604 0.315882 0.032689 -0.046909 -0.418878 -0.529671 -0.377137 0.295610 -0.295796 0.227561 -0.168777 0.208824 -0.258575 0.143173 0.060429 -0.029244 0.136598 0.217096 0.030155 -0.371384 -0.448859 0.106586 -1.272910 -0.224725 0.103460 -0.092147 -0.712577 -0.774788 -0.184580 0.479231 0.802568 0.866878 0.518582 0.599569 0.984718 -0.810109 -0.567106 -0.883588 -0.344379 -0.019912 0.343183 0.026692 -0.094424 -0.041312 -0.058760 0.703639 -0.215912 -0.101050 -0.639437 -0.412382 -0.155857 -0.190553
S 0.109487 0.511270 0.326927 -0.493277 0.704283 -0.025327 -0.339973 -0.057952 0.253604 0.207197 0.211753 -0.179657 -0.265794 -0.756059 -0.592752 -0.016809 -0.187205 -0.254344 0.564268 0.469005 -0.373987 -0.452413 0.398051 -0.382522 -0.006221 -0.436636 -0.478294 -0.219770 0.275898 -0.638409 0.262302 0.138403 -0.264289 0.436343 -0.164170 0.159492 0.164311 0.385547 0.108980 -0.418331 -0.495593 -0.201880 -0.142619 0.597855 -0.453842 -0.717900 -0.623947 -0.059881 -0.080477 0.511376 -0.131084 -0.174078 0.034734 -0.146726 0.169481 0.382577 -0.169855 0.399015 -0.112714 -0.267486 0.858352 0.483925 0.072463 -0.676012 0.869964 -0.361827 -0.728864 -0.445398 -1.526832 -0.289333 -0.649992 -0.136257 -0.408080 -0.187094 -1.213322 -0.884607 0.475020 0.170027 0.460874 0.387863 0.442462 0.220324 0.629757 -0.611276 0.276002 -0.741972 -0.333255 0.255744 0.820705 -0.223903 -0.335939 -0.428815 0.172169 0.327986 -0.293928 -0.268403 -0.421861 -0.423508 0.400273 -0.373368
