3044 100
，O -0.169176 -0.044740 -0.492777 0.381468 -0.321071 0.062121 -0.316265 0.459544 0.085478 -0.188871 0.160206 -0.437959 -0.395900 0.036227 0.452524 -0.289935 -0.509713 1.093865 0.570192 -0.697160 -0.141394 0.086042 0.055011 0.081992 -0.922795 0.063795 -0.505123 -0.191216 0.092167 0.133798 0.154898 0.406523 -0.474850 0.580446 -0.372207 -0.296228 0.490663 0.366015 -0.137803 -0.013292 0.104026 -0.097227 -0.041536 0.121104 0.288648 0.371547 -0.063271 1.011351 -0.428035 0.150725 0.685217 0.440007 0.250202 -0.707463 0.427068 0.003318 0.457396 0.735721 -0.838626 0.340394 -0.425981 0.271953 -0.747384 0.152893 -0.078451 -0.107205 0.452029 0.579366 -0.270531 -0.160707 0.303538 -0.406392 0.497295 0.180486 -0.846765 -0.587478 0.328243 -0.430444 -0.406018 0.066498 0.709962 -0.709639 -0.099584 0.258891 1.002774 0.075558 0.043814 0.239826 -0.563440 -0.342286 -0.023438 0.844706 -0.676676 0.541798 0.452709 -0.301046 -0.002465 -0.116661 0.139879 -0.053293
1O 0.163202 -0.328465 1.168705 -0.544227 0.103871 0.479059 -0.457797 -0.305058 -1.076203 1.062585 0.649391 -0.803053 -1.667637 -1.331537 -0.396369 0.132119 -0.725437 -0.326915 -0.422036 0.758861 0.782025 1.947982 -0.263217 -0.910805 0.209641 0.234913 0.605614 -0.924095 -0.405332 -0.019529 -1.358046 -0.916121 -0.194462 0.928603 -0.614007 0.122515 0.866196 0.621007 -0.486098 -0.362931 -0.063553 0.099263 0.400785 0.964004 -0.487977 0.689491 -0.207749 0.229886 -1.011317 0.298282 0.017234 0.883499 -0.113192 -0.444144 0.037078 -0.658132 0.138988 -0.856913 -0.815284 -0.694697 -0.509340 -0.919743 -1.441114 -0.851013 1.307379 0.806370 1.664489 0.654486 -0.386493 0.943003 0.889395 0.069042 -0.119547 0.490246 -0.679514 -0.321713 -0.986333 0.139099 1.300821 -0.234749 -0.288113 -1.254386 -0.200749 -0.039401 1.048202 0.146544 -0.266352 0.918657 -1.020317 0.007801 -0.974020 -0.537854 -0.245034 -1.562932 -0.378267 0.587732 -0.288361 0.896355 1.211664 0.942274
0O 0.201518 -0.264944 1.372637 -0.415624 0.650285 0.529954 -0.466928 -0.345095 -0.821999 1.252192 0.855608 -1.400411 -1.698758 -1.546829 -0.322408 0.496457 -0.211607 -0.420698 -0.090105 0.644295 0.994280 2.367636 -0.000043 -1.458507 0.320891 0.233962 0.734198 -1.286398 -0.397006 0.151977 -1.637777 -0.898841 -0.465951 1.137106 -0.316918 -0.154649 0.655841 0.334015 -0.541993 -0.434485 0.038416 0.093081 0.142523 0.950046 -0.631576 0.418138 -0.481833 0.558919 -1.473888 0.389004 -0.075032 0.543915 0.071160 -0.782114 -0.160580 -0.777509 -0.129751 -0.839875 -0.537036 -0.887542 -0.467779 -0.969480 -1.419585 -0.897281 1.651132 1.217679 1.715801 1.294392 -0.556811 1.307451 0.812534 0.005635 0.220700 -0.042747 -0.970185 -0.359429 -1.163866 0.160767 1.660426 -0.131156 -0.344760 -0.850549 -0.282975 0.274587 1.003965 0.318495 -0.400293 1.165617 -1.039706 0.326779 -1.134292 -0.666165 -0.287280 -1.861605 -0.585217 0.539934 -0.615909 1.088456 1.298555 1.216144
、O -0.884559 -0.996211 0.613304 1.447766 -0.139788 0.595513 -0.558196 0.568414 1.546849 -0.725778 -1.032795 -0.155588 -0.011347 -0.492256 0.066215 0.305053 -0.343306 -0.496999 -1.231086 -0.117663 0.539829 0.351216 -0.384850 0.385698 -0.638056 0.036138 -0.274864 -0.411957 -0.222760 -0.301733 -0.149982 0.350736 -0.569047 0.363507 -0.014094 -0.834769 -0.378349 -0.086314 0.592707 0.540383 0.912881 0.328797 1.001682 0.181940 0.990758 0.013963 -0.300358 1.261365 -1.273625 0.258291 -0.100213 0.803883 -0.008494 -0.956629 0.000932 0.045624 0.354291 0.669356 -1.032049 -0.746759 0.071107 0.619197 0.036184 1.110214 0.152663 0.155097 0.292888 1.199000 -0.553935 -0.682754 -0.354174 -0.343593 1.183024 -0.457349 -0.248099 0.034791 0.245075 0.134542 0.519587 -0.796738 0.159794 -0.201272 -0.317642 0.822512 -0.014477 1.014252 -0.038342 0.912512 0.025494 0.368603 0.051504 -0.265447 -0.045023 1.249360 0.141445 0.388518 -0.656424 0.211135 0.300264 -1.012369
2O 0.361409 -0.416001 0.912461 -0.895806 0.613460 0.405438 -0.486230 -0.563285 -0.865742 1.148281 0.592778 -0.955335 -1.405381 -1.315212 -0.526526 0.425887 -0.531128 -0.474219 0.186716 0.490050 0.619060 2.077617 -0.054874 -0.936039 0.208824 0.183151 0.886466 -0.746281 -0.168812 0.203878 -1.447546 -0.818845 -0.107740 1.057299 -0.358840 0.052141 0.673234 0.634360 -0.459912 -0.413843 -0.189673 -0.242280 0.302503 0.911506 -0.691581 0.542078 -0.447857 0.450958 -1.215915 0.211790 -0.130303 0.790956 0.009461 -0.282419 -0.006291 -0.900666 -0.123908 -0.895805 -0.394211 -0.597710 -0.678725 -0.947336 -1.345896 -0.941174 1.373459 1.054149 1.370682 0.992817 -0.729872 1.174443 0.532119 -0.029485 0.096896 0.220455 -0.849413 -0.327396 -0.826962 0.074969 1.158262 -0.347097 -0.203940 -0.842246 -0.374728 0.123424 0.860910 0.310199 -0.249058 0.818530 -0.604578 0.236846 -0.832421 -0.644494 -0.317695 -1.639760 -0.347901 0.644074 -0.340459 0.886120 0.878463 1.086844
。O 0.107655 0.052025 -0.849576 -0.662048 0.275907 0.229796 -0.637762 -0.336156 -0.589988 0.556379 0.417551 -0.387052 -0.664029 -0.101542 0.174181 -0.300848 0.166227 0.479119 1.295690 -0.674931 -0.186545 1.121314 0.467835 -0.662290 -0.860080 0.927411 -0.653574 -0.082187 0.344597 0.778721 -0.269387 0.197595 -0.138435 0.617613 -0.334507 -0.519950 0.304300 0.428660 -0.060759 -0.541245 -0.392066 -0.481808 -0.312678 0.003748 -0.626896 0.520553 -0.146983 0.766155 -0.253751 0.458051 0.191880 0.579035 0.884853 -0.220490 0.219538 -0.400867 -0.263906 0.134390 -0.734886 0.498172 -0.268545 0.124363 -1.262823 0.134204 0.112764 0.209245 0.273854 0.081430 0.072565 -0.077949 0.803304 -0.273483 0.396091 -0.374263 -1.073342 0.147486 0.133790 -0.718810 -0.074347 0.461501 0.223529 -0.229531 0.021496 -0.557266 0.911318 -0.023812 -0.179455 0.136343 -0.042753 -0.442902 0.216093 0.658265 -0.915421 -0.301969 -0.136711 -0.120327 0.056503 -0.565468 -0.288154 -0.088358
-O 0.055650 0.143926 1.454382 -0.965991 0.786804 0.193317 -0.900851 -0.622202 -0.701280 1.063566 0.735573 -0.885780 -1.464045 -1.994610 -0.657736 -0.171328 -0.527008 -0.863535 -0.458301 1.364946 0.511895 2.027014 -0.042677 -1.218011 0.912157 0.827232 1.070568 -0.549749 -0.769108 0.407443 -1.570494 -0.990286 -0.843004 1.527027 -0.437773 0.300043 0.256696 0.607948 -0.227760 0.127990 -0.319691 -0.105832 0.541493 1.019004 -0.834122 0.397481 -0.279155 0.699893 -1.107728 0.683559 -0.532323 0.825476 -0.080927 -0.473549 0.294728 -1.068201 0.068989 -0.750768 -0.932883 -0.611072 -0.105581 -0.340689 -0.761485 -0.754617 1.651077 1.510259 1.575933 0.871995 -0.832182 0.799703 0.625820 0.801115 -0.010776 -0.194352 -0.766038 -0.363481 -0.479148 -0.054757 1.811028 -0.125102 -0.347074 -1.183995 -0.479570 0.179005 0.787125 0.565669 -0.735141 0.906348 -1.018828 0.124554 -0.618496 -0.778192 -0.209148 -1.574837 -0.747966 0.355145 -0.011165 0.472028 1.453755 1.178913
）O -0.666140 -0.619148 1.344373 -0.392155 0.221373 -0.546523 -0.597630 -0.717102 -1.096998 1.039873 -0.100547 0.512881 -0.598983 -1.091050 -0.747847 0.016047 0.945531 -0.089687 -0.295419 0.596076 0.706567 1.162342 -1.000039 0.035250 0.695106 -0.161343 0.693988 0.188482 -1.154416 -0.413727 -1.730920 -0.835034 -0.126716 -0.464270 0.594103 -0.831407 0.239348 0.686497 -0.472300 0.647819 -0.023713 0.707673 0.100460 -0.183509 -1.064820 -0.335790 0.492048 -0.310895 -0.152339 1.259036 -1.022750 1.342148 -0.046573 -0.191565 0.016947 -1.241320 1.110396 -0.038914 -0.701381 -0.438115 0.158802 -1.070182 -0.541605 0.021792 0.976644 0.316493 0.372119 -0.522366 0.637950 0.128293 0.759545 0.574750 -0.708389 -0.800491 -0.822415 -0.179148 0.037261 0.531354 0.462977 -0.598211 -0.365466 -0.053949 -0.355512 -0.086902 0.416657 1.088299 -0.425805 0.909313 -0.388072 -0.613698 -1.383313 -1.135798 -0.042013 -0.733825 -0.571120 0.362576 -0.188871 -0.452326 1.026873 -0.421222
（O -0.380108 -0.704718 0.717963 -0.148768 -0.188955 -0.652123 -0.800882 -0.314742 -0.576296 0.751131 -0.351644 0.212247 -0.917493 -1.219406 -0.506466 -0.262751 0.904263 -0.015150 -0.175729 0.190290 0.830844 1.636778 -0.888843 -0.124173 0.135620 0.118426 0.257292 -0.107103 -1.200036 -0.032987 -1.203022 -0.729726 -0.811675 -0.099779 0.100609 -1.049046 0.294621 0.473781 0.184755 0.648314 0.375896 0.458652 0.155407 0.292935 -0.689370 -0.475536 0.694453 0.186313 -0.230119 1.248960 -0.712906 1.041103 0.102676 -0.523133 0.187185 -1.486389 0.815414 -0.042340 -1.510631 -0.490706 0.081330 -1.299926 -0.055546 -0.247582 0.362156 0.594386 0.694322 -0.422276 0.158023 -0.237857 1.021857 0.289787 -0.430551 -1.238117 -1.142558 -0.289021 0.136736 0.394289 1.409306 -0.334682 -0.016782 -0.780733 -0.384146 0.146225 0.192331 0.673923 -0.426521 1.106004 -0.666599 -0.582172 -0.934715 -0.886851 -0.192585 -0.752774 -0.682951 0.441001 -0.358320 -0.498694 1.212124 -0.409121
化O 0.382313 0.983142 -0.826827 -0.360400 -0.432842 -0.297644 -0.873311 -0.123452 -1.053987 1.171382 0.404863 0.527033 -1.805588 -1.433942 -0.359198 -0.605233 -1.233418 0.577137 -0.193191 1.020106 -0.798878 1.606294 0.018988 -2.266865 0.163848 1.253445 0.515580 -0.708212 -0.704914 1.463433 -0.369631 -0.305652 -1.676546 0.872932 -0.097494 -0.267634 0.161685 -0.142571 -0.720888 -1.499785 0.501489 1.143956 -0.847171 1.235156 -0.196842 0.031398 0.470690 -0.626663 0.984570 0.882482 -0.231480 1.059387 1.124760 -0.271390 1.243043 -0.847570 0.312778 -0.165662 -0.603003 -1.116268 -0.649833 0.288823 -1.075606 0.165372 -0.151546 -0.677764 0.674224 -1.681385 0.094128 -0.361491 0.344641 0.149114 -0.508116 0.370051 -0.333604 0.088797 -0.681879 -0.067561 0.027589 0.655890 -0.027650 -0.713594 -1.419080 -1.567430 0.279582 -0.509937 1.004585 0.050644 1.168956 -0.828554 0.038104 1.280417 -0.930293 -0.536240 -0.200800 -0.027340 0.693477 -0.886404 0.183339 0.010208
+O -2.009628 -0.190150 2.175889 0.569349 0.647127 -0.089235 -0.368851 0.123704 0.443650 0.123017 -0.039264 0.381090 0.105246 -0.946933 -0.710945 0.420221 1.108723 -0.602938 -0.844145 0.120131 1.256948 0.869296 -0.146102 -0.803315 0.960412 -0.442638 -0.170035 0.269889 -1.385548 0.109290 -1.670783 -0.320079 -0.324138 -0.121606 0.396757 -0.834308 -0.536787 -0.860242 -0.299304 0.568904 0.649102 0.918189 -0.272912 -0.063270 -0.945128 0.091033 -0.329296 0.390423 -0.726749 0.944692 -1.089889 -0.200064 -0.303472 -1.062747 -0.061142 -1.541665 0.697720 0.466540 -1.242151 -1.207762 1.097700 -0.957720 0.415415 1.139183 1.982609 0.897840 0.210165 0.162385 0.888360 0.192131 1.100499 0.939535 -0.245863 -1.844238 -0.810075 -0.910703 -0.176112 1.504707 1.319978 -0.086596 0.097184 0.674547 0.554768 0.888033 0.559229 1.301854 -1.481498 0.214941 -1.145785 -0.120159 -1.580701 -1.278671 -0.120320 -0.470249 -0.908487 0.430828 -0.903688 -0.379428 1.713968 -0.772324
5O 0.126155 -0.369574 1.142451 -0.270894 0.267793 0.653641 -0.384353 -0.171671 -1.108890 1.047982 0.715337 -1.079386 -1.402771 -1.093958 -0.435740 0.157209 -0.335767 -0.159059 -0.302874 0.560065 0.846694 2.020456 -0.478989 -0.971770 0.158453 -0.061310 0.528634 -1.002473 -0.587361 -0.330327 -1.541112 -0.640171 -0.316563 0.682324 -0.035812 -0.339005 1.065669 0.212583 -0.902083 -0.076935 -0.186672 0.346707 0.412207 0.593850 -0.574090 0.340373 -0.327620 0.063092 -1.046958 0.469247 -0.146382 0.774548 -0.156541 -0.855160 -0.041573 -0.625695 0.251963 -0.575533 -0.415874 -0.692668 -0.175654 -1.082361 -1.243511 -0.692709 1.335336 0.723634 1.508754 0.891052 -0.120031 0.744307 0.643915 -0.077362 -0.045374 -0.074402 -0.785978 -0.315247 -1.169523 0.098184 1.134837 -0.099586 -0.462039 -1.035232 0.005655 -0.230161 1.209259 0.364169 -0.388518 0.992274 -1.119356 0.237144 -1.227329 -0.301259 0.144582 -1.381675 -0.518292 0.643578 -0.424608 1.028469 1.122090 0.722802
4O -0.211590 -0.357571 1.069350 -0.270337 0.069037 0.394960 -0.555805 -0.040585 -0.887306 1.259376 0.699020 -0.824599 -1.513307 -1.110153 -0.272758 0.173981 -0.132433 -0.134540 0.141899 0.606809 0.727446 1.803989 -0.042584 -1.189098 0.061135 0.365488 0.510748 -1.062616 -0.357249 0.045418 -1.244599 -0.699576 -0.354924 0.771379 -0.459200 -0.301267 0.603855 0.432505 -0.462638 -0.586754 0.103864 -0.006445 0.168006 0.513532 -0.228663 0.467645 -0.091331 0.083272 -0.835674 0.417512 0.391816 0.602021 0.213779 -0.412667 -0.090558 -0.650140 -0.095578 -0.759941 -0.692359 -0.958863 -0.306573 -0.812824 -1.441066 -0.613422 1.310717 0.662367 1.510988 0.575685 0.085498 0.752821 0.955840 -0.043768 -0.002658 0.015647 -0.616436 -0.128171 -0.849619 -0.032561 1.205262 -0.199320 -0.489353 -0.665570 -0.271639 0.005595 1.009256 0.327884 -0.140353 1.226214 -0.722619 -0.121695 -0.751756 -0.333313 -0.432122 -1.417569 -0.580440 0.467462 -0.304730 0.575449 1.078915 0.563786
.O 0.394147 -1.223257 1.177548 0.615728 0.956154 1.115304 -0.489825 0.150832 -0.733848 1.174548 0.203312 -1.185549 -1.039467 -1.009083 -0.312116 0.767181 -0.773534 -0.940975 -0.197080 0.641287 0.764219 2.052742 -0.280670 -0.783892 -0.356776 -0.184129 0.871164 -1.193430 -0.348213 -0.354147 -1.676277 -0.693651 0.375632 0.696591 0.401427 -0.576075 1.236664 -0.431735 -1.449937 -0.267123 -0.576446 0.070768 0.069630 1.172713 -0.568723 -0.158716 -0.921882 0.825512 -1.449468 0.477595 -0.094581 0.862674 0.528346 -1.466461 -0.446856 -0.718435 -0.399433 -0.611246 0.066123 -0.435748 -0.585812 -1.570888 -1.348418 -0.993953 1.363112 1.227077 1.354388 1.693645 -0.782202 0.663411 0.049285 -0.355023 0.401038 0.208980 -1.541166 -0.916311 -0.945731 0.312937 0.820099 0.110619 -0.413148 -1.377552 -0.492533 -0.144712 1.130027 -0.383811 0.178425 0.849318 -0.667747 0.532404 -1.084546 -0.425833 0.717310 -1.190230 -0.528876 1.343757 -0.318307 1.909121 1.271009 1.352056
3O -0.114517 -0.484507 1.122418 -0.067508 0.045058 0.436145 -0.451685 0.052924 -1.015367 1.071946 0.454242 -0.704995 -1.101966 -0.720206 -0.187531 0.198392 -0.313965 -0.171883 -0.323984 0.504614 0.572621 1.534913 -0.372349 -0.768034 0.044776 -0.184749 0.339493 -0.899192 -0.512379 -0.416727 -1.418826 -0.582209 -0.252931 0.457143 -0.087504 -0.465712 0.808208 0.301913 -0.770456 -0.352280 -0.141348 0.372436 0.264302 0.414260 -0.579944 0.165950 0.014436 -0.120005 -0.768460 0.386561 0.228939 0.826944 -0.070334 -0.537952 -0.217142 -0.605443 0.189013 -0.474269 -0.660466 -0.810627 -0.179007 -1.157991 -1.165107 -0.644535 1.040671 0.576787 1.475536 0.644425 0.173324 0.498260 0.625195 -0.068458 0.012748 -0.001540 -0.572646 -0.033227 -1.134740 0.173015 0.951730 -0.284834 -0.584523 -0.894641 -0.107476 -0.049730 0.944015 0.481946 -0.125490 0.935605 -0.590563 0.074994 -0.876659 -0.184022 0.012412 -1.088819 -0.591094 0.568234 -0.490297 0.704911 1.114073 0.449703
者E 0.402814 0.826969 0.412099 -0.562588 0.606572 0.969933 -1.480222 0.425915 -1.383094 0.577152 0.289432 -1.074795 -0.969745 -0.899325 0.209174 -0.391257 -0.650267 0.511381 0.302113 0.325649 -0.699384 2.127317 0.797137 -1.994027 -1.037395 1.136212 -1.152103 -0.308952 0.660870 1.346877 0.565373 0.883376 -0.975856 0.551502 -1.265194 0.479296 -0.617703 1.073038 1.494539 0.581733 -0.224258 -0.910291 -0.468510 0.970129 0.288492 0.864266 -0.817167 0.763696 -0.434820 -0.246872 2.109460 -0.747305 1.224062 0.461463 -0.054561 0.105155 -1.528137 -0.641602 -0.009226 0.694323 0.018656 1.275952 -1.482924 -0.574327 1.437034 0.375418 1.532018 1.005715 -0.191869 0.855576 1.516083 -0.291300 1.189967 0.634854 0.878306 0.789938 0.336660 -1.016050 1.096810 0.446569 -0.157344 -0.198395 0.407371 -0.411034 0.796946 0.720353 0.135776 0.716236 -0.173305 -0.012083 0.529436 0.162028 -1.657350 -0.405772 0.756364 -0.663581 -0.433723 -0.120930 1.132118 -0.110642
患B 0.807820 0.432301 0.183744 -1.118268 1.192838 0.667726 -1.526866 0.801361 -0.705137 0.245738 -0.164561 -1.170484 -0.972593 -0.375233 1.055981 0.427878 -0.864455 0.510279 0.674130 0.426437 -0.739578 2.295295 0.613947 -2.114864 -1.650758 0.844062 -0.307663 0.194236 0.370583 0.837137 0.155248 0.897515 -0.848045 1.027817 -0.867881 0.119091 -0.364544 0.690693 0.727490 -0.176867 -0.071532 -1.781808 -1.325533 1.055058 0.601721 0.772313 -0.257770 0.816183 -0.612369 -0.739889 1.931424 -0.523836 1.296812 0.116707 0.013517 0.363839 -1.867648 -1.529938 0.133869 -0.277881 -1.027275 0.797819 -1.305292 -0.491555 1.032993 0.574494 1.696732 0.868953 0.007093 1.625481 1.673554 -0.872563 0.941867 0.192906 0.111086 1.322288 -0.033938 -0.407802 1.198892 -0.086155 -0.165394 0.256382 -0.125846 0.360249 0.016014 0.731621 0.082325 0.327155 -0.239304 0.374028 0.911188 0.494965 -0.567230 -0.562739 0.693155 -0.406130 -0.442744 -0.061416 0.922367 0.150363
行O -0.416638 0.785812 1.024032 -0.293389 -0.008114 0.574555 -0.469536 -0.340450 -0.647204 0.811693 0.577150 0.179672 -1.364772 -0.416667 -0.094048 -0.649727 -0.779439 -0.931532 -0.306542 1.003752 -0.543099 0.195635 0.459834 -1.281870 0.574764 1.647222 0.051296 -0.183035 0.214925 0.919271 -0.352990 -0.276382 0.718305 0.844792 -0.825708 1.619363 0.155732 0.430755 -0.820578 -0.675032 -0.505676 0.060188 0.388828 0.324536 -0.209346 0.945983 -0.311571 0.820049 0.154972 0.382937 -0.613722 -0.056224 0.673858 -0.161210 0.519412 -0.470560 -0.563493 -1.167121 -0.634474 0.090906 0.175683 0.860333 -1.198433 0.570813 1.224691 0.077917 0.755029 -0.506546 0.056819 0.033443 0.674893 0.626566 -0.498355 0.989485 -0.254398 -0.991997 0.302937 0.301541 0.544823 -0.018942 -0.869759 -0.357299 -0.869520 -0.064843 1.339393 -1.630836 -0.779348 -0.395205 -1.323466 -0.585016 0.354044 -0.508511 -0.292827 -1.428957 -0.571807 0.320612 1.013859 0.005790 0.299281 1.239478
后E 0.501105 -0.125717 -0.505918 -0.679395 0.584515 -0.878775 -0.693661 -0.323564 -0.434540 0.085206 1.281421 -0.077450 0.210630 -0.992641 -0.527579 0.243257 0.537996 -0.114729 1.604150 0.705428 -0.345478 1.445771 0.159871 -1.614221 -1.043059 -0.127331 0.364203 0.191420 0.626387 1.475303 0.256980 0.307047 -0.404764 1.015829 -0.679469 -0.350417 1.041210 0.250078 0.617982 0.654454 -0.277175 -0.846323 -1.639841 1.877898 0.062930 0.430015 -0.075668 1.179109 0.631480 0.809553 -0.390285 1.160813 2.147851 0.032818 0.132240 -0.962757 -0.252296 -0.682054 -0.964505 -0.127212 -1.156473 -0.844980 -0.728001 -0.505755 0.986490 0.690025 0.123401 -1.063632 -0.789470 1.553133 1.474320 -0.327510 -1.568280 -1.008100 -2.058647 -0.080640 1.732670 0.368585 0.052784 1.065539 1.066842 -0.058579 -1.188419 -0.836916 0.334567 -0.650462 -0.048645 0.935399 0.275800 -0.691363 -0.369856 -0.272825 -1.618365 -1.531875 0.637960 0.547256 0.264317 -0.610198 -0.201070 0.329019
院E 0.485571 0.567699 1.213687 -1.250183 0.551891 -0.482636 -1.282184 0.343513 -1.190764 1.875348 0.859009 -0.361845 -0.677206 -0.730700 0.830643 -0.053973 -0.625512 -0.311708 0.061579 1.169488 -1.043476 1.383564 1.252516 -2.127475 0.456497 1.450911 0.640764 -0.016146 0.608696 0.670936 -0.235327 0.697670 0.687294 0.755656 -0.779104 1.557008 -0.065068 1.200001 -0.852893 -0.714697 -1.053828 -0.737010 -0.957000 0.649770 -1.816246 1.188946 -0.055174 -0.167194 0.374818 -0.704694 1.135370 -0.658323 0.650314 1.185174 0.535140 -1.222004 -1.539482 -1.668893 0.047766 0.519345 -0.254220 1.388924 -1.051024 -0.793261 2.383295 0.345261 1.139219 -0.668008 0.152688 0.308904 1.075552 0.623254 -1.092905 1.140795 0.581419 0.189390 -0.102611 0.171193 1.358440 -1.115912 -1.769923 -0.515436 -1.361795 0.705780 1.762770 -1.468853 -0.093136 -0.334576 -0.195108 -0.052406 0.262015 -0.351845 -0.026184 -1.702780 -0.692598 -0.312585 -0.274823 -0.678419 0.559141 2.164932
见O -0.138087 -1.419488 -1.064559 -1.290935 -0.048826 -0.640348 -1.140321 -1.015374 -1.082924 0.406567 -1.099962 1.260356 -0.650500 -0.074315 -1.576728 0.330001 0.380845 0.004626 1.305202 -1.414841 1.424290 1.871741 -0.082216 0.946533 -0.830650 -0.164385 0.559535 0.779122 0.406103 -0.687334 -0.720942 0.119127 1.370533 -0.657942 0.742635 -1.714295 1.016034 0.962859 -0.497094 -0.011704 -0.684419 -0.148329 0.650274 -0.009504 -2.251994 1.263836 0.235990 -0.239368 -0.291710 -0.153417 0.029472 1.227795 -0.090375 -0.530804 0.265282 -1.329957 1.562786 -0.144833 -1.342981 1.364255 -0.764233 -0.397417 -1.600968 0.945247 0.782147 -0.432097 -0.939172 -0.625796 0.888901 -0.925037 1.412423 -0.929994 -0.139801 -0.234766 0.003051 0.437515 0.884387 -0.482675 -0.406115 -0.558902 0.710149 -0.289318 0.342660 -1.407919 0.742027 1.439951 0.477065 0.255148 0.202730 -1.364304 -0.562954 0.371829 0.077560 -0.875015 -0.260697 0.252511 -0.088251 -0.743502 -0.287508 -1.428660
于O 0.258146 -0.188750 0.587600 -0.918996 0.481822 0.078843 -0.901718 0.003893 -0.897489 0.942818 0.743581 -0.681263 -0.903087 -0.572719 -0.455797 -0.214537 -1.069502 -0.996373 0.319041 0.464149 0.071508 1.161211 0.786626 -0.297166 0.399566 0.375931 0.540737 0.059730 0.245322 0.596036 -0.660163 -0.612978 0.508485 1.001905 -0.317568 1.404964 0.479967 0.855980 -0.099339 -0.377653 -1.207859 -0.454836 -0.017357 0.934185 -1.446758 0.434566 -0.143212 0.032157 -0.873223 -0.532977 0.932344 0.009547 0.081932 0.336289 0.282052 -1.272945 -0.446995 -1.250830 -0.514294 0.398768 -0.399124 -0.142452 -1.053265 -1.031435 0.937453 1.214810 1.094684 0.881999 -0.678763 0.657226 0.317966 0.337496 -0.245406 0.640972 -0.401470 -0.290596 -0.398024 0.108959 1.316161 -0.615645 -0.485200 -0.830478 -0.535910 0.459055 1.316964 0.148244 -0.548254 -0.312049 -0.326466 -0.418050 -0.008967 -0.252825 -0.212672 -1.293311 -0.901920 0.033012 0.150668 0.709320 0.878893 1.497517
MO -0.982120 -0.298441 1.377782 1.063746 0.411468 0.639497 0.514469 0.765720 0.091427 0.785260 1.088037 -0.871083 -0.759920 -0.738028 -0.565648 0.383770 -0.050970 -0.213962 -0.353879 0.271996 1.858071 1.411095 0.115849 -1.534629 0.519459 -0.551417 0.843206 -1.358356 -0.866266 -0.911372 -1.556995 -0.691727 -0.538691 0.328938 0.892061 -1.158852 0.825215 -1.101975 -1.218005 -0.667812 0.248608 1.051738 0.244396 0.211214 -0.349976 0.144512 -0.901950 -0.528365 -1.320892 0.554617 0.264194 0.548891 -0.239599 -1.946959 -0.321953 -0.813953 0.614487 0.012985 -0.671888 -1.470702 0.489716 -0.745979 -0.622755 0.331677 1.272424 0.093493 0.603029 0.845634 1.032920 0.491050 0.497318 -0.022063 0.196152 -0.848761 -0.764579 -0.224281 -1.735270 0.496488 0.948355 0.253397 -0.113319 -0.269563 0.317985 -0.369150 1.466099 0.724473 0.359212 0.439336 -0.389659 0.252904 -1.542443 0.435875 -0.305368 -1.120930 -0.843002 -0.321486 -0.553954 1.272990 1.539904 -0.217410
术B 0.882836 0.193655 -0.778702 -0.219488 1.254363 0.324672 -1.345405 -0.005941 -0.681202 0.901627 0.003421 0.033490 -0.315287 -1.395568 0.057833 0.114420 0.697786 -0.651074 0.731402 1.348948 -0.047662 1.904539 0.215922 -1.173932 -0.574997 0.718068 0.069106 0.666743 -0.415190 1.095714 0.288275 -0.762135 0.358635 0.450727 -0.870277 -0.051160 0.299460 0.500959 1.084340 0.290933 0.328798 -0.681932 -0.799559 1.947442 0.265442 -0.343196 -0.265074 0.477277 -0.343455 0.780835 0.293586 0.215144 1.479828 0.062762 0.607818 -0.918696 -0.508742 -0.205512 -1.168683 0.398333 -1.310923 -0.654355 -0.539073 -0.993526 -0.295979 1.203390 0.055521 -1.500499 -0.436207 1.132776 1.224986 -0.029626 -1.677296 -1.135967 -1.255201 -0.098444 1.542712 0.636939 0.892528 1.889970 0.522532 0.322424 -0.205566 -0.590497 -0.490137 0.036699 0.025540 0.510109 0.831349 -1.977115 -1.197060 -1.284813 -1.500260 -1.369249 -0.327400 0.638691 0.107314 -0.827077 -0.126193 0.230256
无B 0.567129 0.835054 -0.066210 0.267248 1.495605 1.364765 -1.454164 0.752070 -0.400671 -0.709046 -1.569890 0.020510 -0.226348 0.340091 1.020395 0.526244 -2.581207 -0.161958 -1.897093 -0.008625 -1.992617 1.192208 -0.043993 -1.251007 -1.070624 -0.154744 -0.510071 0.515557 -0.152200 0.084808 0.089775 1.507280 -1.229570 0.444435 0.820619 -0.079635 -0.813954 -0.134272 -0.143271 0.690219 -0.449234 -0.334391 -0.295420 1.581417 -0.403143 0.164510 -0.604646 0.702349 -0.415066 -0.761450 1.161672 -0.335672 0.323154 -0.878579 0.203300 -0.028447 -0.665406 0.492948 0.312882 0.548674 -0.973575 0.936039 -0.092574 0.541727 0.515517 0.148222 1.297847 1.515190 -0.703682 -0.100408 0.136024 -0.542643 2.063537 0.916894 1.169848 1.530525 -0.213662 -0.170518 0.092978 0.006198 -0.210342 -0.425175 0.820791 0.438152 -0.309488 2.027820 0.535200 -0.770339 0.425656 1.294562 1.638790 1.529362 0.629200 1.321659 1.047937 -0.725096 -0.238754 -0.457843 1.183783 -0.611782
6O 0.223964 -0.352111 1.117333 -0.489904 0.598362 0.573000 -0.508132 -0.246020 -1.030171 1.044393 0.448245 -0.885634 -1.625862 -1.227461 -0.423541 0.233988 -0.122129 -0.526873 -0.474401 0.639902 0.545179 2.086001 -0.651155 -1.166652 0.213782 0.043391 0.681946 -0.816995 -0.644167 -0.159914 -1.494887 -0.784928 -0.378415 0.970022 -0.114412 -0.406875 0.735718 0.368179 -0.583775 0.008926 -0.246538 0.147137 0.615785 0.667828 -0.618619 -0.014236 -0.307808 0.558174 -1.030944 0.841107 -0.323503 0.962836 0.177514 -0.990641 0.000627 -0.823828 0.080201 -0.671259 -0.413641 -0.519292 -0.162363 -1.109580 -1.195107 -0.609085 1.122293 1.030015 1.702619 0.841791 -0.323674 0.715638 0.578014 0.186381 0.156311 -0.043772 -0.945538 -0.074648 -1.032356 0.193808 1.292680 -0.056087 -0.604193 -1.098449 -0.312269 0.112548 0.967616 0.551107 -0.663910 1.003074 -0.976874 0.251408 -0.828378 -0.455824 0.202180 -1.375619 -0.628450 0.540573 -0.220987 0.745241 1.102557 0.901018
IO -0.709518 1.870827 -0.024991 0.830244 1.090985 -0.594165 0.800896 -0.619326 0.728368 0.750485 1.870754 -0.767469 -0.528189 -1.819757 -0.669507 -0.826101 0.652841 -0.430053 -0.307790 0.740710 0.552630 2.166024 -0.483517 -1.533046 1.693052 0.238354 1.240806 -0.828270 -1.853997 0.151751 -0.419288 -1.057432 -1.901612 1.561904 1.338862 0.125933 0.594005 -0.259906 0.317503 1.005081 -0.415062 1.552455 -0.118032 0.433966 -0.670370 -0.310229 -0.254431 -1.458543 0.016072 1.493962 -0.466914 0.883217 0.359999 -1.330231 0.642536 -0.388256 0.993236 0.881705 -0.343546 -1.137573 0.312064 0.649848 0.295947 -0.192260 0.294666 0.570927 -0.594047 -0.662158 -0.800021 0.634739 0.537508 1.452790 -1.808624 -1.974619 -1.647417 -0.081428 -0.785026 -0.259836 0.822833 1.503078 0.101752 0.690724 0.185604 -0.601327 1.866224 1.359582 -1.436393 -0.075233 -0.747156 -0.581040 -0.696071 0.686234 -1.029405 0.141561 -1.008108 -1.862888 0.507943 0.344880 0.586030 0.409332
腹B -0.524540 -0.500986 0.271754 -0.833460 0.424300 1.351985 -1.493302 -0.203415 -0.383024 -0.819610 -1.018848 0.581585 -1.173201 0.374607 -0.799121 0.487155 -1.185461 -1.340491 -0.926839 -0.118443 -0.667029 -0.022698 -0.105278 -0.039896 -0.071360 -0.381852 0.919701 0.434400 0.555746 -0.168085 -0.226086 0.836696 0.625910 0.151703 0.433346 0.918439 0.089486 0.476340 -0.687486 0.413374 0.101236 -0.237991 2.147982 1.141647 -0.682636 0.834001 -0.707566 1.745456 -0.549484 -0.355674 -0.255014 -0.514411 -0.284657 -0.751653 0.037140 -1.153543 0.354787 -0.505693 0.099718 1.106423 0.018124 0.277483 -0.640975 1.911456 0.562747 -0.058720 0.038980 0.660339 -0.817243 -0.335372 -0.164097 -1.011048 0.548410 0.939899 1.629801 -0.052710 1.385439 0.661642 -0.078172 -0.645080 -0.572463 0.002938 0.000071 0.491867 0.063861 0.770507 -0.389321 -0.337773 -1.180317 0.180510 0.804588 -0.288610 0.878663 -0.518246 0.119603 1.057592 0.298729 -0.483140 -0.059677 -0.045763
“O -0.341066 -0.527102 1.120934 0.862166 0.214293 -0.106126 -0.617226 0.528461 0.063928 0.706518 0.188677 -0.232762 -0.054414 -0.140565 0.342503 0.228232 -0.118522 -1.153461 -0.113439 0.372411 -0.521448 0.267751 -0.040130 -0.546022 -0.201358 0.183649 0.244983 -0.103132 -0.210911 0.468711 -0.146428 0.043986 0.912907 0.175479 -0.438123 0.999625 0.770687 0.207961 -0.602054 -0.001563 -0.182984 -0.026196 0.246159 0.402851 -0.215030 -0.147849 0.114796 1.276613 -0.112222 -0.105810 0.112770 -0.585286 0.793285 0.294816 0.381209 -0.591757 -0.667275 -0.727063 -0.126027 0.211909 0.161599 -0.635189 -0.614213 0.018782 0.886802 0.440070 0.285505 -0.036698 -0.761284 -0.041834 0.360311 0.178504 -0.599629 0.883613 -0.703299 -1.194020 0.475319 1.028927 0.700368 -0.453533 -0.711300 -0.742246 -1.530029 1.334334 1.063677 -1.751112 -0.533157 -0.117523 -1.207166 -0.308267 -0.203897 -0.710795 0.013841 -0.620401 -0.278244 1.134623 -0.194707 0.579191 0.242908 1.638358
”O 0.015429 -0.014379 0.015286 -0.460648 0.711543 -0.005817 -0.555574 -0.279429 -0.410104 0.938255 0.751448 -0.300616 -0.169691 -0.387153 0.182231 0.076392 -0.176793 -0.521679 0.644774 0.340180 -0.397422 0.726983 0.910752 -0.956709 0.178110 0.721611 0.082622 0.164147 0.176763 1.002346 -0.405283 -0.212525 0.379419 0.673024 -0.144123 0.558090 0.544755 -0.009623 -0.496494 -0.564235 -0.646702 -0.517707 -0.666196 0.898659 -0.983452 0.319649 0.170751 0.469857 0.120827 0.189433 0.115586 -0.178921 0.601970 0.432976 0.311544 -1.076430 -0.451924 -0.366033 -0.634409 0.032555 -0.520667 -0.664729 -0.588091 -0.512068 0.795815 0.846492 0.306020 -0.272710 -0.529284 0.463306 0.663898 0.197549 -0.916496 -0.023728 -1.014684 -0.565887 0.222911 0.551590 0.438793 0.088477 -0.235192 -0.421126 -0.487510 0.018873 0.816942 -0.788688 -0.443094 -0.172005 -0.039245 -0.282294 -0.134772 -0.243428 -0.676373 -1.183855 -0.633924 0.621848 -0.011278 -0.323779 0.331707 0.921789
：O 0.200878 -1.444113 1.238640 0.987388 0.437745 -0.987496 -0.787627 0.015867 -0.712620 1.256197 -0.221733 0.518978 -0.577337 -0.525823 -0.117939 0.450989 1.737425 -0.537407 0.419022 0.423533 0.241706 0.520056 -1.466793 -0.161820 0.133480 -0.878601 1.104666 0.350125 -0.797008 -0.383938 -1.160609 -0.589008 0.079559 -1.201970 0.891406 -0.262962 0.740714 0.686449 -0.406389 0.826905 0.233504 0.433118 0.336978 -0.108458 -0.530600 -1.792316 0.370377 0.876614 -0.101589 1.950186 -0.672127 1.665796 1.111478 -1.170494 0.630261 -2.495164 0.484605 -0.385148 -0.787056 0.303436 -0.123583 -1.643586 -0.313507 -0.322894 -0.149700 0.270793 0.615081 -0.528165 0.819570 0.328086 0.281234 -0.209365 -1.032007 -0.681963 -1.622486 -0.648827 0.537301 1.289159 0.610851 -0.516981 -0.738141 -0.365097 -1.141702 0.806828 0.799711 0.139687 0.384083 0.724817 -0.261851 -0.886640 -1.157945 -1.647601 0.138761 -1.172157 -0.372957 -0.079158 0.089354 -0.730159 0.952003 0.539549
疗O 0.451836 1.153083 -0.651874 -0.615859 0.035144 1.019873 -0.830214 0.068999 -0.724864 1.389824 0.831981 0.288001 -1.999002 -1.234851 0.721571 -0.914100 -2.136336 0.858938 -0.233185 1.577509 -1.347988 1.504120 0.903798 -3.434494 -0.015574 2.317687 0.285274 -0.346920 -0.271349 1.323832 -0.716285 -0.300150 -1.943448 1.028187 0.158542 0.141058 -0.587796 0.108092 -0.936474 -1.437443 0.212988 0.086054 -0.474113 1.407581 0.426497 0.859524 0.222974 -0.981856 0.927234 1.469082 -0.221853 0.800608 1.124764 -0.341097 0.954414 -0.615771 -0.285593 -0.352897 -1.303209 -1.560150 -1.389382 1.137474 -0.690862 0.204980 0.582462 -0.518619 1.335190 -1.473251 0.379487 -0.507451 1.016925 0.111976 0.671751 0.521642 -0.159019 0.672299 -0.733930 -0.516093 0.018160 0.629963 -0.756718 -0.688669 -0.374506 -1.530393 0.418331 -0.695056 1.538488 0.019740 0.857886 0.111794 0.840151 1.575669 -1.440230 -0.834031 0.232738 -0.490662 1.269511 -1.450173 1.359713 -0.834887
无O -0.294396 -0.088288 -0.127575 0.670337 0.428305 1.051100 -0.916424 0.531000 0.663270 -1.281077 -1.337370 0.185676 0.116887 0.277095 0.047662 0.588748 -1.938779 -0.225046 -1.877579 -0.265649 -0.575869 0.480451 0.035662 -0.035477 -0.557984 -0.866766 -0.014990 0.436602 0.054833 -0.436928 0.185395 1.283682 -0.566305 -0.032320 0.774890 -0.204591 -0.272773 -0.147279 -0.316643 0.605314 0.079093 0.242528 0.751062 1.062848 0.028264 0.764244 -0.652664 0.018878 -0.562391 -1.031677 0.464531 -0.141679 -0.681778 -0.964728 0.224678 -0.082096 0.505219 0.835111 -0.022677 0.186789 -0.655978 1.128151 0.114653 1.312273 0.553750 -0.281105 0.189862 1.094341 -0.212023 -0.459742 -0.486761 -0.991005 0.928499 0.624592 1.627551 0.781455 0.004460 0.094410 -0.255376 -0.461140 0.154645 0.102078 1.140059 0.177334 -0.114742 1.906304 0.312299 -0.274249 0.203062 0.840700 0.409812 0.850172 0.909312 1.106983 0.737745 -0.226500 -0.192479 -0.341760 0.103319 -1.239853
癌E 0.492945 -0.225831 0.085894 0.327383 0.789834 -1.513078 -0.253828 -0.331196 -0.713689 1.741973 1.110541 -0.244334 0.015166 -0.903797 -0.564501 -0.335899 -0.206719 -0.988584 0.616879 0.903858 -0.305615 1.331239 -0.470267 -0.238240 0.815921 -0.015792 1.596152 -0.280376 -1.091608 0.323699 -0.911014 -1.253888 0.137335 0.165219 1.046448 1.372671 1.525077 0.728730 -0.497187 0.513079 -1.338870 0.737640 -0.283131 0.566141 -1.652204 -0.779718 0.802402 -1.355024 0.542064 0.501938 0.183837 0.488988 0.393139 0.997315 0.512838 -1.492947 0.426802 -0.764221 0.200876 -0.390891 -0.496133 -0.927576 -0.557861 -1.595717 -0.168106 0.381534 -0.322147 -0.829338 -1.374263 0.781646 0.046344 0.299875 -2.049953 -0.141496 -1.446780 -1.075737 0.015243 0.368052 0.556836 -0.439011 -0.246212 -0.338202 -1.923250 0.151534 1.549176 -0.839081 0.023381 -0.348575 -0.333701 -0.971582 -0.736031 -0.435812 -0.642579 -0.682487 -0.781969 0.065206 0.228712 0.820269 0.763187 1.859055
可O 1.094944 0.095034 -0.189313 0.139062 0.159933 -0.990905 -1.020817 0.230429 -0.354433 -0.649590 -0.624228 -0.008620 0.649847 0.002404 -0.016091 0.315333 -0.838698 0.104904 -0.173044 -0.130791 0.120858 1.224060 -0.858452 0.646011 -1.123112 -0.839541 -0.321173 0.927305 0.229537 -0.556506 0.967100 0.678767 0.314520 -0.340615 0.185154 0.471165 0.274422 0.849466 0.903265 1.098445 -0.182879 -0.018460 -0.157277 0.665425 -0.358519 0.298058 0.550693 -0.592537 -0.305373 -1.215668 1.534881 0.501648 -0.026061 0.141517 0.326676 0.716201 0.241371 -0.433197 -0.129649 0.940110 -0.621429 0.736378 -0.593210 -0.312829 -0.458301 -0.503404 -0.389686 -0.170276 -0.207317 0.280957 0.710171 -0.497209 -0.612567 0.563251 0.646434 0.469733 0.742419 -0.200813 -0.035181 -0.024690 1.069269 0.042337 -0.048299 0.429538 0.292266 0.999216 0.566762 -0.427136 -0.011302 -0.544623 -0.451549 0.055945 -0.207253 0.544461 1.057359 -1.146171 -0.397491 0.535774 -0.063172 0.071772
未O 0.387043 -1.106548 -0.837624 -1.647881 0.114478 -0.407810 -1.271864 -1.134640 -0.860369 0.143452 -0.888195 0.613494 -0.401508 0.078333 -1.062355 0.760813 0.377047 0.080034 0.889212 -1.209448 0.508282 1.661832 -0.243649 0.049063 -1.303309 0.043339 -0.152712 1.127050 0.583475 -0.331247 -0.388580 0.719193 0.710270 -1.002225 0.669743 -1.240553 0.049971 0.437417 -0.567868 -0.015208 -0.288683 -0.941043 0.435970 -0.129394 -1.646874 1.031481 0.200480 0.078547 -0.078025 -0.419430 -0.143866 0.849978 -0.021375 -0.282339 -0.001425 -0.519165 0.676651 -0.001545 -0.315722 1.103586 -0.296782 -0.080423 -1.296247 1.089406 0.618644 -0.502008 -0.785930 -0.382719 0.910523 -0.649216 0.992963 -1.006465 0.248315 0.103104 0.542248 0.785182 0.396863 -0.922877 -0.528795 -0.182800 0.371865 0.012784 0.586233 -1.107332 0.181687 0.999465 0.246722 -0.010473 -0.126870 -0.206179 -0.318773 0.424745 0.457601 -0.391053 0.445757 0.222349 -0.339645 -1.294960 -1.087636 -0.893749
癌O 0.502949 -1.390321 -0.470049 -1.803589 0.326844 -1.436370 -1.311205 -1.571502 -1.348657 0.967487 -0.480907 0.620785 -0.500903 -0.605951 -1.786883 0.703212 1.072889 -0.283332 1.180755 -0.804675 1.442546 2.622897 -0.490866 0.131518 -0.461804 -0.216406 1.097758 1.090644 0.189214 -0.602629 -1.214235 -0.163209 0.939072 -1.230123 1.266514 -1.357175 0.755109 1.329212 -0.785002 0.157053 -0.571319 -0.405353 0.675040 -0.172264 -2.806067 0.665282 0.696358 -0.779913 -0.327511 -0.271838 -0.189806 1.598904 -0.365454 -0.002109 0.105531 -1.633047 1.643246 -0.693984 -0.659560 0.873000 -0.548618 -0.817318 -1.488383 0.407502 0.642394 -0.419696 -1.120866 -1.008870 0.914166 -0.331026 1.301217 -0.736228 -0.972969 -0.394043 0.099608 0.555287 0.262179 -0.488607 -0.012318 -0.732901 0.315606 -0.110679 -0.327153 -0.892630 0.833967 1.265732 0.561180 0.199139 0.144771 -0.846322 -1.285082 -0.238209 -0.001515 -1.400551 -0.268563 0.060922 -0.620655 -0.958113 -0.619922 -0.361925
及O -0.000404 -0.960977 0.002430 0.298803 -0.312586 -0.158280 0.095632 -0.493309 0.824052 0.052132 -0.796056 0.115330 0.060073 0.119779 -0.751565 0.392875 0.547867 -0.044575 0.321204 -1.046415 1.125959 1.164033 -0.822908 0.714767 -0.936320 0.267096 0.313436 0.000428 0.187479 -0.254481 0.339462 0.074418 0.769810 -0.627999 0.625113 -0.620569 -0.023752 0.667517 0.005735 0.414867 0.137170 0.151579 0.553770 -0.574303 -0.011639 0.837665 0.029386 -0.398128 -0.677818 -0.120563 0.405920 0.696808 -0.403611 -0.041849 0.027826 0.516444 0.542755 -0.225435 0.169155 0.427316 0.053893 0.642106 -0.985053 1.285790 0.521832 -0.834044 -1.193251 0.029752 0.133853 -0.707466 0.188596 -0.390311 -0.079609 -0.047007 0.093480 -0.084494 0.423865 -0.536989 -0.321146 -0.898097 0.437609 0.501740 -0.336080 -0.094926 0.738269 0.016793 0.260055 0.442443 -0.332739 -0.517023 -0.004829 -0.110300 0.151223 0.576964 0.124809 -0.156464 -0.656927 0.551336 -0.779779 -0.608878
病O 1.238940 -0.595738 0.157943 0.294796 0.771671 -0.983900 -0.806383 0.318801 -0.641928 1.021853 0.176919 -0.496605 -0.321511 -0.639139 0.307569 0.918250 1.904977 0.682153 1.693445 -0.148977 -0.141158 1.956796 -0.504430 -1.611313 -1.489411 -0.121031 0.347881 0.549435 0.230719 1.387809 0.331525 0.339468 -0.388951 -0.241136 -0.059979 -0.335917 0.282723 1.044480 1.010394 0.337060 0.943781 -1.042330 -1.658678 0.994274 0.543604 -0.731972 0.287624 0.529459 0.207980 0.694985 0.886661 0.282675 2.106629 0.329119 0.887991 -1.014293 -0.993263 -0.984129 -0.169424 0.582165 -1.487156 -1.362359 -0.948605 -0.642557 0.303685 0.260155 0.983341 -0.994805 0.948515 1.319989 1.524177 -1.185418 -0.750655 -0.616534 -1.064513 0.230685 1.288006 0.318721 1.104121 0.167412 0.236639 0.454228 -0.607526 0.820938 -0.014387 -0.344031 0.689206 1.715910 0.663606 -1.271317 -0.596570 -1.426375 -1.368597 -1.691350 0.387709 -0.410550 -0.381039 -1.261506 -0.025366 0.271595
巴I -1.459524 -2.239967 1.140710 -0.503590 -1.406390 -0.584951 -1.937276 -0.052172 -1.158188 0.644784 -1.103722 1.112054 -1.052356 -0.429849 -2.328316 -0.594686 -0.263235 -1.429138 0.333829 -0.104875 2.395472 2.095776 -0.524189 1.379697 -0.603800 -0.471765 0.333184 -0.007046 0.223670 -1.079173 -1.628185 -1.046359 1.599764 -0.226831 0.475981 -0.724292 0.687122 1.655682 0.805267 0.143040 -0.804138 0.582825 1.725241 -0.210539 -2.173632 0.821983 0.866748 -0.964153 -1.443581 -0.631428 1.036159 1.595251 -0.498797 -0.331542 -0.554244 -1.417897 1.000399 -1.795821 -2.625835 0.251431 0.406660 -0.827325 -1.930482 0.861931 0.970594 0.226902 -0.114338 -0.159028 0.955279 -0.920672 1.336820 -0.825102 -0.000077 -0.505188 0.581178 0.101188 0.387327 0.303564 1.651696 -1.433545 -0.130498 -0.014059 -0.549362 0.128643 0.548122 2.248206 0.152295 1.285103 0.382505 -1.773412 -0.378194 -0.918764 -0.296291 -1.257058 -1.647059 0.631014 -0.692598 1.121572 1.460969 -1.193802
CS -0.144327 -0.591773 1.369036 0.316572 0.271120 0.031071 0.242331 -0.208477 -0.687171 0.831255 1.039216 -0.381413 -0.686771 -0.592530 -0.509960 0.552751 1.128125 0.030863 0.134472 0.103769 1.559695 1.184895 -0.513979 -0.780470 0.793396 -0.932615 0.748117 -0.502738 -0.700521 -0.616428 -1.479630 -0.098510 -0.205033 -0.702412 1.078001 -0.710753 0.982007 -0.707089 -1.502314 -0.314526 0.471579 1.337899 0.569294 -0.271699 -1.002596 -0.243791 -0.296290 -0.097221 -0.707919 0.974543 -1.089270 1.037672 -0.223004 -1.794763 0.157016 -1.177674 1.075025 -0.095112 -0.203632 -0.413872 0.296690 -1.070437 -0.414785 0.284271 0.884496 0.035515 0.050019 0.241118 0.993177 0.183681 0.524879 -0.211397 -0.609708 -0.794583 -0.808995 -0.572475 -1.003166 0.891276 0.456927 -0.046490 -0.294847 -0.420646 0.330077 -0.074685 1.395732 0.169240 0.106920 0.400632 -0.954971 0.276030 -1.929376 -0.443163 0.325803 -1.393787 -0.408739 -0.422318 -0.539199 0.208268 0.871743 0.484020
为O 0.002711 0.485889 -0.664852 -0.181827 -0.747136 0.116698 -0.940662 -0.014857 -1.225971 0.373301 -0.250807 0.471396 -1.181656 -0.237404 -0.234677 -1.407336 -1.243031 0.362371 -0.124007 0.784206 -0.855960 0.770917 -0.655273 -0.237165 -0.826784 1.110657 -0.352309 -0.409991 0.047508 0.421251 0.060451 0.176480 -0.178301 0.369610 -0.403377 0.798552 0.722720 1.041572 0.264699 0.038330 -0.246033 0.396792 0.221327 0.423882 0.471684 0.386197 -0.280247 -0.260095 0.614173 0.122028 -0.094804 1.043633 1.012508 0.019348 0.493036 -0.323081 -0.137076 -0.552547 -0.754613 0.188579 0.153685 1.071173 -1.357178 0.096624 -0.548387 -1.159285 0.539227 -1.253870 0.448183 -0.249424 0.330798 -0.399574 -0.306182 0.502644 0.120004 0.042113 0.399805 -0.697014 -0.183691 0.266017 -0.293955 0.019337 -0.494283 -1.674933 0.271086 -0.515460 0.395374 -0.272577 0.208731 -1.291073 0.407543 0.460134 -0.248999 0.204861 0.246038 0.355774 1.149309 0.037904 -0.081759 -0.355513
结E -1.116316 -2.100743 1.119359 -0.687113 -1.186123 -0.396152 -2.027975 -0.391821 -1.314865 0.881410 -1.241997 1.003448 -1.217165 -0.488085 -2.575029 -0.187020 -0.468255 -1.875810 -0.223665 -0.215187 2.427068 2.228608 -0.431738 1.124649 -0.619524 -0.345641 0.275373 0.103552 0.146939 -1.233021 -1.656207 -0.996192 1.566565 -0.294629 0.262389 -0.817311 0.432463 1.636915 0.681437 0.379005 -0.943122 0.416820 1.907371 -0.245278 -2.318239 0.839787 0.836739 -1.140780 -1.473698 -0.582445 1.355374 1.722247 -0.761454 -0.465836 -0.944876 -1.555847 1.307896 -1.891800 -2.462196 -0.078361 0.556813 -0.967273 -2.015656 0.701704 1.476029 0.144418 0.279901 0.089172 0.978050 -0.793208 1.519527 -0.520503 0.189425 -0.328563 0.729821 0.701328 -0.248672 0.240240 1.569086 -1.488808 -0.316493 -0.244252 -0.248520 -0.375942 0.716491 2.599998 -0.115534 0.994645 -0.271513 -1.550330 -0.258079 -0.622444 -0.249037 -1.435180 -1.585466 1.067145 -0.500514 0.950084 1.604097 -1.410299
/O -0.569168 -0.681609 1.338650 -0.261015 -0.575850 -0.302376 -0.791144 -0.075839 -0.852560 1.038603 0.432948 -0.489904 -0.940554 -1.320387 -1.316164 -0.287430 -0.138524 -0.629695 -0.430921 0.927428 2.048698 2.134818 -0.557341 -0.159701 0.251284 -0.392833 0.920948 -1.072185 -0.787636 -1.077669 -1.748137 -1.236450 -0.488138 0.463406 0.292803 -0.876276 0.770956 0.717748 -0.016990 0.088767 -0.218345 0.859655 1.133467 0.031175 -1.029414 0.417484 0.561653 -1.344406 -1.244992 0.051424 0.588546 1.695638 -0.881499 -0.688554 -0.468370 -0.682736 1.156829 -0.883175 -1.479719 -1.205971 0.327402 -0.772619 -1.129643 -0.408647 1.130994 0.603488 0.847456 0.370150 0.442000 0.207854 0.937949 0.069201 -0.314994 -0.815769 0.039674 0.514347 -1.091729 -0.232983 1.642192 -0.549564 -0.187286 -0.556511 -0.101329 -0.283876 0.765587 1.803087 0.190412 1.468975 -0.461513 -0.523331 -1.170092 -0.277664 -0.364470 -1.229893 -1.110921 0.038648 -0.544922 1.130899 1.442049 -0.298920
GO -2.157485 0.427688 2.392309 1.519216 0.792115 1.123638 0.110062 0.890642 0.470761 0.913237 1.063829 -0.832884 -1.094355 -1.668597 0.033271 0.778865 -0.656203 -0.427147 -1.433634 1.265668 1.655576 1.876928 0.997993 -3.133322 1.229900 -0.194882 0.374375 -1.798431 -1.099493 -0.153653 -2.167090 -0.187597 -1.337349 0.980898 0.104463 -1.164144 0.389637 -1.712226 -1.517374 -1.662971 1.122563 1.704383 -0.509944 1.032717 -0.459906 0.798640 -1.132105 -0.078736 -1.067504 0.652172 -0.642642 0.096354 0.079045 -2.033865 -0.416864 -1.135448 0.562436 0.675172 -1.360987 -3.195947 0.215051 -0.382788 -0.667346 0.342167 2.306804 0.643399 1.537835 0.963609 0.949043 1.081780 1.045547 0.328846 0.522361 -0.676298 -0.889846 -0.275391 -2.636047 0.983057 1.496819 0.546619 -0.229634 0.024354 0.566269 -0.099194 1.275180 0.966900 -0.089163 0.394339 -0.425134 0.890455 -1.794444 0.350475 -0.615860 -1.224835 -0.793994 -0.019079 -0.876724 0.385674 2.183441 -0.219854
DO -2.120129 0.989627 1.529577 0.583693 0.852958 0.630290 0.379330 -0.182804 0.547809 1.029156 1.242590 -0.275976 -1.348326 -1.803228 -0.352101 0.068816 -0.716674 -0.567795 -1.049718 1.119380 0.663968 1.430447 1.013547 -2.560089 1.778826 0.951659 0.544127 -1.169700 -1.345874 0.782676 -2.085685 -1.019119 -1.341220 1.642589 0.071777 -0.430169 -0.088922 -1.330561 -1.194100 -1.374283 0.542395 1.069977 -0.684820 1.211898 -0.470709 0.927749 -0.984611 -0.077690 -0.609723 1.106801 -1.215201 0.077019 0.279754 -1.255839 -0.030123 -1.137942 0.424432 0.527051 -1.460046 -2.675423 0.048519 -0.161762 -0.448460 0.550104 2.134891 0.834264 1.057750 0.064772 0.151522 0.597559 0.873022 1.254020 -0.179916 -0.919798 -1.261300 -0.882519 -1.597208 0.631471 0.919070 0.811398 -0.043976 -0.038047 0.245104 -0.415172 1.135026 0.375299 -0.898444 -0.033100 -0.395313 0.360781 -1.075759 0.044688 -0.921421 -1.094685 -1.175157 0.190969 -0.112794 0.102084 1.837698 -0.027824
7O -0.057153 -0.592450 1.410917 -0.530915 0.321329 0.382064 -0.682187 -0.339053 -1.260015 1.251437 0.423050 -0.749764 -1.639853 -1.334340 -0.848658 -0.034307 0.190095 -0.614900 -0.397578 0.772027 0.728627 2.116598 -0.939300 -0.846497 0.244352 0.248337 0.610025 -0.692216 -0.822413 -0.273176 -1.714363 -0.932623 -0.367433 0.814306 0.015063 -0.488574 0.724387 0.684341 -0.431023 0.342570 -0.342217 0.155637 0.898265 0.388909 -0.790588 0.072515 -0.013731 0.314002 -0.932557 1.058854 -0.158077 1.277574 -0.016478 -0.871729 0.046654 -0.953537 0.353603 -0.804689 -0.822219 -0.471561 0.121527 -1.213174 -1.403940 -0.431988 1.436110 1.095205 1.714964 0.611222 -0.088397 0.373128 0.817832 0.406622 -0.152739 -0.292622 -0.907031 -0.097765 -0.792779 0.131912 1.346938 -0.203339 -0.713389 -1.140648 -0.214112 0.099879 1.216008 0.855632 -0.866137 1.362936 -1.189634 -0.099817 -0.891373 -0.730235 0.230232 -1.464298 -0.876079 0.622316 -0.267240 0.548967 1.334063 0.574864
淋B -0.848952 -1.902122 0.618610 -0.271736 -1.683338 -0.739192 -1.755278 -0.474660 -0.797275 0.987964 -1.227065 1.192600 -1.231804 -0.678316 -2.352045 -0.456890 -0.147809 -1.503374 -0.030076 -0.395914 2.484929 2.142556 -0.737502 1.335978 -0.621516 -0.153827 -0.095129 0.075868 -0.275233 -0.600580 -1.523955 -1.195297 1.241684 -0.708080 0.215206 -0.577600 0.324452 1.366708 0.930117 0.346858 -0.505379 1.111308 1.373923 -0.429356 -1.823975 0.440640 1.155762 -1.666801 -1.156227 -0.227988 1.423285 1.975513 -0.411156 -0.459379 -0.735488 -1.761695 1.413243 -1.713619 -2.652879 -0.273804 0.404925 -1.059272 -1.557599 0.642934 0.670258 -0.226083 0.243371 -0.632511 1.106595 -1.331824 1.333547 -0.452110 -0.285557 -0.724851 0.297914 0.387699 -0.296078 0.450501 1.604753 -1.522658 -0.345390 -0.215572 -0.665403 -0.437867 0.787333 1.984537 0.274049 0.942034 0.034711 -1.929233 -0.287971 -0.664215 -0.593678 -1.072158 -1.807118 0.791593 -0.309229 1.028116 1.764732 -1.486054
术E -1.460911 0.711816 -0.438956 0.182362 1.115768 -0.893948 -0.417190 -1.339718 0.892696 -0.134114 -0.384193 1.881009 0.598146 -1.169425 -0.060692 0.589411 1.553540 -0.360217 0.556909 -0.200663 0.077082 0.744567 0.435224 -0.354010 0.679617 -0.291210 0.174962 1.065985 -0.698662 1.790951 0.505136 -0.640812 0.116506 -0.134780 -0.183727 -0.066316 -0.910126 -0.591543 0.195212 0.686974 0.582172 0.154297 -2.866251 1.530608 0.047390 0.828159 -0.602047 -0.343702 0.539314 0.713942 -1.646580 -0.950900 1.274518 0.297113 0.281318 -0.953228 0.111381 0.987937 0.006678 -0.868388 -1.215397 0.035302 0.337152 0.776919 1.289935 0.549879 -1.329747 -1.707157 -0.312431 1.467884 1.226835 0.746273 -2.136005 -1.351331 -1.276998 -1.345849 2.169805 0.896555 -0.043749 1.300122 1.350254 2.709150 0.343241 0.222529 -0.257759 0.405647 -1.310859 -0.424407 -0.249761 -1.384177 -1.060671 -1.480889 -0.945198 0.399275 -0.240905 0.261435 0.716912 -1.474414 -0.596500 -0.356746
下O -0.976092 0.445639 0.837124 -0.139590 0.022954 0.707317 -0.397780 -1.569814 -0.408956 0.048135 -0.985483 1.211857 -1.245351 0.161669 -0.823742 -0.344135 -0.081685 -0.698873 -0.826435 -0.255591 -0.572063 0.869835 -0.942168 -0.178434 0.300897 1.377017 -0.039208 -0.049673 -0.353590 0.260384 -0.411244 -0.350685 1.234251 0.000894 0.194033 0.370587 0.068350 0.319356 -1.519211 0.502674 -0.633522 0.171120 0.485433 -0.444828 -0.968694 1.007124 -0.206709 0.552216 0.473989 0.943973 -1.665434 -0.409237 0.192264 -0.345859 -0.015343 0.119407 0.113732 -0.066453 0.221201 0.462618 0.854392 0.097337 -1.332888 1.997839 1.245263 -0.637361 -0.335226 -0.677879 0.229478 -0.757176 0.655815 0.254545 -0.116172 0.723159 -0.328352 -1.267992 0.862579 -0.413621 -0.303300 0.164745 -0.837509 0.316394 -0.529572 -0.797394 0.939316 -1.135725 -1.498628 -0.212657 -2.442098 -0.813852 0.429708 -0.316236 0.992061 -0.061281 -0.902497 1.363971 0.573199 0.098951 -0.489996 0.049231
个O -0.578070 -1.418348 1.613473 -0.956039 -0.800577 0.089512 -1.833416 -0.285296 -1.570218 1.333033 -0.879086 0.224586 -1.262167 -0.668299 -1.298761 -0.092027 -0.482043 -1.211967 -0.391625 0.437192 1.168290 2.172587 -0.766347 0.274049 -0.762585 0.457534 0.268612 -0.396662 -0.069627 -0.784320 -1.710412 -0.715443 0.562623 -0.134413 -0.158413 -0.541390 0.192577 1.672701 0.269459 0.198796 -0.429688 -0.059311 1.302960 -0.211753 -1.341923 1.038648 1.133939 -0.690934 -0.940381 -0.388538 1.379078 1.303383 -0.681944 0.581810 -0.556981 -0.553840 0.358667 -1.725420 -1.672275 -0.426260 0.373409 -0.926867 -2.085919 0.211175 1.865547 0.340937 1.292925 0.211396 0.591241 -0.557693 1.460213 -0.068109 0.413068 0.313390 0.936472 0.826485 -0.460453 -0.238867 1.551895 -1.511661 -0.722108 -0.709628 -0.380572 0.005144 0.557906 1.807152 0.143922 1.505951 -0.591338 -0.584656 0.145293 -0.569136 0.034189 -0.991984 -0.872240 0.956106 -0.782579 0.520400 1.510371 -0.740756
明I 0.163162 0.777135 -0.520227 -0.099096 1.948007 1.047917 -2.069286 1.100567 -1.506127 -0.270170 -1.933978 0.745705 -0.527927 1.100070 1.378266 0.300297 -2.535907 0.154213 -1.170326 -0.763392 -2.874151 1.175832 0.205949 -2.145301 -1.570870 0.461787 -1.284020 1.467916 0.041333 0.447791 -0.379139 1.372731 -1.377836 0.448342 1.015832 -0.356960 -1.399171 -0.605648 -0.589660 0.317751 -1.230328 -0.554176 -1.511429 1.184889 -1.653696 -0.706948 -0.172857 0.634491 0.499668 0.127720 1.623047 -0.861125 1.344538 -0.844647 0.212188 -0.528439 -1.214707 0.722330 0.030141 0.684354 -0.398119 0.539169 -0.581966 0.760352 0.015739 -0.014557 1.869453 0.957532 -0.024496 -0.761966 0.577419 -0.301709 2.778189 0.839182 0.493628 1.819155 -0.638396 -0.421281 -0.372357 0.496247 -0.659579 -0.170498 0.424728 -0.028822 -0.015079 2.045169 0.376516 -1.554660 0.834609 0.627490 2.245033 2.302706 0.682046 1.218926 0.126702 -0.573371 -0.091448 -1.664463 1.524952 -0.660639
疗E -0.286481 0.640385 -1.056160 -1.455242 1.087772 -0.289586 -0.389643 -1.459964 -0.053853 1.222308 0.204048 -0.117236 0.207854 -1.121912 0.329812 -0.081739 -0.440394 -0.293213 0.389692 -0.526159 -0.846150 2.121711 1.682988 -1.228553 -0.059069 2.547412 -1.060869 0.778152 1.151355 2.053651 -0.409867 0.190756 -0.600639 1.061339 -0.188144 0.767319 -1.283731 0.379053 0.593323 -1.370824 -0.050879 -0.885626 -1.815107 0.985067 -0.484303 1.593546 -1.362797 0.095258 0.465718 -0.051814 -0.733872 0.677397 1.710446 1.269099 0.524310 -0.309629 -2.219748 0.023182 0.745195 -0.354513 -0.773149 2.739399 -0.516341 -0.413707 1.244746 0.007708 0.175594 -0.168710 -0.024794 0.288605 0.516393 -0.361119 -0.384017 -0.339171 0.183452 0.501493 -0.447964 -0.489594 0.692772 -0.159826 -0.129862 1.394476 1.328377 -1.106310 0.102660 -0.055616 -0.686008 -1.330584 1.711582 1.281632 0.790591 -0.687954 -0.582135 0.472991 0.644802 -0.463217 0.585684 -1.296979 -0.774547 -0.411196
切O -1.087581 -0.384277 0.552528 -0.209553 0.752693 -0.285528 -0.552472 -1.645450 0.381097 0.073481 -0.796281 0.707861 0.200778 -0.459097 -1.684452 0.801008 1.837678 -0.297140 0.258576 -0.789679 0.533568 1.852896 -1.209909 0.295864 -0.778369 1.049751 -0.775416 1.334277 -0.841559 0.614197 -0.427003 0.372646 0.791461 -0.760728 1.010917 -1.377455 -0.304498 -0.071474 -0.090453 2.036328 1.152384 -0.393071 -0.424866 0.238056 -0.917600 1.054099 0.330999 0.671158 0.073361 0.653942 -1.169311 -0.602779 -0.389984 0.531220 0.597922 -0.181764 1.258583 0.495524 -0.480210 0.608060 0.463404 -1.011454 -0.522745 2.137031 1.791280 -0.276316 -1.674509 -1.381703 0.025523 -1.058696 1.669508 0.623574 -1.401816 -1.280756 -0.367898 -1.219019 2.285397 0.791616 -0.291544 0.229956 0.936064 0.877464 -0.078684 0.119627 0.241151 0.011714 -1.384400 0.896854 -1.635492 -1.385901 -1.578577 -1.045967 -0.410483 -0.098581 -0.042953 1.726852 -0.799773 -1.247077 -0.275199 -1.746108
痛E -0.195435 0.715130 0.361559 -0.098946 0.673239 1.542252 -1.500565 0.795186 0.200557 -1.320508 -1.438253 -0.090143 -0.579192 0.390841 -0.084429 0.328663 -3.216663 -1.393512 -2.439122 0.087626 -1.330506 0.429799 -0.038903 -0.180766 -0.178389 -0.462166 0.443670 0.402961 0.505287 -0.345159 0.182054 1.406959 -0.499895 0.478395 0.660785 1.576285 -0.465149 0.184670 -0.082575 1.034716 -0.140213 0.207982 2.113486 1.914321 -0.496588 0.920255 -0.811728 0.919473 -0.748905 -1.915255 0.823001 -0.724211 -0.695276 -0.693431 0.404276 -0.412722 0.014562 -0.287169 0.278829 0.861434 -0.008458 1.915539 0.157309 1.510192 0.698575 -0.300472 0.364129 1.633963 -1.277667 -0.699967 -0.642437 -1.029885 1.414171 1.481419 2.923592 0.820057 0.479680 0.488765 0.305084 -1.163572 -0.556069 0.114405 0.319355 0.840146 -0.031279 1.534797 0.011655 -1.138487 -0.594723 1.324192 1.694066 0.471284 0.736814 0.551404 0.963085 -0.322318 0.252348 0.291628 0.500879 -0.374533
体O 0.346018 0.159400 -0.415526 0.733655 0.556110 0.192544 -1.046695 -0.141465 -1.285901 -0.111044 -1.416355 0.671220 0.007168 0.316881 0.335928 0.193238 -0.253711 1.022645 -0.516762 -0.511292 -1.331084 1.355065 -1.499421 -0.436924 -1.497047 -0.054343 -1.199482 1.204078 -0.737807 -0.012582 0.186769 1.001541 -0.495991 -0.871123 1.100884 -1.380980 -0.006409 0.101565 -0.567689 1.292517 -0.724056 -0.319829 -1.618525 0.099450 -0.426753 -0.465715 0.414248 -0.479951 1.223870 0.637850 0.487518 0.207674 0.862240 -0.682927 0.431008 0.611593 -0.133152 1.214992 0.036920 0.683137 -0.479101 -0.347438 -0.638422 0.349692 0.163506 -0.478996 0.565272 -0.610515 1.155710 -0.662198 1.115740 -0.306807 0.325113 -0.001250 -0.272034 0.482320 -0.209448 -0.531408 -0.714586 0.911770 -0.243804 -0.224994 1.028121 -1.172325 0.238238 1.341962 -0.127376 0.319230 -0.291191 -0.734837 -0.017904 1.174727 0.929469 1.200001 0.557463 -0.023320 -0.000026 -1.109884 0.658924 -1.534661
后O 0.871523 0.636641 -0.979179 -0.925891 0.002954 0.753874 -0.630650 0.081246 -0.276535 -0.243295 0.480196 -0.792630 -0.738597 -0.553012 0.011206 -0.462941 -1.271255 0.470584 0.634828 -0.337160 -0.392915 1.091054 0.484339 -1.001091 -0.674816 0.498087 -0.198558 -0.230970 0.620424 0.770496 0.463208 0.754470 -0.828864 0.855657 -0.209343 0.413794 -0.242967 0.439580 0.209037 -0.386853 0.197695 -0.080764 0.653551 0.398823 0.294156 0.886380 -0.611954 0.216949 -0.624991 -0.483477 0.432746 0.305864 0.400943 -0.376086 0.532496 0.256426 -0.516318 -0.375250 0.310127 0.380925 -0.437729 1.465053 -0.617588 0.437611 0.115745 -0.258415 -0.146250 0.360551 -0.636102 -0.018671 0.138916 -0.616297 0.912676 0.273453 0.284063 0.420769 -0.103736 -0.650385 0.099342 0.126763 0.100376 0.054925 0.128034 -0.210073 0.617589 0.227340 0.600015 -0.257431 0.114845 0.274214 0.504978 0.932065 -0.741367 -0.132806 0.860270 -0.869072 0.346044 -0.164593 -0.415269 0.042503
出O 0.181220 1.152446 -0.963672 -0.898304 -0.122268 1.571761 -1.169646 0.491868 -0.611779 -0.324784 1.087929 -1.994288 -0.805399 -0.366845 -0.499665 -1.001882 -1.288928 0.192766 1.328952 -0.109017 -0.097798 2.011745 0.104548 -1.282793 -1.247905 0.594686 -0.482364 -0.985810 0.002113 0.915777 0.777306 0.679836 -1.228476 0.961053 -0.285077 0.056044 -0.114091 0.545415 -0.385090 0.107973 -0.081389 0.487716 0.966614 0.719130 0.436514 1.621271 -0.426670 -0.758138 -1.160252 -1.174582 0.823357 -1.097344 -0.044201 0.097745 0.167481 0.855991 -0.289702 -0.264689 1.081273 0.042684 0.405718 1.596330 -1.181673 1.120767 0.760749 -0.387120 -0.437887 0.525730 -0.784723 -0.057716 0.711889 -0.099123 0.822660 -0.479626 0.470973 0.333758 -0.109036 -1.387384 0.281684 0.230327 -0.095706 1.480209 0.041115 0.082844 1.643008 0.318952 -0.369582 0.618257 -1.489731 -0.705991 0.086772 1.756379 -0.541564 -0.029396 0.561380 -0.287898 0.399772 0.059917 -1.232587 0.303085
示O 0.172420 -1.995165 1.384578 1.403444 0.544359 -1.094034 -0.763682 0.325981 -0.357334 1.036074 0.050685 0.331327 -0.454567 -0.625978 0.103348 0.633433 2.343491 -0.722096 1.010478 0.189009 0.505852 0.326851 -1.588223 -0.232574 0.007516 -1.311849 1.527674 0.249713 -0.317718 -0.188668 -0.637925 -0.212681 0.857962 -1.181020 0.725409 -0.032543 1.172216 0.893467 -0.501126 0.523458 0.574650 0.606696 0.705104 -0.027133 -0.182638 -1.611683 0.068428 1.887862 -0.149377 2.056621 -0.915136 1.793700 1.649387 -1.383451 1.009897 -2.821968 0.365882 -0.518531 -0.656293 0.862948 -0.204254 -1.529118 -0.681022 0.235428 -0.180704 0.198074 0.176897 -0.794280 0.771863 0.617029 0.272079 -0.564978 -1.644444 -0.744005 -1.988190 -0.972411 1.480416 1.962476 0.496672 -0.760860 -0.650671 -0.392511 -1.573214 1.395866 1.221878 -0.757907 0.384991 0.814798 -0.297937 -1.382824 -1.579448 -2.250693 0.026955 -1.657748 -0.085307 -0.044585 0.275105 -1.002211 0.190556 1.197713
我B 0.900197 0.636447 1.844804 -0.226593 0.425052 -0.399115 -0.895208 0.095926 -0.821085 1.378635 1.040375 -0.875197 -0.266717 -0.362634 0.322408 -0.027926 -1.433502 -1.243076 -0.172630 1.131793 -1.222805 0.413113 0.745830 -2.066845 1.153261 1.061686 0.413771 0.898159 0.398610 1.476661 -1.001746 -0.164028 0.442555 0.893275 0.051545 3.028759 0.124530 1.116093 -1.150856 -1.183497 -1.152065 -0.397604 0.269236 0.363703 -1.798588 0.882699 1.165108 0.250444 0.823474 -0.514518 0.650024 -0.136273 0.204253 0.763542 1.526402 -0.646656 -0.572806 -1.465674 -0.508923 0.500581 -0.394686 0.545991 -1.288064 -0.119016 1.542461 0.981589 1.574524 0.349017 0.081252 -0.019674 0.304577 0.226719 -0.681574 2.501749 0.532283 -0.629928 -0.761157 0.914487 1.433571 -0.785840 -1.357969 -0.958650 -0.751401 1.455789 1.811225 -1.725904 -0.656190 -0.438748 -1.474073 0.638664 0.778599 -0.468882 0.232323 -2.158240 -0.078385 -0.066100 0.591086 -0.060440 0.458267 2.260124
胃B 0.758056 -0.132698 0.888532 0.833862 0.067969 -0.818423 -0.365252 -0.507062 0.224685 0.226347 0.015783 -0.196942 0.219288 -0.471399 0.200752 -0.007285 0.317467 -0.794957 0.122575 0.365355 -0.122715 0.424041 -0.890744 0.443520 0.107799 -0.085913 0.675542 0.434297 0.214206 0.556993 0.830035 -0.119947 1.370285 -0.119994 -0.184517 1.643071 0.882762 1.166546 0.181992 0.827002 -0.340292 -0.175083 -0.033328 0.360227 -0.114075 0.034882 0.403821 0.657670 0.151321 -0.044473 0.012813 0.188750 0.544548 0.452362 0.879006 -0.213005 -0.291147 -0.958292 0.169296 1.146306 -0.215436 0.120909 -0.633632 -0.376170 0.371362 0.048744 -0.218531 -0.667339 -0.473464 0.512223 0.235539 0.191732 -1.881700 0.921540 -0.552111 -1.111703 1.068520 1.008174 0.265773 -0.406191 -0.208201 -0.359012 -1.172819 0.909691 0.854328 -1.711167 -0.479433 -0.141307 -1.204560 -0.911628 -0.535552 -1.364206 0.127659 -0.686834 0.169496 0.378077 0.239476 0.549759 -0.529506 1.767982
食O 1.787395 1.015887 -0.265696 0.796141 0.593389 -0.179307 -1.394732 0.728573 0.796423 -1.894655 -1.344952 -0.538538 1.114253 -0.512654 0.870624 0.709975 -2.372116 0.495253 -1.656357 0.180307 -0.772590 1.955860 -1.086566 -0.150289 -1.803252 -1.134747 -0.318592 0.575748 0.175622 -0.129213 1.838644 1.631617 -1.033860 -0.136664 0.083132 0.252977 -0.621371 0.991229 1.452397 1.719571 0.916838 0.208294 -0.308208 1.815046 1.024753 1.223404 0.056105 -0.162556 -0.686863 -2.166893 2.105561 0.053349 -0.484785 -0.117125 0.849091 2.058443 0.049782 -0.060410 0.443434 0.893603 -1.591421 2.323536 -0.321130 0.521987 0.029914 -0.762774 -0.122887 0.349406 -0.985514 0.213987 0.336080 -0.826356 0.364692 1.255115 1.984312 1.164048 1.154217 -0.213253 -0.005021 -0.179813 1.481530 0.406514 0.440625 1.166269 -0.145884 1.483386 1.506828 -0.070063 -0.093015 0.394487 0.100450 0.732888 -0.241731 1.883056 2.839697 -1.674742 -0.525766 0.338439 -0.408979 -0.475394
组O 0.205879 -1.949520 -0.025297 -0.304973 -0.415207 -0.708850 -1.353402 -0.748797 -0.850879 1.402156 -0.791363 1.070512 -1.449623 -1.072706 -0.464184 -0.200991 1.162289 -0.034461 0.509736 0.479438 1.462195 1.763491 -1.360597 -0.203768 -0.110185 0.051035 1.492002 -0.098092 -0.352792 -0.787188 -1.651610 -1.012136 -0.935576 -0.895484 0.940877 -2.263986 0.282230 1.705497 0.049004 -0.451056 0.678207 0.715395 1.642610 0.043592 -0.681528 -0.036179 0.841817 -0.258827 -0.451709 1.972114 -0.864203 3.588268 0.562426 -0.644217 0.579675 -2.419015 1.557823 -0.374561 -2.164829 -0.470084 -0.769545 -0.602158 -1.141303 0.382690 -0.014937 -0.479028 0.286441 -1.239938 0.989491 -1.037032 0.809780 -0.680400 -0.611485 -1.047667 -0.775688 1.306740 0.213748 -0.104781 0.255148 -1.318413 -0.022437 -0.572484 -0.775343 -0.713656 0.212244 1.750987 1.916184 1.690749 1.234417 -0.415743 -0.449154 -0.752376 -0.612820 -0.688573 -0.012595 -0.693918 0.124931 -1.839026 0.612337 -1.590405
次O -0.183618 0.584512 0.575976 0.468149 -0.970798 1.190045 -1.062990 0.696474 -1.148851 1.205585 0.720525 -0.833973 -1.210452 -1.119049 0.450956 -1.240157 -1.196039 1.041122 0.023762 1.721805 -0.640439 1.069327 0.141797 -2.050686 -0.374339 1.578060 -0.413251 -1.170439 -0.250664 0.349167 -0.348830 -0.062935 -1.656880 0.576522 -0.482054 -0.286927 -0.252840 1.124077 -0.676898 -0.550738 0.040419 -0.105236 0.014890 0.369032 0.754323 1.404944 0.841319 -1.314324 0.944326 0.506301 1.172367 0.081974 0.283654 0.592611 0.369440 0.494956 -0.367640 -0.408232 -0.871835 -1.508616 -0.478900 0.838748 -1.311193 -0.177927 1.623851 -0.090074 1.734682 -0.640777 0.661253 -0.416942 1.056666 -0.095483 -0.030195 0.356217 0.400968 0.703447 -0.652781 -0.980883 0.396294 0.119395 -1.314278 -0.517191 -0.105060 -0.823834 1.102076 -0.202739 0.867299 1.819029 -0.415612 -0.509559 0.304797 0.897727 -0.642396 -0.720089 -0.015939 -0.013764 0.379542 -0.940148 0.819769 -1.069322
分O 0.487635 0.298817 -1.343106 0.836074 -0.056199 -1.111596 -0.268093 -0.267920 -0.492998 1.126987 0.607009 0.130491 -0.929152 -0.973538 -0.066753 -1.642855 -0.229416 1.186032 0.485259 0.143549 -0.538005 1.285981 -1.116080 -0.475544 0.586098 -0.061545 1.083898 -0.003994 -1.727518 0.332170 -0.737836 -1.030545 -1.770342 -0.616163 2.314638 0.355262 0.980838 0.832710 -0.275847 1.293725 -0.308440 1.953450 -0.122037 0.416081 -0.834143 -1.954993 0.827037 -1.926102 1.076783 1.971375 -0.597435 1.459198 0.553952 -0.352907 1.399472 -2.604179 1.521455 0.343445 -0.887202 -0.491866 -0.422415 -0.381095 0.781043 -0.913843 -1.770186 -1.121630 -0.466250 -1.730631 -0.240869 -0.241276 -0.350135 -0.343820 -1.151938 -1.437347 -1.666212 -0.466870 0.028146 0.461231 0.158430 -0.299534 -0.346335 -0.181313 -1.304578 -1.106841 0.851254 0.154818 1.210189 -0.540310 0.994173 -1.703636 -0.767379 0.750846 -1.244583 0.125983 -0.503831 -0.745704 0.831841 -0.307050 1.261518 -0.497588
复O 1.157526 0.272424 -0.599847 -1.721508 0.656143 0.096265 -0.688083 -0.098459 -0.777284 -0.290920 1.231934 -0.729931 -0.319573 -0.976083 -0.908184 0.006649 -0.034021 -0.369038 0.932099 0.512809 0.761761 1.350769 0.808564 -0.859155 -0.631132 0.058716 0.306223 0.625811 1.130095 0.546038 0.284782 1.489055 -0.085502 0.457839 -0.671329 0.427116 1.050372 0.876655 1.319816 0.203104 0.174495 -0.933729 1.004435 0.700726 -0.570061 1.383494 -1.559077 1.624695 -1.078089 -0.925064 1.278759 1.545981 0.588991 -1.076926 0.673607 -0.882228 -0.199382 -1.297066 -1.199614 2.052319 -0.288963 1.587227 -1.081269 -0.078437 0.968432 0.201894 0.035727 -0.667425 0.294914 0.855838 1.366068 -1.058685 -0.919068 -0.537205 1.010652 1.176637 1.205595 0.124769 0.361059 0.800840 0.599592 -0.674411 1.255807 -0.689523 0.778716 0.474847 0.753492 -0.468861 0.521154 -0.284172 -0.535874 -0.511002 -1.491844 -1.652636 1.392298 -1.469750 -0.077977 -0.549640 -0.064639 0.213975
便E -0.549729 0.305606 0.359841 2.146413 0.109617 0.560516 -1.230365 1.065940 -0.441075 -1.019075 -1.293043 -0.378196 1.528292 0.354477 1.023990 0.274233 -1.915189 0.915303 -1.558588 0.475859 -1.901576 0.714342 -1.189564 0.801109 -1.746395 -0.939886 -1.484143 0.057662 -0.418711 -1.252104 0.438872 1.735128 -1.209026 0.036617 0.157573 -0.951451 0.098721 0.966946 -0.784148 1.663241 -0.529194 0.425033 -0.806266 0.985698 0.106659 1.091762 0.473290 -1.252974 0.787819 -1.467883 1.772240 0.141710 -0.628036 0.248844 0.351986 1.454209 -0.120921 1.923677 -0.156777 -0.338957 -0.874254 0.401464 -0.367112 -0.363195 0.999401 0.057033 1.089264 0.260556 0.525273 -0.154814 0.693443 -0.381780 -0.750558 0.105057 1.109875 0.795906 -0.023043 -0.753917 -0.813393 0.338925 0.011252 0.126635 1.958287 -0.052088 0.678546 2.109693 -0.172910 0.695921 -0.051493 -0.350213 -0.316214 1.196361 1.365144 2.254175 1.300761 -0.259333 -0.435161 -1.095593 -0.085605 -1.301661
8O 0.085394 -0.765833 1.469168 -0.149139 0.121737 0.477238 -0.528049 -0.145459 -0.955658 1.106259 0.435447 -0.819652 -1.457530 -1.114156 -0.526410 0.244454 0.085074 -0.465827 -0.327900 0.627189 1.103118 1.968710 -0.702955 -0.922239 0.073865 -0.044233 0.731225 -0.962548 -0.526201 -0.431044 -1.492885 -0.765754 -0.089670 0.404048 -0.057116 -0.524001 0.868633 0.447609 -0.673071 -0.025820 0.031961 0.268934 0.782638 0.330328 -0.466288 0.191822 -0.081177 0.305834 -1.140397 0.644776 -0.088188 0.952471 -0.090517 -0.882743 -0.083179 -0.689705 0.288756 -0.883631 -0.630870 -0.605040 -0.011331 -1.164614 -1.367282 -0.355989 1.349069 0.685273 1.414578 0.696570 0.077448 0.516127 0.762291 -0.058949 0.036727 -0.040226 -0.677057 -0.164674 -0.818841 0.261071 1.341476 -0.383451 -0.603176 -1.061245 -0.390654 0.130520 1.058993 0.318296 -0.225247 1.354851 -1.122447 0.007198 -1.142947 -0.653535 0.095335 -1.555093 -0.602348 0.669606 -0.505814 0.915155 1.140079 0.617469
大B 0.054975 -0.142046 -0.108412 1.917028 -0.192215 -0.118151 -1.179782 0.134972 -0.398456 -1.033667 -1.737255 0.438581 1.683689 0.372999 0.451149 0.406486 -1.239049 0.641678 -1.223906 -0.020331 -1.181562 0.030372 -1.349546 1.819566 -1.463116 -0.946630 -1.148410 0.503546 -0.351280 -0.896383 0.842926 1.274826 0.402268 -0.567752 0.392805 -0.333751 0.522595 0.834302 -0.085275 1.715027 -0.494318 0.103655 -0.772089 0.733811 0.111126 1.149259 0.388411 -0.957474 0.723172 -0.992756 1.121506 0.314986 -0.401121 0.595841 0.107774 1.101206 0.389936 1.266198 -0.149689 0.435279 -0.914922 0.380144 -0.681140 0.089060 0.834889 -0.246808 -0.170606 -0.212690 0.011066 -0.252514 0.232460 -0.624164 -1.219658 0.257500 0.498938 0.202870 0.875162 -0.204382 -1.332399 0.141991 0.388113 0.402284 1.504374 -0.143598 0.416857 1.407931 0.033801 0.171754 -0.614877 -0.808525 -0.366648 -0.027580 1.276650 2.023299 1.051194 0.319761 -0.374938 -0.481313 -0.380593 -1.303346
肠I -1.014223 0.013719 0.671741 0.873512 0.823728 -0.844233 -0.685055 -0.548960 -0.915111 1.225237 -0.224176 0.268470 0.475184 -0.521975 0.475098 -0.435486 0.187408 -1.236830 0.405038 0.114190 -1.526019 1.102540 -0.467312 0.401873 0.424786 0.168552 0.366556 -0.089096 -0.579756 1.500608 -0.230852 -0.798189 1.697011 0.536027 -0.414343 1.991121 0.456332 1.119944 -0.472503 0.608466 -0.685499 0.307593 -1.764336 0.179444 -1.311933 -0.168475 -0.198371 0.485658 0.846503 0.125317 -1.045786 -0.830168 1.379773 1.061305 0.087002 -1.547333 -1.443116 0.018808 0.107455 0.032119 -0.056480 -1.475860 -0.315002 -1.464750 0.240164 0.808593 -0.573192 -1.068441 -1.643857 0.920991 0.314112 0.738612 -2.479357 -0.637468 -2.528446 -2.523363 1.937486 0.968443 1.320134 0.133718 -0.895902 0.893434 -1.372635 1.228643 1.474474 -1.678415 -1.781789 -0.876800 -1.220470 -1.886910 -0.151232 -1.901425 -0.204891 0.474161 -0.952131 1.111192 0.479869 0.576004 0.036562 2.462846
院O 1.565770 1.217496 -0.069487 -1.118875 -0.174982 0.951794 -0.580178 -0.196106 -0.565485 0.449444 1.580147 -1.680461 -1.036687 -1.127146 -0.505510 -0.790970 -0.147442 0.769309 1.270489 -0.123625 -0.126242 2.491377 0.328074 -3.007993 -0.019369 0.810331 0.308000 -0.621228 0.578148 0.740833 0.774642 0.862657 -1.317974 0.713135 0.347638 0.812289 -0.469413 1.305608 -0.375153 -0.114226 0.080238 -0.188897 0.728705 -0.121560 -0.057485 2.103436 -0.104053 -1.482131 -0.080174 -0.471357 1.364518 -0.893544 0.075304 0.438366 0.878420 1.146252 -1.123441 -1.430368 1.225364 0.230341 -0.050346 1.752095 -1.336470 1.170958 2.065780 -0.012765 -0.160934 0.049337 -0.214736 0.226016 1.019125 -0.699307 -0.192446 0.397932 0.961378 0.754352 -0.479826 -0.917002 0.867343 0.070858 -1.017899 0.558596 0.062997 -0.133458 1.940571 -0.429392 0.361234 0.944634 -1.490354 0.187874 0.134184 0.884487 -0.666568 -1.658281 0.304719 -1.254212 -0.305491 -0.091690 -1.105756 0.284127
(O -0.650519 -0.964399 1.831935 0.751841 -0.086399 -0.199087 -0.283061 0.390982 -0.303898 0.272505 0.293442 -0.344138 -0.631384 -0.805951 -1.440644 -0.268879 1.453089 -0.795143 -0.405146 0.477983 2.045609 1.156224 -1.237580 -0.274250 0.153194 -0.315613 0.201172 -0.290354 -1.104149 -0.744496 -1.213660 -0.879659 0.069549 -0.104342 0.536519 -0.995993 0.199240 0.201928 0.119893 1.088891 0.410762 0.679832 1.386067 -0.339855 -0.589921 -0.337551 0.059955 0.211889 -1.070261 1.154013 -0.068576 1.052991 -0.476502 -1.627851 0.033181 -0.968948 1.142657 -0.790874 -1.729838 -0.348884 1.040001 -0.900228 -0.546147 0.984775 1.416278 0.528607 0.335104 -0.110712 0.865106 -0.478494 1.162581 0.518517 -0.786862 -1.600900 -0.810523 -0.444446 0.172750 0.921157 1.503240 -0.046265 -0.203564 -0.697869 -0.142016 0.948692 1.299877 0.611096 -0.729912 1.249057 -1.432580 -0.889159 -1.888032 -1.183843 -0.044971 -1.231552 -1.063393 0.083840 -0.799171 0.659072 1.323049 -0.130383
理O 1.065270 -1.626439 0.759998 0.305305 1.080757 -0.958147 -1.804706 0.742071 -1.389502 1.680490 0.035212 0.006833 -0.068749 -1.943536 0.170918 0.598697 2.286096 0.383279 2.181935 1.425723 0.116098 1.644984 -1.232688 -1.734218 -1.365056 -0.528627 1.041301 0.810201 -0.405557 0.771763 -0.099923 -0.741259 0.007621 -1.285299 -0.149163 -1.182876 -0.122333 1.506821 0.869623 1.179125 0.106668 -1.117237 -1.918815 1.059543 0.600837 -1.675011 0.693880 1.238626 0.250422 2.210096 0.987383 1.595651 2.425323 -0.463573 0.476909 -2.000701 -0.495602 -0.736716 -0.501595 0.474181 -1.258746 -1.110563 -0.977816 -1.818885 0.216994 1.027627 0.905513 -0.712047 0.549123 2.084092 0.953084 -0.040025 -1.317316 -1.205828 -2.479262 0.202156 1.733468 1.272137 0.431179 0.579984 -0.239313 0.320688 -1.951820 0.266470 0.130927 0.346667 0.993051 2.110731 0.962454 -2.179823 -1.496514 -1.638493 -0.846818 -1.882248 0.600327 0.303469 0.131258 -1.308537 0.817090 0.254443
9O 0.094838 -0.700834 1.551419 -0.470690 0.153900 0.431703 -0.813669 -0.162759 -0.967488 1.111413 0.559665 -0.853871 -1.530670 -1.252964 -0.554115 0.208500 -0.145248 -0.806454 -0.368780 0.868077 1.065292 1.899430 -0.363053 -0.888472 0.192473 0.076005 0.885564 -0.945919 -0.329254 -0.262541 -1.565725 -0.857847 0.026800 0.778312 -0.427432 -0.039387 0.864404 0.636809 -0.488378 -0.145019 -0.109324 0.068286 0.907465 0.590606 -0.631674 0.325673 -0.076153 0.655469 -1.242177 0.453041 -0.043195 1.011603 -0.072428 -0.752868 -0.007800 -0.948260 0.214824 -1.137071 -0.901562 -0.496148 -0.111217 -0.948915 -1.401823 -0.467219 1.507915 1.039172 1.674874 0.889558 -0.190564 0.681157 0.721959 -0.035286 0.028928 0.165673 -0.582020 -0.213255 -0.593688 0.305404 1.690326 -0.499092 -0.662947 -1.192528 -0.598466 0.345975 1.033947 0.286275 -0.391294 1.341274 -1.119923 0.044054 -0.939016 -0.817421 -0.016599 -1.808891 -0.741759 0.768902 -0.348650 0.918183 1.114726 0.994442
期O 0.567148 0.887508 -0.628004 -0.695083 -0.234656 -0.410140 -0.339667 0.637754 -0.899785 1.002498 0.956242 -0.360532 -1.161038 -1.100777 -0.375220 -0.635403 -0.283719 0.685872 0.521532 0.776360 0.318611 1.692003 -0.160288 -2.284623 -0.577340 1.054611 -0.323552 0.008042 -0.423122 0.865702 0.097974 -0.043980 -1.240695 0.509645 -0.098923 -0.503293 0.122645 -0.143479 0.755497 -0.570247 0.542978 0.274157 -0.604394 0.745448 0.444385 0.195039 0.203007 -0.486186 0.366892 0.805075 1.208438 0.865282 1.072663 -0.670103 0.739942 0.194058 0.177925 -0.698532 -0.906410 -0.472733 -0.132831 0.715548 -0.825267 0.100164 -0.289209 -0.912409 0.555092 -1.368577 0.800974 -0.117739 1.380788 0.309897 0.056566 -0.368315 -0.180482 0.946174 -0.531715 -0.494037 0.308535 1.082335 0.130577 -0.674571 -0.601472 -1.323974 0.488472 -0.159495 0.979474 0.169220 0.813150 -0.880892 -0.170308 1.239128 -1.606979 -0.990524 0.296649 -1.026289 0.284951 -0.245714 0.860535 -0.601597
转O 0.704289 -1.678266 -1.901013 -2.666923 -0.114076 -0.902296 -2.233938 -0.757374 -1.398590 1.319595 -0.174315 -0.548862 -1.400472 -0.527324 -0.568753 0.009005 0.130850 -0.329316 1.820386 -1.178557 1.391912 2.571172 0.577578 0.425336 -0.888810 -0.471961 0.735592 -0.525592 1.101348 -0.284326 -1.028335 0.215518 1.151566 0.679823 -0.223344 -0.857694 1.487123 1.711017 0.572801 -0.953188 -0.946279 -0.607858 0.722400 0.055563 -2.252390 1.093182 -0.318476 0.403488 -0.478114 -0.813631 0.608370 1.400076 0.203661 0.102686 -0.332285 -2.130627 0.513812 -0.672268 -0.834093 1.623813 -0.832034 -0.490708 -2.154676 -0.645523 0.083971 0.965307 0.297885 0.525989 -1.003834 0.745444 0.732435 -1.781428 -0.581223 -0.720996 -0.341038 1.194126 1.202369 -1.264836 0.822304 -0.881364 0.716544 -0.099156 -0.240274 -0.788943 0.499607 1.396428 0.126332 0.104744 -0.151593 -0.890181 -0.913519 0.026006 -0.687951 -1.199518 0.075170 -0.224426 -0.302483 -0.506544 -0.948115 -0.000385
TO -0.815598 0.108405 1.361770 0.478440 0.481788 -0.646951 0.316615 0.187009 0.387892 0.463212 1.382329 -0.055660 -0.399064 -0.782053 -0.040670 0.378088 1.040866 -0.217416 -0.121356 0.407916 0.991436 0.150997 0.084857 -1.658653 1.465668 -0.585544 0.992428 -0.239617 -0.767341 -0.173926 -1.327526 0.059310 -0.734076 -0.200889 0.567243 -0.370054 0.578425 -0.564515 -0.912624 -0.750549 1.279067 1.408127 0.640170 0.015286 -0.544937 -0.191022 -0.669756 0.963537 -0.546218 1.061709 -1.293113 1.027996 0.199082 -1.667808 0.657975 -1.831019 1.079208 0.188365 -1.250820 -0.650370 0.556018 -0.039773 0.078916 1.057759 0.683499 -0.381235 -0.216252 -0.698128 1.224350 0.304776 0.537089 0.150180 -0.763952 -1.113767 -0.558412 -0.403412 -0.333343 1.521037 0.480530 0.023276 0.114617 -0.148937 -0.145097 0.261303 0.948264 -0.174535 0.464762 -0.436186 -0.112774 0.035836 -1.852661 -0.610470 -0.879190 -1.521665 -0.047247 -0.910448 -0.336115 -0.690190 0.657467 0.220477
前O 0.112610 0.119954 1.106503 -0.580129 0.704589 0.982467 -1.742875 1.049301 -1.454929 0.498765 0.023430 -0.951764 -0.387520 0.437555 0.798192 -0.355808 -1.459542 0.211456 -0.153455 0.179595 -1.232725 1.019840 0.660751 -0.886486 -1.149443 0.382115 -1.492993 0.326143 0.209633 0.469670 -0.583339 0.856488 -0.244899 0.415411 -0.562480 0.701701 -0.030066 0.545089 -0.274209 -0.048228 -0.900261 -0.864051 -0.554574 0.653206 -0.968008 0.713326 -0.017942 0.806480 -0.557517 -0.691374 2.099198 -0.635194 0.392377 0.502592 0.094817 -0.310617 -1.338108 -1.055372 -0.529430 0.620319 0.099153 0.117408 -1.521398 -0.206529 1.511791 0.763799 2.050024 1.185310 0.222245 0.292008 1.141972 -0.062559 1.260640 0.959583 0.290079 0.522689 -0.520956 -0.290774 0.862957 -0.756709 -0.961003 -1.055540 0.242927 0.774676 1.195384 0.304957 -0.307658 -0.122124 -0.537838 0.263830 0.613345 0.644863 -0.139630 -0.342874 -0.232766 0.045425 -0.729805 -0.074575 1.517533 0.562562
)O -0.589042 -0.603347 1.835330 0.719347 0.097099 -0.392116 -0.038861 0.086878 -0.243977 0.540374 0.864169 -0.373243 -0.327371 -0.855893 -1.383087 0.072227 1.658692 -0.684516 -0.305799 0.652625 1.981288 1.233395 -1.220973 -0.691750 0.531264 -0.571059 0.705957 -0.441850 -0.987581 -0.950009 -1.118542 -0.684176 0.091169 -0.423427 1.022041 -0.923338 0.398266 0.264929 -0.148595 1.017653 0.440652 1.158879 1.153617 -0.682403 -0.741834 -0.249478 0.173344 -0.324286 -0.759631 0.996093 -0.124518 1.186126 -0.594673 -1.483344 0.205436 -0.933626 1.483672 -0.741747 -1.155414 -0.520445 1.045943 -0.581411 -0.704711 0.920254 1.560495 0.274040 0.107297 -0.475856 1.081477 -0.122610 0.862985 0.589784 -1.103092 -1.529871 -0.471834 -0.000255 0.080060 1.071196 0.933467 -0.276048 -0.366407 -0.180210 -0.115112 0.682495 1.467217 0.894175 -0.474734 1.206444 -0.986493 -0.799713 -2.152193 -0.917248 -0.308657 -1.426723 -0.828311 -0.263733 -0.938458 0.372955 0.947638 -0.182352
肠E -0.587965 -1.239296 0.711485 0.994264 -0.222662 -1.653623 -1.021455 -0.082296 -1.468644 1.020256 -0.649424 0.454513 0.819650 -0.132641 0.035187 -0.262736 1.287795 0.149378 0.789913 -0.383334 -0.942726 1.060187 -1.937067 1.527330 -0.631051 -0.806966 -0.199359 0.241261 -1.242109 0.142272 -0.557203 -0.444501 0.867896 -1.046470 0.378264 0.252834 0.457922 1.540212 -0.087473 1.639154 0.273971 0.709683 -1.122303 -0.906621 -0.859931 -0.899525 0.950496 -0.160249 1.106762 0.495184 -0.143883 0.205503 0.558089 0.985505 0.295864 -1.209472 -0.239778 0.203450 -0.315021 0.125468 0.080484 -2.418005 -0.059623 -1.303688 -0.552857 -0.101518 -0.498417 -1.413942 -0.351387 -0.027594 0.763111 0.095667 -2.033284 -1.271715 -1.848240 -1.679110 2.172848 0.673427 1.163796 -0.560842 -0.705837 0.524107 -0.924900 1.576200 1.117894 -0.478822 -0.660489 0.548612 -0.865839 -2.386832 -0.925520 -1.787644 0.120804 0.967122 -0.131556 0.630655 -0.088367 -0.139011 0.581612 0.679335
以O 0.870641 0.126869 0.770059 1.301504 0.071814 0.077087 -0.819767 1.005983 0.971885 0.172976 0.147810 -1.286852 0.386797 -1.063940 1.398159 0.596389 0.306242 0.612247 0.300450 0.957936 -0.598382 1.135791 -0.031833 -2.673650 -0.789349 0.305922 0.134102 -0.401588 -0.131326 1.000875 1.238593 0.823496 -1.096649 -0.147059 -0.407620 0.000728 -0.705415 0.274178 0.113048 0.086269 1.402860 -0.426692 -0.898297 0.616362 1.925988 0.688801 0.719860 0.398788 0.442879 0.070994 0.962730 -1.005005 0.954874 0.269452 0.646629 1.154040 -1.289086 -0.395417 0.793027 -0.807717 -0.915747 1.022368 -0.184994 0.488490 1.329972 0.099848 0.312318 -0.125494 -0.541882 0.589167 0.571143 -0.645362 0.032715 0.392478 0.299243 0.296566 0.993475 0.457579 1.029746 -0.283238 -0.705498 0.794347 -1.214169 1.382734 0.088874 -1.384308 0.780184 1.956252 -0.657659 0.175273 -0.065601 -0.230768 -0.523838 -0.392908 1.247104 0.093256 -0.451726 -0.464968 -0.490138 0.312897
中O -0.311040 -0.497427 -0.968659 -0.835521 -0.563214 -0.187053 -1.427354 -0.562486 -0.987689 0.459700 -0.444530 1.050043 -1.310335 -0.183454 -0.748573 -0.937113 -0.485506 0.435855 0.483356 -0.294846 -0.269151 0.330864 -0.579948 0.446764 -0.099868 -0.114182 0.338682 0.450924 -0.592379 0.481364 -0.602663 -0.616059 -0.558235 -0.889385 0.855030 0.402699 0.347456 0.743099 -0.380852 0.516318 0.017562 0.635577 0.829547 0.354498 -0.618617 -0.411241 0.499380 -0.320358 0.054257 0.943223 -0.661490 0.506125 0.075195 -0.081389 0.400933 -2.326803 1.266881 -0.113983 -0.666005 0.040960 -0.033849 -0.732091 -0.259172 0.723084 -0.780283 -0.719042 -0.361953 -0.914205 -0.105280 -0.292652 -0.192718 -0.584876 0.185392 -0.316280 -0.226334 -0.697033 0.668293 0.355223 -0.307150 -0.834454 -0.312446 0.264754 -1.061938 -0.467567 0.100930 0.541114 0.445972 -0.289010 0.053544 -1.356400 -0.020668 0.071425 -0.684898 -0.296107 -0.521620 0.650775 0.811939 -0.937600 0.699415 -0.762649
月O -0.344309 -0.008412 1.915978 -0.913441 0.804794 1.198480 -1.795232 0.813622 -1.729889 0.828027 -0.067184 -0.938618 -1.108440 0.020656 0.086750 -0.260222 -1.940959 -0.778632 -1.027459 0.958686 -0.773306 1.092605 0.728619 -0.967917 -0.315267 0.724918 -0.625885 0.059462 0.009635 -0.154307 -1.459307 0.371756 0.005634 0.885523 -0.630839 0.696669 0.033605 0.690499 -0.829158 -0.334964 -1.297702 -0.892447 0.334222 0.805377 -1.628610 0.974853 -0.313058 0.796325 -0.788730 -0.814950 1.551232 -0.261069 -0.112388 0.185618 -0.272988 -0.583639 -0.863310 -1.260238 -0.937423 0.425828 0.209679 0.078914 -1.736598 -0.300089 2.299836 1.222104 2.623838 1.675286 0.172525 0.052688 0.954378 0.317088 1.395200 1.510461 0.640568 0.550498 -1.136945 -0.540688 1.326204 -0.878789 -1.353688 -1.705815 0.272376 0.449800 1.326951 0.662350 -0.542946 -0.028467 -0.944282 0.575217 0.621764 0.405348 0.581018 -1.007397 -0.833987 0.428151 -0.540905 0.253649 1.848576 0.929650
重O 0.398553 0.573716 0.032378 0.524101 1.117842 0.648838 -1.381433 0.234228 -1.525076 -0.100074 -1.704518 0.705266 -0.160986 0.627754 0.602586 0.554441 -1.325118 0.744377 -0.897661 -0.495967 -2.161923 1.135349 -0.801416 -1.481719 -1.152518 0.291060 -1.283463 1.595162 -0.663558 -0.215435 -0.102221 1.254082 -0.580795 -0.473467 1.351853 -1.207414 -0.566552 -0.220512 -1.117095 1.250557 -0.928484 -0.568524 -1.520095 0.849958 -1.263239 -0.066080 0.282450 -0.068885 0.984551 0.502014 0.770720 -0.446136 0.629118 -0.791716 0.259213 0.724944 -0.498069 1.119904 0.515002 1.009745 -0.732686 -0.050845 -0.609275 0.541635 0.761326 -0.509542 0.976706 0.145275 0.708487 -0.696813 1.244690 -0.252788 1.272299 0.742953 0.090463 1.188398 -0.281508 -0.554768 -1.062033 0.829647 -0.305532 -0.437857 1.144124 -0.829529 0.372298 1.418216 -0.154120 -0.222011 -0.393181 0.380901 0.707644 1.511932 1.435699 0.819566 0.656155 0.012757 -0.085019 -1.402762 0.438327 -1.020157
性O -0.240822 0.286754 -0.516727 0.970148 0.144733 -0.312909 -0.209755 -0.140159 0.111690 -0.567062 -0.507990 0.630910 0.215641 0.651745 -0.215809 -0.682608 -0.135551 -0.056649 -0.546331 -0.673758 -0.552365 0.062456 -0.873670 0.793019 0.025353 -0.506130 -0.572842 0.293861 -0.625097 -0.149542 0.311235 0.176316 0.272451 -0.308482 0.985959 0.175711 0.683355 -0.176845 -0.320835 1.081234 -0.470086 1.168482 0.245977 -0.197796 -0.832342 -0.940607 0.067480 -0.136870 0.193006 0.577169 -0.505119 0.011941 0.251603 -0.542043 0.273999 -0.666440 0.688427 0.493020 -0.079873 0.798673 0.554535 -0.239242 0.108492 0.722826 -1.124413 -0.491819 -0.673592 -0.396183 -0.234734 -0.712239 -0.511337 -0.136567 -0.376142 -0.396610 -0.789395 -0.781403 0.683444 0.488754 -0.616862 0.242572 -0.089780 -0.084775 -0.697920 0.086019 0.550662 -0.092155 -0.632287 -0.831864 -0.423914 -0.903957 -0.227719 0.383958 0.162750 1.014307 -0.580366 0.146185 0.205503 0.457716 -0.193552 -0.150244
来O 1.316364 0.387529 0.844951 0.343026 0.245539 -0.212552 -1.259779 1.223768 0.306092 0.381775 -0.096543 -1.296537 0.274367 -0.979117 1.327415 0.552597 -0.017971 0.822574 0.540086 0.713262 -0.693319 1.642534 -0.158494 -2.801936 -1.100074 0.373788 0.308362 -0.001278 0.222542 0.970343 1.390759 1.387836 -0.933006 -0.481209 -0.481191 0.213736 -1.101922 1.222125 0.544343 0.353753 0.898471 -0.921788 -0.993353 0.412969 1.107287 0.915312 1.022383 -0.319160 0.547639 -0.692069 2.069654 -1.358892 0.662318 0.705984 0.657125 1.325047 -1.410385 -0.833153 1.154892 -0.038179 -0.857736 1.738017 -0.638705 0.219228 1.594629 -0.249796 0.382387 -0.008373 -0.022057 0.353357 1.030925 -0.418452 0.449527 1.007007 1.372475 0.972290 0.648586 -0.079466 0.883582 -0.626462 -0.694677 0.865678 -1.061981 1.616100 0.479239 -0.740590 0.939319 1.489376 -0.712349 -0.010694 0.349537 0.115981 -0.411145 -0.397180 1.508750 -0.953978 -0.618155 -0.675277 -0.251165 0.209843
予O 0.526001 -0.045599 0.024740 0.923024 1.343072 0.919111 -0.181127 0.576484 1.616571 -0.276791 0.270081 -0.892432 0.230614 -1.584718 0.781629 0.882814 -0.706208 -0.947091 -0.865934 1.394769 -0.263106 1.060507 0.902174 -2.048091 -0.394523 0.565586 0.327844 -0.594271 0.204649 1.251681 -0.140852 0.464173 -0.474916 1.503008 -1.035738 -0.368724 0.465350 -0.994950 0.255674 -0.473306 0.979253 -0.439737 -0.984958 2.300674 1.391073 0.322762 -0.976234 1.700848 -0.210500 0.499673 -1.131618 0.253606 1.483502 -0.536810 0.309580 0.235801 -0.989890 0.276647 -0.550214 -1.058008 -1.455691 0.455639 0.129966 0.008343 0.710061 1.028266 0.252230 -0.192352 -1.156025 0.847080 -0.121357 -0.276194 0.242005 -0.062207 -1.148139 -0.418814 0.347711 0.836108 0.590786 1.100636 0.609743 -0.206623 -0.693752 -0.125852 -0.736214 -1.628836 0.062491 0.479156 1.058863 0.928116 -0.598567 -0.422229 -0.868222 -0.649399 0.647032 0.923012 0.102135 -0.023583 -0.508302 0.426544
治I -0.065511 0.849602 0.189899 -0.550804 0.993223 -0.701627 0.324357 -1.483132 1.024201 0.759506 -0.444701 0.341256 0.748823 -2.107110 0.935343 0.796090 0.143467 0.074381 0.637273 0.132256 -0.798280 1.743412 1.001560 -0.847484 0.535939 2.076397 0.463706 0.510947 0.608936 2.618647 -0.545993 0.656693 0.630895 1.493879 -0.905212 1.604774 -1.418918 0.849536 1.555491 -0.397482 0.077897 0.013302 -1.970540 0.081330 -0.106567 0.772251 -0.771809 0.424378 0.593862 0.145569 -1.918957 0.977119 1.842569 0.892958 0.692815 -1.239752 -1.816539 0.195687 0.303926 -0.618330 -0.968190 2.439034 0.280630 -0.855992 0.773973 0.455461 -1.106969 -0.826182 -0.349278 1.283518 0.298882 0.470149 -0.965564 -1.194129 -1.220738 -0.524608 0.732235 0.020809 0.428689 0.049647 0.413003 2.074678 -0.236380 -0.516840 -0.340086 -0.542419 -0.766968 -1.114688 1.290764 0.318231 0.492154 -2.104837 -1.087468 0.330492 1.272261 -0.758626 0.207339 -0.975039 -0.478594 0.412697
变O 0.406942 -0.360887 -0.996270 -0.347968 1.281829 -0.320447 -1.245811 0.113571 -1.229021 0.659792 -0.477065 0.569421 -0.305190 0.616865 0.492519 0.141495 0.285760 0.140906 0.741857 -0.769043 -1.236451 0.992593 -0.160000 -1.262350 -0.577112 0.013158 -0.102394 0.901190 -0.097175 0.059056 -0.546622 0.368385 -0.347070 -0.586506 1.645523 -0.974609 -0.175585 -0.105573 -0.817717 0.227851 -0.830097 0.024934 -0.574567 0.145932 -1.901193 -1.556009 0.494438 0.240361 0.472765 1.283576 -0.002856 0.279469 1.181892 -0.619836 0.067272 -1.959233 0.086619 0.491322 -0.199654 0.702100 -0.249921 -0.804394 -0.016665 0.254654 -0.928068 0.012998 0.119849 -0.223173 0.185807 -0.580119 0.194402 -0.465442 0.718955 -0.804045 -0.972224 0.888733 0.259243 0.273809 -0.208890 0.057999 -0.799391 0.047850 -0.873264 -0.100852 0.236085 0.952396 0.449489 -0.590938 0.938647 -0.427373 0.395715 1.084361 0.033428 -0.177985 -0.565896 -0.248327 0.015155 -1.563142 0.428551 -0.301744
胃S 0.434507 -1.238414 0.957877 0.977578 -0.236316 -1.046380 -0.074678 -0.491437 0.259995 0.803861 -0.513000 0.130781 0.004875 -0.640850 -0.540066 0.145044 1.539720 0.223532 0.438292 -0.396688 0.607926 1.070090 -1.802982 0.237119 -0.489790 0.069430 0.344801 0.786713 -0.626045 0.069274 -0.244730 -0.376651 0.651953 -1.523100 1.069397 -0.335754 0.397679 0.712801 -0.323763 1.322831 0.389958 0.255495 0.115032 -0.391908 0.051978 -0.803596 1.061128 0.085390 0.423408 0.945263 -0.323097 0.488989 0.256452 0.219943 1.130796 -0.487741 0.595999 -0.672060 0.098130 0.624235 0.121398 -0.940670 -0.363584 0.230344 0.058329 -0.818757 -0.424037 -1.028507 0.600495 -0.550815 0.312993 -0.044463 -1.161699 0.082719 -0.673429 -1.048554 0.587796 1.030426 -0.041742 -0.803230 -0.254933 -0.625633 -1.513613 0.614681 0.483667 -1.568019 0.062638 1.085572 -0.874424 -1.095556 -1.334493 -1.098139 0.171965 -0.681155 0.102473 0.887132 -0.334156 0.225758 0.096176 -0.079270
现O 0.045021 0.296336 -0.729691 0.051429 -0.799279 1.251293 -0.646317 0.777474 -0.169077 -0.402556 0.503844 -0.752900 -0.809097 0.348818 -0.589673 -1.477471 -0.382939 0.578095 0.628251 -0.703752 -0.322405 0.308440 0.375036 -0.640085 -0.384601 -0.332306 -0.303298 -0.641010 0.397066 0.065046 0.930860 1.038549 -0.789236 -0.183202 0.408513 1.049114 0.269671 0.656493 0.476659 0.572934 0.082317 0.169675 1.476221 -0.423734 0.519291 0.806894 -0.746052 -0.714940 -0.090242 -0.613868 1.484732 -0.939758 0.160802 -0.214578 0.081057 0.088631 -0.707146 -1.007980 0.390343 0.752586 0.596971 1.062345 -0.461497 1.499918 0.505913 -0.549676 -0.357170 0.347412 -0.246863 -0.384457 -0.090727 -1.632983 0.504278 -0.151234 1.111186 0.480978 0.467336 -0.528346 0.306427 -0.274323 -1.207491 0.456630 0.304477 -0.550185 1.010996 0.140710 0.560222 0.162758 -0.623183 -0.618114 0.872265 0.895484 -0.616991 -0.381572 -0.478699 -0.609759 -0.068457 0.439603 -0.390891 -0.801011
显E 0.408303 1.084953 -1.447325 -0.394215 1.934696 1.117766 -1.677976 0.297436 -0.611933 -0.199776 -1.753854 0.923656 -0.871844 0.847983 1.023564 0.337911 -1.895304 0.129008 -1.311131 -0.943999 -2.676611 1.105451 0.055420 -1.979747 -0.846446 0.561081 -0.539844 0.902087 0.007286 0.746476 -0.030680 1.616622 -1.348224 0.303094 1.792350 -0.798860 -1.070412 -0.661995 -0.966559 0.037631 -0.586648 0.022746 -0.535230 1.084676 -1.641771 -1.180917 -0.372124 1.104603 0.201980 0.523201 -0.094920 -0.256131 1.138734 -1.275895 0.265423 -1.523793 -0.540625 0.854752 0.258869 0.932978 -0.557308 0.256089 0.240148 1.211361 -0.972217 -0.193384 0.886921 0.441465 -0.165838 -0.889542 -0.286005 -0.671489 2.498920 0.173613 0.425634 1.626730 -0.140065 -0.012142 -0.458769 0.132018 -0.656686 -0.177241 -0.377037 -0.068732 -0.571425 1.754080 0.681301 -1.613221 1.396866 0.926648 2.047714 2.298294 0.441679 1.149031 -0.023700 -0.619355 0.115172 -1.878854 0.765761 -0.902709
术O -1.106292 0.263605 -0.297091 -0.652648 0.759899 -0.282882 -1.128842 -0.622002 -0.027392 -0.279722 -0.149171 1.681592 -0.434332 -0.578380 -0.914792 0.280300 1.064607 -0.037072 0.705370 0.005898 0.043105 0.273095 0.716847 -0.543125 0.326560 -0.314177 0.119075 1.795534 -0.657276 1.378295 0.007171 -0.450505 0.049901 -0.631993 0.219657 -0.054058 -0.351360 -0.433780 0.315178 0.739633 0.788105 -0.122023 -1.336633 1.739919 -0.411649 -0.175793 -0.098014 0.492665 0.401779 1.093614 -0.944533 -0.688038 1.052408 0.022734 0.695486 -2.363993 0.736770 0.257110 -1.013792 0.170902 -0.617529 -0.872663 0.585306 0.837683 0.493075 0.329361 -0.811380 -1.696282 0.326054 0.888522 1.281761 0.118503 -1.313029 -1.247157 -0.731283 -0.976434 2.228464 1.504103 -0.083881 0.848285 0.944992 1.116769 0.056820 -0.020620 -0.473454 0.769497 -0.652068 -0.365710 0.383536 -1.630618 -1.055738 -1.041071 -1.287773 -1.044305 -0.303372 0.482469 0.587058 -2.125089 0.432703 -0.782395
入B 0.326969 0.837020 1.011661 -0.498481 1.050837 0.359175 -1.543506 0.602673 -0.959600 1.167526 0.982373 -0.832278 0.004491 -0.204582 0.786281 -0.070066 -1.428365 -0.516546 0.184958 1.350745 -1.833216 0.748635 1.831170 -2.390378 0.324261 1.393858 -0.699007 1.036933 0.388948 1.915805 -0.785261 0.188125 -0.391765 0.913839 -0.375040 1.857922 -0.391177 0.631273 -0.601936 -1.247066 -0.846045 -1.002479 -1.257201 1.513192 -1.424519 0.932103 0.876767 0.114193 1.028848 -0.448972 1.308653 -0.718911 0.818519 1.485651 1.133032 -0.955166 -1.117733 -0.947282 -1.083257 -0.181749 -0.891526 0.398531 -1.103783 -0.389427 1.582530 1.318966 1.845166 0.012928 0.303820 0.378114 1.131722 0.160928 -0.376289 1.267187 0.191307 0.207519 -0.295551 0.506049 1.079856 -0.113889 -0.902257 -0.462293 -0.030229 0.688855 1.036630 -0.763500 -0.305124 -0.307802 0.032308 0.363269 0.801999 0.023521 -0.843728 -1.705963 -0.221975 -0.006689 0.097053 -1.297476 0.733703 0.928046
发O 0.156938 -0.396683 0.036866 -0.027865 -0.305217 -0.306842 -2.006833 1.207138 -0.950232 0.558922 0.735059 -1.144955 -0.364487 0.014696 0.484420 -0.226598 0.677634 0.238865 2.207914 0.176614 -0.345640 1.254833 0.101687 -1.252958 -1.177157 -0.460873 -0.119499 -0.683922 0.340193 0.406625 0.562038 0.835115 -0.020734 -0.468646 -0.631144 0.301546 0.337248 1.019964 0.289859 -0.025714 0.519876 -0.109030 0.188805 -0.073770 0.537973 -0.121746 0.499742 0.303693 -0.206605 -0.280136 1.353657 -0.974848 1.307445 0.277725 -0.214357 -0.465134 -0.879977 -0.784659 0.599865 0.197951 -0.025853 0.149363 -1.192583 0.125717 -0.061434 -0.299740 -0.146430 0.186287 -0.099389 0.668525 0.904875 -1.090417 0.150548 -0.256412 0.312011 0.055888 1.353114 0.154288 0.984705 -0.581548 -0.696551 1.694652 -1.370571 1.297339 0.991241 -0.130299 0.239084 1.259319 -0.900284 -1.312221 -0.550267 0.016943 -0.934851 -0.807686 0.510467 0.053413 0.178127 -0.208981 -0.515061 0.580706
查O 0.356730 -0.176220 0.132549 -2.038237 0.188535 -0.384938 -0.773701 0.049903 -1.235768 0.677798 1.296625 -0.121392 -0.754912 -0.244064 -0.687764 0.198905 0.486773 -0.555152 1.215769 0.212070 0.568445 0.649396 0.638237 -1.409817 0.174419 0.520438 0.451285 1.052494 1.037202 -0.079383 -0.620947 0.995010 0.612671 0.142090 -0.554535 0.643337 0.625147 0.732272 -0.098214 -0.813175 0.326393 -0.284623 1.854860 0.286386 -0.623287 0.974502 -0.625086 1.132412 -0.234117 -0.192966 -0.344012 1.153250 0.541355 -0.717617 0.905823 -1.318739 0.282072 -0.970710 -1.067714 1.251166 0.034363 0.649597 -1.029067 1.062789 0.739375 -0.441885 -0.517060 -0.859627 1.020156 0.010659 1.406456 -0.365752 -1.004463 0.242184 0.675596 0.360855 0.473971 0.440598 0.334956 0.304552 0.449578 -0.459211 0.171795 -0.755932 0.849893 0.168373 0.337641 -0.597662 -0.091303 0.008261 -0.932731 -0.271221 -0.670519 -2.499943 0.770918 -0.816162 0.266583 -1.251491 -0.589647 0.238371
端O -0.743841 -0.912613 0.867247 -0.481811 0.308843 -0.826540 -0.601116 -1.896688 -0.088553 0.394419 -0.950631 0.515658 0.425802 -0.862725 -1.726161 0.925589 2.138788 -0.016525 0.171918 -1.260257 0.797638 3.090720 -2.051483 -0.205385 -0.966137 1.342868 -0.229629 1.145918 -0.845162 0.123973 -0.518601 0.174582 0.610697 -1.523874 1.242988 -1.913080 -0.442258 0.746194 -0.647225 2.082268 0.754375 -0.434408 0.226628 -0.492944 -1.134903 1.433619 0.945603 -0.230524 0.472742 0.527072 -1.008116 -0.085812 -1.006057 0.826057 0.682747 0.328480 1.119104 0.131341 -0.146154 0.182819 0.536094 -0.670229 -1.056017 1.947062 2.541837 -1.002403 -1.749671 -1.334086 0.706325 -1.102199 2.232151 0.297775 -1.255636 -0.962671 0.053550 -0.619440 1.564283 -0.067255 0.016188 -0.501625 0.248646 0.539814 0.057838 -0.045826 0.818021 -0.000795 -1.091819 1.487691 -2.441015 -0.898287 -1.665579 -1.253529 0.737908 -0.119461 0.468384 1.659914 -1.423694 -0.882035 -1.012022 -1.610818
移O 1.092221 -0.611848 -0.971485 -2.931227 0.638373 -1.182358 -2.218997 -1.238270 -2.549640 1.158668 0.001125 0.018329 -0.528892 -0.893231 -1.577762 0.220628 0.411884 -0.599835 2.139363 -0.271696 0.334327 3.413624 0.284182 -0.220492 -1.187127 -0.257409 0.887563 0.556314 0.881778 -0.198609 -1.263070 0.020988 0.715676 0.000272 0.183442 -0.485473 0.929543 1.860798 0.020709 0.062311 -0.409202 -0.649144 1.251928 -0.155096 -2.537463 0.299672 0.514496 -0.800602 -1.193344 -0.715669 0.153920 1.444853 0.688614 0.748531 -0.452330 -1.234192 0.181244 -1.512736 0.029078 0.273843 -0.761339 -0.932914 -1.808315 -0.848419 -0.138866 0.230475 -0.869666 -0.319846 -0.130402 0.380015 1.358415 -1.281610 0.260977 -0.537405 0.232357 0.958270 -0.013701 -0.678461 1.137804 -0.326140 -0.068541 0.719691 -0.915727 -0.281580 0.648625 2.160104 0.562477 0.424597 0.555759 -1.015141 -0.731435 -0.358721 -0.992550 -1.739200 -0.182976 0.547449 0.078463 -0.349884 -0.703689 0.276700
侵O 1.155617 -0.492203 -0.561063 0.991213 -0.258310 -0.213536 1.116015 -0.776486 1.080515 0.413169 0.211747 -0.668972 -0.193019 -0.346097 -1.415226 0.101368 0.446440 0.428698 0.749312 -1.526686 2.014473 2.590318 -1.677207 -0.098545 -0.087049 -1.172895 2.207054 -0.591081 -0.756230 -0.459141 0.732830 -0.784082 -0.093554 -1.114605 2.783680 -0.335815 0.958041 0.530779 -1.312098 0.915867 -0.649805 1.570820 0.248004 -0.157898 -0.518395 1.219829 0.093847 -3.695288 -0.893106 0.033652 0.606399 0.752646 -1.396134 -0.627924 0.609978 0.721360 1.486639 -0.122003 1.442640 -0.132824 -0.509892 0.379039 -0.970499 1.120663 0.859964 -1.185995 -2.610365 -0.149053 -0.373727 -0.146801 -0.502739 -0.578005 -1.597894 -0.667474 -0.305448 -0.160754 -0.918220 -1.053827 -0.386376 -0.415697 0.616869 0.900610 0.211930 -1.343376 2.520191 0.460094 0.915258 0.117074 -0.912910 -0.979349 -0.944690 1.029963 0.637096 0.280230 -0.535561 -1.414025 -0.814601 1.850545 -1.095994 -0.197464
神O 2.017838 0.915685 0.840434 1.417942 1.201509 -1.146222 -1.085716 0.676274 1.500850 -1.244436 -1.128706 -1.122954 1.801663 -0.971757 1.399471 1.260775 -1.090046 0.310322 -1.044961 0.358398 -0.148773 2.842295 -1.018204 -0.864143 -1.549921 -0.912548 0.039221 0.817915 0.019874 0.452232 2.152253 1.535156 -0.462246 0.015881 -0.255998 0.602277 -0.661107 1.414546 2.195616 1.925451 0.979194 -0.245966 -1.518148 1.684400 0.907148 1.277538 0.501087 -0.117878 -0.594043 -1.979461 2.341377 -0.456175 0.153326 0.439592 0.974407 2.207741 -0.813997 -0.666660 0.981394 0.526945 -1.586028 2.593306 -0.420331 -0.143940 1.117054 -0.312483 -0.267954 0.340905 -1.097023 1.081609 1.201935 -0.593332 -0.414340 1.073428 1.400258 0.923595 1.431313 0.156392 1.118538 -0.566117 1.697346 0.868545 -0.125036 2.283487 0.093082 0.588794 0.813860 0.371063 -0.610230 0.609250 -0.388715 -0.809243 -0.773330 1.485009 2.997257 -2.082868 -1.254849 0.924339 -0.013076 0.398019
年O -0.206682 -0.242057 1.367787 -0.670043 0.913195 1.029644 -1.510388 0.619824 -1.535230 0.720879 -0.254912 -0.802908 -0.821021 0.041102 0.089966 0.076641 -1.459331 -0.594995 -0.470378 0.485133 -0.503302 1.320627 0.625701 -0.646195 -0.687484 0.379172 -0.619731 0.028798 0.104871 -0.144320 -1.077549 0.244100 0.117598 0.717062 -0.511601 0.340112 0.092689 0.538086 -0.428821 -0.148405 -1.230009 -1.048211 -0.276974 0.801375 -1.277568 0.731921 -0.435437 0.548185 -0.917744 -0.811957 1.790078 -0.318872 0.077666 0.288201 -0.417099 -0.422428 -1.048563 -0.982977 -0.657542 0.285316 -0.025787 -0.410480 -1.656469 -0.708572 1.931230 1.302835 2.272854 1.677792 0.049861 0.597829 1.008231 0.115362 1.245296 1.015518 0.253267 0.578268 -1.015789 -0.578801 1.153125 -0.488069 -0.863476 -1.272386 0.535560 0.183249 1.081664 1.180443 -0.507085 0.046377 -0.483642 0.341161 0.500165 0.359407 0.395897 -0.622908 -0.706102 0.390938 -0.706640 0.396688 1.637358 0.701973
周O 0.767336 -0.084511 0.059485 0.046660 -0.614567 -0.055656 -0.684303 0.114474 -1.045911 0.806830 0.091742 0.372419 -0.954278 0.114200 -0.597497 -0.727312 -0.839515 0.115978 0.098908 0.521987 0.050462 0.994073 -0.348221 -0.662742 -0.726479 0.752291 -0.062024 -0.160018 -0.100215 -0.505725 -0.379904 -0.249752 -0.242917 -0.351006 0.694913 -0.233922 0.156261 0.531128 -0.176593 -0.071353 -0.774432 0.202875 0.274166 -0.227004 -0.787236 -0.042022 0.776296 -1.286241 0.406793 0.362297 1.470655 1.342392 0.288147 -0.427982 0.147277 0.304832 0.258141 -1.195215 -1.059398 0.311016 -0.206121 0.140886 -1.101046 0.074514 0.147411 -0.581522 0.350645 -0.791901 1.008810 -1.156211 1.002643 -0.079724 0.360422 0.678602 0.255314 0.847393 -0.629016 -0.667259 0.068977 0.017677 -0.533335 -0.897180 -0.263363 -1.009518 0.940407 0.024898 1.284065 0.234975 0.370476 -0.670254 0.643418 1.143507 -0.447575 -0.313797 -0.389773 -0.734447 0.160632 0.247788 1.005682 -0.607449
精O 1.854355 0.731083 0.616496 1.167530 0.821970 -0.783405 -0.921312 0.800155 1.356817 -0.977504 -0.812727 -1.391307 1.292256 -1.172186 1.288360 1.239799 -0.667734 0.527563 -0.503211 0.286599 -0.083081 2.739248 -0.653533 -1.470937 -1.362888 -0.442261 0.089291 0.681312 0.058506 0.716517 2.022559 1.555318 -0.871154 -0.136548 -0.309056 0.608532 -0.913381 1.293043 1.786435 1.641005 1.045779 -0.564946 -1.392293 1.221053 1.317225 1.383868 0.343114 -0.593159 -0.429458 -1.622536 2.280800 -0.665149 0.334192 0.629637 0.963138 2.219170 -1.137166 -0.319435 1.192266 0.301042 -1.501103 2.753292 -0.444250 -0.034629 1.137522 -0.390029 -0.345358 0.394817 -0.756257 1.125507 1.289096 -0.651707 -0.350213 0.747625 1.413886 0.893495 1.073839 -0.053869 1.001126 -0.459886 1.211503 1.338993 -0.010471 1.754548 0.347704 0.511547 0.679448 0.773253 -0.483470 0.555203 -0.266233 -0.236736 -0.610121 1.089925 2.630739 -1.959715 -1.229407 0.564086 -0.529034 0.134758
LO -0.848134 0.696745 0.963598 1.049239 0.217110 -0.182940 0.153250 -0.067824 0.434029 0.481507 1.155002 -0.578159 -0.394143 -1.586525 0.036542 -0.130566 0.392185 -0.206282 -0.940393 0.968502 1.329971 1.439260 -0.262022 -1.068969 1.183551 -0.446916 1.115883 -1.235342 -1.216542 -0.386784 -1.014691 -0.691656 -1.232120 0.673779 0.608841 -0.324649 0.690960 -0.506308 -0.323106 0.263765 0.511670 1.628992 0.123173 0.403828 -0.063674 -0.082843 -0.027267 -0.685966 -0.416451 0.949701 -0.973855 0.909092 -0.146143 -1.371400 0.320551 -0.644626 1.133339 0.523353 -0.715501 -1.593803 0.100053 0.297793 0.343679 0.024966 0.856216 0.476182 0.129292 -0.120991 0.023189 0.674481 0.374694 0.448211 -0.928172 -1.439173 -0.786449 -0.117434 -0.539146 0.456665 1.226457 0.385375 -0.226973 0.175186 -0.004646 -0.066669 0.858940 0.885650 -0.532101 0.689439 -0.705739 0.116790 -1.420418 -0.051373 -0.579700 -0.387189 -0.595151 -0.740398 -0.015137 0.351229 0.782819 0.124738
