2796 100
，O -0.178475 0.382221 0.250196 0.103110 0.265233 -0.043058 0.079734 0.319776 0.140701 -0.444480 -0.255036 -0.045196 -0.393027 -0.465677 0.282776 0.997606 0.180960 -0.057833 0.580474 -0.570539 -0.430711 -0.237833 0.704498 -0.069419 0.140681 -0.431948 0.605762 0.299081 -0.165389 0.586522 -0.145777 0.034484 0.156541 0.595280 0.449726 -0.156583 0.296078 0.210352 -0.620550 0.540170 -0.767753 0.048059 0.339602 -0.136499 0.029875 -0.306348 -1.021152 -1.234407 -0.013850 -0.664419 -0.520754 0.686806 0.203579 -0.234051 -0.572359 0.211701 -0.236834 -0.030097 -0.171576 -0.424111 0.129286 0.081510 -0.360199 0.059520 0.700870 -0.189189 0.174682 0.285204 -0.119674 0.266035 0.604762 0.101054 -0.102303 -0.279781 0.789895 0.422509 -0.356822 -0.088004 -0.517256 0.391606 -0.131344 -0.839458 0.666125 -0.462151 -0.000503 0.413773 -0.057420 -0.813515 -0.260338 -0.026171 -0.125971 0.461937 1.017686 0.290149 0.293310 0.129945 -0.277989 -0.285916 0.104336 -0.324361
1O 0.909211 -0.367675 0.840384 -0.170742 -0.723929 0.285054 0.213507 -0.350460 -1.118062 -0.405853 -0.859706 -0.273895 -0.997976 0.549393 0.720409 1.008646 0.909862 -0.927645 0.760436 -0.733847 0.073108 0.346523 0.827893 -0.512844 -0.119661 -0.415292 -0.354254 -0.476605 -0.162281 -1.062142 0.409767 -0.193741 -0.895061 0.164178 1.630435 -0.098034 0.625801 -0.462767 0.162317 1.196465 -0.480631 0.484349 0.370461 -0.008085 -0.067313 0.011971 -0.804851 -0.541622 0.862806 -0.696903 1.657008 0.321972 -1.547956 -1.237520 -0.108002 -0.527644 -0.318824 -1.257168 -0.585566 1.547182 -0.234117 0.594970 -0.253311 -0.404962 -0.442510 0.195402 -0.063608 0.312332 0.754645 -0.539045 1.045189 0.066632 0.460810 0.538848 -0.690399 -1.461461 1.226964 -0.023229 -1.047928 1.609568 -0.467808 -0.011214 -0.091705 -0.036833 -1.195077 0.072647 0.356652 -0.252627 0.056888 0.258377 0.042538 -0.156128 -0.084544 0.058917 -0.374569 1.046519 0.528715 -0.814614 0.859898 0.472609
0O 0.894961 -0.460260 1.091872 0.081522 -0.962261 0.228180 0.599852 -0.301032 -1.174204 -0.892882 -0.714848 -0.268290 -0.480826 0.900446 1.337227 0.863911 0.842450 -0.575506 0.723599 -0.881784 -0.101389 0.560508 1.068940 -0.249022 -0.188125 -0.358143 -0.751282 -0.161960 -0.308957 -1.862203 0.840171 -0.064133 -1.062683 0.522347 1.713264 0.313399 0.667470 -0.518008 -0.045831 1.139372 -0.593408 0.560969 0.236360 -0.124380 0.487321 0.041144 -1.097972 -0.780822 0.624210 -0.863929 1.629460 0.536767 -1.772653 -1.579331 -0.176002 -0.228817 -0.379191 -1.099811 -0.732576 2.033199 0.115240 0.633512 -0.343809 -0.166801 -0.632019 -0.262703 0.201021 0.759967 0.613131 -1.003048 1.088148 0.312378 0.460736 0.509434 -1.279136 -1.587940 1.359658 -0.169248 -1.431669 1.974440 -0.292151 -0.083136 -0.411475 -0.126526 -1.405257 0.033664 0.466893 -0.371462 -0.161335 0.441800 0.137338 0.282096 -0.114876 0.062212 -0.424127 0.759332 0.468012 -0.801009 0.638167 0.549851
、O -0.708857 -0.389831 -0.318379 0.361508 -0.155119 -0.250892 -0.430790 0.621844 0.446793 -0.776730 0.184524 0.457073 0.713000 -0.556412 0.508167 0.514031 -0.205870 -0.553575 -0.221248 0.231369 0.798988 0.379073 0.089674 -0.124659 0.656031 -0.209090 -0.811796 0.366362 -0.927930 1.056214 1.390596 -0.751103 0.895316 1.082720 -0.497109 -0.111148 -0.335247 -0.021789 -0.535062 0.322344 -0.549734 0.091564 0.895244 -0.256423 0.703190 0.912405 -1.127226 -1.166163 0.010942 0.190453 1.166405 0.658714 0.119643 -0.727609 0.047074 -0.390579 -0.183946 -0.174622 -0.149352 -0.039397 -0.233784 0.327139 0.159668 -0.421654 0.402148 -0.874158 -0.159026 -0.145573 -0.785020 -0.661753 -0.692033 0.623274 -1.040888 -0.785837 -0.118461 -0.515933 -0.275065 0.791316 -0.032158 0.466027 0.369540 -0.449439 0.194724 -0.308417 0.707418 -0.735979 0.054193 0.684431 -1.029129 0.328933 0.330355 0.824161 1.014411 -0.211781 -0.253130 -0.718662 0.559381 -0.881413 0.374341 1.184892
2O 0.840307 -0.418744 0.913127 -0.150470 -0.715461 0.284052 0.220670 -0.198843 -0.963646 -0.610591 -0.843023 -0.023126 -0.652232 0.702677 0.698283 0.934300 0.811851 -0.968130 0.843678 -0.762750 -0.077485 0.450501 0.769575 -0.372078 -0.020347 -0.459163 -0.456031 -0.587656 -0.076835 -1.248186 0.225011 0.051032 -0.717822 0.160556 1.588169 -0.031505 0.297533 -0.336013 0.186075 0.926877 -0.467406 0.326323 0.275904 -0.003928 0.033681 -0.256693 -0.923444 -0.650963 0.772170 -0.694609 1.674600 0.133808 -1.588605 -1.253021 -0.186773 -0.294390 -0.330017 -1.327567 -0.380920 1.574288 -0.323728 0.687847 -0.317290 -0.271090 -0.286950 0.289899 0.003741 0.578706 0.696141 -0.633616 1.106390 0.190872 0.613364 0.371734 -0.881208 -1.365537 1.396038 -0.162725 -1.178795 1.607532 -0.649103 -0.147298 -0.207995 0.047200 -1.425355 0.249097 0.336599 -0.328032 0.068071 0.348557 -0.034743 -0.019979 -0.251029 0.086504 -0.404879 1.036991 0.670225 -0.451892 0.742281 0.624293
。O 0.662535 0.708199 0.821147 -0.602463 0.109046 0.199829 0.170187 0.148416 -0.676516 -0.256704 -0.261154 -0.145692 -0.375629 -0.463164 0.158122 1.324697 1.223233 0.206880 0.136231 -0.216985 -0.998157 -0.104313 0.477908 -0.352922 0.201216 -0.386589 0.450311 0.248352 0.286986 -0.406493 -0.243640 -0.304973 0.062295 0.066478 0.435486 0.065314 0.778602 0.629436 -0.896044 0.492654 -0.856986 0.115478 0.238882 -0.293454 -0.174760 -0.292606 -0.315986 -0.689233 0.339426 -0.834269 0.178361 1.024655 0.413365 -0.095888 -0.119272 0.472671 0.092147 0.236105 -0.024270 0.323587 -0.080136 -0.017151 -0.494548 0.210140 0.122665 -0.255013 -0.521426 0.239924 0.714470 0.342195 0.835042 -0.098873 -0.221453 1.136806 1.040148 0.731273 0.734535 -0.386675 -0.826656 0.169725 0.395830 -0.505234 0.560443 -0.040533 0.054021 0.757933 -0.165282 -0.509361 0.437988 0.241048 0.458208 0.364050 0.549535 0.275891 0.032450 0.805951 -0.259102 -0.068411 0.493941 -0.112394
无O -0.173282 0.186621 0.001168 0.485495 0.380987 -0.356395 -1.336959 -0.168467 1.902768 -1.055053 0.011886 -0.139723 0.762829 -0.915866 0.291393 0.336901 -0.658811 -1.082948 0.412165 -0.585001 -0.551863 0.389934 -0.097614 -0.598969 -0.569825 0.273707 -0.961247 -0.648070 -0.781734 1.631532 -0.515776 -0.875289 0.594859 0.453074 -1.332233 0.595694 -0.633324 1.241365 -0.779241 0.537216 -1.294315 -0.511776 -0.314259 -0.870119 -2.049667 0.064893 -0.777091 -1.894728 -0.650853 0.476100 0.399158 -0.358437 -0.312751 -0.352525 0.896662 -0.586581 -0.236306 0.281106 0.034711 0.084367 0.063915 1.014219 1.018307 0.971697 0.072980 -0.511103 0.248645 -0.180871 -1.594352 0.427769 1.038360 -0.459014 -0.885147 -0.009747 0.527460 -0.891819 0.282893 0.190973 -0.047234 -0.312181 -0.634212 -1.746255 1.273816 0.574262 -0.912350 0.414294 0.601586 0.335548 -1.213040 -0.097981 0.415431 0.404727 1.388695 -0.136315 -0.143476 0.075342 -0.452451 0.308207 -0.211259 1.014183
）O 0.165952 -0.219429 0.336594 -0.148518 -0.555193 -0.015190 -0.482150 -0.286087 -1.822129 0.884214 0.764149 -0.521139 -0.866827 -0.647304 -0.185012 0.247945 0.684846 -0.455279 1.629408 0.592067 0.982399 0.504859 0.348290 -0.562114 -0.383518 -0.712727 0.836605 0.115600 0.266736 -0.747537 -0.066104 -0.244408 -0.244681 -0.553947 0.600755 0.589198 0.889588 -0.541663 0.411729 0.902606 -0.270724 0.812218 -0.022696 0.406998 0.773879 0.477861 -0.159648 -0.555194 0.941705 0.705993 1.243907 -0.642166 -0.939653 0.093802 -0.430444 -1.065841 0.235277 -0.423962 -0.358230 1.773988 -0.494889 -0.104898 0.481121 -0.958167 -0.961911 -0.254733 -0.281029 -0.533030 0.677579 -0.228697 -0.859549 0.760664 0.282897 0.137506 0.059860 -0.724605 0.386318 -0.324274 -0.560789 1.033428 -0.487926 0.754386 -0.123731 -0.221123 -0.029124 -0.974676 0.144052 0.763464 -0.067992 0.531125 1.387562 -0.304915 -0.201362 -0.351267 0.312684 0.377852 0.840618 0.322408 0.044997 0.939752
-O 0.833512 0.239963 0.760275 -1.137253 -1.553699 0.352575 0.139688 -0.695245 -1.196335 -0.649025 -0.372489 0.764137 -0.942610 0.070643 0.647767 1.500589 0.727087 -1.787661 0.747705 -0.900130 -0.007261 0.504772 1.078328 -0.778946 -0.081587 -0.104146 -0.436466 -1.094075 -0.662490 -1.793191 0.341947 0.231059 -1.020074 0.386380 1.180820 -0.763302 0.903388 -0.677995 0.193661 0.888706 -0.864292 0.741666 0.086082 -0.324882 0.234908 -0.301812 -0.634222 -0.418107 1.454889 -0.535113 2.338552 -0.138990 -1.703016 -1.720453 0.240165 -0.157956 -0.006677 -1.173345 -0.422287 2.330156 -0.421403 0.808159 -0.615620 -0.453864 -0.715129 0.390337 -0.040245 -0.331858 0.825963 -0.919050 1.208479 0.316211 0.421504 0.589078 -1.100371 -1.809911 1.428957 -0.029225 -1.423910 2.150496 -1.023161 -0.119073 -0.809930 0.418268 -1.473656 -0.237786 0.374691 -0.219332 0.807430 0.483546 0.368547 0.159712 -0.859154 -0.205637 -0.556976 1.215241 0.941001 -0.755518 0.731430 0.912954
（O 0.237548 0.112823 0.330731 -0.251422 -0.736789 0.332628 -0.250537 -0.219071 -2.116409 0.619248 0.717831 -0.088538 -1.129904 -0.458106 0.050888 0.884888 1.179556 -0.115754 1.248134 0.674967 0.638246 0.274548 0.499562 -0.494668 -0.035156 -0.599193 0.728483 0.516619 -0.240904 -1.135926 0.430042 0.048759 -0.419828 -0.227341 0.832174 0.028802 0.854408 -0.827135 0.559928 0.698389 -0.590732 1.109702 0.451035 0.556190 1.280859 0.247543 0.094263 -0.543906 1.195298 0.423463 1.294514 -0.064672 -0.741274 0.160574 -0.342645 -0.355056 0.154439 0.109568 -0.438755 1.684394 -0.825826 -0.456407 -0.068888 -0.781184 -0.607944 -0.210572 -0.334017 -0.346142 1.013893 -0.560534 -0.476515 0.707475 0.276818 0.204202 0.097787 -0.064455 0.703992 -0.232326 -0.446528 1.577175 0.343354 0.816628 -0.429186 0.028282 -0.163763 -0.930303 -0.014566 0.740118 0.094345 0.547468 1.207879 0.688346 -0.216201 0.135152 0.427678 0.230533 0.775196 -0.001668 0.266911 0.540809
术O 0.427720 0.406783 0.376933 -0.143423 0.048965 1.574360 -0.493951 -0.326964 -1.544204 -0.585097 0.417764 0.583558 -0.890744 -0.308990 0.271183 0.681260 1.738374 -0.053934 0.862347 -0.570032 -1.829941 0.014018 0.483290 0.320391 0.983707 -0.250103 1.212700 -0.450478 -0.293585 -1.970221 -1.664494 0.517910 0.042005 -0.468931 -0.685864 0.202822 0.524972 0.556311 0.173734 -1.020435 0.298937 1.155589 -0.397740 0.836303 0.977691 -0.724522 0.489330 -0.655835 0.528654 -0.026039 0.506850 -0.112998 -0.033944 -1.010866 0.599391 0.866682 0.892475 0.860207 0.834686 0.650842 -0.609560 -0.880865 0.709182 0.008621 -0.547457 0.463833 -0.893275 1.140476 0.443328 0.216790 0.531872 -0.359996 0.454428 1.489667 0.227270 1.025879 1.288376 -1.431243 0.089740 0.312246 -0.929148 0.534395 -0.673806 0.992418 -0.377708 0.363444 0.554450 -0.348307 0.766220 0.928013 0.445566 0.290129 -1.167261 0.208911 0.327225 0.591813 1.430056 0.662470 0.481865 0.079451
院O 1.130400 0.247602 0.418551 -0.879347 -0.009014 0.974805 -0.793050 -0.505648 0.570240 -0.228543 -0.752633 -0.153548 -1.610669 -0.166709 0.322027 1.438416 0.393279 -0.992293 -0.166712 -1.820787 -2.315457 0.090413 0.493375 -0.212719 -0.801440 0.422564 0.271320 -0.486910 -0.540994 -1.217514 0.178272 0.348449 -1.109648 0.318184 0.636154 -1.585759 0.770757 1.370521 -0.197655 -0.572454 -1.155856 0.584144 -0.465644 -0.195625 -2.642792 -0.327177 0.586678 0.199665 -0.529867 -0.990527 1.147175 0.290236 -0.344694 -0.999873 0.684792 -0.930449 0.146041 -0.063123 0.132652 1.108656 -0.378810 0.437680 -0.713348 0.305037 -0.165601 0.503987 -0.798992 -0.326220 1.280952 0.924481 2.703001 -0.714483 1.430093 1.721375 -0.680843 -0.681656 1.081287 -1.152450 -0.809305 0.130350 -0.292987 0.078578 -0.519091 0.643066 -0.803650 1.216112 -0.021299 -0.441139 1.719167 -0.860262 -0.590006 -0.958251 -0.723313 1.234316 -0.962657 1.920480 -0.405942 1.200415 0.893819 -0.275015
后O 0.521498 0.208794 0.964395 0.034904 0.404655 0.513879 0.191121 -0.501530 -0.729134 -0.949494 0.055840 0.515728 -0.421877 0.240493 1.021596 0.583834 0.974225 0.319590 0.274827 -0.688881 -1.886529 -0.511421 1.106583 -0.191107 0.691477 -0.694802 0.776715 0.184226 -0.441347 -1.667834 -0.479371 -0.171254 -0.321149 -0.201639 -0.030341 0.045738 0.867642 0.907360 -0.757123 -0.640058 -0.393653 0.618082 0.188824 0.019397 -0.104722 -0.516643 -0.190710 -0.829862 0.481855 -0.611772 0.060669 0.602003 -0.168235 -1.277562 0.418618 0.477540 -0.198538 0.962127 0.336519 0.269040 -0.116581 -0.095134 0.239602 0.257077 -0.172376 0.207014 -0.102671 0.706674 0.379024 0.743712 1.633193 -0.495123 0.372544 0.919662 -0.205658 1.236748 1.269169 -0.362242 -0.700275 -0.080298 -0.008764 -0.538304 0.025372 0.199920 0.150964 1.162169 -0.044218 -0.858497 0.511325 0.062816 -0.122319 0.066919 -0.386348 0.401408 -0.172031 0.703030 0.536262 0.168995 0.643004 -0.061982
疗O 1.884881 0.890263 0.703911 -0.049652 -1.331181 0.233540 -1.110960 -0.860892 -0.521694 -0.770064 -0.017707 -0.021037 -0.898510 -0.570199 1.213813 1.040043 1.473304 -1.017439 -0.596438 -1.588958 -1.163505 -0.298008 1.577121 -0.680780 0.015913 -0.438756 0.091454 0.022803 -0.888163 -1.645508 -0.326530 0.341144 -0.101121 0.093033 0.678654 -1.077911 1.045231 1.848584 -0.423682 0.210938 -0.879308 1.169883 0.160866 -0.174129 -1.715566 -0.973082 -0.110873 -0.591362 0.152645 -0.063229 0.294183 -0.191209 0.177884 -1.338112 1.589732 0.433207 0.005905 -0.288297 0.108841 0.437459 0.046408 1.559246 0.129759 0.012861 -0.007954 1.552729 -1.402632 -0.023550 0.067651 1.167720 2.226895 -0.196834 -0.083477 1.386495 0.611228 -0.199317 1.303246 0.302988 -0.231390 -1.317677 -0.311823 -0.494681 1.185069 1.400085 0.052191 1.657147 0.683347 0.172987 2.038252 -0.101661 1.051301 0.688864 -0.518108 -0.191280 -0.696427 0.336678 -0.223535 -0.477860 0.263932 1.088624
化O 1.245431 0.961639 0.987052 0.396140 -0.514050 0.468170 -1.359056 -0.836026 -0.907639 -0.895368 0.372513 -0.045478 -0.816682 -0.683675 0.880330 0.607177 0.630278 -0.427437 0.263008 -1.099987 -1.142869 -0.461525 2.200549 -0.320483 -0.243236 -0.648604 0.981536 -0.718516 -0.418104 -1.813134 -0.312479 0.308441 -0.396010 -0.185357 0.292921 -1.048302 1.143138 -0.339852 0.689221 0.733527 0.057686 0.715126 0.462550 -0.418883 -0.653020 -0.393650 -1.275203 -0.648131 0.808247 -0.433873 -0.878007 -0.425518 0.386399 -0.572202 1.164235 0.710974 0.307214 0.517572 0.293347 0.758433 -0.362610 0.988165 0.002871 -0.187246 0.000320 1.000337 -1.325166 0.125117 0.489497 0.501308 1.663013 0.009554 0.064791 0.386709 1.151711 -0.221663 1.033007 0.724016 -0.419940 -0.081780 -0.202643 -0.249178 0.430309 0.600927 -0.186142 0.685285 0.488415 -0.722568 1.795321 -0.434111 0.865521 0.888710 -0.625061 -0.842236 -0.103654 0.603556 -0.010680 -0.859181 0.275575 1.236118
+O -0.061585 -0.566786 0.049676 0.370167 -0.895849 -0.096926 -0.435213 0.191104 -1.725337 -0.052804 1.371317 -0.238387 0.491639 -0.477641 0.550910 0.308592 0.696787 -0.647608 1.301499 1.094988 0.884393 0.360095 -0.018382 -0.127152 -0.530592 -0.751879 -0.072746 0.652439 -1.365941 -1.204913 1.339667 0.118502 -0.685376 0.199656 -0.511954 0.048569 1.594913 -0.554905 0.547727 0.541390 -0.138631 1.370358 -0.202117 0.862023 2.032425 0.651948 0.520909 -0.496290 0.070528 0.645877 2.189237 -0.398320 -0.337644 0.098360 0.037337 -0.409003 0.275378 0.327471 0.058147 1.694737 -0.316292 -0.015669 -0.251440 -0.605359 -0.708762 -0.954789 -0.017190 -1.228648 -0.031960 -0.461942 -1.154761 0.944403 -0.011677 0.846031 -1.020005 -1.607089 -0.111436 -0.734733 -0.256275 1.104408 0.201005 1.280243 -1.381236 -0.014691 -0.834424 -2.241306 0.799706 1.118980 -0.873838 1.100726 0.714172 0.228212 0.259017 -0.420660 0.240358 0.467076 1.091530 0.508201 0.256815 0.540423
患O 0.624416 1.482630 0.796131 0.168191 -1.015052 0.068281 -0.386333 -1.018765 -0.084329 -1.874641 -0.925786 -0.841596 -0.965591 -0.672889 1.999256 1.116532 0.943500 -0.304074 0.631378 -0.926950 -1.852878 0.556785 0.618001 -0.488973 -0.365354 -0.141941 -0.195004 0.116657 0.094837 -0.303140 -0.054514 -0.756572 -0.399138 0.125210 0.127601 0.266454 0.864752 1.627903 -1.712834 0.312782 -0.677073 -0.034817 -1.447148 -0.582943 -1.772213 -0.380474 0.395725 -0.032316 -1.212762 -1.345537 0.072390 0.934682 -0.681657 -1.182145 1.175057 -0.996929 -0.501643 0.022658 0.104391 1.039040 0.153112 1.138424 0.600911 0.966535 -0.975697 -0.521761 0.449594 1.634398 0.059711 1.320806 1.837822 -0.603845 -0.043898 1.474683 -0.603381 0.268716 1.571905 -0.650056 -1.433551 0.411625 -0.813220 -1.085005 -0.014562 1.119818 -0.425681 0.740313 0.073204 -0.042371 0.858216 0.625173 -0.759951 0.442466 -0.392781 0.668527 -0.496833 0.173795 0.133284 0.314227 0.231911 0.383447
5O 1.097851 -0.361038 1.174322 -0.118154 -1.001674 -0.003003 0.313884 -0.176339 -0.910863 -0.534521 -0.338712 -0.562056 -0.577455 0.461201 0.783507 0.794082 0.890928 -0.670379 0.792857 -0.529910 0.360974 0.300133 0.910441 -0.450619 -0.456267 -0.338372 -0.596017 -0.165653 -0.047431 -1.039804 0.732155 -0.204801 -0.791313 0.315348 1.637695 0.282340 0.552719 -0.773204 0.459074 1.362478 -0.528048 0.156437 -0.265746 -0.063775 -0.083668 0.048416 -1.040339 -0.356789 0.683904 -0.452585 1.498022 0.129960 -1.690246 -1.091208 -0.225052 -0.581222 -0.280923 -1.098029 -0.861432 1.553375 -0.275944 0.475658 -0.402694 -0.081209 -0.392190 0.280622 -0.111907 0.331885 0.589424 -0.876984 0.732869 0.287144 0.306359 0.507074 -0.878697 -1.560647 0.940923 0.098754 -0.849869 1.391786 -0.157310 -0.006526 -0.168769 -0.139923 -1.503080 -0.330739 0.363437 -0.029300 -0.238361 0.091994 0.486390 0.098277 -0.146582 -0.085502 -0.667292 0.706928 0.369527 -0.669956 0.462848 0.261129
者O 0.302139 0.542432 0.677471 0.683594 0.093739 0.987077 0.800344 -0.965124 -0.240032 -0.660243 -0.823583 -0.567393 -0.679742 -0.347758 1.653195 0.417961 0.285478 -0.614161 -0.102605 -1.143370 -1.333579 -0.150042 0.338868 0.533039 -0.956937 0.391116 -0.954243 0.076128 0.143183 -1.325180 0.402204 -0.061335 -0.221812 0.025600 0.490246 0.545161 1.326360 1.605390 -1.047503 0.352677 -1.182378 0.270139 -0.175957 -1.056278 -2.054690 -1.056617 -0.378707 -1.469085 -0.384917 -0.854204 0.717771 1.068808 -0.707076 -1.536190 -0.453032 -0.727802 -0.199104 0.578012 -0.062695 1.102659 0.590019 1.189144 0.991177 0.496136 -1.160863 -0.844040 0.294347 0.417408 0.270350 1.358374 2.383150 -1.082375 -0.025457 0.774285 0.163057 0.359491 0.975657 -0.359944 -1.658875 -0.063203 0.446779 -1.089302 0.036604 -0.361717 -0.462435 1.444857 0.597544 -1.022304 -0.162507 -0.065596 -0.650112 -0.186334 -0.047191 0.341069 -0.699014 0.841418 -0.698303 0.030195 -0.068005 0.284750
4O 0.858249 -0.244430 1.026294 0.177724 -0.910664 0.361476 0.214949 -0.314271 -1.076116 -0.484870 -0.594596 -0.578155 -0.955328 0.539491 1.108130 0.763867 1.025532 -0.510271 0.544332 -0.800501 0.135232 0.260548 0.950813 -0.222775 -0.355041 -0.319259 -0.261297 0.039187 -0.212184 -1.300105 0.821980 -0.077851 -0.872625 0.179365 1.684948 -0.031535 0.843420 -0.335787 0.205324 1.099527 -0.234721 0.657656 0.118708 0.052892 -0.094618 0.018076 -0.799910 -0.375153 0.353893 -0.669810 1.418986 0.433699 -1.238315 -1.235799 -0.199766 -0.700231 -0.206278 -1.035486 -0.640165 1.461378 -0.130943 0.728182 -0.207689 -0.341999 -0.396231 -0.027658 -0.160501 0.563032 0.728787 -0.500599 0.862170 0.231568 0.484097 0.604723 -0.914510 -1.219344 0.980055 -0.049702 -1.060133 1.344224 -0.371076 0.192811 -0.101389 -0.051377 -0.925003 -0.082655 0.317242 -0.182785 0.099036 0.258139 0.122376 -0.062795 -0.174739 0.191767 -0.397640 0.747895 0.361988 -0.609723 0.637050 0.560192
.O 1.118637 -0.953575 1.140990 0.405984 -0.672787 -0.341514 1.029813 0.554326 -0.682906 -0.643994 -0.720193 -0.745765 0.129575 1.459522 0.990806 0.715227 0.855787 -0.103092 0.765549 -1.056322 -0.027214 0.458948 1.181087 -0.346565 -0.177261 -0.439768 -0.942216 -0.032764 0.324665 -1.289279 0.928699 0.280013 -0.735692 0.403876 2.379795 0.638301 -0.259315 -1.085476 0.455118 0.939692 -0.419197 -0.071152 -0.144863 0.298680 0.164660 -0.335412 -1.710542 -0.953527 0.459758 -0.787379 1.689831 0.069471 -1.912992 -1.471439 0.037280 -0.452713 -0.240447 -1.422008 -0.897377 1.436100 -0.649101 0.140358 -0.423806 0.171788 -0.044877 0.206785 -0.486226 0.843510 0.485333 -1.580697 0.740460 0.520960 0.599571 0.369045 -1.759512 -1.770955 1.044460 -0.400572 -0.419685 1.657525 0.320563 -0.070769 0.329439 0.218531 -1.836934 -0.253211 0.529458 -0.197854 -0.398157 -0.318576 0.125599 0.409416 0.426683 0.290810 -0.801543 0.498115 0.541730 -0.809759 0.309000 0.156740
3O 0.805718 -0.265174 0.901375 0.109264 -0.895835 0.085575 0.215900 -0.153359 -0.844455 -0.354158 -0.320236 -0.710727 -0.591055 0.286177 0.697670 0.615469 0.634740 -0.532023 0.789578 -0.468813 0.527582 0.299666 0.782743 -0.342829 -0.553246 -0.393164 -0.397476 -0.186792 -0.034968 -0.660496 0.697215 -0.188539 -0.604243 0.260030 1.496361 0.137669 0.590058 -0.627423 0.404940 1.285318 -0.316802 0.280404 -0.117591 -0.037093 -0.072195 0.129117 -0.907531 -0.335479 0.480696 -0.447860 1.120138 0.132826 -1.287083 -0.829312 -0.430705 -0.637192 -0.151531 -1.004702 -0.762488 1.278152 -0.254308 0.500782 -0.240526 -0.094473 -0.264778 0.083748 -0.067893 0.351501 0.621252 -0.702313 0.579216 0.334634 0.162864 0.122501 -0.463818 -1.309293 0.544609 0.095022 -0.815345 1.238524 -0.212487 -0.008583 -0.018444 -0.270553 -1.037785 -0.302595 0.225623 0.000169 -0.167224 0.106165 0.366900 0.082217 0.069824 -0.009551 -0.439994 0.589055 0.211840 -0.570516 0.368899 0.459255
行O 1.024807 1.126118 0.069917 0.153819 -0.576747 -0.046102 -0.457387 -0.402731 0.338970 0.189453 -0.854251 0.535170 -0.970780 -0.198061 0.055478 1.519881 0.556260 -0.830978 -0.970132 -0.504734 -0.657324 0.191528 0.170079 0.434478 -0.534720 -0.009782 -0.096830 -0.999312 -0.522257 -0.867027 0.025618 1.075078 -0.871503 -0.276161 0.436011 -1.759943 1.298946 -0.161614 1.069055 -0.191706 -0.648178 0.001456 -0.300456 -0.783955 -1.226413 -1.025289 -0.015487 0.202405 0.327208 -0.992274 1.501120 -0.052913 0.822962 -0.556169 1.195237 -0.418488 0.295572 -0.291990 0.406718 0.412523 -0.379419 0.689959 -1.559233 -0.334748 -0.384243 1.373366 -0.585237 -0.760871 0.902753 0.586034 1.103466 0.631997 0.271683 0.837786 -1.084136 -0.989274 0.275081 -0.711049 -0.737448 -0.521123 -0.790925 0.164545 0.228342 0.515637 -0.790735 0.092901 0.295791 -0.888495 0.965275 -0.335905 -0.620021 -0.661817 0.026927 0.254145 -0.802360 0.667445 0.299554 0.097004 0.318515 0.036801
腹B -0.871520 0.228522 -0.479135 -0.589793 1.014654 0.383860 -1.121144 -0.192477 1.741278 -0.049666 -0.704605 1.358108 0.204089 -0.225466 -0.695240 1.198106 -0.058307 -0.503383 0.087845 0.490465 -0.721026 0.887453 -0.865551 -0.534722 0.419802 0.705237 -0.519407 -1.432173 -0.702549 0.811312 -1.386631 -0.307793 -0.579413 0.289419 -1.882252 -0.116517 -0.387033 0.167678 0.163587 -0.649127 -0.959630 -0.394974 0.201139 -1.307711 -0.435560 0.010350 -0.542981 -1.799703 0.407564 0.016196 1.367500 0.450204 -0.009510 -0.981435 1.418533 -0.594981 0.453614 0.433540 0.536606 0.078294 0.144588 -0.548837 0.164740 -0.235823 -0.804146 -0.282089 0.486390 -0.291384 -1.058440 -0.212651 0.515890 -0.460860 -0.381950 0.453624 -0.999726 -0.883299 0.310823 -0.734544 -0.226218 0.663466 -1.398938 -1.604804 0.658862 0.585225 -1.395361 -0.114864 0.436707 -0.990136 -1.559265 -0.133755 -0.317346 -0.934854 1.079254 0.296259 0.271819 0.522775 0.909702 -0.195309 0.751819 0.572588
见O 0.254916 -0.474649 0.252986 -1.478706 1.486701 0.071882 -0.108722 0.385109 -0.494996 1.153494 0.739535 -0.751731 -0.774226 -0.572227 -1.813856 1.624398 1.413936 -0.236707 1.220588 0.456590 -0.394559 0.261365 0.415721 -1.429156 0.457274 -0.042453 1.590675 -0.347910 1.948525 1.271103 -1.924308 -1.035964 0.306567 -0.447913 -0.140331 1.716934 0.321733 -0.654239 -0.919635 1.029605 -1.520157 -0.238517 -0.214557 -0.192156 -0.274368 0.834242 -0.621024 -0.765290 1.674548 0.579556 0.542718 0.111525 -0.622244 0.215071 -0.046117 -0.246846 0.954758 0.639992 -0.945543 0.424609 -0.916557 -1.889421 1.267515 -0.081808 -0.914941 -0.090437 -0.635831 -0.874768 0.121285 -0.780706 -0.829240 -0.530762 -0.405991 1.718004 1.566659 0.543616 0.856713 -0.490052 0.984479 0.954394 0.389498 -0.748831 0.866203 0.003926 -0.928032 -0.059608 -0.019429 -0.432913 -0.533171 -0.102056 1.691062 -0.676422 0.680749 -0.565251 -0.155124 0.897991 0.336671 -1.162431 0.437443 -1.360843
于O 1.016082 0.519787 -0.207914 -1.133810 -0.052897 0.015924 0.320816 0.051885 -0.476996 -0.167852 -1.172799 -0.063656 -0.711715 0.241406 -0.160518 1.304516 0.209509 -0.778881 0.400174 -1.109869 -0.952211 0.513359 0.387635 -0.664608 -0.264868 0.378542 -0.388454 -0.897279 0.264544 -0.541489 -0.013990 0.565893 -0.874199 0.128043 1.210061 -0.843192 -0.045473 0.194642 0.307297 0.486929 -0.931246 -0.385866 0.051576 -0.566514 -1.136987 -1.254340 -0.088127 -0.518947 0.174229 -1.386231 0.977380 0.163687 -0.950544 -0.722570 0.501970 -0.556603 -0.489855 -1.140989 0.231061 1.358395 -0.598725 0.050876 -0.998472 0.074865 -0.386719 0.560172 -0.386576 -0.048538 1.014408 -0.256653 1.918402 -0.337863 0.884617 0.497729 -0.811770 -0.735397 1.478811 -0.972218 -0.883945 1.709718 -0.023366 -0.531580 -0.417057 0.292617 -1.758776 0.108786 0.487633 -0.740189 1.228262 -0.260836 -0.796127 -0.224426 -0.107206 0.773107 0.108691 1.673941 0.577553 0.052234 0.366923 -0.462170
MO 1.042047 -0.575334 0.664164 0.887436 -1.131088 -0.487164 0.346581 0.499860 -1.079627 -0.531662 0.798218 -0.925605 0.198418 0.295616 1.344883 -0.030959 0.206745 -0.296551 0.881634 -0.765367 1.226110 0.026377 1.785825 -0.167225 -1.053381 0.111377 -0.390364 0.948725 -0.594118 -0.862045 1.631196 0.198155 -1.083333 1.030899 0.645483 0.350234 1.167384 -1.619815 0.218570 1.386860 0.128856 0.772746 -0.724903 0.008531 0.707166 0.452985 -0.786695 0.129442 0.024365 -0.125472 0.451562 0.043935 -1.108810 -0.914302 -0.021207 -0.476103 -0.036338 -0.398428 -1.090331 1.525762 0.083189 0.274569 -0.179080 -0.119145 -0.212588 -0.393319 -0.042665 -0.662126 0.059001 -1.357144 -0.213177 0.856470 -0.129701 0.452669 -1.008877 -2.250221 -0.869281 0.430189 -0.140199 1.309707 0.503491 0.559470 -0.708006 -0.237942 -1.149076 -1.824091 0.424879 0.061311 -0.439265 -0.053979 0.568435 0.461452 0.123047 -0.584756 -0.532704 0.364978 -0.167248 -0.921783 -0.524551 -0.474300
6O 0.826308 -0.300649 1.452324 -0.058863 -0.938652 0.040444 0.065753 -0.076660 -1.238641 -0.494059 -0.296142 -0.054729 -0.633569 0.446997 0.867956 0.908627 1.159053 -0.545479 0.986938 -0.235544 0.137827 0.464741 0.885271 -0.391091 -0.258198 -0.518072 -0.643717 -0.201172 -0.302329 -1.625874 0.532024 -0.179177 -0.642523 0.235549 1.552159 0.373610 0.651216 -0.770956 0.085156 1.077926 -0.554474 0.372681 0.086840 -0.158416 0.192307 -0.053841 -0.779754 -0.628324 0.812218 -0.421532 2.008184 0.141857 -1.634892 -1.203152 -0.151994 -0.494794 -0.302501 -0.962306 -0.487490 2.050874 -0.278922 0.544977 -0.434491 -0.132672 -0.183217 -0.151030 -0.124143 0.571101 0.648571 -0.833148 0.693768 0.575289 0.293234 0.589299 -0.979331 -1.392067 1.183590 0.015385 -1.400097 1.566519 -0.397170 0.109418 -0.052793 -0.139371 -1.231857 -0.059796 0.223907 -0.169871 -0.386114 0.305364 0.499729 0.164990 -0.284264 0.073064 -0.298925 0.867415 0.593994 -0.227258 0.523817 0.748571
诊O 0.260524 -0.410833 -0.647696 0.438577 0.612215 -0.249771 -2.081972 0.583247 0.052220 0.999387 -1.471894 -0.355645 -1.986117 -0.394967 -0.064961 0.952147 -1.134104 -1.271788 -0.395642 -2.224593 -1.176001 0.617175 1.086174 0.332933 -0.555528 -0.454189 0.914787 -0.352986 -0.043419 -0.621412 0.658346 1.778705 -1.128180 -0.655582 1.077976 -2.647469 -0.159670 1.069457 1.137270 -0.654657 -0.661319 -0.201745 0.041049 0.457717 -2.657666 -0.835222 0.376323 -0.226507 -1.026597 -0.896968 0.627652 -0.886602 0.462960 -0.712541 0.897565 -1.850381 0.374614 -1.211169 0.754186 0.494463 -0.510729 0.493841 -0.634683 -1.278950 -0.145031 0.740364 -0.803717 -1.183419 0.948545 1.532909 1.590714 -0.028037 1.880110 0.950038 -0.341771 -1.057431 0.451537 -1.811119 0.359708 -0.450244 -0.273137 0.684838 0.739990 0.767404 -0.965387 1.141062 -0.056660 -0.284289 1.647665 -1.008311 -1.951915 -1.128659 -1.073540 0.719078 0.094718 1.071021 0.451272 1.333874 -0.106987 -0.769418
病O 0.015101 0.079743 0.379479 0.930723 1.176136 0.932556 -0.282850 -0.051612 -1.774614 -0.371591 -0.219471 0.081793 -1.799036 0.532672 1.334793 0.336221 1.667553 0.976814 1.103296 -1.192025 -1.670423 -0.132324 0.829860 0.556228 1.121026 -0.378484 1.446529 1.175549 0.034508 -1.880094 -0.509113 -0.016183 -0.178712 -0.466949 0.534554 1.164128 -0.555213 1.372068 -0.820132 -0.467719 -0.610207 1.116713 0.952500 0.990767 -0.360979 -0.371171 0.325704 -0.855356 -0.717112 -0.357554 0.460664 0.751947 -0.472468 -0.248918 0.117060 -0.127614 -0.200790 0.439368 0.420898 1.076260 0.128587 0.020199 1.785195 -0.579346 -0.073219 -0.991382 -0.497728 1.736812 -0.074496 1.050153 0.852066 0.075713 1.323503 1.475534 -0.371399 1.391549 2.418429 -0.907965 -0.234483 0.796520 -0.840574 0.133514 1.034107 0.935481 0.569452 1.346316 0.132777 -0.259481 0.532315 0.193593 0.210962 0.476916 -0.316868 1.226971 0.426779 0.245259 1.195608 0.987530 0.234272 0.158645
“O 0.314681 -0.495542 -0.301624 0.674389 -0.006352 -0.161528 -0.457722 0.645570 -0.163732 0.223192 -1.488767 0.265958 -0.730659 0.340944 0.242326 0.795788 -0.344216 -0.105318 -0.522741 -0.887041 -0.493795 0.348022 0.333231 0.683049 -0.414334 -0.828995 -0.489567 -0.479289 -0.265748 -0.865946 0.866128 0.935166 -0.889861 -0.242701 0.808173 -1.182772 0.083954 0.033921 0.946423 -0.518013 -0.453740 -0.313364 0.274390 0.301603 -0.216900 -0.769541 0.005164 -0.731545 -0.393393 -1.366367 1.210715 0.047121 0.321581 -0.585210 0.366180 -0.897043 0.174724 -0.508561 0.637105 0.506576 -0.304419 -0.240464 -1.282387 -0.781928 -0.158892 0.302105 0.217112 0.041653 0.930901 0.354809 0.380128 0.724916 0.657089 0.126863 -1.073287 -0.533957 -0.147334 -1.495056 -0.548003 0.122458 -0.046543 0.339593 -0.176271 -0.329000 -0.717899 -0.018873 -0.372008 -0.477648 -0.097421 0.098356 -1.434359 -0.537341 -0.088395 0.399040 -0.045268 0.527599 0.477565 0.695077 0.015296 -0.153591
”O 0.999631 -0.126052 0.131818 -0.492328 -0.333576 0.602250 -0.006206 0.099730 -0.937764 -0.212501 -0.453836 -0.050119 -0.237405 0.135403 0.127644 0.618572 0.308932 -0.048629 0.139445 -0.695108 -1.139766 0.416163 0.583284 -0.318825 -0.063760 -0.219024 0.245303 -0.221592 -0.284937 -1.268155 0.032896 0.245022 -0.254191 -0.290830 0.525542 -0.766122 0.428620 0.752572 0.114408 -0.479871 -0.183437 0.326663 0.280277 0.283764 0.033317 -0.665617 0.213881 -0.684850 0.003819 -0.737484 0.517245 0.077495 -0.000035 -0.658235 0.422922 -0.025801 -0.078444 -0.057237 0.414018 0.700223 -0.491465 -0.231976 -0.986241 -0.084175 0.017648 0.374883 -0.459725 0.069108 1.006794 0.060276 1.292696 -0.196930 0.774195 0.628328 -0.189314 0.140035 1.001911 -1.258351 -0.650805 0.477969 0.321502 0.278951 -0.508796 0.142245 -0.432470 0.473955 -0.072467 -0.103215 1.065562 -0.006736 -0.119409 -0.341244 -0.280944 0.644657 0.614533 1.285755 0.212554 0.812697 0.516848 0.066858
IO 1.415998 -0.591005 1.202675 -0.430353 -1.614632 0.458230 -0.950574 0.159782 -1.281620 -1.005393 1.914257 0.312959 -0.387717 -1.292248 0.946813 0.259040 -0.788916 -0.737680 1.428128 -0.529776 0.136335 0.784543 2.263273 0.028941 -0.637154 0.038662 0.734623 0.103525 -1.154311 -2.263104 0.400206 0.478873 -0.282369 1.334550 -0.770825 -0.676025 1.681036 -1.458796 -0.259872 0.628897 -0.022879 0.472356 -1.432045 -1.272141 1.057401 -0.116594 0.331360 0.670817 0.439385 0.453910 -0.776204 -0.688630 -0.805060 -1.406587 -0.615835 -0.208609 -0.543860 0.906131 -0.153079 2.672431 -0.046547 -0.602481 -0.793344 -0.106243 -0.471766 0.315888 -0.038993 -0.182827 0.782569 -1.177962 0.547633 1.079527 -0.241578 -0.168098 0.188961 -0.446275 0.440825 0.384655 -1.366478 0.953004 0.203386 0.599881 -2.550853 -1.353479 -0.640344 -0.320843 -0.905460 -0.124514 1.256624 0.429155 1.314628 0.664818 -2.746568 -0.553396 0.541523 0.822297 -0.321794 0.938728 -1.056634 -0.343872
：O -0.107835 0.065770 -0.139614 0.799670 0.438247 -0.625260 -0.579227 0.777440 -1.947186 1.358585 0.213904 0.519247 -1.644646 0.358091 -0.119569 0.432445 0.948859 0.549068 1.586509 0.155928 0.663049 0.602989 0.949394 0.174708 0.225277 -0.658289 1.625881 0.803482 0.014485 -1.501566 -0.434853 0.619572 -0.441986 -0.429868 1.069567 0.642721 -0.152518 -1.078267 0.757224 0.095224 -0.115344 1.073421 0.897293 0.991581 1.167017 -0.179461 0.060280 -0.691369 0.651877 0.319761 0.812023 -0.621723 -0.919189 0.205615 0.216122 -0.860767 0.341302 -0.127759 -0.007274 1.678066 -0.361200 -0.990964 0.663781 -1.614894 -0.017960 0.057691 -0.744663 -0.084642 0.448031 -0.253881 -1.179217 1.398134 0.968886 0.061168 -0.875732 -0.313443 0.333973 -0.557660 -0.087506 1.362309 -0.493468 0.973109 0.737704 0.586917 0.323193 -0.673242 0.132821 0.309788 -0.138521 -0.033829 1.068507 -0.007688 -0.153990 0.568964 1.117833 0.225869 1.114324 0.686034 -0.461038 0.408010
明O 0.123699 1.221389 1.106962 -0.351101 0.627401 -0.882736 -1.419323 0.219024 1.267576 -0.147904 0.282984 -0.458809 0.426464 -1.366680 -0.772474 1.068062 1.058640 0.181707 0.695389 0.302275 -1.311505 0.193610 0.321380 -1.413126 -0.857554 -0.053788 -0.374965 -0.577333 0.538765 1.194040 -1.520740 -0.874968 0.337682 -0.426609 -0.851017 1.343057 -0.582946 0.849997 -0.441215 0.510262 -1.786445 -0.966058 -0.565013 -1.089065 -2.709582 -0.267966 -0.827899 -2.206784 0.339576 0.588143 0.101440 -0.440314 -0.004509 0.322921 1.082362 -0.402443 0.506674 0.840234 -0.285681 0.010018 -0.150391 0.051513 0.549032 1.488010 0.216023 0.093921 -0.509433 -0.283257 -0.832725 0.655109 1.400150 -0.091354 -0.843391 1.189935 1.617068 0.009617 0.582976 -0.476075 -0.003504 -0.062608 -0.258139 -2.129898 2.424045 0.420290 -1.554656 1.074468 -0.041203 -0.400628 -1.079264 -1.021713 1.205952 0.211248 1.669782 0.179327 0.819201 0.777331 -0.504749 0.758367 -0.169512 0.661551
未O -0.083371 0.110432 1.137176 -1.178095 1.249917 -0.295574 -0.831247 0.432190 -0.188152 0.477584 0.003064 -0.179215 -0.273738 -0.866761 -1.002376 1.272418 1.351373 -0.274768 0.531213 0.114678 -0.809847 -0.105625 -0.107689 -1.147080 0.301496 0.016819 0.727653 0.028600 1.075767 1.262275 -1.159819 -1.027901 0.449160 -0.399455 -0.159132 0.988006 -0.053041 -0.007993 -0.768717 0.978583 -1.200481 -0.377843 -0.323039 -0.009826 -1.127540 0.370638 -0.443239 -0.124037 1.196066 0.407407 0.999612 -0.024213 -0.095596 0.134732 0.129276 0.413422 0.909347 0.476261 -0.576213 0.025777 -0.317822 -0.903424 0.767825 0.196731 -0.273009 -0.277147 -0.607074 -0.689170 -0.194603 0.207755 -0.079329 -0.566266 -0.655264 1.829278 2.015900 0.372166 0.818879 -0.051485 0.512813 0.253325 0.249703 -0.887089 1.612125 0.502850 -0.532387 0.478835 -0.206486 -0.267248 -0.785382 -0.163609 0.954204 -0.248476 0.320936 -0.718338 -0.149319 0.901259 0.107355 -0.788862 0.534908 -0.469265
癌O 0.544705 -0.681857 0.711933 -1.458634 0.924407 0.156932 -0.397860 0.135136 -1.249516 1.331862 0.278639 -0.537795 -1.251282 -0.684129 -1.377510 1.337202 0.896418 -0.501060 1.189521 -0.159731 -0.001203 0.552680 0.574227 -1.169106 0.044462 0.088370 1.928874 0.118068 2.075146 0.221631 -1.222929 -0.848040 -0.365756 -0.414281 0.125683 1.194970 0.339330 -1.180645 -0.240281 0.952880 -1.202292 -0.072792 -0.595406 -0.089279 -0.145133 0.815281 -0.537412 0.095450 1.773407 0.650461 0.742097 -0.491591 -0.714140 -0.266817 -0.247278 -0.550854 1.120017 0.509708 -0.991920 1.067671 -0.777865 -1.894395 0.998032 -0.722924 -1.457275 0.334297 -0.649330 -0.922260 0.950693 -0.470616 -0.889054 -0.303443 -0.164499 1.700625 1.366158 0.263968 1.076349 -0.573827 0.674042 1.012229 0.116292 0.005579 0.410879 0.027863 -0.867759 -0.005575 -0.920594 -0.293458 -0.074453 -0.163322 1.557708 -0.835404 -0.649939 -0.734739 0.073911 0.960387 0.382879 -0.831418 0.205491 -1.057249
显O 0.263224 0.837943 1.172886 -0.205407 0.910008 -0.803071 -1.379804 0.165018 0.914378 -0.321492 0.226043 -0.456300 0.340564 -1.021741 -0.665337 0.752119 0.909416 0.171885 0.328746 0.363249 -1.110839 0.371169 0.243064 -1.415186 -0.950205 -0.004675 -0.416188 -0.745466 0.189119 1.044866 -1.627550 -1.196676 0.583426 -0.494198 -0.574100 1.487721 -0.382599 0.929003 -0.847752 0.748231 -2.076789 -0.853919 -0.521504 -0.983211 -2.611774 -0.229181 -0.717465 -2.186341 0.547273 0.476733 0.351091 -0.586703 -0.315191 0.287714 1.227659 -0.094535 0.402466 1.074846 0.046411 0.268326 -0.260063 0.033167 0.411531 1.511842 0.082624 -0.357482 -0.077398 0.000988 -0.668404 0.172579 1.135869 -0.350534 -0.992649 0.884978 1.627316 0.376884 0.754799 -0.127271 -0.291348 -0.398413 0.022966 -1.845885 2.745660 0.457310 -1.305403 0.912904 -0.332766 -0.350243 -1.437222 -0.904791 1.732441 0.166821 1.665999 -0.237140 0.744412 0.607305 -0.632181 0.566240 -0.323227 0.809152
可O -0.355882 -0.469874 -0.400202 0.657196 1.297142 0.260553 0.290165 0.064515 0.777092 -0.305665 -0.176651 -0.571348 -0.455528 -0.349690 -0.127710 0.335416 -0.719077 -0.677547 1.184060 -0.969746 -0.636732 0.429044 0.048566 0.362285 0.229176 0.240809 1.105954 0.199141 1.154898 1.609743 -0.923993 -0.113910 0.748213 0.500910 -0.683755 0.770916 -0.762696 0.041539 -0.788719 0.129741 -0.922220 -0.570202 -1.032514 0.046841 -0.513671 -0.244880 -0.799177 -0.183927 -0.244304 0.023164 -0.767004 -0.157443 -0.718174 -0.348400 -0.581208 -0.358624 0.006099 0.606541 -0.329130 -0.130749 -0.249510 -0.873601 1.877334 0.053354 -0.898245 0.134005 -0.010923 0.290363 -0.588809 0.806121 -0.159477 -0.299355 -0.117623 -0.345080 0.839697 0.800766 0.820237 -0.207693 0.622157 0.238709 0.094399 -0.913110 0.130172 0.373307 -0.263054 0.777418 -0.282682 -0.162499 -0.226669 -0.000102 -0.405252 0.381046 -0.085534 -0.114964 -0.627327 -0.546146 0.210087 -0.341822 -0.524698 -0.971001
为O 0.412565 1.243574 -0.476702 0.165138 0.167656 -0.294873 -0.974449 -0.020376 -0.145764 0.252296 -0.243709 0.135587 -1.516462 -1.052207 0.442812 0.771981 0.380184 0.001056 -0.019541 -0.143887 -0.184937 -0.086115 0.514226 -0.281026 -0.201136 0.008444 0.694317 -0.101761 0.266856 -0.056916 -0.300311 0.843342 -0.264898 -0.011053 0.507437 -0.996721 0.519802 -0.101435 0.852039 0.387516 -0.926941 -0.175683 -0.289154 -0.828116 -1.488284 -1.323845 -0.403438 -0.242401 0.439248 -0.269563 -0.660643 0.106282 0.617334 -0.077199 0.961637 -0.610148 -0.461455 0.048614 0.395468 0.157847 -0.313094 0.292530 -0.287238 -0.670033 -0.752146 1.078454 -0.547366 -0.065186 0.306559 1.264295 0.651363 -0.145981 -0.139204 -0.153245 0.469791 0.251028 0.129139 0.028255 -0.178337 -0.449838 0.079637 -0.335850 0.836455 0.507967 0.156870 0.215752 0.227187 -0.639670 1.181870 -0.845440 0.014395 0.206102 -0.216817 -0.098568 -0.333083 -0.329288 0.354410 -0.346575 -0.081573 -0.002669
我O 1.416304 0.129323 -0.041588 -0.378573 0.216102 0.442532 -0.660545 0.024133 -0.006687 0.528696 -1.722150 -0.250743 -1.399482 -0.014902 -0.357115 1.700562 -0.255688 -1.891313 -0.485865 -2.047695 -1.436845 0.794174 0.709851 0.136760 -0.816154 0.117636 0.423879 -1.060122 0.010834 -0.710634 0.110329 1.111799 -1.235815 -0.494144 1.048234 -2.237727 0.654435 0.846657 0.933723 0.066479 -0.909681 -0.265362 -0.112588 -0.255168 -2.513549 -1.037074 0.227770 0.141548 -0.519828 -1.453249 1.519377 -0.068584 0.163050 -0.687419 0.874535 -0.908269 0.515122 -1.174935 0.315091 0.837657 -0.451392 0.722085 -1.432593 -0.435042 -0.119701 0.935261 -0.610300 -1.271452 1.228541 1.118053 2.274610 -0.341229 1.473513 1.519235 -0.731286 -1.531908 1.385488 -1.659616 -0.589578 -0.040575 -0.563577 0.080070 0.308415 0.820108 -1.838208 0.849961 0.294308 -0.584938 1.715509 -0.557180 -1.494638 -1.451537 -0.250991 0.743412 -0.358879 2.060050 0.143006 0.690764 0.490145 -0.497926
癌E 1.156669 -0.735538 -0.213825 -0.309072 -0.174354 0.278507 0.063845 0.430415 -1.125823 0.683769 -0.223899 -0.365963 -1.072463 0.070252 -0.537157 0.552093 -0.997278 0.638561 0.637724 -0.821971 -0.531818 0.975787 1.359470 -0.186240 -0.492149 -0.300347 1.055224 -0.514073 0.728473 -1.965463 0.753862 0.865098 -1.264599 -0.303546 1.125211 -0.513934 -0.292902 -0.479541 1.527377 -0.276516 -0.123011 -0.268735 0.236335 -0.035773 0.228579 -0.778978 -0.302354 -0.543921 0.842961 -0.084222 -0.280464 -0.988344 -0.426037 -1.392357 -0.194005 -1.256593 -0.380136 -0.162849 0.465458 1.784120 -1.126878 -0.810153 -1.021412 -0.939978 -1.067207 1.175343 -0.306110 0.156003 1.975987 -0.331810 0.904010 0.960978 1.380775 -0.491939 -0.766631 0.508222 1.570393 -1.853005 -0.514839 1.127999 -0.141163 0.890738 -1.243732 -0.718958 -1.185383 0.431395 -1.008755 -0.474453 1.813712 -0.666355 0.378156 -0.375306 -1.658245 0.863369 1.461599 0.519014 0.288524 1.580303 -0.474971 -0.721127
及O -0.062679 -0.842272 0.277368 -0.185867 0.998948 -0.132140 -0.343517 0.988524 0.329347 0.362764 0.122898 -0.151017 -0.521500 -0.477911 -0.676095 0.619758 0.189736 0.222648 -0.413878 0.005256 -0.085090 0.162018 -0.107864 0.244254 0.404449 0.154741 0.277290 0.275009 0.645477 1.054822 0.165678 -0.502786 0.425379 0.351199 -0.252607 0.281498 -0.463679 -0.704982 -0.227528 0.064705 -0.717464 -0.789464 -0.279011 -0.519133 -0.250978 0.858046 -0.599036 0.210207 0.117129 -0.021608 0.292864 0.386045 0.323290 -0.454983 -0.221396 -0.784102 0.135052 0.243291 -0.422417 -0.407831 -0.344714 -1.258573 0.078846 0.041059 -0.425504 -0.213402 -0.563856 -0.040984 0.160694 -0.361490 -0.982507 0.402830 -0.692726 0.578824 0.490028 0.617345 0.373957 0.224223 0.755800 -0.295662 0.795581 0.050408 0.480156 -0.589685 0.315851 0.340919 -0.790085 0.227260 -0.651471 -0.561810 0.056792 -0.129508 0.204700 -0.064972 -0.549514 -0.424881 0.230631 -0.525657 0.008164 -0.848621
入O 2.094954 0.733392 0.246723 -0.702468 -0.575617 1.516745 0.202252 -0.844515 -0.715562 -0.605485 -0.805800 -0.768237 -0.814858 -0.547558 0.314037 1.336288 0.254771 -1.226107 -0.476487 -1.843283 -1.748232 0.525556 0.734708 -0.058447 -0.569041 0.289650 0.701011 -0.373095 -0.106623 -1.354271 0.221063 -0.019955 -0.800057 -0.465224 0.058834 -1.390202 1.292366 1.785419 -0.139669 0.104945 -0.549730 0.346090 -0.207285 -0.379574 -1.441481 -0.970768 0.297971 -0.576003 -0.486643 -1.259440 0.721960 0.513931 0.477087 -0.785893 0.446326 -0.503251 0.566489 0.189735 0.374451 0.956487 -0.589426 0.602313 -0.741534 0.326455 -0.579510 0.449243 -0.977164 -0.513769 1.630025 1.040795 2.179053 -0.679771 0.611674 1.886938 0.026109 0.172092 2.061452 -1.664662 -1.129608 -0.219926 0.020326 -0.081418 -0.528629 0.569244 -1.091470 0.924853 0.034588 -0.152729 2.090946 0.440331 -0.395363 -0.649424 -0.120732 0.898330 0.017259 1.983690 -0.296292 0.818384 0.499152 0.148336
巴I -0.067056 -0.571646 -1.396771 -1.450157 1.442369 0.233868 0.563666 0.043734 -1.094192 0.997897 1.068790 -1.113410 -1.252553 -0.840378 -1.056795 1.408123 1.717127 -0.697495 1.654598 1.167030 1.297580 0.622403 -0.665367 -1.108842 0.629773 0.744461 0.786014 0.039999 1.186646 1.967025 0.481619 0.402056 0.018546 1.221025 0.356416 0.836550 0.802349 -1.432899 -0.033887 1.946255 -2.185763 0.104714 -0.055975 -0.375049 0.124258 0.155918 0.196652 -0.225489 1.085022 0.498186 1.799762 1.088478 -0.669102 0.292379 -0.854140 -1.980093 -0.413814 -0.550092 -0.232384 1.423161 -1.701374 -1.243804 0.846367 -0.560739 -2.553029 -0.695862 -0.773216 -1.234057 0.709571 -1.480021 -0.916021 -0.348395 -0.518835 0.196957 0.268120 -0.276708 2.054493 0.302603 0.415146 3.481066 1.793680 0.118365 -0.466230 -0.762686 -0.900351 -2.402968 0.493389 0.401280 0.262292 -0.154902 0.532980 0.036766 1.018929 -0.258853 -0.326159 0.696806 1.918683 -2.172340 0.790250 -0.219170
治O 1.191612 0.406114 0.281561 -0.222511 0.530959 0.447313 -0.695082 -0.196733 -0.597669 -0.565289 -0.691958 0.716605 -0.175115 -0.559814 0.376179 0.764642 0.042775 -1.383636 -0.640056 -0.953367 -2.130859 -0.163398 0.896427 -0.140812 0.649254 -0.494722 0.423412 -0.538584 0.110066 -1.331248 0.220807 0.166539 0.018662 -0.106538 -0.450857 -1.831083 0.484078 0.704302 -0.430183 -0.112840 -0.191472 0.043358 0.312861 -0.453511 -0.674000 -0.411092 -0.612746 0.585303 0.543290 -0.789010 -0.123925 0.428903 0.572138 -0.371453 0.937459 1.077212 -0.020701 0.246937 0.790811 0.604090 -0.111488 0.777628 0.016039 -0.639897 -0.420154 0.580877 -1.299694 -0.560576 0.540279 1.827275 1.658092 -0.714446 0.282316 1.189253 1.246254 -0.032681 1.538821 0.188214 -0.286527 -1.218687 0.729490 -0.146435 -0.329335 1.206920 0.313048 1.646455 0.636627 -0.165995 2.241374 -0.049643 -0.525365 0.553381 -1.118606 -0.658499 -1.135042 0.673219 0.103572 -0.747047 0.517776 0.300025
CS 1.065247 -0.739781 1.469110 0.499355 -0.390943 -0.605908 -0.267745 0.953953 -1.315622 0.675320 0.759896 -0.681101 -0.460567 0.673280 0.188903 0.365693 0.589328 0.374059 1.023272 0.217108 0.905952 0.021545 1.623445 -0.220661 -0.595583 -0.438292 0.154654 0.561029 -0.173481 -1.365507 0.270628 -0.274882 -1.235202 0.211098 0.761553 0.857654 0.811508 -2.128951 0.863930 1.013514 0.307965 0.434230 -0.492007 0.404620 0.970724 1.088760 -0.520732 0.337704 0.673841 0.143170 0.662215 -0.327157 -0.965211 -0.897836 0.094693 -0.493995 0.511482 0.043754 -1.316020 1.490438 0.455147 -1.088377 -0.146482 -0.347665 -0.351975 0.042090 -0.502571 -0.167639 0.453155 -1.211719 -0.610828 0.983266 -0.141243 1.099272 -0.763238 -1.635683 -0.718873 0.262929 -0.045568 0.773818 -0.036581 0.737036 0.207553 -0.242339 -1.318872 -0.822755 0.360378 0.102971 -0.987719 -0.447121 1.070117 -0.226806 -0.377023 -0.620731 -0.288726 0.462011 -0.017609 -0.323927 -0.343873 -0.781253
前O 0.742925 1.059132 0.582983 -0.392862 -0.218494 -0.381878 -0.215514 -0.124601 0.097941 -0.539515 -0.959883 -1.307493 -0.618834 -0.795041 0.572407 1.098351 0.435668 -0.374315 0.468397 -0.393389 -1.026696 0.411865 0.089174 -0.630611 -1.533585 -0.179572 -0.918698 -0.344293 0.092331 0.450817 0.406858 -0.427950 -0.309463 -0.097908 1.045160 0.254518 0.706813 1.636276 -0.336899 0.989845 -1.666257 -0.829893 -0.773275 -0.445507 -2.961377 -0.908046 0.129233 -1.565889 -0.973473 -1.210148 1.086799 0.351822 -0.690315 -0.383605 0.380306 -1.571725 -0.615238 -0.379679 -0.180838 0.867779 -0.291674 0.850357 -0.647589 1.267149 -0.511791 -0.496519 0.193784 0.158115 0.495218 1.030940 2.108659 -0.619267 0.070159 0.897387 -0.185364 -0.382720 1.122328 -0.996439 -1.328380 0.598335 0.419142 -1.007555 0.863413 -0.105206 -1.491328 0.440231 0.264173 -0.112527 -0.413420 -0.635012 -0.328452 -0.337391 1.140330 0.880859 0.154161 1.220359 -0.312398 1.161664 0.049707 0.192921
便E -0.473356 0.432813 -0.412413 0.520115 0.110043 -0.252795 -0.280833 0.179802 1.885592 -1.540231 0.477372 -0.705708 0.021083 -2.193449 0.508426 0.604258 -0.647158 -2.016255 1.960490 -0.472750 0.214522 0.719216 -0.969276 -0.166162 -0.046247 0.231170 0.201587 0.597574 -0.039941 3.661778 0.386852 -1.016335 1.962597 1.040686 -0.869266 0.768938 -0.876713 1.430328 -1.157348 1.445602 -1.392226 -1.066467 -1.700123 0.156128 -1.848945 -0.641374 -0.978814 -1.265465 -1.300865 0.735254 -0.003374 -0.194431 -1.797255 0.549582 -1.221798 -1.234329 -1.200947 0.184016 -1.007629 -0.276746 -0.925952 0.553442 1.798077 0.688946 -0.136588 -0.395151 0.049355 -0.704063 -2.070952 1.385429 -0.032555 -0.600980 -0.768077 -0.260407 0.903234 -0.197901 1.016189 0.087268 0.459244 -0.226950 0.415389 -1.280982 0.004167 0.342976 -0.790369 -0.717529 0.684384 1.499586 -1.640246 0.306490 0.456630 1.076970 1.048485 0.190356 -0.893116 -0.996126 -0.044525 0.636559 -0.707898 0.090216
结E -0.044107 -0.380038 -0.918079 -1.651844 1.371724 0.140846 0.438091 -0.156867 -1.069859 1.030494 0.458098 -1.056999 -1.649814 -1.023572 -0.963190 1.664656 1.744416 -0.805446 1.692971 0.903955 1.037836 0.875329 -0.505252 -1.626557 0.321745 0.807794 0.914104 -0.018456 1.487471 1.978044 0.308629 -0.310051 -0.093597 1.088031 0.934116 0.936194 0.983282 -1.104856 -0.221693 2.423616 -2.252202 0.031969 -0.200354 -0.733447 -0.957617 0.202514 -0.189672 -0.345315 1.244750 0.444325 2.114598 1.066373 -1.377126 0.103535 -0.768216 -2.165251 -0.212545 -0.596403 -0.909512 1.573293 -1.864611 -1.061095 0.905143 -0.447448 -2.290763 -0.614994 -0.479163 -1.067697 0.796409 -1.353134 -0.759346 -0.491293 -0.149241 0.666494 0.217838 -0.452222 2.028298 -0.019158 0.094791 3.405403 1.356425 -0.265990 -0.316265 -0.484102 -0.944548 -2.091787 0.381703 -0.209437 -0.110036 -0.308640 0.874178 -0.370087 0.973836 0.086223 -0.451430 1.103717 1.839558 -2.414468 0.758176 -0.574952
/O 0.627430 -0.477176 -0.108998 -0.909110 -0.665644 0.283938 0.618055 -0.435659 -1.326923 -0.098076 0.533342 -0.972254 -0.986796 -0.536060 0.482310 0.745218 0.322561 -1.045935 1.472659 -0.234368 1.592057 0.468448 0.626916 -0.985338 -0.110844 0.403811 0.407926 0.151201 0.571117 0.319993 1.191135 -0.222249 -0.356777 1.339085 1.087053 0.185774 0.890989 -1.466578 -0.043820 2.063382 -0.673982 0.404762 -0.329260 -0.582333 0.061419 0.342092 -0.545557 0.337296 0.960291 0.118942 0.985984 0.446053 -1.812259 -0.824276 -1.148772 -1.288573 -0.533870 -0.897211 -1.118215 1.726948 -1.003283 -0.014935 0.380706 -0.551243 -1.441577 -0.148573 -0.113598 -0.357785 0.890997 -1.340813 -0.177125 -0.180132 -0.089169 -0.318851 -0.311596 -1.135839 1.131474 0.803213 -0.523397 2.601894 0.577824 0.153704 -1.257110 -0.720720 -0.672457 -1.487032 0.017085 0.152293 0.287228 0.131803 0.753065 0.172971 -0.590759 -0.370079 -0.594817 0.519566 0.806943 -1.569900 0.345347 0.213144
GO 1.649854 -0.626219 0.355355 1.509622 -2.170839 -0.231566 0.109292 0.184386 -1.418669 -1.831643 0.736347 -1.101562 1.269944 -0.065629 2.473043 -0.144678 0.035011 -1.514456 0.933492 -1.103894 1.522533 0.130100 2.388481 -0.452986 -0.911909 -0.547340 -1.030614 0.951442 -1.698663 -1.607028 2.751495 0.050624 -1.220961 1.495539 0.180907 -0.321305 2.319010 -1.120056 -0.045202 1.804882 0.398039 1.496443 -0.263331 0.000219 1.450443 0.620952 -0.915928 -0.758575 -0.238795 -0.084536 1.085226 0.103846 -1.168496 -1.491603 0.323892 -0.068313 -0.424051 -0.266941 -0.740204 2.267282 0.170398 1.623294 -0.186609 -0.422167 -0.229830 -0.513383 -0.155015 -1.263401 -0.406130 -1.059472 0.544380 0.905051 -0.352015 0.803650 -1.157643 -3.717071 -0.801652 0.177082 -0.746012 1.108661 0.637641 0.802595 -1.546334 -0.219813 -1.674982 -2.459717 1.397527 0.189901 -0.392229 0.850818 0.491373 0.987681 0.514964 -1.295338 -0.668957 0.633993 -0.242802 -1.326009 -0.100115 0.463091
7O 0.754759 -0.126400 1.236799 -0.537745 -0.909725 0.091449 -0.022740 -0.391960 -1.218787 -0.129069 -0.074413 -0.048286 -1.226287 0.068578 0.550825 1.217277 1.323806 -0.651970 1.039183 0.214908 0.414907 0.501665 0.547837 -0.330424 -0.211537 -0.394071 -0.366003 -0.283544 -0.372914 -1.262918 0.531105 -0.096485 -0.573055 0.446746 1.637957 0.121558 1.011719 -1.002920 0.358393 1.389569 -0.782700 0.332038 -0.090292 -0.305675 0.132192 -0.071583 -0.484668 -0.256793 0.963659 -0.361480 2.208618 0.265896 -1.557794 -0.902066 -0.291123 -0.906420 -0.384654 -1.050534 -0.552291 2.060228 -0.530909 0.315914 -0.506416 -0.310999 -0.445505 -0.024102 -0.272576 0.392438 0.890325 -0.903941 0.334861 0.603768 0.215001 0.411192 -0.964194 -1.219766 1.232014 0.251512 -1.404671 1.766490 -0.256384 0.327182 -0.243773 -0.338121 -0.844187 -0.443906 0.209700 0.013710 -0.246477 0.334195 0.684581 -0.003976 -0.363345 0.201170 -0.424069 0.891222 0.826514 -0.512202 0.669955 0.699264
出O 1.000580 1.440085 0.703742 -0.615242 -0.185002 1.034165 0.253086 -0.501010 0.720503 -1.453739 -0.225987 -0.024352 -0.293962 -1.483347 1.063491 1.068656 0.179797 -0.765552 -0.482304 -0.816353 -0.573646 0.380310 0.284380 0.134149 -0.008992 1.211476 -0.199792 -0.654117 0.060772 0.079592 -0.218307 -0.618606 0.168406 0.677273 -1.244336 -0.196971 0.563959 0.563603 -0.546571 0.332043 -0.629299 -1.125845 -1.627336 -2.358022 -2.082981 -0.646999 -0.249373 -0.415868 -0.469843 -0.954281 -0.349938 1.416403 0.455622 -1.505137 0.002901 -0.651274 0.225032 0.875007 0.057796 -0.061680 -0.301961 0.301397 0.024831 1.510096 -0.734229 -0.301832 0.004616 1.070133 0.432078 0.711729 1.446017 -0.959885 -1.473766 1.044288 0.169638 0.567989 1.327604 -0.184920 -1.036503 -0.686316 -0.667351 -1.278580 0.245322 -0.084213 -1.290588 0.811145 -0.433669 -0.920617 0.012631 -0.085583 -0.387744 -0.154114 -0.155630 0.228312 -0.706597 0.462741 0.029960 0.601920 -0.076697 -0.006133
胃B 0.117520 -0.514781 0.057789 0.015973 0.602456 -0.093529 -0.484830 1.029671 -0.497154 0.991725 -1.066061 0.766039 -1.894665 0.038247 -0.877281 0.443715 0.154507 -0.032502 0.165613 -0.612949 -0.340901 0.757219 -0.181665 0.703508 0.183426 -0.442578 1.376819 -0.220392 0.630647 -0.139387 -0.727929 0.859875 -0.284473 -0.852385 0.808977 -0.638850 -0.938609 -0.521276 1.130218 -0.756389 -0.760996 -0.656029 -0.010978 0.560021 0.090257 -0.703175 -0.276099 -0.259490 0.366117 -0.572325 0.630633 -0.622571 -0.386581 0.143969 -0.032977 -1.135928 0.237016 -0.379214 0.194247 0.315488 -0.474029 -1.559345 -0.869273 -1.039043 -0.230623 0.723293 -0.529487 -0.109833 0.727023 0.234703 -0.571132 0.536045 0.976375 0.314293 -0.422385 0.148998 0.344000 -1.250032 0.276888 0.280014 -0.210863 0.607903 0.303217 0.127560 -0.316051 0.246720 -0.735136 -0.014986 0.080618 -0.275956 -0.486679 -0.669419 -0.475682 0.839644 0.341103 0.178660 0.701106 0.991279 -0.219006 -0.964571
DO 1.637414 0.057468 0.625350 0.434889 -2.134074 0.186214 -0.358176 -0.735109 -1.556020 -1.694358 1.004497 -0.548011 0.923066 -0.268590 2.032980 0.478456 0.467881 -1.655464 0.740791 -0.997306 0.270216 -0.001624 2.090396 -0.244532 -0.803683 -0.755874 -0.612623 0.100644 -2.050085 -2.249166 1.596465 0.167024 -1.058489 1.080912 -0.008089 -0.878116 2.679174 -0.313462 0.135762 1.474563 0.266591 1.586658 -0.020345 0.103601 1.270472 0.009007 -0.622941 -0.941393 0.143186 -0.202786 0.973656 -0.307712 -0.500730 -1.257322 0.713418 0.642037 -0.203168 -0.155481 -0.383764 2.057353 -0.094921 1.584776 -0.359621 -0.232648 -0.277074 0.172568 -0.511867 -1.073826 -0.164126 -0.549384 0.945280 0.870016 -0.379421 0.755725 -0.665293 -2.514257 0.338756 0.296565 -0.859478 0.725765 0.326912 0.626274 -1.553915 0.069616 -1.064501 -1.550731 1.353543 0.364987 0.794884 1.134795 1.227495 0.852336 -0.035788 -1.322553 -0.545527 0.972714 -0.112268 -1.029380 0.425269 1.177083
下O 0.325028 0.368085 1.058410 0.387592 -0.495891 0.249823 -0.701275 -0.394077 1.326937 0.252904 -0.308056 1.148501 -0.562141 -0.838947 -0.988727 1.557558 1.428602 -0.296596 -0.918552 0.835485 -0.683651 0.228922 -0.943708 0.578373 -0.201158 -0.789808 -0.081173 -1.250508 -0.374505 0.066513 -0.558496 0.559684 -0.290770 -0.925947 -0.459257 -0.834829 0.404539 -1.054333 1.686446 -0.602111 -1.365260 -0.635883 -1.103358 -0.282017 -0.020706 -0.461872 -0.903532 -0.034866 1.414951 0.182049 2.111434 -0.541671 0.751999 0.096795 0.639398 -0.157245 0.828428 0.869847 -0.035580 -0.436401 -0.940203 -0.707221 -1.548965 -0.125309 -0.475736 1.741080 -0.488731 -0.570693 0.445442 -0.092693 -0.501238 1.043471 -0.670255 0.800537 -0.372634 -0.200507 -0.061701 -1.026783 0.201031 -1.222635 -0.744768 -0.088748 0.543977 0.203113 -0.845767 -0.157650 -0.510848 -0.246734 -1.010117 -0.089064 0.373807 -0.345419 0.784352 -0.053774 -1.037685 -0.516160 0.647512 0.110315 0.263641 0.052021
次O 1.042237 1.223988 0.530749 -0.771284 -1.168127 1.056695 -0.798181 -1.456646 0.266031 -0.929755 0.188656 -0.645883 -1.858226 -1.579607 1.337789 1.089585 0.481554 -1.288221 -0.521172 -1.527948 -0.474505 -0.321493 1.321116 -0.206047 -0.401667 0.193004 0.413362 -0.063098 -0.769441 -0.484494 1.026586 0.145798 -0.403714 0.584558 0.967751 -1.742683 1.922790 1.403603 -0.067267 1.015296 -0.687565 0.549371 -0.612491 -0.818213 -2.884606 -0.292105 -0.041619 0.105113 -0.619107 -0.485281 0.208360 0.827458 0.074572 -1.041340 0.078115 -1.337958 -0.160402 -0.279519 -0.398229 0.488001 -0.584301 1.798154 0.120810 0.080666 -0.706988 0.221565 -0.774229 -0.471772 0.811331 0.707272 2.193026 -0.600912 0.152211 0.663143 0.210303 -0.125994 1.034068 0.510257 -0.789839 -0.263697 0.107008 -0.274476 -0.029666 -0.041286 0.460730 0.360443 0.402930 -0.074924 1.893237 -0.357677 0.530192 0.013430 -0.664320 0.266540 -1.159991 0.548631 -0.417965 -0.437125 0.233640 0.949572
以O -0.425521 -0.988262 0.447165 1.130220 0.182177 1.328781 -1.207596 0.138938 0.501879 -0.580456 -0.863154 -0.366629 -0.821147 -0.255372 1.192600 0.073097 -0.462752 -0.109716 -0.858572 -2.037483 -1.493417 0.714366 0.558472 0.998136 -0.343054 0.170718 0.655263 0.644449 -0.404840 -0.571623 1.089650 0.496786 0.062605 -0.568076 0.155741 -1.033073 0.148259 1.891116 -0.426067 -1.640241 0.028742 0.711244 0.100112 0.310694 -1.210908 0.432701 0.063851 -0.663932 -1.622884 -0.597339 0.689029 0.421382 1.027763 -1.543149 0.321831 -1.206109 0.657449 0.268225 0.502555 -0.039565 0.062344 0.572848 0.279135 -0.154324 -0.107385 -1.248440 -0.132322 0.424231 0.392263 1.093356 1.132455 -0.080316 0.874022 0.747569 -0.536386 0.431733 0.400430 -1.457232 -0.360992 -0.711778 -0.487595 0.393562 0.247737 0.103124 0.774846 1.174976 -0.835865 0.231278 0.460592 0.006749 -1.360083 -0.671691 -0.659620 1.089043 -0.129082 0.099685 0.198368 1.429855 0.278462 0.705568
个O 0.133934 -0.160958 -0.177228 -1.285349 -0.086906 0.543629 -0.124021 -0.894288 -0.706875 0.141329 -0.335750 -1.416969 -1.879669 -0.857170 -0.048551 1.363976 1.196074 -0.920103 0.588636 0.226679 0.601274 0.457411 -0.503590 -0.961498 -0.338130 -0.007752 0.280936 -0.579255 0.581532 1.204716 0.861828 -0.667663 -0.103186 0.395934 1.274414 0.085849 1.150974 0.010981 0.340681 2.181353 -1.369474 0.096598 -0.323365 -0.152119 -1.317208 0.261768 -0.111982 -0.443779 0.693721 -0.191860 2.264404 0.578112 -1.079890 -0.540605 -0.433364 -2.352034 -0.331207 -1.322419 -0.832966 1.007264 -1.310944 0.331568 0.293517 -0.356784 -1.791499 -0.375518 -0.344741 -0.121565 0.945997 -0.454736 0.042454 -0.699986 -0.170308 0.349410 0.050773 -0.636640 1.688476 0.135531 -0.307364 2.089411 0.540491 0.032297 -0.329539 -0.562641 -0.264766 -1.106092 0.017449 0.595227 -0.037949 0.215053 0.418073 -0.632107 0.308030 0.236040 -0.451088 0.621944 1.114873 -1.579856 1.250772 0.717486
常O -0.454685 0.466019 0.383303 0.974599 0.608129 -0.208227 -0.606421 0.566220 1.298214 -0.888044 0.826285 -1.018026 -0.031337 -2.000955 -0.068142 0.309946 0.247330 -1.215653 2.056466 -0.658006 -0.755919 0.700207 -0.508800 -0.178276 -0.369046 -0.214583 1.140873 0.981921 0.333997 2.845934 -0.737343 -0.956214 1.865224 -0.376187 -0.775411 1.513093 -0.823096 1.661691 -1.220235 0.697472 -1.407315 -0.662510 -1.700086 0.829289 -2.149886 -0.715394 -0.635812 -1.292294 -1.346704 1.172930 0.007865 -1.043592 -1.460429 0.954908 -1.016533 -0.740317 -0.097668 0.991958 -0.801883 -0.236568 -0.961588 -0.013519 2.127131 1.051748 0.528979 -0.522371 -0.599981 -0.839555 -1.903792 1.540845 -0.047551 -0.342762 -0.354980 0.836638 1.524594 0.742629 1.203077 -0.688541 0.796187 -0.532048 0.219906 -0.882962 1.233072 0.881606 -0.610138 -0.166431 0.232826 1.282386 -1.512607 0.047914 0.842161 0.862613 0.927829 0.409871 0.049304 -0.399334 -0.216780 1.698788 -1.095910 -0.094546
痛E -0.739947 0.090188 -1.441856 0.270475 1.173893 0.255397 -1.180828 -0.408420 2.781958 -0.896899 -0.674130 0.861036 0.766198 -0.797503 0.046901 0.716989 -1.704062 -1.212786 -0.263460 -0.313662 -0.427721 1.061795 -0.817554 -0.498245 -0.216396 1.604138 -1.263231 -1.259990 -0.718812 1.704328 -0.392826 -0.134406 -0.195216 1.418716 -2.714567 -0.478947 -0.918118 0.732301 -0.607153 -0.160939 -1.444690 -0.870860 -0.353452 -2.461191 -1.580542 0.025008 -0.654298 -1.606574 -0.525183 0.066412 0.127502 0.625128 0.072198 -1.093675 1.412789 -1.086647 -0.096164 0.772287 0.775631 0.041761 0.568749 0.557902 1.028315 0.116957 -1.624985 -0.532776 1.091964 -0.413888 -1.594860 0.580761 1.270422 -0.764449 -0.841684 -0.573871 -0.493419 -1.233467 0.089306 -0.048529 -0.220372 0.306333 -1.074565 -2.413000 -0.225563 0.614345 -1.672497 0.047382 0.605772 -0.722972 -0.905812 -0.260447 -0.897422 -0.190835 0.734120 -0.030907 -0.600439 0.043368 0.158932 -0.397941 -0.013430 0.731345
月O 0.701312 1.126630 0.127959 -0.866711 -0.509477 -0.647904 -0.067721 -0.372892 0.230151 -0.372658 -1.349694 -1.166410 -0.759691 -0.500098 0.410838 1.418219 0.204853 -1.105072 0.495199 -0.541639 -0.674692 0.509707 -0.257576 -0.902580 -1.621531 0.006471 -1.673305 -0.961424 -0.097768 0.707139 0.835553 -0.296961 -0.746839 0.150993 1.395186 -0.267464 0.630158 1.119756 -0.037685 1.489031 -1.713140 -0.791677 -0.496219 -0.540756 -3.048989 -1.019786 0.169996 -1.344083 -0.574275 -1.259439 2.251675 0.242427 -1.203269 -0.312738 0.551397 -1.876439 -0.755668 -1.403538 -0.360793 1.288661 -0.522486 1.279790 -1.026671 0.917835 -0.507904 -0.294060 0.319349 -0.391281 0.428761 0.522639 2.114530 -0.440487 0.417013 0.774354 -0.838318 -1.725059 0.901889 -0.947205 -1.436263 1.258446 0.144460 -0.909768 0.533919 0.024732 -1.952782 -0.276439 0.680659 -0.070452 -0.290783 -0.479515 -0.610922 -0.637039 1.250246 0.907950 -0.188152 1.597462 -0.117355 0.513979 0.530686 0.382662
体O 0.055378 0.665090 1.256673 0.803830 -0.445492 -0.478445 -1.194673 0.254238 0.172715 -0.861430 1.150529 -0.644988 -0.360058 -1.730594 0.278914 0.080042 0.792568 -0.351650 1.548842 -0.262227 -0.371316 -0.008775 0.530889 -0.345622 -0.695900 -1.048859 0.817387 0.751813 -0.418368 1.152239 -0.358951 -0.729506 1.443454 -0.680763 0.060266 1.049357 -0.337871 1.082506 -0.413934 1.097052 -1.015582 -0.188242 -1.044097 0.808637 -1.302323 -0.604372 -0.803410 -1.078028 -0.233038 1.090867 0.020298 -1.003413 -0.902828 0.950440 -0.630035 -0.214576 -0.441110 0.659733 -0.467652 0.224730 -0.409373 0.426341 0.835022 0.663722 1.013707 0.027786 -0.668450 -0.323821 -1.422182 1.025084 0.228155 0.067712 -0.407652 0.649997 1.969985 0.439869 0.429689 -0.202300 0.183981 -0.785393 -0.071826 -0.728347 1.306986 0.464357 -0.240385 0.029556 0.218540 1.154921 -0.844841 0.238119 1.647376 1.463354 0.559761 0.122376 0.594457 -0.412432 -0.375734 1.217904 -0.953322 0.467746
组O 0.911679 -0.768093 -0.642287 -1.070686 0.643736 -0.214608 -0.968546 -0.208478 -2.191594 1.162626 0.968717 -0.612447 -1.814808 -0.502377 -0.612480 0.957846 1.185037 -0.528503 1.301471 0.585498 1.475860 0.234720 1.965458 -1.049493 1.196317 -0.596781 1.605854 0.205962 0.557394 0.007127 -0.648735 -0.394721 0.118136 0.645573 0.878436 0.881482 1.149802 -1.232633 -0.505863 1.731856 -0.979193 1.119476 1.576529 -0.050360 0.263010 1.255240 -0.409424 -0.684173 2.105491 1.607171 0.784341 -0.206307 -0.452255 -0.113179 0.722187 -1.291108 0.023774 -0.395836 -0.827416 1.736230 -1.254457 -0.466596 1.814012 -1.761154 -1.100936 0.462611 -2.071267 -0.965356 0.901950 -1.251428 -1.387147 1.109133 -0.621178 -0.227965 0.911473 -0.105685 1.750998 1.854332 0.506098 1.144651 1.119175 0.602786 1.265183 -0.167194 1.818396 0.045372 -0.189073 1.101610 1.127461 -0.238788 3.352014 0.231199 -0.030706 -0.818291 -0.228909 0.009447 0.811719 -2.375154 0.269435 1.470763
现O -0.060857 1.014606 0.027507 -0.285055 0.573453 -0.306346 -0.694589 -0.700678 1.437300 -0.431626 0.469901 0.369691 -0.623128 -0.821320 0.774373 0.844341 0.271087 0.865764 -0.072371 0.714397 -1.022540 -0.349747 -0.162716 -0.273849 -0.445520 0.717670 -0.846533 -0.249848 -0.374128 0.132233 -0.181433 0.185015 -0.408995 1.283643 -0.991597 0.272060 0.846291 0.254515 -0.562776 -0.166029 -1.426304 -0.431451 -0.905159 -1.695684 -1.693892 -0.333256 0.288152 -0.563759 -0.316405 -0.261233 -0.270606 1.257308 0.175913 -0.717799 0.769890 -0.911453 -0.807569 1.306742 0.197366 0.134596 0.310310 -0.058641 -0.107061 0.891112 -1.624832 -0.049503 0.700947 0.465669 0.063486 0.170821 1.418685 -0.517999 -0.479501 0.193517 -0.568074 0.356278 -0.342156 0.395562 -0.809559 -0.005765 0.400463 -1.329641 -0.412704 -0.287330 -0.292549 0.220662 0.174041 -1.315751 -0.394058 -1.125224 0.387812 -0.095240 0.003999 0.099753 -0.667600 -0.113000 -0.337243 0.031774 -0.189150 -0.439989
示O -0.169498 -0.554980 -0.381499 1.236830 1.417346 -0.568345 -0.623815 1.356685 -2.147243 1.914572 -0.255599 1.068707 -1.907299 1.039676 -0.319037 0.320824 0.996338 0.846723 1.185587 0.030041 0.336405 1.075948 1.156887 0.631728 0.799067 -0.586836 1.870108 0.930059 0.163746 -2.021414 -0.497055 0.783010 -0.894827 -0.386481 0.892572 0.525047 -0.305107 -1.369440 0.374126 -0.949279 0.116258 1.171778 1.888748 0.883410 1.612806 0.155367 -0.180569 -1.006335 0.721011 -0.065056 1.142166 0.099327 -0.296612 -0.412329 0.684085 -1.153867 0.578198 -0.105850 0.428084 1.748777 -0.262413 -1.245261 0.606814 -2.209342 -0.097915 -0.517588 -1.269147 0.044369 0.743815 -0.251251 -1.560711 1.709466 1.245615 0.562641 -1.512594 -0.372085 0.400428 -0.841985 -0.160115 1.530374 -0.642982 1.390296 1.171766 0.728950 0.897186 -0.165592 0.124847 -0.231591 -0.137126 -0.266154 0.279850 -0.671726 0.122212 0.910266 1.058908 0.384589 1.550007 0.594697 -0.176514 0.440373
切O -0.244155 -1.086890 2.261452 -1.141652 -0.343722 1.216894 -1.261224 0.571569 -0.110693 -0.043851 0.509704 0.746630 -1.655047 -1.685045 -0.194288 1.615027 1.496535 -0.158152 -0.087610 0.697242 -1.653375 0.171662 -0.825815 0.611384 0.577334 -0.684791 0.957303 -0.671574 -0.757860 -0.097293 -0.631993 -1.091073 0.729743 -1.211727 -1.043840 -0.337036 0.686520 0.047031 0.294352 -0.042383 -0.851508 -0.047974 -1.903190 0.853757 1.608127 0.835779 -0.144818 -0.031634 1.415572 0.127038 2.230298 0.078980 0.833789 -1.161829 -0.404704 -0.332239 1.374646 1.036404 -0.203576 0.061704 0.088370 -2.215394 -0.300127 -0.329398 -0.599551 0.008736 -0.777230 -0.059764 0.316770 0.440886 -1.244356 -0.100520 -0.664934 2.788945 1.442972 1.410518 0.489185 -1.512282 0.500423 -0.954812 -0.607525 0.901526 -0.100886 -0.337269 -0.310801 0.149862 -1.283331 0.993976 -1.109171 1.253005 0.590789 -0.370578 -1.024721 -0.060543 -0.335001 0.143836 1.133483 0.428970 1.055982 -0.798985
来O -0.406770 -0.098864 0.332727 1.099065 0.481628 1.423280 -1.241154 -0.674737 1.081336 -0.962079 -0.774870 -1.141635 -1.386908 -1.179019 1.565464 0.461355 -0.662547 -1.275043 -0.645744 -2.883596 -1.723139 0.307492 0.835391 0.884448 -0.516020 0.434026 1.011824 0.855459 -0.159557 -0.136472 0.976205 0.216726 -0.331285 -0.300405 0.017942 -1.155650 0.702595 2.630301 -1.258819 -0.720858 -0.654823 0.559825 -0.694710 -0.422094 -3.123873 0.260626 0.003119 -0.367693 -2.440799 -0.884358 0.035560 0.760046 0.504768 -1.421105 -0.087543 -1.785861 0.737768 0.459086 0.163497 0.218453 0.239353 1.460312 1.726266 0.005433 -0.550625 -1.561121 -0.324967 -0.112202 0.089288 2.196977 1.712979 -0.837206 0.559245 1.603325 -0.073836 0.416648 0.915298 -0.977390 -0.404531 -0.977716 -0.520644 -0.251795 0.722725 0.350104 0.382146 1.717418 -0.201347 0.065734 0.716073 0.012679 -2.031736 -0.563671 -0.666332 0.829929 -1.128036 0.427553 -0.449561 0.981072 -0.119278 0.285518
理O -0.431336 0.278508 0.712423 0.993703 1.158493 0.795259 0.114319 0.103014 -2.781805 0.431093 0.056388 0.256626 -1.896283 0.231830 0.767106 -0.202467 1.977860 0.028020 1.959286 -1.361243 -0.957620 0.698984 1.112752 -0.075089 1.099963 -0.426247 2.700273 1.545981 0.836588 -2.415421 -0.859776 0.377434 -0.133349 -0.954400 1.362485 1.043633 -0.046605 0.567070 -1.147513 -0.637400 0.589359 1.781841 0.893726 0.842189 0.697737 -0.590831 -0.593988 -0.971413 0.472613 0.148476 0.255654 0.390350 -1.795200 -1.163528 -0.435685 -0.749761 0.471464 -0.179151 0.480164 1.946775 -0.636692 -0.354881 2.613877 -1.071136 -0.411574 -1.155028 -1.607400 0.974884 0.528204 0.984093 -0.119830 -0.445379 1.356478 1.004977 -0.402473 1.095796 1.933635 -0.803343 -0.692822 1.134666 -0.737897 0.919877 0.705282 1.347493 1.280779 0.748791 0.753091 0.142319 0.840589 0.733646 -0.023159 0.153304 -0.789478 1.349351 0.850859 0.547339 1.571155 0.457917 0.237225 0.872667
分O 1.156490 -0.580823 0.140604 0.482186 -0.964145 -0.213640 -1.507776 0.514315 -1.967518 0.716184 1.488017 -0.260028 -1.646233 -1.152072 -0.075170 -0.342153 -0.429375 0.606461 1.397037 -0.572910 0.777757 0.558683 2.592411 -0.767193 -0.605858 -0.827909 2.190317 0.535515 0.303241 -1.615941 -0.404966 0.957147 -0.356995 -0.372475 0.782639 -0.022654 -0.250996 -0.792165 1.450263 0.267176 -0.851923 0.745963 0.059067 0.130998 0.868862 -0.303334 -0.993983 -0.940516 1.299075 1.423589 -2.235385 -1.627117 -0.349423 -0.030670 0.019718 -0.717744 0.017176 0.549826 -0.008929 1.388409 -0.120079 -1.089490 0.009271 -1.234946 -0.797051 1.438268 -0.652031 0.014515 0.883994 -0.519624 -0.089631 1.343049 0.435215 -1.521185 1.673647 0.753215 0.042280 -0.122156 0.372776 0.520387 0.056836 0.378430 0.063616 -0.259898 -0.022691 0.502829 -0.834177 0.349101 2.061122 -0.632284 2.505990 1.231191 -1.326863 -0.238931 1.839575 -0.645477 -0.076367 0.577218 -1.674353 0.039157
大B -0.812763 -0.296980 -0.832858 0.149331 0.792041 -0.040163 0.171891 0.269934 1.210825 -0.601904 0.501815 -0.526700 -0.148661 -1.430524 0.103483 0.369262 -0.541941 -1.029345 1.765908 -0.212852 0.299691 0.690664 -1.178827 0.000231 0.534262 -0.045642 0.508097 0.612399 0.344285 3.135142 0.065875 -0.637983 1.686028 0.723129 -0.596426 0.663130 -1.001421 0.747761 -0.864228 0.802333 -1.077784 -0.853878 -1.012331 0.211490 -0.669850 -0.354608 -0.605351 -0.547334 -0.839635 0.557097 0.129965 0.149701 -1.333365 0.338041 -1.356297 -1.083991 -1.086534 0.048061 -0.648013 -0.171589 -0.988485 -0.458903 1.647376 0.145636 -0.566392 -0.540039 0.128738 -0.449111 -1.274217 0.692057 -0.806273 -0.581015 -0.481999 -0.602120 0.536637 0.283469 1.013821 -0.055478 0.615955 0.279198 0.526493 -0.798180 -0.293332 0.152713 0.042896 -0.928427 0.478095 1.263929 -1.126302 0.271834 0.203229 0.618710 0.563000 0.274321 -0.710245 -1.000669 0.723686 0.292323 -0.453566 -0.451642
复O 0.519740 0.473688 -0.118474 -0.807128 1.355397 -0.114084 -0.257478 -0.690864 -0.555420 0.251584 -0.301911 0.757555 -1.186818 0.136682 0.977569 1.427421 1.004809 -0.978219 1.366618 -0.800727 -1.946990 0.056089 1.039292 -0.254128 0.631312 0.372146 0.303912 -0.095048 -0.167419 -0.768224 -1.737909 -0.087918 -1.104979 1.225217 -0.764644 0.687786 1.732807 0.185694 -2.199643 0.236735 -0.711429 0.802985 -0.196480 -0.730039 -0.714552 -0.020628 0.790934 0.317778 -0.212982 -1.060462 -0.167052 1.709160 -0.397852 -1.617566 0.968928 0.249805 -0.108414 0.578787 -0.048792 1.213183 1.159283 -0.415152 1.549117 0.032915 -1.028614 -0.723089 0.278724 0.167230 -0.384802 0.644345 1.530714 -1.449560 -0.203623 2.350089 -0.090271 -0.631802 0.427029 0.089896 -1.059694 0.665507 -0.899797 -1.317318 0.293840 1.167981 0.115687 0.925351 1.234553 -1.312143 0.364467 -0.173811 -0.618457 -0.541724 -0.759665 -0.337051 -1.069697 1.426221 0.139668 -1.125793 0.124146 -1.338092
一O 0.800225 0.941139 -0.641137 0.079555 0.344737 -0.238286 -0.555387 -0.645047 0.495347 0.160780 -0.657858 -0.578124 -1.565863 -1.156015 0.486413 1.080106 -0.024615 -1.087744 0.046893 -0.921859 -1.049188 -0.420668 0.057976 0.052534 -0.255947 -0.239193 0.930861 -0.189422 0.891894 0.779078 -0.427042 0.847223 0.085562 0.279820 0.427853 -1.141792 0.592309 0.490621 0.182919 0.752490 -1.381555 -0.487405 -0.899977 -0.512533 -2.149082 -1.385178 -0.523371 0.295241 -0.102993 -0.449169 -0.904088 -0.016027 0.360510 0.117327 0.484472 -0.608058 -0.666658 -0.209534 -0.023012 -0.308097 -0.501697 0.454852 0.185116 -0.204423 -1.081835 1.639767 -0.744865 -0.309708 0.348826 2.014565 0.944733 -0.645482 -0.053638 0.126536 1.062328 0.230170 0.590469 0.126065 0.307002 -1.253128 0.584798 -0.605941 0.372985 0.806349 0.217849 1.112352 0.230771 -0.361865 1.833030 -0.716239 -0.354298 0.351855 -0.345822 -0.335082 -1.377613 -0.545664 -0.434250 -0.886355 -0.107465 -0.946002
性O 0.316152 -0.392676 -0.328733 0.239942 0.611295 -0.788282 -1.021681 1.239385 0.358032 0.630186 0.248863 0.651827 0.522695 -0.655042 -0.617862 0.272541 -0.908128 0.987900 -0.305224 0.780239 -0.342061 0.735135 0.064690 -0.113776 -0.343634 -0.275207 -0.548467 0.324091 0.201021 -0.104018 0.307674 0.752884 0.327034 0.319126 -0.701688 -0.653301 -1.012331 0.058570 -0.046669 -0.743658 -1.147116 -0.759660 0.277077 -0.789831 0.532655 -0.254798 -0.248434 -0.420350 0.025983 0.321120 -0.886832 0.224097 1.224010 0.750326 0.491277 0.444672 -0.303484 0.883544 0.963441 0.319843 0.417308 -0.767098 -1.059555 -0.614990 -0.239207 0.304787 -0.082726 -0.404112 0.349395 0.248929 0.004982 0.755733 -0.331513 -0.635660 1.206429 0.671114 -0.394416 -0.431337 -0.108700 -0.860847 0.940014 -0.612873 0.233083 -0.001328 0.091932 1.023924 -0.699473 0.008940 0.586978 -0.555773 0.527545 0.844603 -0.159140 0.020095 0.682212 -0.600774 -0.476464 0.931341 -0.990785 -0.168541
转O 0.730147 0.001533 0.430917 -2.775383 1.740639 0.882059 -0.175873 -0.190151 -0.811525 0.098533 -0.438985 -0.899914 -0.770808 -0.182524 -1.419141 2.173367 1.337718 0.601758 1.313044 -0.885597 -1.300146 0.321911 0.113097 -1.457629 1.045781 0.309970 1.318219 -0.421515 2.748955 -0.053197 -1.752428 -0.149900 -0.575138 0.693069 0.222270 1.526232 -0.333473 0.108698 -1.687759 0.944355 -1.976296 0.063846 0.292614 -1.095104 -0.486823 0.403591 -0.534717 -0.804490 1.186067 -0.965830 0.043296 1.670399 -0.536168 -0.813615 -0.720428 0.266272 0.321598 -0.580709 -0.350305 1.110450 -0.546542 -0.740979 1.086981 -0.143465 -2.012680 -0.557913 -0.240230 0.949209 1.665816 -0.938731 1.110883 -0.781997 0.331706 1.665710 1.602067 0.476180 2.193491 -1.077753 -0.826812 2.316908 0.114065 -1.907994 0.346480 -0.070093 -1.010280 1.288369 -0.110738 -1.621510 0.528477 0.248722 0.780808 -0.446666 -0.269247 -0.348383 0.166256 1.360571 0.247853 -0.570187 0.555028 -0.784939
重O 0.400455 1.137459 1.611123 0.599876 -0.899828 -0.556580 -1.334084 0.040101 1.204876 -1.010528 0.677652 -0.851583 0.614062 -1.903385 0.038229 0.551954 0.505732 -1.026321 1.066568 -0.672264 -1.104307 0.307898 0.389784 -0.667815 -1.302682 -0.700216 -0.096009 0.020935 -0.565083 1.169586 -0.655602 -0.766028 0.864487 -0.701939 -0.382061 0.649088 -0.205757 1.582114 -0.395575 0.781365 -1.435635 -0.628659 -1.341873 0.141467 -2.376224 -0.684306 -0.834496 -1.848301 -0.637853 0.792574 0.098765 -1.626385 -0.783672 0.630418 0.234574 -0.162209 0.256890 0.675076 -0.543595 0.272525 -0.361301 0.860911 0.526292 1.540324 1.078352 0.076177 -0.356665 -0.625472 -1.328748 1.111022 1.281071 0.169701 -0.450289 0.692239 1.559602 -0.101536 0.392210 -0.486086 -0.077841 -0.971047 -0.218796 -1.147102 1.881316 0.619511 -1.219767 0.453278 0.064834 0.810305 -1.136647 -0.197274 1.355983 1.075405 1.185756 0.194247 0.389750 0.050477 -1.010634 1.655802 -0.768681 0.868064
食O -0.397559 -0.683827 -0.906969 1.358697 1.208755 0.786161 -0.810876 -0.768774 2.908364 -1.644283 -0.639322 -0.894683 0.069921 -0.901491 0.976407 0.292552 -2.041687 -1.913319 0.380597 -2.266915 -1.733787 0.311789 -0.167769 0.750394 0.134048 0.338914 0.453120 -0.482378 0.194760 2.335306 -0.903743 0.147738 0.863508 0.921245 -2.107562 0.092021 -0.826179 1.720888 -1.485278 -0.251579 -1.318150 -0.629412 -1.413399 -0.603455 -1.813019 -0.302838 -1.233343 -1.611183 -1.449627 -0.089163 -1.518621 -0.043696 0.235675 -1.029301 -0.087438 -0.817675 -0.337767 0.647866 0.043864 -0.980312 -0.138170 0.520582 2.414491 0.929380 -1.001573 -0.232989 0.498006 0.824282 -1.270160 1.652823 0.795147 -1.006757 -0.887213 -0.610913 1.002496 0.082585 0.335009 -0.185598 0.695684 -1.383697 -0.701237 -1.841227 0.422606 0.669196 -0.251426 2.273871 -0.284131 -0.002329 -0.086642 0.056396 -1.410413 0.634409 0.459721 -0.030768 -1.479902 -1.195053 -0.763555 0.000513 -0.414894 -0.490663
8O 0.700020 -0.424292 0.961138 0.189030 -0.797670 0.058137 0.330267 -0.115790 -1.040596 -0.159488 -0.394425 -0.459606 -0.886734 0.472969 0.724205 0.830675 1.110741 -0.460129 0.753786 -0.268100 0.584417 0.369668 0.674970 -0.143139 -0.250467 -0.434974 -0.369160 -0.068221 -0.015096 -0.914607 0.862497 0.075551 -0.668751 0.187342 1.786977 0.242230 0.610337 -1.046037 0.622963 1.164017 -0.500930 0.350130 -0.087946 0.111308 0.126487 0.038845 -0.900004 -0.249420 0.715995 -0.438279 1.875556 0.252789 -1.456247 -1.006636 -0.373632 -0.861674 -0.139266 -1.073461 -0.760159 1.507370 -0.549975 0.266349 -0.347349 -0.338270 -0.406493 0.132573 -0.217218 0.399227 0.778127 -0.972865 0.252482 0.489819 0.303706 0.291655 -1.068915 -1.342421 0.831246 -0.007616 -0.790980 1.559483 -0.138353 0.298389 -0.044442 -0.248317 -1.046506 -0.569620 0.251833 -0.064326 -0.437781 0.112730 0.219691 0.033131 -0.017973 0.104656 -0.618188 0.470324 0.762084 -0.709811 0.448551 0.369174
淋B -0.097457 -0.685927 -0.930629 -1.339396 1.183378 0.047132 -0.165405 0.057116 -1.468499 1.656144 1.190315 -0.997797 -1.322684 -1.228920 -1.110043 1.473505 2.055001 0.480270 0.858757 1.986487 1.289836 0.571517 -0.531619 -1.745361 0.035020 0.553219 0.774449 0.196866 0.944756 1.749369 0.555952 -0.114022 -0.280798 1.181069 0.753476 0.281603 1.490758 -1.701795 0.342125 2.146501 -2.104162 0.615292 0.333200 -0.702773 -0.130488 0.242248 -0.051219 0.038054 1.517197 0.674415 1.577447 0.989028 -0.101633 0.587464 -0.184547 -1.409420 -0.108518 0.010656 -0.807672 0.902779 -1.721826 -1.663458 0.066506 -0.676491 -1.793766 -0.699163 -0.939080 -0.897971 1.353104 -1.685108 -1.502257 -0.220816 -0.692125 -0.082916 0.925319 0.374395 1.362714 0.524030 0.319752 2.982235 2.044387 0.304874 -0.104196 -0.445888 0.298084 -1.871931 0.069610 -0.148996 -0.014171 -0.671671 1.481453 0.100374 1.120713 -0.148281 0.128767 0.583207 1.806071 -2.962422 0.896983 -0.332363
(O -0.002062 -0.673446 0.425941 -0.020488 -0.551455 -0.143669 -0.130732 0.054159 -1.149821 0.706868 1.079291 0.106856 -1.812504 -0.465974 0.655241 0.883532 1.349626 -0.623691 1.260156 0.806102 1.204093 0.754360 0.304880 0.995302 0.129007 -0.282097 0.499851 0.338254 -0.995349 -0.680369 1.004626 0.504467 -0.770876 0.971413 1.028585 0.262709 1.269323 -2.070446 0.247382 1.056867 -0.670546 0.909659 -0.392545 0.567483 1.543340 0.582331 0.229422 0.650668 0.672687 -0.109232 2.244361 0.294840 -0.617093 -0.276414 -0.743249 -1.234707 0.265920 -0.142871 -0.572878 1.881023 -0.401891 -1.021186 0.229847 -0.587823 -0.920764 -0.582391 -0.347794 -0.382777 0.677296 -1.159315 -2.002206 1.411962 -0.078965 0.761272 -1.325229 -1.151655 0.186174 0.286659 -0.702249 1.920251 0.135614 1.532529 -0.501871 -0.459477 0.295859 -1.718724 0.321769 0.310953 -0.663119 0.422733 0.261667 0.195352 -0.142248 0.039938 -0.811122 0.271353 1.352027 -0.767905 -0.079026 -0.309840
期O 0.914933 0.935953 1.240039 0.505153 -0.649274 0.377402 -0.481309 -0.952913 -1.001111 -0.432251 0.315134 -0.936160 -1.652494 -0.690922 1.270040 0.689386 1.009772 -0.511015 0.536950 -1.506083 -0.873775 -0.642125 1.973481 0.176399 -0.529096 -0.650602 1.160841 0.058942 -0.476512 -1.262268 -0.198633 -0.001030 -0.566103 0.044453 0.747786 -0.399215 1.987999 0.027619 -0.599790 0.922257 -0.073251 1.025494 -0.570507 -0.061817 -0.926808 -0.689509 -0.446671 0.225037 0.158104 -0.867496 -0.901945 0.126444 -0.060591 -0.953807 -0.054262 0.153897 -0.004701 0.615832 -0.408561 0.646686 -0.110335 0.569040 0.751079 0.292946 -0.088958 0.660767 -1.060481 0.279489 0.480005 0.644560 1.469493 0.032311 -0.262120 0.707732 1.245706 0.337806 0.376990 0.770284 -0.533012 -0.189282 0.059330 -0.243697 0.329172 0.247896 0.471473 0.792164 0.056743 -0.734213 1.557786 -0.114323 0.576521 0.863900 -0.775625 -0.496427 -0.470699 0.258587 -0.654196 -1.054507 -0.193080 -0.033020
肠I 0.844782 -1.128062 -0.847739 0.565369 -0.008673 0.769606 -0.486196 0.677447 -1.408858 0.477717 -0.675565 -0.100070 -0.332126 0.155016 -0.338160 0.629763 0.355014 1.015783 0.711819 0.062838 -1.456098 1.366077 -0.161873 0.822303 -0.567601 -1.412065 0.298744 -0.785749 0.417619 -2.296225 0.121721 2.058696 -1.144842 -0.879778 0.366310 -1.347543 0.398715 0.075960 1.837914 -1.947516 -0.659930 -0.524531 -0.405087 0.708311 1.070355 -1.665670 0.994146 -1.123797 -0.357570 -1.363670 0.769295 -0.103504 0.742318 0.205058 0.590648 -0.571704 0.014837 0.181657 1.432760 0.718233 -1.137527 -1.776970 -2.027902 -0.630806 -1.469332 1.033204 -0.181626 0.398199 1.887949 0.070928 0.523389 0.620697 1.481709 0.295298 -1.309083 0.632228 1.367193 -3.424431 -0.159666 0.654937 1.000322 0.697779 -2.031713 -0.475913 -1.560534 -0.098044 -0.285990 0.054190 1.353611 -0.119399 -1.192012 -0.645383 -0.214279 0.838909 0.669277 0.690178 1.531273 1.853817 -0.259939 -0.440043
9O 0.657652 -0.386456 0.883414 -0.043400 -0.800441 0.329451 0.386389 -0.339671 -0.911663 -0.268797 -0.730783 -0.157896 -1.099526 0.614719 0.639743 1.125728 1.162287 -0.773586 0.746248 -0.356563 0.356804 0.524828 0.405626 -0.121952 -0.090490 -0.342377 -0.385153 -0.461131 -0.119729 -1.016961 0.619402 0.074363 -0.865981 0.202966 1.685028 0.089356 0.598005 -0.897348 0.555048 1.023736 -0.659415 0.431453 -0.008594 0.011766 0.136118 -0.039695 -0.823054 -0.414043 0.807509 -0.738123 2.330572 0.340234 -1.589859 -1.243111 -0.358835 -0.988770 -0.109975 -1.227003 -0.631899 1.635572 -0.602844 0.311944 -0.429174 -0.364640 -0.623232 0.103114 -0.078019 0.480558 0.972351 -1.018004 0.464946 0.369391 0.476614 0.453514 -1.432981 -1.434801 1.169541 -0.258996 -1.125852 1.953717 -0.564501 0.194164 -0.285701 -0.189295 -1.275348 -0.509100 0.259181 -0.219536 -0.449695 0.346472 -0.118852 -0.212697 0.011004 0.351268 -0.618651 0.820075 1.034567 -0.634320 0.778279 0.519030
因O -0.317395 0.714440 0.152703 -0.131503 -0.108423 -0.992420 -0.805945 0.616700 0.507751 -0.271824 -0.755877 -0.360346 -0.186622 -0.493168 0.640229 0.613217 -0.139615 0.991162 -0.021015 0.874451 -0.396552 0.764255 -0.442521 -0.354395 -1.443685 0.464107 -1.741055 -0.449636 -0.324695 0.520782 0.764231 -0.179912 -0.341519 0.191263 0.217436 0.325400 0.258199 0.629852 0.196377 -0.150104 -1.085010 -0.938331 -0.536137 -1.047050 -1.802878 -0.444464 0.446833 -1.824210 -0.664592 -1.074610 1.265538 0.520921 0.069440 -0.913867 1.118321 -2.099475 -0.773783 -0.057230 0.203893 0.607031 0.011776 0.182104 -1.422918 0.894625 -0.792580 -1.060588 0.966187 0.584878 0.488192 -0.022091 1.279330 0.219834 -0.154933 -0.011419 -1.188653 -0.429016 -0.420648 -1.113128 -1.379505 1.092900 0.358381 -0.669500 0.567373 -0.898319 -1.075336 -0.503035 -0.332032 -0.571960 -1.483175 -0.932508 -0.519276 -0.739388 0.945182 0.966537 0.891768 0.582463 0.206055 1.572188 0.077872 0.296814
)O 0.296576 -1.055461 0.582351 0.146541 -0.439787 0.020005 -0.341025 0.003043 -1.343738 0.689957 1.444105 -0.367395 -1.676713 -0.293323 0.471838 0.235531 0.987523 -0.632410 1.332172 0.651865 1.251321 0.704956 0.536909 0.931059 0.017041 -0.224836 0.937534 0.511677 -0.518393 -0.790135 0.658350 0.000233 -0.497067 0.714304 0.450548 0.799004 1.375036 -1.935979 0.412308 1.024413 -0.302013 0.852617 -0.712987 0.717179 1.726202 1.186063 0.216868 0.770332 0.563722 0.253607 1.572491 -0.033776 -0.649574 -0.387506 -0.788363 -1.474221 0.691782 -0.044360 -0.626558 1.846336 -0.141511 -1.106226 0.899637 -0.758431 -1.055624 -0.598114 -0.552789 -0.377956 0.716995 -1.109712 -2.207149 1.261859 -0.048510 0.812638 -0.939620 -0.968402 0.021205 0.237251 -0.300604 1.505482 -0.303115 1.777291 -0.679842 -0.615941 0.414118 -1.767652 -0.030194 0.861323 -0.513400 0.841511 0.619450 -0.281381 -0.689805 -0.310396 -0.718149 0.086341 1.281428 -0.581200 -0.045684 -0.212520
发O -0.463246 0.812170 -0.150176 0.657670 1.217349 0.657988 0.009227 0.722464 0.028808 0.410823 -0.519784 -0.611573 -0.753542 -0.748047 0.495584 0.616564 -0.066029 0.888550 -0.345966 -0.341850 -0.532628 1.278261 0.238262 0.066679 -0.882522 1.134844 0.635096 0.784490 1.286055 -0.300620 0.427635 0.303528 -0.338948 -0.219032 -0.278710 -0.177837 0.324603 1.005150 -1.007453 -0.788543 -0.596617 0.008960 -0.659749 -1.673997 -1.420663 -0.224057 0.170803 -0.220461 -1.032672 -0.984101 -0.262374 1.908090 1.243386 -0.549795 0.335957 -1.270875 1.072974 1.136963 0.577119 0.730435 0.484956 -0.296654 0.740566 -0.539554 -1.203040 -1.803446 0.136530 0.316492 1.052980 1.395695 0.532228 -0.078718 -0.069143 0.886325 0.158632 1.060133 0.195737 -1.555637 -1.173040 0.331367 -0.080292 -0.560714 0.895950 0.256437 -0.154964 0.500111 -0.724717 -1.144188 0.546587 -0.152456 -1.400096 -0.963278 -0.058290 0.841706 0.148057 0.567646 0.189617 1.034513 -0.372791 0.265928
肠E -0.313707 -1.068655 -0.107614 0.800836 -0.144713 0.342331 -0.789033 0.715561 -1.004405 1.459203 -0.003869 -0.428968 -1.893025 -0.726621 -0.547086 0.559225 0.660039 1.219975 1.363662 0.682979 -0.386780 1.046918 -0.500416 0.772004 -0.602354 -1.875381 0.972579 0.083276 0.209055 -0.419328 0.677061 1.010108 0.105399 -1.412103 1.172275 -0.440976 -0.446593 0.043529 1.518363 -0.611654 -0.564398 -0.297060 -0.646472 2.213078 1.379552 -1.125371 0.389562 -0.553563 0.178844 -0.174697 0.682269 -0.128871 0.319213 0.813406 -0.967425 -1.120661 0.060375 -0.178419 0.215513 0.315702 -0.778339 -1.949631 -0.694733 -1.036734 -0.462103 0.599428 -0.528601 0.707009 1.111186 0.748108 -1.351605 0.704254 1.032658 -0.147121 0.542399 1.437555 0.545303 -2.329847 0.316070 0.231230 0.578138 1.079094 -0.633145 -0.162052 -0.062706 0.045057 -0.512415 1.469182 0.426132 -0.050473 -0.117606 0.084600 0.127468 0.958488 1.042849 -0.904331 1.151055 1.468410 -0.766033 -0.139540
变O 0.668727 0.405365 0.861366 0.000975 0.239880 -0.671547 -1.398472 0.746768 -0.706823 0.716588 0.991457 -0.752070 0.366495 -0.932625 -0.901203 -0.154343 0.612388 0.419428 0.808954 0.318307 -0.465533 0.793229 1.209473 -1.270233 -1.137323 -0.226536 0.567316 0.405880 0.360710 -0.553231 -0.969645 -0.546797 0.069818 -0.984533 -0.204239 1.160433 -0.321986 0.878937 -0.590446 0.026463 -1.158842 0.268537 0.293915 -0.357061 -1.267589 0.115559 -0.069597 -1.768033 0.444263 1.148854 -0.392477 -0.973123 0.114970 0.902056 0.701693 -0.181008 0.923555 1.058225 0.317820 1.136151 -0.082186 -0.157740 0.433976 0.482850 0.567782 -0.491225 -0.831131 -0.737437 0.272794 0.170726 0.605447 0.579982 -0.064471 0.768192 1.809797 0.411479 0.403064 -0.920277 -0.343691 0.001517 0.174782 -0.526659 2.147317 0.343978 -0.509296 0.923730 -0.546512 0.268249 0.134561 -0.405772 1.979936 0.256944 0.830512 0.368732 1.993949 1.049915 -0.833299 1.751118 -0.916046 1.108962
TO 0.547834 0.024405 -0.087992 0.957519 -0.044739 -0.463358 -0.764515 0.549643 -1.696155 0.576990 0.546323 0.410278 -0.469970 0.269101 0.733325 0.205363 -0.197415 -0.462646 0.985408 -0.540499 0.552392 0.361584 2.102463 0.131165 -0.571510 -0.388235 0.870993 0.417674 -0.974412 -1.991453 0.176571 0.444692 -1.642534 0.498589 -0.658100 -0.312681 1.552332 -1.240835 0.115740 0.102460 0.539371 1.554927 0.459837 0.259658 1.500611 0.716967 0.034750 -0.164761 0.535561 -0.269082 -0.004089 -0.150459 0.086810 -0.741035 0.842298 0.123109 0.984312 0.322566 -0.123454 1.901479 0.858692 -0.166773 0.356022 -1.421266 -0.262944 -0.409824 -0.221278 -1.166077 0.345870 -0.003475 -0.322202 1.117102 0.194660 0.977689 -0.501377 -2.130217 -1.465893 -0.165039 -0.499403 0.666867 -0.645614 0.847974 -0.194230 0.551705 -0.186383 -0.955111 0.478533 -0.390970 0.188301 0.216085 0.442962 -0.378905 -0.349230 -0.833541 0.155822 0.955204 0.029726 -0.077000 -0.324764 -0.017799
予O 0.793606 -0.746456 1.079136 0.772050 -0.833663 0.786668 -0.562556 0.165830 -0.138353 -1.897916 -0.390609 1.154889 1.210273 0.968588 1.353087 0.046863 0.011067 -0.715024 -0.869429 -1.743845 -1.494030 -0.257856 1.436142 0.135244 1.084414 -0.899727 -0.786974 -0.289920 -1.544763 -2.244756 0.537637 0.123676 -0.180024 -0.122459 -0.555908 -0.577459 -0.417396 1.032110 -0.306952 -1.445956 0.399349 0.969190 0.995440 0.659294 0.661687 -0.030836 -0.887001 -1.170276 0.175867 -0.789356 1.227349 -0.368558 0.085099 -2.176623 1.134129 1.429316 0.271861 -0.104010 0.546420 0.507843 -0.056963 1.111678 -0.299897 0.123518 1.302403 0.066409 -0.638770 0.817441 0.002443 -0.090888 1.540437 0.228295 0.104219 0.837091 -0.596052 -0.582500 0.457936 -0.426296 -0.426765 -0.516093 -0.807746 0.185157 -0.026855 0.673667 -0.203144 1.246359 0.137239 -0.354881 0.139341 0.734408 -0.537658 0.943487 -0.601434 -0.051550 -0.632738 0.243544 0.421792 0.515677 0.631487 1.136705
查O 0.406428 1.499969 0.111415 -0.658701 1.455327 -0.413186 -0.107999 0.196009 -0.760396 0.901281 -0.318296 0.696894 -1.311182 0.358601 -0.679586 1.834019 0.847430 -0.486817 0.581134 -0.008361 -0.598452 -0.126571 1.201807 -0.504870 0.141433 0.478102 1.085672 -0.602010 0.346334 -0.603976 -1.628736 -0.139034 -0.895411 0.429045 -0.648272 0.001379 1.161606 -0.498495 -0.672985 0.381149 -0.342642 0.427987 -0.151610 -0.580089 -0.830135 -0.179152 0.434569 0.205314 1.255174 -1.005370 0.865700 0.618903 -0.065274 -0.586895 1.391554 0.528651 1.302893 0.274716 -0.158656 0.852567 0.606571 -0.494942 0.999205 -0.884078 -0.507482 0.224238 -0.540342 -0.739236 0.574350 1.037658 0.736013 0.103539 0.361129 2.080564 0.127743 -0.797191 -0.264780 -0.071455 -0.406512 0.719204 -0.529785 -0.341746 0.866414 1.328490 -0.846831 0.051303 0.673364 -1.959236 -0.084878 -0.105745 0.080256 -1.121113 -0.199236 -0.523849 -0.392027 1.945277 0.571943 -0.942484 0.723026 -0.635608
正O -0.588573 0.209773 0.071422 1.224616 0.632090 -0.142651 -0.432192 0.470328 1.408726 -1.035867 0.993642 -1.329214 0.002954 -2.074454 0.209049 0.301141 -0.230324 -1.311856 2.297159 -1.079041 -0.684778 0.573561 -0.451031 0.249278 -0.192901 -0.383641 1.162537 1.248698 0.173090 3.241183 -0.094353 -0.672606 1.981898 0.230357 -0.568857 1.027665 -0.967316 1.868290 -1.281740 0.751547 -1.167378 -0.765985 -1.809022 0.944775 -2.009330 -0.758516 -0.614551 -0.965964 -1.738217 0.710021 -0.093691 -0.726792 -1.428806 0.965013 -1.303708 -1.179748 -0.931837 0.638845 -0.800300 -0.073560 -1.120302 -0.061506 2.205251 0.760563 0.336974 -0.631574 -0.338773 -0.831940 -1.821770 1.703743 -0.150807 -0.468844 -0.119212 0.348955 1.200422 0.605137 1.157932 -0.793723 0.762351 -0.632190 0.612938 -0.756944 0.480376 0.496737 -0.446578 -0.605495 0.664326 1.689046 -1.487297 0.363311 0.408524 1.098716 0.976075 0.553080 -0.646383 -0.948799 0.180397 1.576369 -1.095245 -0.598049
中O -0.038311 0.016682 0.165293 -0.497012 0.343270 0.226616 -0.597082 -0.655628 -1.043998 0.658978 0.372323 0.001830 -0.947912 -0.662803 -0.480776 0.620749 0.775346 0.710449 0.899180 0.544968 -0.373745 0.130006 0.484655 -1.065654 0.063357 -0.564772 1.348773 -0.303368 0.483298 -0.621250 -1.059306 0.069382 -0.304299 -0.973596 0.367575 0.319728 0.415820 -0.025016 0.991863 0.110420 -0.823478 0.383752 0.316453 -0.057410 0.386635 -0.390082 -0.657848 -1.318045 1.540985 0.689146 -0.239446 -0.549208 0.050327 -0.347965 0.583098 -0.259179 0.357888 0.828955 0.225314 0.211920 -0.527239 -1.021201 0.282732 -0.689213 -1.146516 0.981261 -0.209905 0.120822 0.489972 0.093948 0.276569 -0.050509 0.017849 -0.336775 0.824188 1.311314 0.923386 -0.649540 0.227528 0.736911 -0.302264 -0.509729 0.498460 -0.065034 -0.331077 0.201688 -0.277588 -0.314937 0.492975 -0.325380 1.249626 -0.182069 -0.034524 -0.157692 1.205272 0.126091 0.874929 -0.387790 0.262150 0.353386
管E -0.618194 -1.692244 0.271795 -0.136777 1.485361 0.004752 -1.121165 0.892696 0.154684 1.392507 0.318696 -0.109965 -1.111022 -0.606838 -1.166508 0.770283 -0.290945 -0.011085 0.175164 0.475238 0.050849 0.421529 -0.216237 0.322166 -0.091648 0.001379 1.344276 0.146120 1.152344 0.950631 -0.736450 -0.601811 0.097802 -0.360025 -0.699170 0.765867 0.042219 -1.546356 0.455898 -0.126611 -1.013918 -0.419463 -0.436696 0.200899 0.800598 1.769170 -0.433768 0.081780 0.602318 0.577329 0.574884 -0.389046 0.671839 -0.213304 -0.361396 -1.041558 1.113346 1.029468 -0.630334 -0.306895 -0.532344 -2.236295 0.219451 -0.347460 -1.027750 -0.178427 -0.085963 -0.429945 0.470540 -0.373841 -2.540311 0.675391 -0.879386 0.790310 0.669262 0.878759 -0.488204 -0.696792 1.295090 0.074511 0.357180 0.525681 0.530608 -0.826301 0.077275 0.143864 -1.462862 0.348034 -1.638878 -0.409467 0.372023 -0.823974 -0.126952 -0.610002 -0.090210 -0.276467 0.493045 -0.072135 0.144818 -1.454086
腺B 1.619145 -1.302433 0.367182 -0.255127 -0.913377 0.008953 -1.324484 0.722573 -1.863896 0.068742 0.361666 0.071323 -1.671497 -0.838311 -0.349323 -0.254277 -1.072111 0.260631 1.002976 -1.413482 0.294335 1.256185 2.159250 -0.394621 -0.687484 -0.448541 1.456895 -0.004994 0.877523 -1.950525 -0.516599 1.185790 -0.334099 -0.264477 0.769190 -0.711109 -1.173682 -0.961201 1.488246 -0.483999 -1.317838 -0.528161 -0.381903 -0.675815 0.513042 -0.382813 -0.906350 -0.876907 0.941601 0.279720 -1.996930 -1.567177 -1.030381 -0.475991 -0.019757 -0.919604 -0.230409 0.227071 0.231454 1.409681 -0.384543 -1.854771 -1.114854 -0.794580 -1.236970 1.924553 -0.342079 0.503623 1.549724 -1.041489 0.569966 0.981463 0.649662 -1.467714 0.943105 0.780772 1.017172 -0.542277 0.181724 0.887289 0.565493 -0.210624 -0.929770 -1.021069 -0.970059 1.251883 -1.890904 0.422524 2.074393 -0.747343 1.466351 0.707008 -2.179324 -0.105333 1.448115 -0.042433 0.167120 1.000005 -1.515972 -0.266786
肠B 0.281964 -0.599035 -0.286835 -0.834247 1.600343 0.154083 -0.387163 0.526748 0.060536 1.392845 -0.542114 0.402062 -1.725688 -0.172239 -1.757164 0.987733 0.748754 -0.371231 -0.386659 -0.073849 -0.203913 0.428243 -0.671300 0.147477 0.585044 0.383123 1.355841 -0.318340 1.285004 1.042943 -0.835182 0.286693 -0.301189 -0.127769 0.187437 -0.325059 -0.571610 -1.165829 0.725689 -0.013839 -1.364820 -0.872423 0.087416 -0.428781 -0.911344 0.115517 -0.312731 0.521847 0.754463 -0.112008 1.113773 -0.070203 0.076576 0.205975 0.172826 -1.343350 0.425423 -0.336410 -0.227250 -0.121357 -0.992947 -1.619886 -0.337738 -0.499520 -0.972180 0.769062 -1.303957 -0.811012 0.878440 -0.197815 -1.064291 0.051759 0.145745 1.009803 -0.151301 0.145968 1.299794 -0.085682 0.982245 0.211353 0.525945 0.416760 0.590440 0.110279 -0.132802 0.123878 -0.616702 -0.047694 0.081488 -0.924811 -0.071951 -0.973929 0.203768 0.307179 -0.858048 0.215008 0.857227 -0.625309 0.355149 -1.018302
移O 0.718010 -0.778622 0.077869 -1.469988 1.494582 0.440302 1.200891 -0.240647 -1.780718 1.277756 -0.484555 -0.703620 -0.913217 -0.296394 -0.764007 1.404086 1.016837 -0.652569 1.608518 0.170393 -0.446191 1.463061 0.568262 -1.860516 0.211063 0.303310 1.120423 -0.598585 2.804147 -0.194997 -0.923182 -0.941498 0.329774 -0.232401 0.520418 0.888370 0.027400 -0.425376 -1.182239 0.933739 -1.298544 -0.224841 -0.087223 -1.344986 -0.770275 0.150674 -0.273486 0.398885 2.283581 0.426452 0.924992 1.087039 -1.537825 -0.535821 -0.371501 -0.381968 0.807992 0.393960 -0.056394 2.079163 -1.048350 -1.505205 1.272112 -0.716915 -1.671825 0.117452 -0.415142 -0.256624 1.559222 0.007287 0.923554 -1.521481 0.114937 0.702114 1.327608 0.768179 2.912992 -0.648724 -0.192818 1.577991 0.356545 -1.016084 0.234394 0.208507 -1.150627 1.017086 -1.201754 -0.986962 1.412495 -0.056297 0.809984 -1.113128 -1.146701 0.034487 0.083646 1.447471 1.036666 -1.090882 0.563502 -0.057838
好O 0.499769 -0.117859 0.215399 -0.557610 1.101723 0.142999 0.436263 -0.508590 -0.010515 -0.901422 0.093772 0.649280 -0.134724 -0.864749 0.808153 0.740493 -0.038277 -1.685791 1.448945 -0.749025 -1.959720 0.580235 0.528306 -0.183787 1.091969 0.194415 0.383689 -0.415058 0.494165 0.020295 -1.237398 -0.756691 1.284504 1.133173 -1.549622 0.376432 -0.469608 0.963704 -2.437064 0.100323 -0.880028 -0.647092 -1.230056 -1.023814 -0.723614 -0.670059 -0.102698 0.300430 0.481125 -0.088763 -0.734330 0.986542 -1.078832 -0.922209 -0.148175 1.052962 -0.403667 1.180602 0.572677 0.817761 0.210999 -0.500900 2.246909 0.584457 -0.688555 0.322495 -0.249883 0.855016 -0.644530 1.764554 1.467990 -1.658215 -0.344595 1.002329 1.613660 1.089575 2.371184 0.291427 -0.277703 -0.528659 0.240485 -1.413554 -0.198225 1.174651 -0.266556 2.272014 0.002143 -0.593312 0.950832 0.416382 -0.191156 0.944272 -1.333537 -0.244862 -0.878365 0.447993 0.375178 -0.349641 -0.114501 -0.360120
端O -0.370227 -1.450251 2.221646 -0.745529 -0.299267 1.191405 -1.533608 0.291415 0.032723 0.349490 0.755516 0.037006 -2.136629 -1.978237 -0.907458 1.788918 1.894589 -0.890427 0.044284 0.506655 -0.597297 0.678157 -0.736121 0.478569 0.456275 -1.162536 1.547958 -0.086841 -0.517349 0.734358 -0.015499 -1.263724 0.617774 -1.185568 -0.702824 -0.007400 0.566092 -0.487278 0.195527 0.407468 -1.036379 -0.162098 -1.900364 1.128381 0.990132 1.358274 -0.694762 0.195401 1.705910 0.989226 2.960757 -0.351795 0.161033 -0.561307 -1.165359 -1.193545 1.800585 1.074333 -0.949596 0.096651 -0.712736 -2.308092 0.304253 -0.589677 -1.012179 0.060139 -0.753758 -0.480180 0.141685 0.070807 -2.460353 0.454542 -0.958442 2.839536 1.349446 0.800709 0.380324 -1.173838 0.697123 -0.917731 -0.429069 0.950657 0.090919 -0.373802 0.118228 -0.149001 -1.525011 1.457871 -1.772568 1.195106 1.009572 -0.680644 -0.664102 -0.127340 -0.473670 -0.351712 0.905561 0.058266 0.829922 -0.362740
侵O 1.428251 -2.120432 1.928935 -0.098401 0.682508 0.062355 -0.944025 1.222668 0.321823 -0.331487 1.779215 -0.791847 -0.379061 -0.291845 -0.625509 0.074980 -0.095485 0.838795 0.167149 -0.643600 0.022247 -0.059693 1.756173 0.182211 -0.201273 0.575795 0.906147 0.661949 0.505713 -0.094398 -0.273598 -0.639217 -0.367553 0.894826 -0.531882 1.294688 -0.424865 -2.533300 0.826914 0.051371 -0.617072 -1.210074 -1.770851 -1.229581 -0.448505 1.864735 -1.261447 0.783924 0.252691 0.814102 -0.932001 -0.789254 -1.049187 -1.695516 -0.365177 -1.319587 -0.053798 1.292507 -1.733796 0.156776 -0.743444 -2.778991 -0.300743 1.261635 -0.887804 0.694433 -0.977586 0.546468 0.476730 -2.307383 -0.946678 0.930622 -1.241834 0.786577 -0.206360 0.576313 0.636217 1.162983 1.504722 -0.106870 1.347133 0.103077 -0.380068 -1.675541 -1.081040 0.487105 -1.676273 0.658337 -1.197217 -1.839573 1.701864 0.008820 -1.502956 -0.605603 -0.941628 -0.480745 -0.150094 0.129715 -0.765581 -2.229542
年O 0.667878 0.875059 0.222326 -0.632124 -0.461758 -0.425862 0.516925 -0.272476 0.008988 -0.864759 -1.017769 -0.926921 -0.185102 -0.102462 0.625568 1.155647 0.641529 -0.921785 0.640428 -0.572181 -0.589274 0.485016 -0.046185 -0.933984 -1.036657 0.198166 -1.403182 -0.552580 0.170397 0.429744 0.596979 -0.327684 -0.380253 0.424432 1.228985 0.311979 0.536309 0.846072 -0.514403 1.349983 -1.384605 -0.527808 -0.465284 -0.605430 -2.131324 -0.896752 -0.166506 -1.289809 -0.341643 -1.063145 1.838302 0.488059 -1.472656 -0.517013 0.311514 -1.185750 -0.785530 -1.107337 -0.372076 1.223084 -0.562785 1.143396 -0.538474 0.961420 -0.421251 -0.380944 0.235395 -0.106156 0.146506 -0.041086 1.879674 -0.551477 0.222209 0.769420 -0.815539 -1.416450 1.244092 -0.623809 -1.235379 1.569637 0.299003 -0.988228 0.176810 0.081876 -1.840971 -0.318010 0.687895 -0.330734 -0.287011 -0.195788 -0.380087 -0.206881 1.130433 0.721627 -0.244734 1.373578 0.101723 -0.017231 0.526229 0.306593
等O 0.383447 -0.343302 -0.557692 0.315049 0.937327 -0.449897 -1.258975 0.602822 0.459069 -1.084433 -0.383072 1.533445 0.970256 -0.249772 0.539394 0.241649 -0.676522 -1.022624 -0.551197 -0.491412 -1.053616 0.313222 0.564736 -0.604508 1.389601 -0.032086 -0.861052 0.001146 -0.576957 -0.213814 -0.019163 -0.333070 0.555400 0.985234 -1.569676 -0.740458 -1.338314 1.022668 -1.046037 -0.330286 -0.673203 -0.223216 1.323443 -0.757248 0.019051 0.097024 -1.173971 -0.924594 0.410158 0.296864 -0.442619 0.189936 0.227865 -0.626707 1.514554 1.268011 -0.605803 0.269016 0.814082 0.080095 0.580477 0.742627 0.797308 -0.768642 -0.165384 0.151511 -0.733677 -0.299691 -1.303732 1.083624 0.808863 -0.163452 -0.451670 0.231045 0.971604 -0.450623 1.249212 1.061335 0.336358 -1.044414 0.531449 -1.146723 0.467758 1.361639 0.165715 1.620111 0.783209 0.434482 0.688652 -0.128355 0.258906 1.321725 -0.088233 -0.683440 -0.597483 -0.339079 0.212111 -1.086673 0.274563 0.903156
术E -0.372759 -0.365210 -1.691111 0.863769 1.082871 1.220355 0.361207 -0.238102 -1.674701 -0.241829 0.869771 0.178083 1.108557 0.106154 -0.005866 0.184618 1.174783 -0.078611 1.662002 0.777121 -1.451344 0.525110 -1.059538 0.713471 1.271791 -0.726490 1.515129 0.328529 -0.313899 -1.581859 -0.714891 1.255761 -0.484898 -0.337904 -1.686961 0.218993 1.148796 0.960735 0.275662 -1.679490 0.349903 1.525050 0.326911 1.483078 2.396707 -1.048140 1.272483 -1.396532 -0.585766 0.257027 0.951112 -0.473657 0.502594 0.549350 0.420957 0.624391 0.142685 1.579042 1.692684 0.664731 -1.526705 -0.855723 1.001227 -0.668814 -1.463002 -0.311574 -0.481920 -0.432110 0.030467 0.679631 -0.379075 0.263435 1.085761 0.906641 -1.545195 0.869319 2.046794 -2.685698 0.423345 0.720589 0.097972 1.152893 -2.172493 0.845733 -0.547204 -1.499493 1.392253 0.313558 0.396153 1.575252 -0.480150 0.238754 0.364054 0.473804 0.565673 0.535182 2.358598 1.289695 0.747041 -0.296319
