2796 100
，O 0.146801 0.275663 -0.987181 0.359109 0.306184 -0.192529 -0.650563 0.537362 -0.257695 0.366887 0.705423 0.717853 -0.009481 -0.222407 0.270829 0.533833 -0.179629 -0.107698 -0.297340 0.505587 -0.000737 -0.101445 -0.391606 0.003899 -0.487409 0.434523 -0.904443 0.034623 -0.008756 -0.248886 0.314888 0.226705 -0.621519 0.136620 0.164803 0.006307 0.453009 -0.219153 -0.476855 0.488479 -0.457893 -0.068324 -0.663573 0.077107 -0.352787 0.824524 -1.238639 0.456075 0.093595 -0.127655 -0.053588 0.037494 -0.152143 0.182358 0.414020 -0.213069 -0.438841 -0.170320 -0.046462 -0.120242 -0.965968 0.173253 -0.435909 -0.082673 0.386268 -0.211737 -0.245131 0.253629 -0.683815 -0.455954 0.627001 -0.313634 0.239496 -0.170291 0.287824 -0.151502 0.892669 -0.185766 0.327340 0.352912 0.259572 0.412813 -0.303269 0.846409 0.162745 -0.168578 0.454234 -0.037067 0.473462 -0.193549 -0.408344 0.595222 -0.169825 -0.781535 0.179715 -0.039607 -0.456082 0.640198 -0.202727 0.267574
1O 0.579435 0.093950 0.181022 0.659683 0.283677 -0.098059 -0.453382 0.398857 0.967810 -0.652908 0.826964 0.438137 0.220820 -0.209752 -0.368936 0.225402 1.213235 -1.427586 0.327773 -0.087213 0.332947 0.054515 0.686647 0.336755 0.141737 0.010021 -0.454191 1.666496 0.463128 0.353725 1.471383 -0.590709 -1.873693 0.295885 -1.180201 0.301140 0.394786 0.934298 0.605264 -0.137666 0.707261 -0.847853 -1.340241 0.239320 -0.117603 -0.030799 -0.257961 0.712508 0.253009 -1.723048 -1.027480 0.389753 -0.233991 -1.543052 -1.181558 0.551865 -0.630393 -0.068674 -0.919391 -0.802148 0.119112 -0.319320 -0.747713 0.926834 0.491817 -0.953232 0.653524 -0.219535 0.148448 0.175731 0.840352 -0.558067 -0.069200 1.054830 -0.599862 -0.531851 0.469561 0.215223 -0.018959 -1.343671 0.200227 -0.586882 1.602126 1.275892 0.438058 -0.348808 -0.601348 0.585338 -0.676379 -1.104609 -0.201136 -0.281421 -1.063792 -0.264635 -0.528577 0.650080 -0.892912 0.341495 0.687131 -0.233632
0O 0.524559 0.104624 -0.083158 0.440331 0.235098 -0.225853 -0.618370 0.573601 0.856861 -0.959691 0.620985 0.726580 0.265752 -0.284592 -0.725284 0.259176 1.728300 -1.517727 0.188220 -0.215849 -0.036126 0.235078 0.420742 0.279497 0.032585 -0.053050 -0.712755 1.816781 0.338307 0.506206 1.853012 -0.668437 -2.074647 0.008201 -1.281717 0.484424 0.642000 0.836901 0.532857 -0.045855 1.058346 -1.017875 -1.566107 -0.047368 -0.245431 0.302617 -0.383746 0.765828 -0.176442 -1.947846 -1.379979 0.320547 -0.376888 -1.669258 -1.118202 1.000745 -0.688584 0.038484 -0.983816 -1.076847 -0.276615 -0.823012 -1.008689 1.224789 0.354171 -0.783871 0.601874 0.209238 0.441427 0.355080 0.861531 -0.394251 -0.285241 0.900538 0.075572 -0.232185 0.067575 0.517303 -0.291907 -1.299613 0.071691 -0.611870 2.006462 1.329169 0.387147 -0.553050 -0.317939 0.650305 -0.732025 -0.558702 -0.056116 -0.807731 -1.314704 -0.159395 -0.376971 0.721667 -1.298747 0.325506 1.144536 -0.456077
、O -1.111742 0.074052 -0.571709 0.649134 0.336057 -0.878142 0.228304 -0.133366 -1.018974 0.151511 -0.312195 -0.033744 0.207670 0.268144 0.531181 0.072100 -0.251869 0.110729 0.529860 0.169742 -0.452957 -1.015269 0.313067 0.837855 -0.472318 0.434263 -0.701019 0.418174 0.046944 -0.772200 0.541902 -0.234423 -0.133742 -0.726336 -0.386335 0.474166 0.422504 -0.186081 -0.461882 -0.475833 1.229310 0.690927 -0.335953 0.172063 -0.268976 1.057232 -1.204283 0.561082 -1.017720 0.523371 -0.684245 0.224189 0.629029 -0.142241 0.847277 -0.113745 0.109210 -0.419157 -0.439666 -0.142877 0.076991 -0.478007 0.291900 -0.480672 0.922523 0.425816 0.608669 0.020881 0.588429 -0.082863 -0.267183 -0.427927 -0.088469 -0.026099 -0.325219 -1.374075 0.885779 -0.205743 1.483436 0.452550 1.042864 0.742371 -0.401728 0.394483 0.324299 -0.190336 1.158825 -1.191165 0.047851 -0.054475 -0.501632 -1.098642 -0.255037 0.159432 -0.436526 1.314131 0.401927 0.806894 1.191161 -0.347610
2O 0.464000 0.064805 0.352383 0.790157 0.216913 0.058472 -0.458113 0.550496 0.809122 -0.860557 0.911402 0.463638 0.369729 -0.330750 -0.390913 0.255519 1.315386 -1.180405 0.108843 -0.221917 0.183893 0.067424 0.439085 0.128528 0.001560 -0.021708 -0.385994 1.624556 0.470927 0.431573 1.477824 -0.621513 -1.835490 0.357926 -0.972169 0.253131 0.247268 0.938341 0.508179 -0.359385 0.728555 -0.985396 -1.510613 0.315348 -0.162949 0.065593 -0.298821 0.664888 0.164240 -1.712527 -1.005633 0.463392 -0.216894 -1.462222 -1.095376 0.594712 -0.798494 -0.060210 -0.716359 -0.859927 -0.014212 -0.285567 -0.613601 0.605599 0.408962 -0.749641 0.501799 -0.083757 0.171324 0.327274 0.909612 -0.410440 -0.070855 0.831959 -0.445431 -0.290416 0.465474 0.277666 -0.181857 -1.419822 0.414287 -0.673455 1.722196 1.171363 0.478005 -0.361235 -0.643373 0.570211 -0.714524 -0.936217 -0.168408 -0.287773 -1.285185 -0.141232 -0.302410 0.527384 -0.701106 0.224000 0.813886 -0.201843
。O 0.107882 -0.434479 -0.404635 0.199869 -0.191238 0.231874 -0.942618 0.380321 0.386677 0.054940 0.881498 1.186194 -0.258453 -0.683255 0.159091 0.500209 0.498160 -0.275122 -0.029332 0.026158 -0.620793 0.776838 -0.634156 -0.387526 -0.187344 0.625928 -1.100620 -0.109459 0.401693 0.474573 0.411004 -0.743538 -0.857671 0.280336 0.672289 -0.331895 0.693988 -0.342986 -0.341028 0.244722 -0.172769 -0.550948 -0.617780 0.343511 -0.097129 0.226717 -0.693833 0.611833 0.446591 -0.812956 -0.286742 0.760452 -0.516658 -0.536483 -0.515517 0.183215 -0.770903 0.056701 -0.058431 -0.279179 -0.755439 -0.258099 -0.218709 -0.192229 0.167012 -0.145453 0.483957 0.570047 -1.163019 -0.323582 0.972429 0.104574 0.195143 -0.022157 0.501750 0.291854 0.600532 -0.022930 -0.706322 0.456509 0.157792 0.625079 -0.438594 1.303774 -0.170512 0.211512 -0.074651 0.308166 0.302835 -0.475374 -0.664870 0.342703 -0.394231 -1.085929 0.349431 -0.610627 -0.701739 -0.034519 -0.271447 -0.901145
无O 0.163606 -0.679467 0.125228 0.444965 0.034826 0.620330 0.768907 -0.802936 -1.004411 -0.495760 0.437606 0.480187 0.104841 0.201615 1.474316 0.024828 0.072613 0.925672 0.224300 -0.561119 -1.810432 -0.365419 -0.087294 0.512233 -0.594677 0.262312 0.797984 1.481684 1.515123 -0.377107 0.253702 -0.105392 0.278657 -0.133361 0.734868 -0.015465 1.089669 -0.326227 -0.598707 -0.517699 -0.491746 -0.156050 0.177231 -0.481882 -1.110560 1.775817 -1.843531 0.797653 -0.099306 0.002624 -0.185070 0.620249 0.578947 -0.808002 2.102189 -0.358616 0.135956 -0.540684 0.246251 -1.012817 -0.202519 0.504047 1.247355 -1.188221 -0.637464 0.069988 -0.752979 0.212727 -0.362025 -0.743210 0.730205 0.427007 -0.363929 -0.351803 0.043068 -0.650756 0.731703 0.706616 0.719349 -0.625221 1.532491 -0.637296 0.203678 0.543045 -0.294782 -0.204613 1.315097 -0.810212 -0.273059 0.309607 0.234090 0.681677 -0.745712 -1.313925 0.783943 1.141095 0.756619 0.270221 0.905707 0.545726
）O 0.144633 -0.987922 0.328824 -0.291921 1.082921 -0.362002 -0.458336 0.545743 0.620168 -0.209734 -0.599480 0.236071 -0.370930 0.007761 -0.835285 0.539357 0.507084 -1.226279 0.935360 -0.562082 -0.201200 0.558181 0.325426 0.374864 0.709706 -0.057272 -0.093567 0.496599 0.774144 0.266812 0.075397 -0.794342 -0.261221 -0.175275 -1.554512 0.271193 -0.293907 0.019042 -0.550532 -0.523278 1.039124 -0.073216 -0.435497 -0.005971 -0.680253 -0.884245 0.769842 0.431737 -0.007314 -0.649774 -0.519367 0.072826 0.307276 -0.722373 -1.152952 -0.154041 -0.019753 0.032884 -1.027798 -0.041739 0.487925 -0.543740 -0.694410 0.257239 0.534569 0.192697 1.289124 -0.608209 0.535672 0.778167 -0.715414 -0.723003 -0.397207 0.244758 -0.621138 -0.287342 -0.303951 -0.366315 0.299428 -0.542806 0.212479 0.256280 0.117628 0.998381 0.686708 0.408632 -0.487297 -0.370699 -0.783006 -2.262042 -0.986605 -0.607229 -0.798874 0.386831 -0.042589 -0.093780 -0.175110 -0.118055 -0.323276 -0.287547
-O 0.360815 -0.098049 0.916953 0.806148 0.562055 0.181835 -0.282931 0.021703 1.175887 -1.048017 0.754640 0.212441 0.535396 -0.557957 -0.592103 -0.115444 1.753350 -1.409538 0.531507 -0.511552 0.305096 0.012728 0.751174 0.686160 -0.166131 -0.426228 -0.683868 1.797264 0.467724 0.870147 1.536470 -0.542717 -2.243451 -0.440966 -1.085702 0.460053 0.620269 0.972453 0.633235 -0.108276 0.883479 -1.510885 -2.055442 0.502550 -0.009418 -0.224250 0.252668 1.086933 0.229062 -1.871339 -1.237809 0.298917 -0.570444 -1.575074 -1.882729 1.041858 -0.862888 0.081099 -1.261357 -1.240316 0.881644 -0.300512 -0.385828 0.363306 0.336422 -0.578733 1.356347 -0.263933 0.227280 0.025717 0.525063 -0.791508 0.370165 0.828532 -0.473474 -0.408248 0.297614 0.356687 -0.128345 -1.305539 0.992205 -0.585064 1.438386 0.906379 0.206899 -0.265825 -0.153233 0.361445 -0.829250 -1.070338 -0.360628 -0.441437 -1.688396 -0.313407 0.072979 0.799953 -1.218761 0.305522 0.692280 -0.717319
（O 0.152360 -1.095756 0.180760 -0.429227 1.215980 -0.121542 -0.317497 0.370634 0.848952 0.037829 -0.621899 0.129835 -0.457573 0.056829 -0.903829 0.739255 0.900296 -0.994234 0.783517 -0.371919 -0.372645 0.797146 0.414399 0.151083 0.633456 0.344597 -0.708535 0.301117 0.521806 0.074975 0.510068 -0.553282 -0.970472 0.052739 -1.241046 0.428232 -0.488929 0.024760 -0.563559 -0.271231 1.131725 -0.106051 -0.856852 0.123055 -0.296730 -0.546442 0.866995 0.661473 0.106387 -0.539824 -0.783303 0.090150 -0.293214 -1.163607 -1.206191 -0.497539 -0.014912 0.241477 -0.786131 -0.051034 0.533523 -0.874342 -0.761620 0.621539 0.688939 0.127032 1.898457 -0.484728 0.572691 0.442407 -0.481288 -0.401346 -0.521089 0.540386 -0.090014 -0.469235 0.345460 -0.230012 0.257449 -0.254441 0.422889 0.282355 0.197594 1.129077 0.905087 0.441375 -0.240374 -0.381305 -0.565596 -2.425994 -1.259445 -1.069054 -0.629483 -0.380566 -0.225496 -0.065841 -0.782721 -0.184096 -0.388605 -0.746807
术O 0.595507 -0.666104 -0.133570 -1.130965 -0.660354 -0.095215 -1.312418 0.714782 1.411737 -0.842757 0.878029 -0.526540 1.159018 -0.563894 -1.361532 0.283409 0.375502 -0.602462 0.335217 -0.463553 -0.172681 1.378533 -0.481795 -0.401343 0.050128 0.320231 -0.380890 -0.656044 0.621226 1.023181 -0.287825 -1.283928 -0.925540 0.661535 -0.233063 -0.198557 -1.000207 0.736031 0.027082 -0.846247 1.187414 -1.479449 -1.149866 0.498182 0.703943 -0.326574 -0.828975 0.404147 0.684777 -1.818472 0.417769 -0.121245 -1.551971 -0.121271 -0.147560 0.773441 -0.049802 -0.070740 1.330058 -0.306386 -0.874137 0.493431 -0.518391 -0.394811 -0.211928 -0.106570 -0.911315 0.572125 -1.363208 1.142265 0.365965 0.041035 1.034672 0.108264 0.788565 0.599743 -0.938720 0.076068 -1.520145 -0.532975 0.032788 0.797005 0.133197 1.085436 0.719528 0.407044 0.173924 0.686786 -0.857517 -1.719770 -1.141997 -0.684945 -1.000769 0.074547 1.121809 -1.291383 -1.002814 -1.371990 0.723528 -0.582171
院O 1.497847 0.951523 1.071258 0.395785 -1.236072 0.972042 -1.261364 -0.453492 0.830526 -0.462198 1.729127 1.214057 -0.076072 -0.337208 0.168514 -0.848224 1.085348 0.043415 -0.251146 0.153254 -1.119576 0.501257 -0.149874 -0.490829 -0.318839 -0.064743 0.653606 0.736166 0.120819 1.812122 1.458406 0.624244 0.146047 0.368244 -0.035245 -0.131747 1.750613 0.893994 1.106914 0.597965 -0.370028 -2.807654 -1.074471 -0.246283 1.240984 0.110585 -0.014031 0.627516 1.523749 -1.455482 0.744614 0.452160 -1.975677 -1.131040 -1.532484 1.554806 -0.850064 -0.455538 0.510504 -1.277806 0.142036 0.771197 -0.115058 -0.037389 -0.931167 -1.004231 -0.386915 0.464918 -0.983451 -1.369162 0.820377 0.551743 0.569234 -0.352447 -0.499946 0.975082 0.404822 0.453901 -0.336564 -1.778668 0.258238 -1.305558 1.004807 1.059303 -1.005557 0.122794 -0.430352 0.964355 0.309011 -0.188081 0.480531 0.401809 -0.061179 0.095853 1.134058 0.150483 -0.530029 -0.783081 0.770446 -1.442832
后O 0.339957 0.727345 -0.040387 -0.295867 -0.984027 0.471759 -0.712074 0.824611 0.295022 -0.342346 1.069912 0.408526 0.994995 -0.702360 -0.671760 -0.063077 0.168216 -0.383607 -0.529023 -0.046046 -0.382339 0.908240 -1.140240 -0.375249 -0.720040 -0.020291 -0.814905 0.347076 0.978314 0.551710 0.774139 -0.995834 -0.609777 0.200922 -0.112991 -0.456604 -0.168212 0.337233 -0.317634 -0.359748 0.497449 -1.181109 -0.870008 0.410734 0.729444 0.502931 -0.838261 0.464022 0.291607 -1.013993 0.435661 0.153460 -1.083122 -0.433591 0.095424 0.196741 -0.549927 0.375485 1.185285 -0.197270 -1.182571 0.156912 -0.579538 -0.359518 -0.017468 -0.413342 -0.812376 0.943235 -1.241960 0.059661 0.745129 -0.221226 0.910448 0.090815 0.520752 0.665395 -0.021518 0.182802 -1.292482 -0.470289 0.392891 0.186891 -0.074201 1.240853 0.535938 -0.068029 0.240439 0.619653 0.082175 0.354379 -0.562056 0.127204 -1.045255 0.349785 0.487087 -0.469919 -0.844240 -0.915529 0.322021 -0.971320
疗O 0.344658 -0.231934 0.822417 -0.053722 -1.094922 1.337805 0.274085 -0.353029 0.233182 -0.197484 1.827972 0.031183 -0.302344 -0.472163 -0.010841 -0.543339 1.869278 0.115841 0.164073 0.188874 -0.842846 -0.197415 -0.530479 -0.003086 -0.969238 0.082463 0.487762 1.046321 1.516911 0.359850 0.601402 -0.792172 -1.052460 -0.144636 0.764372 -0.604808 1.804794 0.237964 -0.356314 0.409486 -0.849320 -0.990973 -1.369247 0.324169 0.801300 -0.188242 -1.846714 0.860756 -0.073618 -1.387908 0.357853 0.528852 -1.432956 -0.577747 -0.503617 1.121780 -1.107890 -0.118629 0.742737 -1.394434 0.086776 0.346255 -0.461642 -1.332038 0.055805 -0.484748 0.035560 -0.468123 -1.974532 0.202714 1.145947 -0.831280 0.823618 -0.826718 0.171942 0.461042 1.263969 -0.391473 -0.736050 -1.152032 1.458244 -0.032969 0.126528 1.292643 0.102428 0.428217 1.780794 0.978829 -0.660704 -0.412502 -0.418290 0.297678 -0.296689 0.718374 1.296978 -0.272633 -0.841715 -0.599219 -0.567887 -2.904128
化O 0.617633 -0.287546 -0.034545 -0.260155 0.008715 0.862188 0.169651 0.591080 0.017484 0.068396 1.669734 -0.749662 -0.502691 -0.015532 -0.339226 -0.043339 1.728499 -0.313408 0.230742 -0.488469 -0.898495 -0.071591 -0.965651 -0.395746 0.058055 -0.426199 0.297481 0.752962 1.020816 0.127115 0.386612 -0.990460 -0.939992 0.368679 0.337313 -0.748986 1.081937 -0.018118 -0.290440 0.850770 -0.797869 -1.082530 -1.052838 1.159144 0.426264 -0.307210 -0.744871 0.797686 0.132831 -1.740909 -0.193319 0.287680 -1.758980 -0.252809 -0.089318 0.642029 -0.793916 0.438470 0.197154 -1.042361 -0.224116 1.172585 -0.097215 -1.341791 -0.374650 -0.556593 0.860136 0.077856 -1.616061 0.453726 0.546084 -1.225250 0.286774 0.159413 -0.523088 0.258878 0.834428 -0.682565 -0.133374 -0.214561 1.520153 0.319667 0.303486 0.765094 0.111871 0.654018 1.124187 0.693807 -0.707306 -1.135469 -1.075022 0.251524 -0.705120 0.609315 -0.052236 -0.512630 -1.073897 -0.102966 -0.719643 -1.699301
+O -0.582630 -1.239354 0.396207 -1.134499 1.016562 -0.625704 -0.335807 0.448869 0.634184 -0.446506 -1.278852 -0.122116 -0.793213 0.594579 -0.531609 0.211804 0.783094 -0.340022 0.842396 -0.340519 -0.207682 0.991085 0.545532 1.527961 0.927010 0.202344 -0.539509 0.398420 0.415716 0.295492 -0.332793 -0.064932 -0.842831 -0.844418 -1.602286 1.806741 0.464456 -0.124049 0.065868 -0.031487 1.952516 0.320230 -1.015064 -0.928201 -0.572638 -0.554422 0.761582 0.200165 -0.918717 -0.233876 -1.274327 -0.194722 -0.434229 -0.468673 -1.111764 0.477832 0.515801 0.578256 -0.580673 -0.701843 0.744877 -1.186834 -0.889765 0.467146 -0.131421 1.080930 1.350405 -1.242950 1.838229 0.842519 -1.755441 -0.474826 -1.191330 1.076034 1.133315 -0.024008 -1.027484 0.975798 -0.187825 -0.169162 -0.031421 0.228414 0.327745 0.686680 0.620480 0.064658 0.255307 -1.217696 -0.505949 -1.496776 -0.980293 -2.201192 -0.988394 0.079601 0.280524 0.536988 -1.293190 0.049009 1.312730 -0.110923
患O -0.099936 0.570685 -0.625004 -0.704942 -2.033547 -0.520074 -0.312630 -0.544623 -0.345860 -0.445037 1.273804 2.031478 0.867977 -0.418042 0.780219 -0.329962 0.411194 0.023413 0.021048 0.257336 -1.275244 0.775526 -0.222169 -0.892513 -0.566679 -0.095558 -0.377736 0.850185 1.308756 1.139321 1.042865 -1.266590 -0.197619 0.633135 -0.090091 0.041382 1.121258 0.405911 -0.044507 0.359925 -0.546100 -1.811136 -0.166245 -0.869442 -0.169056 1.000747 -1.566708 0.329681 0.182942 -2.068239 -0.520011 1.566117 -1.360880 -1.134348 0.249359 0.567679 -0.073931 0.128942 0.768072 -1.261340 -0.345846 -0.147633 -1.108034 0.387203 -1.174457 -1.287599 -0.346504 0.220681 -0.886771 -0.133694 1.621703 -0.056402 0.084847 -0.310985 0.628995 0.080861 0.281729 0.181537 -0.701944 -1.187756 -0.674165 -0.568277 0.245378 1.698902 -1.136034 0.078523 1.024132 0.626116 -0.201541 0.893083 0.710187 -0.463821 -0.985315 -1.046976 0.943192 0.934665 -1.081479 -0.792209 0.563258 -1.017248
5O 0.444572 -0.034228 0.168767 0.507739 0.657421 0.227780 -0.171557 0.681583 0.723778 -0.647688 0.441712 0.494853 -0.057913 -0.081280 -0.148095 0.501953 1.237336 -1.048021 0.368739 -0.188985 -0.284228 -0.064536 0.559214 0.336562 0.307182 -0.136978 -0.238553 1.583370 0.459727 -0.186688 1.589269 -0.308074 -1.884450 0.335840 -1.123541 0.479857 0.707091 0.529625 0.387710 0.042172 0.392378 -0.432942 -1.204364 -0.020090 -0.538193 -0.046499 -0.269764 0.534387 -0.050826 -1.461918 -1.270872 0.386724 0.005167 -1.526690 -0.982442 0.284527 -0.640600 0.032135 -1.258621 -0.847600 -0.089801 -0.644336 -0.570257 0.922466 0.166387 -0.435256 0.564023 -0.158501 0.722766 0.418905 0.532163 -0.544878 -0.556639 1.042000 -0.122757 -0.648842 0.381609 0.579706 0.211144 -1.110327 0.237343 -0.860435 1.790687 1.263188 0.338771 -0.273030 -0.794872 0.235703 -0.687441 -0.938538 0.176956 -0.622614 -0.955588 -0.297657 -0.685429 0.434640 -0.681138 0.334455 0.389089 -0.255245
者O 0.329404 0.508001 -1.125731 0.055808 -1.044221 0.335185 -0.001529 0.138271 0.113241 -1.195605 1.020439 1.707362 0.326708 -0.646860 0.776223 -0.091135 1.067705 -0.436332 0.220159 0.943060 -1.347928 1.104005 0.260931 0.442390 -0.179971 0.967281 -0.283361 1.073475 1.215003 0.962233 0.706105 0.400018 0.134486 0.018603 -0.375278 0.200220 1.241559 -0.439349 0.038953 0.135655 -0.421641 -2.461509 -0.855778 -0.892471 0.545355 1.411056 -1.260203 0.334890 0.242120 -1.020100 -0.887465 1.484660 -1.181424 -1.174471 0.489412 1.438962 -0.360709 -0.592159 0.813521 -0.723680 -0.726064 0.768717 -0.542677 0.918492 -0.506256 -0.174864 -0.419740 0.170392 -0.784597 -0.612437 1.121108 0.283300 -0.243289 -0.672681 1.033033 1.128154 -0.215364 0.799858 -0.128267 -0.368030 0.217908 -0.233584 0.994546 1.870045 -0.948885 -0.179003 0.976273 1.275680 0.341622 1.490340 -0.592013 0.609861 -0.525911 -0.921777 1.036932 0.496688 -0.592572 -0.831139 0.250315 -1.367439
4O 0.306882 0.129308 -0.156789 0.501773 0.023434 -0.208000 -0.510397 0.392882 0.639760 -0.488695 0.639650 0.740566 -0.007046 -0.087181 -0.218294 0.058864 1.115463 -1.235456 0.290552 0.083167 -0.207643 0.106637 0.555966 0.286695 0.269333 0.063777 -0.374249 1.222083 0.339951 0.387425 1.466341 -0.497967 -1.327625 0.133385 -1.057153 0.245656 0.835074 0.729535 0.539791 0.117213 0.603577 -0.787226 -0.931471 -0.014266 -0.036980 -0.202908 -0.287050 0.455243 -0.110801 -1.511748 -1.014019 0.649533 -0.351632 -1.235027 -1.104899 0.865089 -0.693489 -0.044324 -0.860008 -0.883874 0.117906 -0.510709 -0.928197 0.833400 0.342238 -0.822884 0.839797 0.048668 0.115724 0.108573 0.809184 -0.583332 -0.222851 0.823779 -0.253737 -0.353499 0.456511 0.166956 0.077932 -1.115677 -0.025801 -0.253004 1.514806 1.330548 0.148352 -0.365634 -0.344239 0.497106 -0.457534 -0.830930 -0.083867 -0.570396 -0.705787 0.106241 -0.408140 0.602076 -0.835328 0.158263 0.743521 -0.841792
.O 1.075803 0.804773 -0.345811 0.761794 0.704765 0.370140 -0.763114 0.324364 0.476631 -0.381286 0.489107 0.151589 -0.059174 0.143031 -0.300214 0.410809 0.999185 -0.777654 0.057545 -0.281854 0.014059 -0.541618 0.250410 0.619970 0.087406 -0.209460 -0.281274 1.820537 -0.305675 -0.485615 1.826911 -0.432673 -1.700842 0.522226 -1.601492 -0.130611 1.011368 0.770557 0.769759 0.052062 0.837703 -0.237760 -1.020365 0.366281 -0.202660 -0.017392 -1.137865 0.674616 -0.656287 -1.281870 -0.877127 -0.567810 0.269695 -1.822694 -0.716165 0.464335 -1.096471 -0.083720 -0.976338 -0.403005 -1.447073 -0.734157 0.371863 1.500746 0.494542 -1.067674 -0.130470 0.375653 0.981677 -0.404546 0.515878 -0.077612 -0.329636 1.647390 -0.563892 -1.028038 0.311611 0.518046 0.464842 -1.357986 -0.127973 -1.015844 2.784832 1.031081 1.045083 -0.111286 -1.166066 0.825106 -1.025996 -1.274784 0.530910 -1.271091 -0.613130 -0.230355 -0.873203 1.024135 -0.403286 0.711013 1.060012 0.095126
3O 0.342555 -0.152238 -0.107780 0.373994 0.540452 0.101338 -0.148572 0.445791 0.521457 -0.369736 0.285852 0.518921 -0.310006 -0.030361 -0.064675 0.401020 0.944347 -0.846258 0.403164 -0.010381 -0.203531 0.000340 0.526395 0.230489 0.302975 0.025228 -0.182248 1.150717 0.487281 0.023204 1.064938 -0.247059 -1.382481 0.199357 -0.813491 0.450001 0.701249 0.375650 0.197138 0.100916 0.251219 -0.288850 -0.780644 -0.045745 -0.411972 -0.099914 -0.272972 0.467744 -0.060425 -1.107374 -0.993981 0.488480 -0.065678 -1.234372 -0.872409 0.262131 -0.496982 0.044595 -0.960027 -0.792950 0.112978 -0.290791 -0.554478 0.697076 0.323038 -0.461292 0.850539 -0.278123 0.371822 0.090282 0.426695 -0.335323 -0.460106 0.691318 -0.296043 -0.545935 0.661902 0.139250 0.262815 -0.877086 0.243040 -0.556198 1.295534 1.120099 0.417242 -0.233996 -0.435217 0.276097 -0.451324 -1.055891 -0.166813 -0.333402 -0.629625 -0.200584 -0.525029 0.518295 -0.573723 0.419975 0.325495 -0.329420
行O 0.225521 0.464876 1.131043 0.111577 -0.464447 0.378256 -0.700999 -0.216572 0.804078 -0.117304 1.112289 -0.083833 0.141151 -0.189733 0.425211 -0.652164 -0.015544 0.436902 -0.026807 0.618585 0.030658 -0.610516 -0.161204 1.191869 -0.150675 -0.033718 -0.059061 -0.462194 0.182910 0.914608 0.164023 0.717622 -0.960470 0.630194 -0.460704 0.301112 1.373249 1.180222 1.172892 0.278385 -0.668979 -1.160183 -1.137149 0.476745 0.790131 -0.619652 0.149402 0.619275 0.734495 -1.381837 -0.164444 0.842178 -1.189394 -0.628285 -2.214761 0.752930 -1.253306 0.262615 0.393665 -1.196021 0.405102 0.582163 0.298232 -0.859046 -0.859578 -1.002956 0.644796 -0.961443 -0.648803 -0.717554 -0.023797 -0.519803 0.605387 1.079739 -0.756321 0.382715 0.452861 0.052403 -0.504265 -0.936321 0.451323 0.386188 0.711537 -0.381103 -0.349997 -0.331320 -0.818736 0.475585 0.365903 -0.759540 -0.359737 -0.019538 -0.514512 -0.161800 1.289893 0.614779 -1.088531 -0.394980 0.781514 -1.021004
腹B -0.183605 -0.000680 0.942371 0.442786 -0.370465 0.236925 -0.044266 -0.289124 0.753372 -0.892601 0.323901 0.488351 1.404040 -0.421301 0.980312 -0.489677 -1.444356 0.266557 0.196395 -0.462115 -0.582150 -0.218986 0.043991 1.997538 -0.162326 0.668188 0.450383 0.418183 1.065890 0.288973 -0.281544 -0.059041 0.370134 -0.725365 0.048181 0.083372 0.183707 0.570758 0.520740 -0.965065 1.080643 -1.069237 0.214401 -0.138403 -0.621965 1.074093 -1.123071 0.719940 0.728735 -0.345782 0.034537 0.144562 0.853883 -1.244603 0.762352 -0.413572 0.330298 -0.681955 0.057179 -0.302349 -0.078034 0.730689 1.243019 -1.108091 0.131732 -0.358585 -0.462316 0.720840 -0.550181 -1.088544 0.104815 0.472017 0.940760 0.567325 -1.061973 -0.162047 -0.209050 0.740974 -0.191101 -0.901487 1.387606 -0.386228 -0.295117 0.054628 0.076683 -0.630371 -0.533588 -0.770340 0.497641 -0.414975 -0.136823 0.677710 -1.022747 -1.374851 0.719791 0.859378 0.794891 -0.202373 1.788133 1.491982
见O 1.108305 -1.206328 1.010528 0.348650 0.981782 0.393065 -0.300700 0.581028 1.477841 0.545941 0.118074 0.693239 -0.441184 -0.502661 0.117701 0.285400 -0.461128 -1.274272 0.918816 -1.317199 -1.519906 1.148686 -0.717754 1.005601 0.925471 0.864747 0.106436 0.529862 0.432035 -0.314042 -0.246825 -1.083459 0.309385 -0.196712 -0.484121 -1.032049 -0.699357 -0.301346 -0.339480 -0.107383 0.255841 -0.157434 -0.226795 0.539954 -1.177126 -0.644397 0.122297 0.675959 1.835342 -0.428284 0.996904 -0.280642 1.678856 -1.142128 0.094404 -1.546285 0.003370 -0.453882 -1.518267 0.839022 -0.892093 -0.856573 0.789560 0.264342 0.813665 0.343229 0.241086 0.969614 -0.719096 -0.104731 -0.272657 -0.100175 0.527923 0.154548 -0.078356 -0.502605 -1.018995 0.712756 -0.143238 0.376653 0.251616 -0.385862 -1.569385 1.278148 -0.543520 1.050889 -0.699434 -0.651862 -0.437059 -2.499390 -0.710428 0.676355 -0.520093 -2.765933 0.243248 -1.554219 1.109145 -0.069012 -1.245094 0.445298
于O 1.392496 0.504489 0.242128 1.007938 -0.193564 0.034896 -1.610510 -0.530467 0.827317 -0.522119 0.922356 0.579913 0.122605 -0.538924 0.323238 0.182024 0.586467 -0.728737 -0.204504 0.124273 0.373516 0.749734 1.047122 -0.178008 0.105728 0.048287 -0.458784 1.040617 0.279987 0.853036 1.009698 0.156875 -1.340820 0.262305 -0.275268 0.059044 0.541205 1.172530 1.533064 -0.125785 -0.041073 -1.715458 -1.281037 0.382642 0.148700 -0.259225 0.032149 0.775587 0.914363 -1.003394 0.020200 0.298556 -0.998453 -1.126406 -1.426057 0.541382 -0.600237 0.147311 -0.367808 -0.658103 0.545366 0.647463 0.342571 0.761012 -0.280593 -1.500858 0.164072 -0.131095 -0.122459 -1.272782 0.954886 -0.029944 0.513704 0.988535 -0.065675 0.038609 0.471448 0.861890 -0.473212 -1.048188 0.098039 -0.866551 0.996303 0.616667 -0.146314 -0.414184 -0.925999 0.893984 -0.218973 -1.018153 0.147853 1.030477 -1.215258 -1.218583 0.273501 0.184042 -0.996626 0.471641 0.525618 -0.127775
MO 0.204907 0.400361 -0.322630 -0.440136 1.014164 -0.285044 0.063409 0.901831 0.403208 -0.075023 -0.652213 0.112100 -1.061162 0.880590 0.279713 0.626585 1.237751 -0.757912 0.333568 -0.137909 -0.609258 -0.235107 0.341583 0.804938 1.218813 -0.346251 -0.190217 1.192621 -0.056881 -0.968539 1.186572 -0.065850 -1.315270 -0.276417 -0.876196 0.430118 1.552299 0.106830 0.433184 1.154003 0.306442 0.512822 -1.211895 -0.475516 -1.148664 -0.566737 -0.941438 0.028851 -1.525935 -0.360475 -1.107218 -0.829876 0.298023 -0.605440 -0.452038 0.654348 -0.524247 0.866630 -1.822495 -0.345101 -0.081524 -0.960667 -0.851244 1.101737 -0.195275 0.090375 0.389668 -0.187785 1.395707 0.495547 -0.856133 -1.211731 -0.866934 1.404874 0.880626 -0.600686 -0.455578 0.727181 0.286358 -0.177434 -0.296368 -0.588417 1.783906 0.719681 0.081473 0.005761 0.227400 0.049902 -0.936647 -0.141093 0.921511 -1.668653 -0.404776 0.700323 -1.014108 -0.394923 -1.383575 1.256679 -0.038215 -0.288692
6O 0.000032 -0.123464 -0.157141 0.741776 0.451167 -0.059066 -0.579790 0.685807 0.523160 -1.032682 0.463386 0.487916 0.224124 -0.079292 -0.409552 0.669587 1.466934 -1.162881 0.274566 -0.232976 0.032106 0.318992 0.504891 -0.020786 0.103187 0.213493 -0.702538 1.475155 0.383050 0.407254 1.587095 -0.674935 -1.866787 0.491035 -1.247370 0.578067 0.187114 0.821322 0.237906 -0.260609 1.086966 -0.978274 -1.429927 0.157489 -0.487554 0.012144 -0.029495 0.571653 -0.111593 -1.570552 -1.277465 0.639159 -0.306831 -1.593294 -1.118324 0.505120 -0.592443 -0.032659 -0.678666 -0.787162 -0.235977 -0.682217 -0.808396 0.783774 0.487133 -0.672455 0.707139 -0.028058 0.640941 0.478362 0.842523 -0.346721 -0.520610 0.764393 -0.087427 -0.344062 0.463365 0.230648 0.184998 -1.217977 0.258388 -0.327883 1.844653 1.292241 0.674128 -0.375868 -0.807400 0.535553 -0.644027 -1.142501 -0.361765 -0.891104 -1.362831 -0.068221 -0.273956 0.460503 -0.965092 0.065808 0.709292 -0.396624
诊O 1.602494 1.990029 0.329600 0.243625 -0.814933 0.312099 -2.344566 -1.236394 0.032019 0.162645 0.909193 0.369820 -0.480931 -0.041415 0.274514 -1.054027 0.849867 0.281312 -0.449093 0.852336 0.099806 -0.572879 0.351117 0.896927 1.084594 0.062667 1.655301 1.262244 -0.677359 1.010503 0.036839 0.887763 1.402383 -0.080735 -0.462207 -0.410922 1.037137 1.649007 1.241673 0.999490 -0.194058 -2.347470 -1.100838 0.291768 1.327330 -0.531055 -0.148912 0.389028 1.138436 -0.097559 1.750263 -0.572010 -1.637637 -1.472442 -1.836995 0.529342 -0.026728 0.279686 0.995030 -0.809831 0.062039 1.974470 -0.150528 -0.112438 0.064043 -2.098443 0.519218 -0.713776 -0.511660 -2.643070 -0.649245 0.611457 1.347860 -0.254423 -1.046824 1.620182 0.763103 -0.048135 0.780269 -2.509327 0.220059 -1.642481 1.271322 0.142412 0.111639 0.286283 -0.372907 1.507725 0.399269 -1.143643 -0.171934 1.378731 0.000193 0.625162 0.756745 0.519154 -0.743507 -0.054828 0.182920 -1.289403
病O 0.954159 0.581242 -1.633600 0.069783 -1.327750 -1.079819 -1.561748 1.001429 -0.026066 -0.044777 1.089814 1.084493 0.612746 -0.538420 -1.281064 0.385961 0.572302 -0.774804 -0.207780 -0.481222 -1.346671 1.648741 -1.204818 -0.980157 0.715463 0.973724 0.080357 -0.090872 -0.040850 1.302250 0.353300 -1.613164 1.061811 0.429616 -0.763288 -0.627798 -1.039012 0.464784 -0.352950 -0.483523 1.603392 -1.314524 -0.317261 0.062916 0.889497 0.390376 -0.496475 -0.106498 -0.215790 -0.990355 0.718807 0.209908 -1.020270 -0.837633 0.581796 0.525691 0.055881 0.095708 1.803964 0.697686 -1.235846 0.674755 -1.790972 0.907435 1.214704 -0.597049 -0.433295 1.420484 -1.116417 0.262940 0.667683 0.550251 0.347566 -0.533380 0.609689 0.923873 0.091516 -0.066906 -0.375049 -1.044243 -0.146355 0.430847 0.746822 1.800674 0.572962 0.058148 1.103677 1.023375 -0.545854 -1.516839 -1.477490 -0.389113 -0.477139 0.796113 0.699899 -0.823806 -0.536863 -1.414585 0.726467 -1.279270
“O 0.444437 1.051713 -0.215400 -0.138726 -0.065581 -0.344376 -1.836846 -0.540822 0.191802 -0.161586 -0.070812 0.140188 0.129873 0.311544 -0.382874 -0.144545 -0.125373 0.258554 -0.078007 0.660654 0.882016 -0.413658 0.459595 0.580766 0.496505 -0.090655 -0.165860 0.292661 -0.482663 0.905508 0.188294 1.022067 -0.235869 -0.066100 -0.454139 0.786825 0.565164 0.993180 0.535724 0.299361 0.891591 -1.024805 -0.969534 0.154321 0.752996 0.196965 -0.118987 0.247409 0.581760 -0.244366 0.130439 -0.310041 -1.295789 -0.680547 -1.380943 0.688559 -0.227289 0.176968 0.297499 -0.906324 -0.521859 0.555524 0.168163 0.141456 0.038701 -0.511850 0.325413 -0.501497 0.120030 -1.207794 -0.928897 0.784380 0.511357 0.633274 -0.867050 0.577877 0.274887 -0.261110 0.235927 -0.726953 -0.460590 -0.182910 0.975841 -0.200507 0.597971 -0.302875 -0.891366 0.599165 0.469211 -0.257415 -0.070485 -0.150919 -0.405609 0.169627 0.427426 0.910112 -1.053142 0.302638 1.170622 0.449445
”O 0.946895 -0.079280 0.208574 -0.238376 -0.173640 0.334319 -1.904807 -0.109258 0.634583 -0.114187 0.312721 0.256800 -0.141274 -0.239107 -0.556579 -0.052866 0.749540 -0.141117 -0.175197 -0.152409 0.046390 1.146597 -0.006971 -0.337006 0.116757 -0.309823 -0.234091 0.455105 0.301995 1.086402 0.391445 -0.062274 -0.757037 -0.118442 0.180807 0.277014 0.679639 0.692920 0.268697 0.044110 0.200902 -1.014005 -0.606011 0.231502 0.627423 -0.273804 0.077176 0.442129 0.504353 -0.913012 0.374674 0.029134 -1.577738 -0.374898 -1.355700 0.728543 -0.331917 0.354294 0.398614 -0.950428 -0.089952 0.059832 0.183487 -0.034262 -0.447329 -0.531408 0.266076 0.089730 -0.588071 -0.836685 0.225993 0.386167 0.599253 0.307160 0.257846 0.722955 0.313171 0.167089 -0.949482 -0.464955 -0.111259 0.002494 0.475320 0.528644 0.646840 -0.055476 -0.563075 0.661638 0.115854 -0.378385 -0.240385 0.353074 -0.732183 0.273195 0.549329 0.064738 -1.081059 -0.275057 0.554807 -0.801297
IO -0.505077 0.223380 0.036011 -0.536895 1.126840 0.594684 -1.287235 0.957031 -0.095389 -1.657886 -1.214135 -0.241068 0.349310 0.534331 -0.327571 1.724754 2.194357 -1.109625 0.466172 -0.296965 -0.186900 0.302385 0.393051 -1.216125 1.924093 -1.146322 -0.079849 1.033488 0.853526 -0.244256 1.182222 0.077955 -1.370390 -0.327923 0.599275 1.122106 0.278085 0.487886 -0.941931 0.831256 0.028953 -1.884011 -2.404381 0.130218 -1.544727 -0.646433 0.055324 0.057130 -0.023638 -0.313141 -0.235009 -0.601712 -1.780437 0.158615 -1.148433 0.710754 0.392467 0.997050 -2.323463 -1.217586 1.006132 0.145124 -1.094262 -0.882017 -1.160268 0.306288 0.682918 0.366378 0.676145 1.000212 -0.710518 -1.310248 0.013334 -0.258999 1.128149 0.590977 -0.849566 -0.239601 0.183294 0.402087 0.578337 -0.030722 0.660724 0.870424 0.511016 0.278095 -0.156509 -0.665022 -1.015972 0.565543 0.863322 -0.489444 -2.182637 1.949432 -0.361691 -1.941501 -2.221429 0.590190 -1.507287 -0.851169
：O 0.337673 0.060129 -0.566999 -0.624685 1.172628 -0.335738 -1.206902 0.824153 0.580030 -0.036800 -1.316489 0.162475 -0.281560 0.381341 -1.191456 0.997634 -0.014003 -0.972454 0.385973 -0.145244 -0.324958 0.652918 0.062209 0.343640 1.264846 0.540444 -0.299270 -0.562136 0.197552 0.283321 0.135454 -0.468030 0.159756 0.100225 -1.836259 0.232304 -1.285550 0.685658 -0.479284 -0.520673 1.725120 -0.431466 -0.299843 0.214323 -0.291311 -1.136320 0.099941 0.202472 -0.530312 0.019927 0.169138 -0.721354 0.345818 -1.322754 -0.786700 -0.409575 -0.069091 0.002485 0.089013 0.731355 -0.270536 0.125267 -1.189025 0.655026 1.410243 -0.706895 1.405429 0.101139 0.583839 -0.082142 -1.017246 -0.057762 -0.010760 0.080290 -0.396116 0.421569 -0.052236 -0.904327 0.307089 -0.922466 0.497110 0.349206 0.870752 0.725812 1.592674 0.162441 -0.720771 0.369576 -0.524667 -3.114847 -1.512727 -0.961775 -0.326885 1.136570 0.295285 -0.742196 -0.691831 -0.255505 -0.214479 -0.091311
明O 0.865857 -1.094364 0.366344 0.038797 0.369746 1.743316 -0.044451 -0.035733 0.002900 -0.579096 0.670396 0.630841 -0.420113 -0.399179 1.390763 0.792507 -0.715817 0.822464 0.513140 -0.729730 -2.579549 0.999395 -0.578571 0.106936 -0.242704 0.653759 0.602463 0.709316 1.923376 -0.020154 -0.405491 -0.061926 0.100141 0.620308 1.138290 -0.557645 0.881665 -0.264079 -0.674161 -0.861650 -1.046016 -0.349307 0.541426 -0.310723 -1.591321 1.123091 -1.805735 0.644265 0.911630 -0.634137 0.430797 0.217053 0.650328 -1.180525 1.645978 -1.250938 -0.097277 -0.088209 0.535770 -0.987735 -1.485878 0.632601 1.564344 -1.471852 -0.856750 0.446704 -0.977223 0.579582 -1.027515 -0.998776 0.881965 1.473985 -0.411216 -0.448874 0.666631 -0.025896 0.729989 0.655549 -0.135428 -0.167632 1.006832 -0.915384 -0.285497 0.794405 -0.287658 0.263977 0.164912 -0.176927 -0.152342 -0.829787 -0.416078 1.440176 -0.520831 -2.375217 1.500446 -0.055507 0.486865 -0.491101 -0.297686 0.839016
未O 0.237632 -0.873228 0.918618 0.320747 0.596442 0.898224 0.002118 -0.019265 0.858472 0.179225 1.102532 1.023498 -0.824975 -0.520170 0.286349 0.232985 0.005699 -0.056226 0.873273 -0.612654 -1.815933 0.690726 -0.904601 0.391437 0.300300 0.984395 0.160358 0.096354 0.348072 -0.071985 -0.384193 -0.740102 0.514053 0.146675 0.408183 -0.774515 -0.245109 -0.360821 -0.014943 0.150197 0.359410 0.312657 0.223536 0.113290 -0.723756 -0.173513 -0.505657 -0.078349 1.834053 -0.544369 0.712839 -0.072832 0.953001 -0.989059 0.144892 -1.267648 -0.408166 -0.402706 0.042146 -0.007022 -1.070913 -0.695295 0.882209 -0.623311 0.950390 0.870207 0.099850 0.714105 -0.472883 0.202811 0.189987 1.139535 -0.210595 -0.763364 0.143192 -0.510824 0.080065 0.587655 -0.120136 0.151386 0.351067 -0.736348 -1.272113 1.082971 -1.000494 0.836972 -0.308991 -0.245704 -0.008399 -1.493660 -0.996293 0.742947 0.030339 -2.361480 0.521693 -1.219319 1.076945 -0.807867 -0.537773 -0.029710
癌O 0.628543 -0.798476 1.273905 0.154389 1.239153 0.258042 -1.104725 0.287057 1.723295 -0.061765 0.115311 1.062514 -0.679414 -0.694198 -0.664336 0.654833 0.128140 -1.876828 1.067911 -1.132794 -1.478315 1.030607 -0.340795 0.324471 1.693245 0.179057 0.010352 0.609715 0.311650 0.098778 0.349242 -1.132033 0.628996 -0.379646 -0.739655 -0.888971 -0.965840 0.337750 -0.099128 -0.146350 0.939931 -0.744780 -0.652686 0.626537 -1.184578 -1.374004 0.815654 0.495712 2.014101 -0.721120 0.772755 -0.585194 0.986901 -1.047542 -1.020304 -1.106269 0.070906 -0.308051 -1.823708 0.320854 -0.024849 -1.141832 0.341294 0.109344 1.002951 0.444872 1.349909 1.280037 -0.253473 0.323941 -0.701785 0.183923 0.434912 -0.108573 -0.298327 -0.194659 -0.949755 0.408103 -0.098825 0.018787 0.025905 -0.782927 -1.296230 1.640881 -0.734471 1.275717 -1.292399 -0.471645 -0.595376 -2.606159 -0.677028 0.750781 -0.777574 -1.450107 -0.137464 -2.165652 0.745430 -0.426965 -1.344962 -0.242900
显O 0.702413 -1.433506 0.194791 0.213189 0.626400 1.483290 -0.011247 -0.022450 -0.261200 -0.148009 0.466438 0.576787 -0.413871 0.192417 1.600669 0.763532 -0.577022 1.072492 0.406185 -0.927927 -2.476860 0.838426 -0.926370 0.125005 -0.210508 1.047723 0.716095 0.670833 1.897763 -0.147914 0.466322 -0.447706 -0.157166 0.347241 0.993043 -0.618584 1.152537 -0.602041 -0.588022 -0.614123 -0.682619 0.140183 0.803513 -0.085364 -1.349853 1.005080 -1.702707 1.012203 0.573595 -0.701569 0.104859 0.963215 0.726846 -1.269198 1.533529 -0.890177 -0.354463 -0.346166 0.683245 -0.962421 -1.461624 -0.132603 2.040992 -1.415023 -0.397313 0.105663 -0.625211 0.951031 -1.402207 -0.855885 0.748443 1.402842 -0.340834 0.176684 0.008702 -0.656886 1.078606 0.976978 -0.182508 -0.232303 1.546248 -0.104021 -0.390779 0.837315 -0.406792 -0.045872 -0.249943 0.031512 -0.172142 -1.289841 -0.662979 0.840121 -0.948500 -2.162278 1.383923 0.012923 0.835981 -0.352445 0.144842 0.581332
可O 0.329405 0.569395 -0.547090 -0.331746 -0.056475 -0.473518 0.173172 -0.263153 -0.328208 0.038734 0.768042 0.957661 0.443533 -0.190903 0.485167 0.428933 -0.557910 -0.644502 -0.353929 0.513068 -0.810239 0.052886 -0.232071 0.065132 0.106122 0.234324 0.353374 0.213702 0.566143 -0.463811 -0.409574 0.002491 1.590289 0.514105 -0.672970 -0.478583 -1.088150 0.137809 0.046327 -0.414973 -0.386304 -0.826045 -0.465313 -0.434260 -0.640606 1.029992 -0.881035 -0.306156 1.124979 0.325885 0.948860 -0.413642 0.443901 0.095222 1.364682 -0.903971 0.645049 -0.720383 0.267875 0.675198 -0.778684 0.256807 -0.297245 0.066614 -0.208851 -0.130907 -1.204292 0.556524 -0.383692 0.147300 0.013784 -0.250244 0.151105 -0.508346 0.170548 -0.192050 -0.969090 0.264205 0.459040 -0.119601 -0.414971 -0.616124 -0.874234 1.085433 -0.653208 0.461223 0.734729 -0.489650 -0.048372 0.291399 0.157457 0.854461 -0.102100 -1.038782 0.534891 -0.534032 0.602915 -0.278397 -0.252206 0.822493
为O 0.311587 0.653508 0.075026 -0.457694 -0.355928 0.479674 0.207602 -0.003640 -0.011678 0.530201 0.684994 0.084264 -0.168908 -0.437155 1.079276 0.087060 -0.336505 0.121029 0.085142 0.900603 -0.356122 -0.375283 -0.281568 0.257508 0.222127 0.181977 0.275167 -0.267992 1.086531 -0.439484 -0.568201 0.039509 0.157498 0.957735 -0.199103 -0.474930 0.266202 0.013069 0.204090 0.241409 -1.321697 -1.029192 -0.527116 0.814551 0.238504 -0.295522 -0.377704 0.679936 0.518631 -0.003353 0.441665 0.821493 -0.583034 -0.684662 -0.480279 -0.681851 -0.554202 -0.163501 -0.011681 0.277927 -0.049962 1.422193 -0.061898 -0.596927 -0.468051 -0.974121 0.723821 -0.539187 -1.053538 -0.909652 0.207178 -0.940111 0.583495 -0.157264 -0.974090 0.115282 0.168783 -0.778444 0.109902 -0.235935 0.811165 0.333896 -0.436275 0.679787 -0.138244 0.749746 0.059804 0.616731 -0.068020 -0.972067 -0.091399 0.723771 -0.146542 -0.248182 0.334405 -0.279382 0.004183 -0.406283 -1.227439 -1.033622
我O 1.663046 0.604587 1.034171 0.779593 -0.508141 0.255777 -2.039858 -0.920932 0.873390 0.120907 1.973782 0.897200 -0.860830 -0.585844 0.264344 -0.988812 1.241345 -0.046111 -0.812053 0.469073 0.001254 0.137022 0.172345 0.836910 0.296047 0.041456 0.767604 1.198450 -0.313130 1.592814 0.437279 0.722471 -0.226305 -0.026150 -0.071070 -0.197397 1.623196 1.943392 1.621290 0.843412 -0.839374 -2.246399 -1.595095 0.455903 0.746706 -0.565868 0.202071 0.645020 1.587615 -1.418913 1.011140 0.314642 -1.401168 -1.187118 -2.430236 0.989227 -1.100583 0.337969 0.627458 -1.573318 0.193908 1.151176 0.230254 -0.313726 -0.308888 -2.024334 0.789097 -0.619088 -0.889075 -1.941856 0.534765 0.112137 1.153343 0.318798 -0.527904 1.425272 1.136176 0.519922 -0.076165 -2.454850 0.372706 -1.220189 1.401813 0.052305 -0.789744 -0.484869 -0.603367 1.448360 0.356325 -1.093192 -0.054777 1.943846 -0.404329 -0.652468 1.422772 0.630233 -1.312499 -0.254392 0.769817 -1.311328
癌E 1.962180 0.875023 -0.133114 -0.224850 0.272887 0.214120 -2.586025 0.076978 0.289974 -0.325757 -0.621995 0.032120 0.440752 -0.133926 -0.665499 0.752890 0.564626 -1.069975 0.032466 0.410547 0.883855 0.830503 0.767844 -1.230737 1.871801 -0.983939 0.355915 0.943239 0.063371 0.595130 0.670951 0.266987 -0.119304 0.106288 -0.548637 0.159835 -1.044132 0.968214 -0.049542 -0.174998 0.364641 -2.367969 -1.403319 0.707819 0.170066 -1.024124 0.790528 0.994308 0.911965 -0.467078 0.956881 -0.849236 -2.186431 -0.490551 -1.545243 0.007797 0.303482 0.785503 -1.294436 -0.301974 0.717810 1.495214 -0.062350 0.548156 -0.761337 -0.667340 0.973670 0.468759 0.219980 -1.088054 -0.649250 0.009809 0.937783 0.685863 -0.627328 1.143815 -0.577150 -0.842698 0.072609 -1.056721 -0.653842 -0.247748 0.722248 0.735481 0.745413 0.467102 -1.382716 0.544416 -0.901052 -1.165719 0.368043 0.886540 -1.394537 1.287689 -0.262578 -0.623227 -1.018835 0.154539 -0.780446 -0.387630
及O -0.236490 0.717241 0.288354 0.230923 -0.311988 -0.298065 -0.591660 -0.248833 0.150593 0.123095 0.110462 0.275281 0.192360 0.076106 0.017091 0.435975 -0.538201 0.075080 0.524786 0.400458 -0.818878 -0.464901 -0.356296 0.050006 0.904528 0.491478 -0.128282 -0.073746 -0.403236 -0.910237 0.475123 -0.208735 0.988847 0.199960 -0.050396 -0.605019 -0.160444 -0.034550 -0.128673 -0.131703 0.383265 -0.008413 -0.434070 0.297777 -0.343087 -0.013437 -0.437633 0.070208 1.026777 0.596922 0.688733 -0.229694 0.558573 -0.291045 0.082603 -1.029278 0.058662 0.050124 -0.925836 0.499273 -1.056539 -0.998939 0.787358 -0.281634 0.428551 0.502643 0.006269 1.227682 0.096842 0.330485 -0.480319 0.007031 0.091920 -0.028902 -0.624052 -0.697874 -0.429356 -0.178568 1.160585 0.774645 -0.392154 -0.069583 -1.008784 0.267869 -0.640138 0.628135 -0.902772 -0.764166 0.184982 0.075201 0.132035 -0.372459 0.526213 -0.740721 -0.362512 -0.871933 0.614850 -0.018100 -0.337103 -0.475252
入O 1.456691 -0.400951 0.401714 -0.117177 -1.202202 -0.330050 -2.430223 -0.705217 0.750181 0.041915 1.534093 1.069477 -0.279251 -0.724640 -0.404375 -0.663996 1.239762 -0.245931 -0.387160 -0.045058 -0.960546 1.465416 0.066984 -0.248240 0.232997 -0.391421 0.210597 0.657749 0.454784 1.758907 0.503767 -0.321828 -0.330380 -0.529440 0.443070 -0.381118 1.566663 1.185236 0.928695 0.166457 -0.427949 -1.961904 -1.226160 0.261187 0.825188 -0.367788 -0.210378 0.580217 1.103397 -1.920475 0.678876 0.736424 -2.197981 -0.150381 -1.472926 1.428420 -0.549243 0.404535 0.965442 -1.815841 0.419794 0.111797 0.012776 -0.382353 -1.059458 -1.047834 0.291695 0.303427 -1.324398 -0.825998 0.852182 0.175984 0.915978 0.321271 0.893551 1.493437 0.454970 0.997163 -1.073100 -1.161295 -0.215867 -0.355854 0.433285 1.081223 -0.840470 -0.091683 0.211561 0.853347 0.046882 -0.083475 0.005148 1.318001 -0.781404 -0.381908 1.229466 -0.100883 -1.395784 -0.689086 0.918905 -2.076756
巴I 0.341747 -0.660980 -0.190313 0.659451 0.686788 -0.975406 -0.310467 -0.635512 0.823192 0.380704 -0.278990 1.583471 -0.456347 -0.445138 1.061591 0.452847 -0.999267 -2.889395 0.918227 0.088083 -0.663712 1.131644 1.860131 1.454624 1.389437 1.127184 -0.908896 0.780950 0.882208 -0.467262 0.795683 -0.932651 0.286838 0.130502 -2.176693 0.181764 -0.599690 0.144324 1.526297 -0.556393 1.930934 -0.111836 -0.229241 0.283667 -1.166364 -0.925248 0.546657 0.660474 1.103068 -0.114615 0.062319 0.505527 1.505203 -1.868121 -1.285936 -0.912847 0.322555 -0.285676 -2.680997 0.556410 0.895265 -1.062266 -0.438260 1.558635 0.756652 -0.971881 1.821783 0.560132 0.338173 -0.975604 0.398094 -1.432760 -0.565627 1.338176 -0.582562 -2.162568 -0.977912 1.140408 0.806458 0.136260 -0.226719 0.173614 -1.964994 2.354831 -1.244273 0.271012 -0.424946 -1.617540 -0.416524 -3.543878 -0.569822 -0.305421 -1.105340 -2.546718 -0.724767 0.113434 0.944586 0.362061 0.394137 -0.381138
治O -0.061023 0.027467 1.000635 0.165142 -1.422182 0.072298 0.102228 0.040740 -0.205091 0.128065 2.259994 -0.063971 -0.542111 -0.462171 -0.179156 -0.886828 2.154160 0.622987 -0.362255 -0.151728 -0.311235 0.056378 -1.522229 -0.695227 -0.620847 0.027720 -0.432594 0.847638 0.200785 0.968461 -0.317189 -0.982491 -0.219922 0.027598 0.616832 -0.597358 0.351047 0.479762 0.551549 0.583151 -0.140820 -1.774482 -1.963679 0.846179 1.200309 0.219607 -0.191415 0.701737 0.861167 -0.929719 0.682710 0.297245 -2.059118 0.224020 -0.471593 0.781973 -0.683246 -0.008653 1.200549 -0.378572 -0.148614 0.476264 0.241345 -1.096277 -0.287539 -0.534479 0.534014 -0.311997 -0.931427 0.638119 0.720049 -0.774672 1.135908 -0.978477 -0.212654 1.065569 0.373433 -0.556816 -0.523193 -0.250557 1.126284 -0.238516 -0.496577 0.242888 -0.767803 0.695281 1.512589 1.014551 -0.161402 0.191383 -0.836137 0.239604 -0.337123 0.002672 0.757509 -0.344249 -0.917739 -0.768056 0.186050 -2.104928
CS 0.184719 -0.094146 0.629817 -0.761221 1.269900 0.618521 -0.353293 1.163926 1.443692 -0.781455 -0.734706 0.557025 -1.109714 0.574377 -0.706250 0.722476 0.982333 -0.418148 0.338184 -0.589089 -0.591263 -0.411911 -0.257830 0.877936 1.403764 0.152218 -0.110974 0.485685 0.158189 -0.428805 0.656543 -0.113546 -0.579358 -0.132566 -0.946488 0.140972 0.413725 -0.039585 -0.196818 0.417953 0.874587 0.191693 -0.587251 -0.302715 -1.202326 -0.938684 -0.180927 0.184255 -0.388517 -0.491626 -0.739078 -0.759723 0.867069 -1.547843 -0.864790 0.042202 -0.615680 0.447500 -1.547909 -0.230880 -0.558024 -0.801998 -0.405072 0.820688 0.602023 0.035559 1.120509 0.238943 1.323835 0.595191 -0.858173 -0.116913 -0.646931 0.694258 -0.195202 0.467093 -0.444780 0.223087 -0.054535 -0.638820 0.288557 -0.929257 1.537664 0.240651 0.835184 0.239431 -1.429749 0.126268 -0.387569 -1.601314 -0.392803 -1.391789 -0.141001 0.416153 -0.806779 -1.037583 -0.923723 0.575938 -0.735480 0.074727
前O 0.924356 0.003521 -0.477472 0.367330 -0.279454 0.460935 -0.918997 -0.685647 0.041915 -0.493651 0.790993 1.928627 -0.567791 -0.381102 1.452920 0.390588 0.274889 0.293313 -0.028370 0.586323 -0.923148 1.356644 0.798251 0.001360 -0.350175 0.701162 0.016697 1.201207 1.381122 0.942749 0.717210 0.717714 -0.324154 0.418838 0.043863 0.782489 1.817491 0.055160 0.472333 0.000133 -0.842815 -1.443768 -0.112426 -0.834179 -0.663054 0.887049 -0.758995 0.627208 0.822561 -0.936838 -0.549799 1.375681 -0.730073 -1.766268 -0.345755 0.160768 -0.233201 0.007047 0.388311 -1.518753 -0.527464 0.395148 0.633497 0.747457 -0.965330 -0.791677 0.042591 -0.344371 -0.060998 -1.858185 1.114331 1.007777 -0.650001 0.164426 0.406343 0.198965 1.062414 1.225018 0.097950 -1.089431 -0.113368 -1.346332 0.689353 1.340342 -0.794270 -0.393289 -0.613847 0.822045 0.441537 -0.025252 0.207852 1.243679 -0.834145 -2.119789 0.923225 1.194071 -0.527847 0.001015 0.645248 0.036813
便E 0.661309 -0.671295 -0.359512 0.409943 0.512564 -0.880239 1.123777 -0.186685 -1.928250 0.500853 0.659262 0.687597 -0.373901 -0.240610 1.596509 0.540638 -0.073357 0.058785 0.561207 0.499578 -2.022276 0.452190 0.685417 -0.025266 -0.636199 0.304192 1.417709 1.166651 1.171562 -1.315303 -0.569604 0.969856 0.545435 0.229794 -1.315686 1.080145 -0.085517 -0.046112 0.046088 -0.585567 -1.096602 0.105082 -0.925593 -1.267236 -1.299770 1.471182 -1.444844 -0.499838 0.628305 0.333112 0.370633 0.352804 0.190500 0.460013 1.869805 -1.232255 1.101714 -1.046720 0.366132 -0.263930 0.169640 -0.461163 -0.613469 0.195060 -0.870890 0.372337 -1.629865 -1.366651 1.196979 0.349148 0.450414 -0.648971 -1.348570 -1.480750 1.344481 -1.524929 0.158413 1.358268 2.142633 -0.784772 -0.052360 -1.364419 -0.771735 1.885939 -1.477418 0.030750 2.274974 -1.560186 -0.658412 -0.122864 1.040432 1.044690 -0.617140 -1.849629 1.033456 1.032549 1.585385 -0.469883 0.707833 0.425264
结E 0.572138 -0.580308 0.268495 1.050797 0.670324 -0.744119 -0.108640 -0.425165 1.185285 -0.052724 0.045840 1.661361 -0.593580 -0.788232 0.994709 0.343059 -0.571592 -3.035371 1.054204 0.037920 -0.902249 1.373489 1.763965 1.153597 1.392217 1.325707 -0.522798 0.794558 1.009567 -0.418135 0.969888 -1.255255 -0.032617 -0.218966 -1.944447 -0.050204 -0.177845 0.371281 1.512658 -0.569846 1.528063 -0.783793 -0.449252 -0.089545 -1.344265 -1.192061 0.837805 0.631777 1.101455 -0.264105 -0.388208 0.805526 1.578284 -2.048999 -0.999194 -0.739496 0.357695 -0.411005 -2.830990 0.542537 1.224059 -0.768418 -0.269839 1.672039 1.191432 -0.508156 1.835545 0.558204 0.376828 -0.691680 0.132069 -1.407851 -0.582018 1.379465 -0.215031 -2.247574 -0.809716 1.021041 0.670337 -0.308420 -0.409669 -0.455879 -1.503800 2.688664 -1.346027 0.482868 -0.599071 -1.310312 -0.880921 -3.621142 -0.470970 0.132059 -1.223234 -2.617970 -0.907468 -0.308494 0.787722 0.544331 0.404626 -0.535029
/O 0.028439 -0.120063 -0.129605 0.655448 0.950011 -0.697390 0.360984 0.153982 0.388120 -0.307679 -0.156974 0.955211 -0.186675 -0.417855 0.086635 0.439018 0.881578 -2.581663 0.853352 0.093576 -0.264533 0.292430 1.711907 0.370898 0.898944 -0.026842 -0.383597 1.326401 0.651613 -0.523128 1.485430 -0.854036 -0.658069 -0.318640 -1.705940 0.444746 0.067053 0.168999 0.507815 0.058507 0.861786 -0.559568 -0.914212 -0.010998 -1.062007 -0.657637 0.610296 0.201843 0.018681 -0.636539 -1.152597 0.529448 0.535705 -1.207617 -0.961977 0.042776 0.118735 -0.075568 -2.613895 -0.160916 1.403180 -0.640113 -1.300240 1.453147 0.556834 -0.322924 1.665444 0.035575 1.048023 0.208667 0.163207 -1.655112 -0.791854 0.800699 -0.169856 -1.593265 -0.275954 0.558795 1.027308 -0.466709 -0.160460 -0.695729 0.086197 2.097446 -0.633087 0.314730 0.050891 -0.802724 -1.017636 -1.558385 0.357754 -0.326746 -1.233071 -0.347464 -1.555460 -0.001343 0.111519 0.758728 -0.289308 -0.861130
GO -0.169958 -0.524730 0.360447 -0.728160 0.932800 -0.520666 0.096222 1.030063 0.021201 -0.253807 -0.431709 -0.067165 -2.369456 1.030992 0.766030 -0.146713 2.221272 -0.709534 0.410921 -0.506242 -0.826170 -0.085175 0.074926 1.463085 0.878006 -0.481047 -0.294989 1.922247 0.703673 -0.501895 1.030591 -0.290750 -2.233825 -1.180540 -1.064824 1.332397 3.001637 0.370693 0.907575 0.937674 0.906054 0.313227 -1.962374 -0.632491 -1.071640 -0.387003 -1.452345 0.681731 -2.673710 -0.929747 -1.730309 -0.222977 -0.168012 -0.680290 -0.375685 2.118348 -0.575561 0.771638 -1.849101 -1.607880 0.794162 -1.383558 -1.456946 0.560945 -0.610751 -0.000827 0.693105 -1.086847 1.548973 0.490457 -0.701173 -1.544747 -1.346678 1.431356 1.405877 -0.241901 -0.272280 1.201612 -0.511094 -0.549724 0.292394 -0.201228 1.910230 1.186110 0.260810 -0.511741 1.669725 -0.083818 -1.341831 -0.142926 0.925198 -2.260899 -1.330684 1.249280 -0.775555 0.356848 -2.228323 1.557421 1.317089 -1.054072
7O -0.057943 -0.063228 -0.103191 0.722808 0.581031 0.023649 -0.662647 0.602191 0.821613 -1.115780 0.141964 0.642317 0.467798 -0.160709 -0.388158 0.767780 1.238221 -1.423806 0.696330 -0.067562 -0.070945 0.368057 0.945316 0.168046 0.412394 0.219529 -0.670115 1.191587 0.469959 0.345822 1.648168 -0.471068 -1.826013 0.446303 -1.492902 0.831227 0.126046 0.770689 0.259354 -0.129073 1.109735 -1.133010 -1.232645 0.034267 -0.597829 -0.364779 0.312818 0.499700 0.195410 -1.593580 -1.350716 0.757554 -0.395004 -1.764313 -1.545731 0.329045 -0.460391 -0.065743 -1.062042 -0.750699 0.201745 -0.582872 -0.881371 0.926479 0.485028 -0.691984 1.079776 -0.079906 0.806625 0.453472 0.619058 -0.567126 -0.549991 0.760400 -0.153496 -0.572824 0.312283 0.317836 0.399668 -1.177208 0.289762 -0.382236 1.595935 1.400304 0.401938 -0.333500 -1.191329 0.187210 -0.550485 -1.639359 -0.425119 -0.886164 -1.393116 -0.258400 -0.322993 0.295156 -0.877188 -0.079200 0.375744 -0.609644
出O -0.625405 0.103873 -0.325546 -0.039315 -1.383476 -0.600628 -1.002390 -0.090775 -0.183269 -0.886542 1.102566 1.006226 1.465757 -0.927474 1.258716 0.065462 -0.514952 0.348111 0.311558 0.562292 -1.440708 0.002205 0.366126 0.220196 0.385121 0.200226 0.129481 -0.008318 0.405850 -0.261920 0.670700 -0.154079 0.075431 -0.023629 1.172343 -0.216339 1.360036 0.365884 -0.018481 -0.115352 -1.283607 -1.438995 -0.718964 0.435229 -0.781285 0.606237 -1.531671 0.205344 0.810730 -1.397278 -0.335242 1.824382 -0.418360 -0.055191 0.719958 0.357859 0.106577 0.202812 0.062580 -1.666081 -0.563363 0.141256 0.479361 -1.238493 -1.446920 -0.618939 -0.396359 1.399809 -1.170859 -0.307225 1.168947 -0.268705 0.714672 0.212562 1.002341 0.421591 -0.051222 1.100780 0.701146 -0.280155 0.118183 0.225968 -0.221868 0.944240 -2.181750 0.139088 -0.242474 -0.154990 0.198689 1.633916 0.956594 1.209064 -0.968782 -1.264661 0.468406 -0.309361 -0.043247 -0.805276 0.262924 -1.217715
胃B 1.066251 1.176330 -0.140681 0.103683 0.568217 -0.298846 -1.705163 -0.169455 0.600590 0.156817 0.202882 -0.012682 0.250556 0.106463 -0.786349 0.545064 -0.407177 -0.571050 0.041508 0.765382 0.135078 0.072737 0.085278 -0.118959 0.756904 -0.168502 0.849595 -0.387574 -0.440357 0.162716 -0.252205 0.684653 0.405008 0.635875 -0.920220 -0.057940 -0.622075 1.496614 0.468359 -0.258554 0.283558 -1.088344 -0.931358 0.572683 0.499400 -0.709613 0.578313 -0.045875 1.466952 0.050706 1.180570 -0.617211 -0.450771 -0.744107 -1.502917 -0.728479 0.208274 -0.207182 0.503666 0.271986 -0.439110 0.518739 -0.344424 0.170568 0.521746 -0.826963 0.237970 -0.026408 0.191780 -0.660611 -0.761369 0.302608 0.732191 -0.378848 -0.942848 0.463036 0.009581 -0.598804 0.799583 -0.752745 -0.363937 -0.537539 0.653322 -0.111726 0.830267 -0.054715 -1.926579 0.843436 0.361140 -1.330451 -0.194302 0.645850 0.410616 0.123521 0.403346 -0.409562 -0.276244 -0.473707 0.130219 0.398245
DO -0.274703 -0.912800 0.631487 -0.712641 0.448907 -0.292974 0.015682 0.752440 0.259645 -0.452720 0.021564 -0.247944 -1.050225 0.551637 -0.462096 -0.114922 2.559628 -0.713332 0.734033 -0.723660 -0.441855 0.155448 0.150193 1.100927 0.226120 -0.739154 -0.459495 1.669897 1.049096 0.038308 1.002261 -0.423463 -2.470057 -1.302487 -0.802997 1.274877 2.512247 0.258837 0.052645 0.915633 0.948215 -0.181469 -2.089737 -0.237343 -0.565194 -0.373697 -1.059022 0.688598 -1.638799 -1.713713 -1.597674 -0.075630 -1.238360 -0.407792 -0.943214 2.053909 -0.822729 0.842595 -1.100483 -2.063416 0.872948 -1.100777 -1.095057 -0.323929 -0.678343 0.321297 0.827010 -1.168581 0.578434 1.168254 -0.533427 -1.721217 -0.692345 1.183836 0.982476 -0.164759 -0.101231 0.790510 -0.705375 -0.590954 0.979011 -0.001105 1.289643 1.137777 0.438247 -0.234105 1.720294 -0.365736 -1.361597 -0.206507 0.108430 -1.809669 -1.658059 1.158190 -0.107957 0.467898 -2.365687 0.804351 1.047994 -1.428424
下O -0.086003 -0.120367 1.701766 -0.514654 0.291719 1.138169 -0.149118 0.261994 0.756148 -0.369129 0.929208 -1.019926 0.604312 0.285901 0.349612 0.096827 -1.337444 0.727126 0.585240 0.588417 -0.688320 -0.878924 -0.801269 1.496598 0.107836 0.050441 0.290581 -1.145503 0.473293 0.210938 -0.258198 0.952457 -0.820131 1.296430 -0.606453 0.332725 0.552927 0.911926 0.504824 -0.686901 -0.409148 -0.158016 -0.973110 0.461383 0.449343 -0.351807 0.463301 0.227508 1.746989 -0.995038 0.085365 0.313964 -0.314141 -0.663772 -1.748136 -0.832680 -0.699397 0.026576 0.045704 -0.804467 -0.616440 -0.328876 1.015109 -1.806220 -0.773950 0.811218 0.148558 -0.602039 -0.415865 0.155920 -0.899484 0.289016 0.003564 0.667939 -1.175486 -0.447509 -0.224912 -0.295876 0.147151 -0.162764 0.386805 0.732277 -0.071055 -0.685829 0.067307 -0.267166 -1.690756 -0.812029 0.673876 -1.117981 -0.541937 -0.671482 0.077992 -0.709364 1.740725 0.368403 -0.241690 -1.168528 0.735430 0.145949
次O 0.405305 0.512450 0.069573 0.275746 -1.139877 0.768845 0.028671 -0.245385 -0.420025 0.299811 1.540952 0.893424 -0.009997 -0.689799 0.554457 -0.843887 1.126821 -0.407963 0.655966 0.610225 -1.746732 -0.464894 0.156440 -0.172740 -0.213532 -0.359434 0.470270 0.565395 0.850802 0.260634 1.710790 -0.019760 -0.440275 -0.260917 -0.068576 -0.395267 2.387427 0.043135 0.130797 0.824859 -1.327564 -1.347326 -0.420632 -0.038128 1.044202 -0.418320 -0.708914 0.333049 0.460372 -1.604327 -0.318709 1.366331 -1.372720 -0.845147 -0.835687 1.176978 -0.780530 -0.008158 -0.194945 -1.565315 0.833806 0.264524 -1.087008 -0.353145 -0.637047 -0.949581 0.652498 0.126654 -1.210186 -0.486439 1.105058 -1.117334 0.140728 -0.635432 0.069003 -0.303705 1.431729 0.101206 0.835567 -1.075351 0.846302 -0.429455 0.044926 1.968636 -1.568696 0.096079 1.228346 0.113054 -0.007224 -0.319662 0.498494 0.553585 0.086801 0.451334 0.041739 0.305882 -0.428571 -0.859953 -0.237544 -3.394837
以O 0.482972 1.624589 -1.147434 -0.442002 -0.924814 -0.231819 -2.070622 -0.889955 -0.448175 0.083994 0.593301 0.428129 0.548016 0.228136 -0.531452 -0.994028 0.609287 0.289590 -0.054725 0.686776 -0.911216 -0.309373 -0.704454 0.204673 0.166853 -0.273935 1.082566 0.336899 -0.963463 0.977924 0.603489 0.539692 1.503567 -0.114312 -0.382392 -0.283078 0.990367 0.834046 -0.263771 0.427828 0.450205 -1.236035 0.058395 -0.788140 1.822424 0.977788 -0.752279 -0.030194 0.310446 -0.542950 0.798149 -0.286599 -1.965272 -0.157345 -0.288379 1.395479 0.582503 -0.012133 1.325409 -1.062503 -1.061049 0.068589 -0.541814 -0.114090 -0.264689 -0.213235 -0.171736 1.025500 -0.523037 -0.893271 -0.374175 1.053701 0.759102 -0.853882 0.105011 0.738139 0.336405 -0.661762 0.762481 -1.260908 -0.832040 0.354444 1.328913 0.601393 -0.033872 -0.101313 0.552026 0.454462 0.620027 0.875411 -0.199343 -0.688750 0.814349 1.394439 0.635140 1.542996 -0.557792 -1.103619 1.980207 -1.548005
个O 0.296139 -0.384113 -0.119985 0.848387 -0.105433 -0.475193 0.140406 -0.925399 0.729169 -0.168836 0.417693 1.406512 0.128901 -0.693072 0.238297 -0.057337 0.074269 -2.123190 1.631871 0.577223 -0.458384 0.680574 1.929827 0.994086 0.583688 0.647945 0.057425 1.107761 1.104445 0.201460 1.071253 -0.681221 -0.138655 -0.416728 -1.720697 0.637890 0.489029 0.291704 0.678315 -0.177786 0.984976 -0.785773 0.163156 -0.080047 -0.371692 -0.774565 0.542446 0.585678 1.504213 -1.136067 -0.674228 1.448691 0.229517 -1.965353 -1.451523 -0.197895 0.254584 -0.551999 -1.652097 -0.833434 1.200585 -0.491951 -0.103486 1.234806 0.607892 -0.494703 1.920741 -0.056236 0.054469 -0.447358 0.548204 -0.638531 -0.461006 0.724693 -0.969074 -1.744416 0.144083 0.603784 1.143847 -0.862307 -0.272764 -0.778992 -0.836798 2.248595 -1.154632 0.119969 -0.538054 -0.858138 -0.324822 -2.006584 -0.449935 0.367669 -0.608476 -1.673596 -0.775606 0.913341 0.711038 -0.097086 0.458519 -1.069742
痛E -0.600197 0.370473 0.646646 0.571357 -1.170202 -0.155345 0.840806 -1.041792 -0.663669 -1.229003 0.588354 0.972892 1.528716 0.059916 2.178513 -0.943891 -1.028623 0.779190 -0.102093 0.210012 -0.771073 -1.419350 0.173536 1.797594 0.068964 0.544137 0.700033 1.226008 1.154633 0.418887 -0.118452 0.146687 1.118955 -0.815529 0.704961 0.231346 0.807645 0.176724 0.510244 -0.487845 0.126382 -1.605870 -0.364756 -0.495857 -0.781521 2.433824 -1.893616 0.937157 0.531624 0.173624 -0.128515 0.618189 0.331435 -0.756608 2.194007 0.154782 0.619118 -1.079192 -0.278718 -0.703065 0.528990 1.430908 1.453237 -1.370694 -0.646001 -0.296588 -0.719511 0.504606 -0.460093 -1.470885 0.279406 0.103890 0.757169 0.228662 -0.705308 -0.055435 -0.421676 0.796990 0.554693 -0.675458 1.489036 -0.643548 -0.590296 0.101545 -1.065758 -0.471021 0.934188 -1.173727 0.227876 1.472295 0.535462 0.747812 -0.958136 -1.326044 0.910199 1.580968 0.805657 0.653841 1.918216 1.330362
常O 1.242476 -1.105513 -0.451808 -0.106727 0.794258 0.017683 0.280593 -0.276368 -1.623429 0.762500 0.508456 0.403103 -1.014070 0.099218 1.309117 0.668727 -0.227644 0.508133 0.281846 -0.068143 -2.970387 1.414796 -0.382884 -0.289509 -0.283490 0.611171 1.837809 0.667350 1.160975 -0.935287 -1.234005 0.586563 1.485886 0.372217 -0.667608 0.023669 -0.273596 -0.109158 -0.264293 -0.653115 -0.902790 0.478163 -0.086067 -1.209771 -1.014806 0.961408 -1.452845 -0.706291 0.826913 0.382266 1.504621 -0.273841 0.441716 0.359611 2.067514 -1.555726 1.059554 -0.687006 1.536210 -0.073858 -1.027521 -0.605788 -0.013135 -0.422613 -0.517191 0.820856 -1.936039 -0.581876 0.460382 0.174896 -0.061773 0.465679 -1.111149 -1.758508 1.731311 -0.774892 0.126410 1.183536 1.399637 -0.589597 -0.145877 -1.120263 -0.961322 1.469951 -0.966181 0.408084 1.814561 -0.934192 -0.527477 -1.064860 0.077638 1.176308 -0.212118 -2.011019 1.940861 0.101215 1.604863 -1.223802 0.332043 0.391454
月O 1.095209 0.018905 0.074984 1.017169 -0.258501 0.226853 -0.378284 -1.132279 0.408961 -0.513540 0.961832 2.011264 -0.554398 -0.626096 1.418237 -0.131171 0.501927 -0.116322 0.571670 0.464501 -0.736206 0.881159 1.579916 0.710170 -0.649469 0.665468 0.030180 1.649436 1.301235 1.037410 1.074000 0.585085 -0.888440 0.004720 -0.823280 0.829704 2.151117 0.472923 1.138273 0.068568 -0.396168 -1.590507 -0.402470 -0.747050 -0.647821 0.590964 -0.443599 0.833420 0.761711 -1.389531 -0.974200 1.674734 -0.308275 -2.362667 -1.056873 0.484076 -0.641822 -0.145449 -0.026093 -1.737424 0.388528 0.303912 0.642605 1.185384 -0.743738 -1.187195 0.413852 -1.018765 0.397516 -1.924396 1.317414 0.619052 -0.783502 0.728537 -0.130948 -0.516976 1.269340 1.502481 0.376524 -1.637363 0.118240 -1.844384 1.107547 1.282840 -1.146774 -0.492135 -0.597927 0.778674 0.105955 -0.648564 0.360579 1.008858 -1.069796 -2.635530 0.658956 1.889294 -0.370347 0.297383 0.929868 -0.160874
体O 1.089089 -0.975695 -0.604153 -0.454324 1.290402 0.910207 0.529812 0.594353 -1.118869 0.302289 0.547462 -0.438776 -0.845508 0.289700 0.661870 1.202396 0.525240 0.506996 0.663283 -0.130407 -2.142457 0.778311 -0.917331 -0.751320 -0.223790 0.051610 1.048984 0.476809 1.477864 -0.878748 -0.533759 0.231478 -0.414294 1.073908 -0.135673 0.215018 0.078921 -0.353663 -1.016251 -0.186053 -1.237094 0.679567 -0.402676 -0.578074 -0.689425 0.394027 -1.214816 -0.173887 0.586794 -0.265060 0.559520 -0.078277 -0.504713 -0.173849 1.144317 -1.505320 0.315114 -0.137622 1.024370 -0.376071 -1.109298 0.238630 -0.280092 -0.748360 -0.356522 0.810456 -0.798150 -0.811351 0.142625 0.709744 0.224547 0.345848 -1.085865 -1.423591 1.236382 -0.565583 0.901830 0.169331 0.872371 -0.299112 0.498183 -0.533761 -0.143295 1.207515 0.368575 0.129134 1.308056 -0.379711 -0.521679 -1.522505 -0.628405 0.770831 -0.258810 -0.914709 1.327029 -0.137313 0.198480 -0.994201 -0.665917 0.005675
组O -0.534238 -1.264597 0.626339 0.441455 1.102501 0.056131 -0.028835 -0.250216 0.252678 0.672105 -0.192665 0.583321 -0.900689 -0.159904 -1.349756 0.730290 1.172822 -2.301479 1.141663 -1.393638 -1.298420 0.078808 0.692275 0.168087 0.388180 0.495377 -0.366825 0.578854 1.592190 -0.988389 0.883707 -2.107387 0.595904 -0.691345 -1.335970 -1.178201 -0.496295 0.066797 -1.169147 -0.812685 1.815594 -0.169201 -0.334371 1.417231 -1.292669 -1.361228 -0.010503 0.894022 -0.057629 0.004963 0.207548 -0.053961 1.820442 -1.828410 -0.619094 -0.565034 -0.831974 -0.589168 -1.701782 0.400568 0.505732 -1.622363 -0.264979 -0.551849 1.715718 -0.084459 2.335854 0.984324 -0.700536 0.498886 0.038311 -1.577062 0.306966 -0.200735 -1.802888 -1.589304 0.657784 -1.405014 1.267029 -0.070356 1.741256 0.348735 -1.248976 1.943665 0.825279 1.225687 0.208160 -0.859731 -1.106494 -3.458832 -0.926613 -0.828025 -0.217736 0.669041 -0.848152 -1.634236 0.747336 0.166805 -1.472324 -2.280650
现O -0.344814 1.168707 0.317842 -0.329748 -1.440507 0.995204 0.885152 0.392445 -0.159323 -0.856077 0.175138 1.444307 0.854097 -0.207579 2.003176 -0.037667 -0.962913 0.738441 0.106418 0.621396 -1.226414 -0.348732 -0.214474 0.201976 0.273011 0.686348 -0.494401 -0.547042 1.393046 0.268875 0.932995 0.313613 0.334685 0.792617 0.614609 0.100394 1.150882 -0.939491 0.186718 -0.000792 -0.496435 -1.640341 -0.059420 -0.347477 -0.085419 1.073704 -1.011554 0.452172 0.320602 -0.081282 -0.509710 1.401639 -0.290172 -1.360815 0.638771 0.249669 -0.683328 -0.060587 -0.588549 0.030777 -0.003989 1.085421 0.244559 -0.108637 -1.339553 0.009065 -0.658521 0.640540 -0.535241 -1.118735 0.417888 -0.048025 -0.345000 0.303098 -0.274247 -0.069095 -0.446420 0.323346 -0.330892 0.621077 0.680147 -0.232153 -0.477143 0.876535 -1.028746 0.129731 -0.410961 -0.381194 0.559468 0.878563 0.854447 -0.714710 -0.673179 -0.635735 0.098121 -0.176409 0.242748 -0.106724 0.056684 -0.061315
示O 0.392075 0.649505 -0.488565 -0.420141 0.867932 -0.843617 -1.959057 1.209931 0.936090 -0.062130 -1.216478 0.273628 -0.153296 0.499874 -1.494143 0.718767 0.143521 -1.103095 -0.043789 -0.300973 -0.040807 0.598323 -0.385597 0.568338 1.365070 0.971415 -0.269475 -0.799393 -0.500958 0.461954 -0.039963 -0.599937 0.484683 -0.025680 -1.743104 -0.346371 -1.543744 1.300344 -0.168250 -0.586153 2.641900 -0.949935 -0.900870 0.576699 -0.420180 -1.171291 -0.029529 0.424679 -0.599167 0.087620 0.735824 -1.216623 0.478591 -1.538858 -0.973402 -0.128465 -0.227840 0.182575 0.368905 1.193185 -0.683684 0.156134 -1.233097 0.703081 1.792887 -1.359688 1.299179 0.692491 0.424501 -0.494101 -1.144921 -0.154545 0.629746 0.136112 -0.821508 1.108555 -0.371360 -1.451939 0.168272 -1.325396 0.392325 0.613169 1.437445 0.314166 1.903065 0.249525 -1.333406 0.993807 -0.378676 -3.232416 -1.484681 -1.329840 -0.235698 1.602052 0.253517 -1.056398 -0.894580 -0.070946 0.504894 -0.057646
切O -0.167988 -0.286942 0.606154 -0.730785 0.005958 0.339326 -1.506008 0.406266 1.569752 -0.776192 0.711977 -0.087085 1.687933 -0.340053 -1.824321 0.747639 -0.181006 0.230801 2.263453 0.127362 -1.243931 -0.021807 -1.748675 0.824553 0.587471 -0.278830 0.022102 -0.462650 0.441471 0.312316 -0.800208 -0.169684 -0.209951 -0.123938 -0.920552 0.786025 -0.585138 0.072100 -1.115568 -0.424939 1.356193 0.291493 -0.527579 -0.212335 0.713173 -0.323042 0.079576 0.134131 3.192405 -1.508817 0.570621 -0.461121 -1.260637 -0.077549 -1.474916 -1.161379 0.659510 -0.114034 -0.013371 -1.108095 -1.845425 -1.775206 0.692012 -0.946432 0.455836 2.159669 0.226510 0.819672 0.213223 2.247415 -1.462694 1.011400 1.031288 -0.906927 0.381376 -0.125366 -1.506924 0.424046 0.192793 0.593924 -0.125592 0.086651 -1.706781 0.845236 -0.045633 0.653598 -1.262934 -1.333806 0.833545 -1.108247 -1.723156 -0.844606 -0.045944 -1.265653 1.153941 -0.844867 0.127332 -2.192249 0.481299 -0.571788
来O 0.667015 1.300049 -0.922607 -0.383577 -1.808615 -0.406524 -1.247101 -1.150946 -0.911868 0.070090 1.552636 1.547616 0.381746 0.055697 0.385344 -1.461023 0.980132 0.151028 -0.240628 0.780108 -2.348637 -0.118587 -0.404569 0.416405 0.047938 0.162839 1.397001 0.931963 -0.224195 1.129883 0.641570 0.238411 2.134326 -0.509529 -0.537266 -0.859249 1.813580 0.525003 0.278182 0.883497 -0.602426 -1.911287 0.038391 -1.325324 1.360058 1.248971 -1.443713 -0.255533 0.493984 -1.034991 0.669623 0.489987 -1.608518 -0.434932 0.574385 1.337889 0.249511 -0.620212 1.655180 -1.298037 -0.794893 0.217341 -1.492160 -0.221545 -0.401639 -0.955318 -0.397448 0.810800 -1.145047 -1.025195 0.634732 0.548842 0.564541 -1.410076 0.606373 1.240553 0.341019 0.200629 0.797344 -1.696592 -0.490178 -0.570433 0.781821 1.403809 -1.496515 -0.077906 2.093048 0.557938 0.714859 1.128532 -0.027712 0.380023 0.832372 0.172236 1.433822 1.313942 -0.417449 -1.194410 1.269092 -2.149225
理O 0.905208 0.103117 -1.659895 -0.679876 -0.108483 -0.958002 -1.484140 1.066088 0.743886 -0.140150 0.007691 0.506081 0.443143 -0.336349 -1.679302 0.091858 0.968654 -2.114409 0.296669 0.116184 -0.932251 1.783938 -0.527267 -0.887152 0.300026 0.658266 -0.545936 0.213332 0.060693 0.614364 0.352553 -2.092606 0.354397 0.113681 -2.136616 -1.419071 -1.724598 0.940926 -0.393497 -0.619716 1.825315 -1.656596 -0.386479 0.057446 0.470446 -0.970377 -0.855236 0.495306 -0.199628 -1.200062 0.926841 -0.446890 -0.338470 -0.736137 0.294095 0.340916 0.013927 -0.551793 1.432117 1.108535 -1.385482 -0.158005 -2.348139 0.940902 1.827339 -1.568113 0.500318 1.462439 -0.505417 0.796199 0.777301 -0.451078 0.812046 -1.494246 0.538612 0.919024 -0.594820 -1.341733 -0.100458 -1.746015 -0.274405 0.566946 0.969522 1.883389 0.720139 0.287838 0.365009 1.963288 -0.682003 -2.800397 -1.897282 -0.627458 0.082387 1.062021 0.655176 -0.934834 -0.492322 -1.460436 -0.004018 -1.635977
分O 1.804131 0.033627 -0.525666 -1.337231 1.620748 1.081939 -0.749673 0.541761 -0.113821 0.397114 -1.116330 -0.789816 -0.324915 0.210500 -0.880810 1.581180 1.125250 -1.223807 0.188634 0.088855 -0.572735 0.079067 -0.121185 -1.749279 1.801777 -1.237561 0.619703 0.725250 1.583432 -0.962548 0.262481 -0.258948 -0.576865 0.670907 -0.036788 -0.842464 -1.204268 0.108687 -1.690312 -0.506378 -0.797082 -0.753569 -1.548950 0.640382 -0.099778 -0.747242 -0.244394 1.293649 0.273205 0.648452 1.024800 -1.317176 -1.014697 -0.421028 -0.123076 -1.082365 0.496502 0.522542 -1.695186 0.649807 0.600884 1.509415 -1.034409 -0.258434 -0.025918 0.015050 1.338294 0.338278 -0.852496 0.155529 -1.059981 -0.994934 0.629247 -0.781992 -0.557460 0.418417 0.186009 -2.119317 0.181397 0.084141 0.975088 0.326514 0.289413 1.410655 1.989069 0.912181 0.286037 0.186179 -1.391614 -2.233112 -0.321144 0.642725 -0.277155 1.920355 -0.312004 -1.426008 -1.135866 0.378176 -2.509243 -0.721652
大B 0.343729 -0.099222 -0.574350 0.385201 0.385924 -1.133830 0.501489 -0.509427 -1.319787 0.786958 0.069663 0.672311 -0.158207 -0.048018 1.125257 0.324471 -0.512108 -0.592591 0.236675 0.597892 -1.119664 0.566460 0.760315 0.289690 -0.153731 0.437119 0.833788 0.600815 0.499911 -1.398395 -0.493099 0.531106 1.454587 0.177851 -1.373759 0.379429 -0.671664 0.028266 0.065763 -0.704889 -0.259193 0.080900 -0.355059 -0.517894 -0.841602 1.085674 -0.350350 -0.587941 0.594928 1.009626 0.711696 0.353134 0.919698 0.115216 1.244713 -1.496232 1.152843 -0.917958 0.096520 0.620470 0.091735 -0.426283 -0.648901 0.538827 -0.213511 0.119698 -0.943243 -0.818498 1.179710 -0.175078 -0.081895 -0.785509 -0.855106 -0.949124 0.334579 -1.420957 -0.420129 0.839631 1.967731 -0.301282 -0.367712 -0.903895 -1.144778 1.317710 -0.917816 0.414586 1.079463 -1.394564 -0.284882 -0.391800 0.799583 0.604724 -0.221532 -1.512849 0.211092 0.699247 1.596090 -0.253329 0.459139 0.481806
复O -0.769164 0.817292 0.668396 -0.291026 -1.646156 0.028234 0.389108 1.009331 1.230907 -1.417750 1.741599 2.219826 0.626913 -0.954379 0.204980 -0.906512 0.415606 -0.252394 -0.566137 -0.392250 -0.365079 0.575227 -0.818307 1.399078 -0.012351 1.264733 -0.742054 0.100532 0.778002 0.746426 0.705204 -1.581464 0.342431 -0.384118 0.208251 -0.216001 0.240741 0.017880 -0.014657 1.130207 0.878901 -2.101497 -0.770643 -0.541079 -0.560427 0.364749 -1.780771 0.274178 0.521797 -1.111450 -0.237931 0.302722 0.071100 -1.490479 0.637231 1.028453 -0.841637 -0.355592 -0.000557 0.137849 -0.454335 0.550157 -1.085133 0.237624 0.944155 -0.788701 -0.201858 0.505593 -1.152883 -0.111270 0.671180 -0.848227 0.881709 -0.699529 0.579851 1.605117 -1.207587 0.686538 -1.385671 -1.125966 1.057228 -1.073243 -0.507455 0.780324 -1.192749 0.399683 0.980350 0.469042 0.794673 0.178115 -0.593969 0.168832 -1.351064 -1.415025 0.346967 -1.606253 -0.838455 0.004863 -0.350080 0.039779
一O 0.545861 0.792727 0.412330 -0.123648 -0.772568 0.210021 0.445668 -0.772060 -0.415638 0.772593 2.031920 0.868237 -0.593058 -0.652418 1.029746 -0.245019 0.252530 0.022640 -0.539941 1.205296 -0.552360 -0.498221 -0.391695 0.054800 -0.341645 0.326777 0.557948 0.022461 0.941022 -0.059489 -0.684558 0.051773 0.881814 1.102952 -0.466839 -0.812537 0.533648 0.089241 0.562092 0.515112 -1.837630 -1.567122 -0.889540 0.528480 0.655243 -0.042395 -0.465530 0.296004 1.450318 -0.105416 1.079947 0.852989 -0.787392 -0.387540 -0.614786 -0.464475 -0.902463 -0.698726 0.644518 0.329937 -0.188088 1.210900 -0.219237 -0.511776 -0.546371 -0.724526 -0.112268 -1.021883 -1.337924 -0.513722 0.468901 -1.102921 0.193342 -0.572481 -0.894818 0.127473 -0.031994 -0.330296 0.206293 -0.456749 0.188039 -0.315409 -0.927268 1.250384 -0.933618 1.142967 0.686833 0.477547 0.211208 -0.518274 0.173070 1.218472 0.317368 -0.908192 0.803599 -0.301744 0.219027 -0.575205 -1.194748 -1.141147
性O -0.115133 0.242197 0.171415 -0.285329 -0.055144 0.588264 -0.415221 -0.285642 -0.931940 0.202054 -0.473958 -0.163882 -0.395936 0.153141 0.943156 0.694007 -0.054178 1.291836 -0.699590 0.254380 -0.101980 -0.297898 -1.040563 -1.044804 0.477268 0.078365 -0.411824 -0.351980 0.266853 -0.184232 -0.682599 0.154032 0.417268 0.660711 1.448895 -0.294464 -0.650774 -0.491281 -0.324672 -0.587232 -0.297232 -0.529928 -1.037013 0.398837 0.284225 0.922791 0.052342 0.756177 0.167925 1.773292 0.746910 -0.142231 -0.747298 0.197560 0.263784 -0.830070 0.264023 -0.061558 -0.407950 1.076472 -0.098361 0.670907 0.838972 -1.038922 -0.303760 0.481604 0.320916 0.180358 -0.214082 -0.808663 -0.374018 0.449960 0.245607 -0.701506 -0.346518 0.396502 0.200929 -1.123177 -0.154707 1.131437 0.501002 0.652816 -0.944521 -0.188787 0.913347 0.466153 -0.183747 -0.223299 0.274356 -0.003366 0.082924 -0.208109 -0.126836 -0.097685 0.320668 -0.470164 -0.071614 0.284760 -0.213562 0.269122
转O 0.734791 -0.354717 0.139545 1.187108 -0.100175 0.635975 -1.474113 -0.455967 1.108650 -0.411953 1.032860 2.326492 1.044553 -1.765158 0.202125 0.029510 0.885695 -2.609683 0.085806 -0.932827 -1.092123 1.226064 0.079273 -0.517668 0.713102 0.961561 -0.668879 0.929199 -0.071217 1.611665 0.607990 -2.024978 -0.063192 0.116173 0.567558 -1.986497 -1.169204 -0.147554 0.359609 -0.769493 0.888665 -2.073103 -0.793409 0.500563 -0.784788 0.764445 -0.243166 0.414631 1.837470 -0.918348 0.047477 0.622401 0.352099 -1.540045 -0.144631 0.150576 -0.399778 -0.641848 -1.038133 0.951479 -0.446594 -0.297222 -0.313572 0.337539 0.267197 -0.183792 0.304531 2.551274 -1.436952 -0.334612 1.413338 0.450255 0.327436 0.010107 -0.383634 0.071011 -0.863466 0.236391 -1.245994 -0.062842 -0.513283 -0.288494 -0.607694 2.656101 -1.217685 0.490873 -1.068873 -0.107646 -0.173733 -1.642759 -0.486352 1.053043 -1.530450 -2.885942 -0.800645 -1.510715 0.795696 -0.033199 -0.284848 -0.484109
重O 1.088313 -1.541049 -0.044724 0.029073 1.114584 1.506054 0.108013 -0.069703 -0.886964 0.211502 0.839570 0.088142 -1.137037 0.119546 1.150938 0.962608 0.365703 1.224948 0.379077 -0.449409 -2.902099 1.141703 -0.829958 -0.422059 -0.726811 0.136714 1.633251 1.128471 1.711153 -0.650062 -0.425951 0.602816 -0.412334 0.450498 0.434360 0.306588 1.410550 -0.220758 -0.787459 -0.335150 -1.710388 0.249612 0.032628 -1.075543 -1.188075 1.245878 -1.656093 0.274102 0.494196 -0.726906 0.346203 0.158465 -0.354213 -0.144374 1.388187 -0.894737 0.345218 -0.243794 0.988437 -1.567849 -1.218508 -0.241635 0.831026 -1.281159 -1.048283 0.909083 -1.467115 -0.650148 -0.312285 -0.038159 0.360055 0.879728 -1.012251 -1.281829 1.392271 -0.609074 1.217384 1.238532 0.533869 -0.549576 0.916231 -1.063029 0.211200 1.002229 -0.370731 0.044408 1.311305 -0.257846 -0.431304 -0.614449 -0.195961 1.020337 -0.465291 -1.854370 1.991898 0.349974 0.248558 -0.791445 -0.116337 0.085401
食O 0.359361 0.968462 -0.718713 -0.227229 -0.794575 -0.730857 0.531350 -1.547681 -1.762957 -0.116127 2.159111 0.827679 1.022088 0.120693 0.913923 -0.420751 -0.169374 0.034795 -0.800168 0.711740 -1.344796 -1.079675 -0.442389 0.477243 -0.952826 0.268879 1.963001 0.940177 0.706148 -0.423701 -0.790712 0.019268 2.733325 0.263385 -0.051122 -0.955003 0.385222 0.301636 -0.271112 -0.197762 -1.464443 -1.478141 -0.385637 -0.686297 -0.334696 2.464367 -1.988435 0.106592 1.511132 0.277275 1.466500 -0.036984 -0.333602 0.533927 2.825176 -0.482775 0.993952 -1.380469 1.292442 -0.523322 -1.125258 0.905128 0.149442 -1.529945 -1.102622 0.049021 -2.434608 0.577727 -1.344706 -0.140454 0.465007 -0.188216 0.331165 -1.310511 -0.052261 0.124187 -0.961096 0.221000 1.474639 -0.839714 -0.127771 -0.598268 -0.952922 0.964170 -1.271387 0.696544 2.558077 -1.067945 0.383700 2.002033 0.803172 1.633122 0.420904 -0.994130 1.316211 0.692402 0.875556 -0.232632 0.667326 0.855816
8O 0.127498 0.163447 -0.223918 0.407090 0.548999 -0.180260 -0.232375 0.558347 0.582156 -0.599245 0.304019 0.515623 0.142886 -0.031003 -0.242055 0.513490 0.834632 -1.260244 0.404821 0.172279 -0.023627 -0.082477 0.756903 0.485793 0.298758 0.166794 -0.483463 1.064989 0.387275 -0.098259 1.419490 -0.389041 -1.539201 0.496127 -1.538373 0.554394 0.342393 0.640228 0.400175 -0.155484 0.851381 -0.501447 -1.069157 0.006142 -0.320560 -0.114247 -0.075161 0.429262 -0.093583 -1.277519 -1.265644 0.533320 -0.013276 -1.597742 -1.182157 0.235392 -0.492874 -0.014530 -1.077144 -0.555164 -0.072471 -0.601419 -0.842053 1.102213 0.497364 -0.502207 0.886931 -0.261133 0.732125 0.321211 0.324863 -0.605394 -0.576978 1.021984 -0.415039 -0.843531 0.290658 0.171529 0.460663 -0.994915 -0.008911 -0.362441 1.552959 1.301462 0.488025 -0.226745 -0.783411 0.164805 -0.518447 -1.285206 -0.155033 -0.976214 -0.822867 -0.134391 -0.611503 0.641912 -0.671020 0.221490 0.604762 -0.350141
淋B 0.351226 -0.727070 0.004755 0.371900 0.574383 -0.078908 0.053594 -0.598644 1.253647 0.471330 -0.571591 0.663964 -0.900973 -0.272437 0.609297 0.571042 -0.856386 -2.173493 1.205860 0.595032 -0.777628 1.107184 1.532913 0.921379 1.600877 1.335148 -0.860821 -0.098118 1.271141 -0.952568 0.725262 -1.023001 -0.039377 -0.134402 -1.178475 -0.184990 -0.307196 -0.172796 0.984503 -0.749757 1.398904 0.089247 0.364550 0.146922 -0.694627 -1.358734 1.493017 0.852991 1.270999 0.737297 -0.150138 0.849402 0.962390 -1.744177 -0.962386 -1.300531 0.317675 -0.070338 -3.224323 0.732159 1.249427 -0.794570 0.505569 1.121523 1.433189 0.337171 2.758102 0.965066 0.056683 -0.988525 -0.500198 -1.114453 -0.614505 1.567264 -0.625653 -2.702135 -0.320256 0.203836 0.544013 0.874588 -0.361850 0.483860 -2.267539 2.056732 -0.281443 0.587675 -0.928704 -1.561019 -0.313680 -3.868820 -0.766257 -0.057368 -0.444411 -2.146619 -1.267996 -0.634160 0.574646 0.879664 0.014744 -0.969722
(O -0.834260 0.239864 -0.042846 -0.204204 1.085152 -1.080378 -0.530154 0.393219 0.970912 -0.352687 -0.820830 0.368794 0.026175 0.387499 -0.907553 0.589804 0.501886 -1.546525 0.782651 0.288924 -0.364630 -0.300199 0.727260 1.208613 1.037257 0.513660 -1.061878 -0.228632 -0.348053 -0.595176 0.842379 -0.092920 -0.479377 -0.123521 -2.115070 0.881295 -0.228928 0.519726 0.005363 0.304078 2.094851 0.093729 -1.022580 -0.435247 -0.744185 -0.871237 0.834791 0.053205 -0.229205 -0.429956 -0.943119 -0.187982 0.277627 -1.150849 -1.539021 -0.121383 0.191432 0.292553 -1.398280 0.049956 0.257902 -1.655860 -1.209513 1.343238 1.128835 -0.097553 2.022412 -0.024275 1.476080 0.811468 -1.422617 -1.295513 -0.700064 0.789703 0.137508 -0.567988 -0.847671 0.235786 0.871969 -0.181033 0.147497 0.315357 0.380811 0.586889 -0.141786 0.254123 -0.627956 -0.851189 0.083401 -2.084641 -0.952088 -2.219245 -0.389900 -0.056707 -0.397885 -0.232049 -0.866781 0.164321 0.246643 -0.876260
期O 0.404900 0.397880 -0.473536 -0.666928 -0.157107 1.071193 0.300728 0.505748 0.427945 -0.114717 1.427746 0.441762 -0.473485 -0.115069 -0.406194 0.267352 1.509137 -0.889558 0.291072 0.086698 -1.244804 0.232562 -0.547714 -0.650391 0.061632 -0.197651 0.249725 0.407906 1.244787 -0.021779 0.703860 -0.464618 -0.536905 0.173612 0.085344 -0.763252 1.534178 -0.226100 -0.521281 1.333909 -1.456103 -1.133895 -0.565009 0.168407 -0.154064 -0.386345 -1.156727 0.080424 0.368892 -1.790881 -0.140383 0.277609 -1.399633 -0.737585 -0.322279 0.685308 -0.983063 0.676860 -0.208263 -1.262892 -0.429675 0.473089 -1.207733 -0.476014 -0.309937 -0.301557 0.281433 0.465302 -1.609403 0.706057 0.531936 -1.097329 0.078984 -0.524508 0.100244 0.007886 0.467506 -0.795171 -0.047801 -0.251873 0.533534 -0.147213 0.381479 1.323464 -0.144858 0.328447 1.102715 0.951272 -0.205440 -0.211750 -0.433839 0.376110 -0.248005 0.424739 0.179562 -1.185231 -1.390223 -0.333719 -1.511195 -2.064560
肠I 1.298553 0.581548 -0.088497 -1.569561 -0.341971 -0.148117 -3.406397 -1.008106 0.359939 -0.104572 -0.915838 -0.778357 0.337428 -0.261043 -0.592647 0.430836 -0.385330 0.479717 -1.020880 0.912951 1.386596 1.094796 0.000974 -0.463424 1.343204 -0.413627 -0.621291 -0.273042 0.988119 1.222172 -0.446318 0.739574 -0.896584 0.900892 -0.260911 0.911746 -1.070867 1.027795 0.700068 -1.103687 0.945600 -1.967183 -1.687895 0.532386 1.802054 -0.163348 0.727227 0.771080 0.944765 0.499896 1.364522 -0.397623 -2.730959 -0.505024 -2.251537 0.517422 0.567036 0.929713 0.722095 -0.012201 -0.499714 0.638554 0.300357 0.552386 -1.538596 -0.781905 0.031285 -0.500668 -0.765332 -1.466684 -1.071515 0.777105 0.551531 1.040402 -0.407689 0.479826 -0.728630 -0.580580 -1.504689 -0.510763 -1.495670 1.104900 0.481815 0.911351 1.376403 0.151912 -1.935337 0.577262 -0.105287 -1.393188 0.186676 -0.368258 -1.056814 0.145713 0.840572 0.815915 -1.884920 -0.805415 1.764187 0.509493
9O 0.251586 0.121108 0.148845 0.627457 0.420278 -0.297507 -0.572299 0.485719 1.045376 -0.838459 0.443238 0.691436 0.333594 -0.229201 -0.340738 0.154178 0.840187 -1.503068 0.479310 0.015413 -0.027606 0.058080 0.910569 0.860829 0.342418 0.204095 -0.526836 1.198458 0.276470 0.446490 1.596871 -0.392005 -1.662586 0.202857 -1.621116 0.626291 0.522776 0.996256 0.801259 -0.165143 1.171568 -0.951862 -1.211252 0.035506 -0.248479 -0.280753 0.188767 0.558255 0.127331 -1.777449 -1.344606 0.665777 -0.115233 -1.801130 -1.654606 0.577217 -0.599429 -0.003635 -1.078582 -0.920409 0.261065 -0.563434 -0.800285 1.071211 0.524794 -0.817251 1.152026 -0.140271 0.638381 0.022343 0.427749 -0.521408 -0.279724 1.215192 -0.462986 -0.605828 0.250105 0.452479 0.261883 -1.383272 0.139476 -0.513889 1.730245 1.218529 0.229862 -0.442440 -1.004954 0.235943 -0.458776 -1.500546 -0.320098 -0.833616 -1.136182 -0.284275 -0.368986 0.806780 -0.788598 0.104220 1.108516 -0.523434
因O 0.107840 0.754469 -0.453859 -0.232675 -0.475477 0.535353 -0.905131 -0.641127 0.162757 -0.926538 -0.868265 1.401591 0.284959 -0.153178 1.681581 0.574746 -0.939789 1.116140 0.864748 0.774320 -0.494274 0.648116 0.916088 0.549897 0.330384 0.755523 -0.058451 0.116628 1.109734 0.457582 0.251532 1.093820 -0.036911 0.375004 0.199754 1.350768 1.296998 -0.219821 0.150909 -0.313730 -0.021669 -1.096943 0.626754 -0.819556 -0.537843 0.884753 -0.682276 0.548442 0.290388 -0.145446 -0.820383 1.318777 -0.671238 -1.953209 -0.459591 -0.165146 0.352141 0.435968 0.130883 -1.145494 -0.373991 0.543266 1.354942 0.667877 -1.579073 -0.423330 0.150358 -0.192026 0.626643 -2.230399 0.263483 1.456684 -0.403083 0.750530 0.015938 -0.171725 0.326361 0.667569 0.167324 -0.159103 -0.166391 -0.701181 0.617637 0.494597 -0.277742 0.017208 -1.835909 0.321471 0.695299 0.380614 0.431805 -0.255606 -0.856546 -1.449755 0.211253 1.393426 -0.115963 -0.161842 0.985429 0.422934
)O -0.576411 0.149728 0.097547 -0.335738 0.927725 -0.933545 -0.464466 0.645349 1.033514 -0.517554 -0.780455 0.365119 -0.064217 0.482868 -0.805077 0.553784 0.692842 -1.619738 0.876488 0.168646 -0.523109 -0.300132 0.415591 1.030726 1.184990 0.079229 -0.398100 0.022780 -0.257533 -0.532691 0.622182 0.052011 -0.040265 0.071221 -2.209714 0.625567 -0.290569 0.642583 0.027574 0.324498 1.551211 -0.146599 -0.877148 -0.513801 -1.131178 -1.301873 0.825339 -0.226330 0.195122 -0.513659 -0.558787 -0.312680 0.381960 -0.568044 -1.484579 -0.065628 0.074412 0.094050 -1.494767 -0.057630 0.357812 -1.584215 -1.405093 0.972261 0.593418 -0.156545 1.451055 0.066661 1.287218 1.393273 -1.368700 -1.414323 -0.667468 0.228501 0.112310 -0.203853 -1.363964 0.058285 0.790386 -0.391580 -0.130600 -0.149415 0.553263 0.528184 -0.491942 0.288914 -0.849201 -0.696279 -0.153980 -1.899983 -0.552154 -1.871320 -0.522515 0.482931 -0.261382 -0.965040 -0.619502 -0.232526 -0.020684 -0.795603
发O 0.028248 0.472415 -1.273606 -1.032231 -1.025149 -0.400207 -1.886325 -0.495899 0.405141 -0.206055 -0.707062 2.217886 0.366506 -0.502173 1.153365 -0.111718 -0.643670 -0.008951 -0.137535 0.553809 -1.515765 0.886523 -0.490416 0.129345 1.191399 0.504406 -0.224228 -0.212280 0.102851 1.122184 -0.526501 0.233233 1.543650 -0.238117 0.218484 -0.664963 0.100667 -0.097026 0.205594 -0.202288 -0.185085 -1.859635 0.339596 -0.702216 0.134476 0.755783 -0.504509 0.171256 0.321659 0.020773 0.241520 0.956009 -0.374968 -0.540426 0.105143 0.588782 0.597013 -0.325332 0.156544 0.024944 -0.788529 0.272578 -0.340026 0.562992 -0.561936 -1.219812 0.813912 1.560046 -0.877069 -1.827935 0.536218 0.806874 0.986997 -0.510743 0.409882 1.233221 -0.702190 -0.263153 -0.437329 -0.333643 -0.918543 0.798993 -0.148544 1.287286 -1.038144 0.334315 -0.513248 0.802835 0.661487 0.193817 -0.191386 0.317217 -0.009297 -1.004631 0.908781 0.381165 -0.253149 -0.777696 0.804731 -0.513561
肠E 1.282201 0.094676 -1.115452 -1.573488 0.665994 -0.124734 -1.940489 -0.260006 -0.033872 0.579357 -0.910893 -0.312647 0.411365 -0.057599 -1.164544 1.207182 -0.477571 0.265627 -0.081615 1.116232 0.450499 0.617318 -0.368044 -0.738848 1.062747 -0.085560 -0.223900 -0.671526 0.888068 0.352885 -0.995705 1.032338 -0.291003 0.958207 -1.227612 0.769535 -2.492779 0.277754 -0.680701 -1.147379 0.559427 -0.315645 -0.693058 -0.061532 1.398153 -0.039407 0.575390 0.302219 1.559908 0.631333 1.447475 -0.913380 -1.666719 -0.401572 -1.430859 -1.040596 0.965392 0.260052 0.461956 0.452929 -0.942396 0.071771 -0.498356 1.181965 -0.141171 0.281469 0.773161 -0.546054 -0.035910 -0.142845 -0.913618 0.928117 0.085644 -0.803191 -0.516342 -0.081001 -0.276281 -1.470445 0.097938 -0.445775 -1.224086 0.934460 -0.389827 1.275966 1.164027 0.450645 -0.843540 -0.041406 0.384381 -2.334225 -0.762519 -0.200401 0.302926 -0.060442 0.833361 0.783125 -0.683610 -1.266112 0.304860 0.732011
变O 1.094733 -1.833286 0.026878 -0.675338 1.405498 1.487865 -1.151078 0.067037 -0.186979 -0.060771 -0.920754 0.115470 -1.476937 0.281287 0.389176 1.071880 0.611980 0.529394 0.199170 -1.194026 -2.332466 1.607920 -0.740835 -1.148008 0.616284 0.041379 0.462516 0.685628 1.457909 0.215143 -0.081680 -0.274549 -0.069114 -0.044842 1.338288 -0.755179 0.531178 -0.350760 -1.244521 -0.694747 -0.539452 0.110982 0.371791 -0.388111 -1.333556 -0.063478 -0.643425 0.873995 -0.018892 0.072647 0.645720 -0.201859 0.047727 -0.514738 0.812860 -0.600923 0.211488 0.311982 0.066223 -0.694584 -0.685815 -0.331967 0.904885 -1.139498 -0.500762 0.335359 0.447333 0.901105 -0.801224 -0.684325 0.170789 1.363219 -0.369693 -0.933388 0.988477 0.643161 0.951694 -0.196571 -0.408350 -0.061573 0.928106 -0.112179 0.126726 0.697964 0.716495 0.325941 0.013065 0.365768 -0.536357 -1.742101 -0.686482 0.796485 -0.399732 -0.537351 1.181652 -0.820346 -0.190594 -0.329073 -0.800178 -0.192428
TO -0.076646 -0.108139 0.583356 -1.373994 0.946350 -0.208375 -0.500867 1.148803 1.175940 -0.378728 -0.987392 0.569344 -1.343937 0.659180 -0.884566 0.261192 1.498117 -0.545071 -0.007461 -0.771349 -0.140581 -0.037535 -0.590540 1.076251 1.349063 -0.063021 -0.187974 0.188067 0.307006 0.536243 -0.216165 -0.312137 -0.257432 -1.202066 -0.299225 0.302360 0.741112 0.083691 -0.522973 0.837017 1.164209 -0.359492 -1.334846 -0.279869 -1.052892 -0.656373 -0.604699 0.433177 -1.179447 -0.194192 -0.328757 -1.142491 0.184549 -0.721974 -0.783290 1.057937 -0.530061 0.807234 -0.821360 -0.464524 0.261607 -0.031347 -1.234403 -0.046103 0.353538 -0.017889 1.374865 -0.201312 0.257851 0.308401 -1.680336 -0.532039 0.312472 0.333567 0.024071 1.592075 -0.593787 -0.514142 -0.906591 -0.524103 0.895942 -0.345594 1.129914 0.052308 1.064084 0.243351 0.403462 0.491709 -0.342309 -0.867277 -0.750323 -1.234580 -0.605295 1.513408 -0.171410 -1.157758 -1.946823 1.116565 -0.254592 0.013905
予O -0.101753 0.312842 -0.042638 0.165954 -0.783628 -0.378127 -0.903573 0.517625 -0.378827 -0.663717 1.346345 -1.042594 0.367531 0.214306 -0.989108 -0.472260 1.883709 0.865434 -0.145259 -0.760248 0.139847 -0.699932 -1.371210 -0.034720 -1.129048 -0.169857 0.212494 1.237600 -0.620081 0.709433 0.548055 -0.789807 -1.064590 -0.217105 0.389193 -0.064573 0.888881 0.784005 -0.300989 -0.223794 1.261913 -0.079959 -1.509426 0.488132 1.142969 0.698610 -1.375391 0.545496 -0.811622 -1.252675 -0.193810 -0.570275 -1.613668 0.065135 0.184753 1.240688 -0.390083 0.221939 1.874774 -1.275044 -1.202669 -0.187280 -0.020334 -1.292468 0.244057 0.220840 -0.792919 0.228448 -0.206238 0.630630 0.423438 0.661860 1.098691 -0.040580 0.559877 0.811986 0.868434 -0.098337 -0.459569 -0.953738 0.743500 0.066947 1.536560 -0.140075 1.467900 -0.267317 1.011382 0.846445 -0.246017 0.744063 -0.961485 -1.184571 -0.515540 1.597917 0.447314 0.739165 -1.196949 -0.171354 1.844692 -1.126026
查O -0.162353 0.183739 1.499534 -0.199415 -0.484441 0.463873 0.045438 0.685936 2.548970 -0.584683 0.338973 2.030920 -0.251095 -0.556280 0.021734 -0.229711 0.284918 -0.742837 0.470413 -0.786327 -0.232935 0.044874 -0.509504 1.847813 0.682469 1.201380 -0.640466 -0.214971 0.420008 1.306985 -0.566648 -0.318412 0.494437 -0.912219 -0.029626 -0.447212 0.075626 0.012882 0.529853 0.735576 0.720244 -1.621830 -0.720027 0.093424 -1.263144 -0.865487 -0.424492 0.205689 0.842889 -1.189046 0.304784 0.101571 1.053241 -1.451643 -0.803747 0.282261 -1.073023 -0.088223 -0.141454 -0.197777 -0.243918 0.586082 0.092138 0.160779 0.438256 -1.070224 0.621610 0.750137 -1.067710 -0.558124 -0.007269 -0.303117 1.726908 0.516638 -0.854710 1.374554 -0.482142 0.059492 -1.203747 -0.554930 1.227352 -1.133551 -0.388295 0.570582 -0.866254 0.648769 -0.649661 0.936264 -0.031636 -1.366400 -1.075591 0.330499 -0.928000 -1.061593 0.789998 -1.780202 -0.434197 0.044977 -0.758614 -0.285284
正O 1.254115 -0.687925 -0.898500 -0.230480 0.580851 -0.769167 0.175036 -0.142562 -1.888186 0.982088 0.502548 0.477380 -1.027629 0.167276 1.159631 0.733053 0.072996 0.153261 0.219145 0.403116 -2.619438 1.399948 -0.212849 -0.406943 -0.360540 0.510068 1.579131 0.756168 0.875167 -1.332490 -0.991223 0.949857 1.378799 0.751698 -1.407304 0.531714 -0.433297 0.049387 -0.225051 -0.651444 -1.101832 0.099450 -0.552544 -1.380740 -0.896626 1.405598 -1.244625 -1.039042 0.664361 0.665807 1.323605 -0.069563 -0.012038 0.577832 1.991038 -1.587361 1.276938 -0.863086 1.395329 0.202845 -0.947720 -0.308069 -0.974740 0.222574 -0.798913 0.292568 -2.079582 -1.165651 0.957710 0.179877 0.202102 -0.076415 -1.327506 -1.995799 1.855428 -1.037383 -0.062250 1.240573 1.773790 -0.863034 -0.640028 -1.050285 -0.554121 1.895808 -0.936678 0.211084 2.375710 -1.050753 -0.609199 -0.736167 0.447449 0.883628 -0.043794 -1.616133 1.717251 0.529309 1.108074 -1.149609 0.638597 0.097856
中O 0.740487 -0.119961 -0.031689 -0.788212 0.399678 1.091416 -0.667204 0.313358 0.549488 -0.143326 -0.001426 0.046731 0.782533 -0.526344 -0.485989 0.709516 -0.665481 -0.866597 0.296701 0.041414 -0.156573 0.671357 -0.194973 -0.074606 0.427969 -0.295560 -0.359143 0.188757 1.965537 -0.040802 0.086681 -0.773555 -0.228776 0.380358 -0.451407 -0.567290 -1.054325 -0.217154 -0.899929 -0.916362 0.140945 -0.603820 0.105808 0.682545 0.286258 -0.090168 -0.037608 0.994909 0.931877 -0.434037 0.357458 -0.069000 -0.473287 -0.935560 -0.172100 -1.023446 0.116815 0.041580 -0.364138 0.113531 -0.215131 0.848568 0.048377 -0.409545 0.276562 0.033756 0.840195 0.608095 -1.281754 -0.412958 -0.091297 -0.106800 0.698691 0.241218 -0.867822 -0.199906 -0.016650 -0.863975 -0.608822 0.023290 0.751286 0.618158 -0.958488 1.507316 1.277026 0.546169 -0.566417 -0.176150 -0.317522 -1.799982 -1.020734 0.800724 -0.811891 0.041510 -0.009989 -0.366883 -0.060054 -0.574211 -0.973379 0.012317
管E -0.001594 0.698690 0.727688 -0.512850 1.088987 -0.072251 -0.952394 -0.301313 1.010644 0.209532 -0.462770 0.096253 0.311768 0.433594 -0.753197 0.559715 -0.998626 -0.795564 0.685142 -0.125404 -0.686869 -0.524631 -0.583319 1.050458 1.593806 0.390230 0.273601 -0.458221 -0.483031 -0.733227 0.089303 0.326800 1.947871 0.190798 -0.905609 -0.638813 -0.949504 0.145013 -0.578583 -0.252179 0.896664 -0.055431 -0.028799 -0.065026 -0.677453 -0.446531 0.512748 0.096758 2.144621 0.515033 0.848639 -1.377720 1.119329 -0.392011 -0.169531 -1.619940 0.570695 -0.279290 -1.390234 0.509788 -0.983719 -0.907008 0.736735 -0.565219 0.659166 1.008561 0.367653 1.406644 0.083256 0.399539 -2.021997 0.591445 0.143685 0.195647 -1.023498 -0.248162 -1.454784 -0.381087 1.033482 0.630236 -0.448915 -0.052566 -1.224320 -0.046980 -0.307869 1.046826 -1.492617 -1.569283 0.379881 -0.665788 -0.595458 -0.142584 0.633217 -0.633145 0.207161 -1.412256 0.678563 -0.378602 -0.711420 0.761222
腺B 1.628506 1.130494 -0.071075 -0.679164 1.545936 1.047388 -2.117939 -0.432683 -0.141597 -0.351616 -0.923834 -1.041475 0.577247 -0.068533 -0.784290 2.053902 0.814515 -1.232455 -0.173989 0.297868 0.023610 0.194898 0.566633 -2.502138 2.008585 -1.725079 0.797785 1.114401 1.496287 -0.649720 1.038197 0.115997 -0.727326 0.979834 0.513440 -0.518598 -1.230320 1.008826 -0.726584 -1.070579 -0.849175 -1.907638 -2.371093 1.246161 0.200907 -0.193993 0.231052 1.131225 1.045147 0.865033 1.121964 -1.137073 -1.765648 -0.535864 -0.915967 -0.915264 0.966833 0.500147 -1.543763 0.170507 0.479710 1.495274 -0.402174 -0.662461 -0.734494 -0.537791 0.540257 0.854617 -0.633545 -0.486220 -0.889520 -0.374945 0.762933 -0.418353 -0.913389 -0.040182 0.303442 -1.601860 0.537436 0.126954 0.360567 -0.193678 0.770882 1.363162 2.060109 0.712657 -1.479165 0.383865 -1.267399 -0.997475 0.942487 1.248928 -1.039234 1.689659 -0.663696 -1.415749 -1.110259 0.388186 -1.614484 -0.083399
肠B 0.432616 0.565667 0.849238 0.476871 0.170361 -0.344346 -0.909089 -0.598159 0.803905 0.394791 0.631991 0.234825 -0.111378 -0.110508 -0.046799 0.077127 -1.113261 -0.748784 0.260326 0.475641 -0.599963 -0.199962 0.096461 0.483799 1.027868 0.619316 0.549449 -0.747067 -0.479266 -0.382487 0.045411 0.037504 1.155317 0.523696 -0.826842 -0.959755 -0.350602 0.960347 1.055666 -0.341161 0.506862 -0.489532 -0.494040 0.884012 -0.087457 -1.331057 0.793612 -0.032661 1.946636 0.324484 1.252169 -0.209394 0.933625 -0.760077 -1.311503 -1.072265 -0.215095 -0.302480 -0.592239 0.693715 -0.228917 -0.448413 0.573891 -0.314084 0.658016 -0.422805 0.619479 0.798976 -0.138411 -0.527135 -0.559372 -0.261944 0.229380 0.360273 -1.317309 -0.450934 -0.448427 -0.061733 0.940157 -0.136516 -0.357806 -0.184304 -1.001938 0.101423 -0.685615 0.444054 -2.090645 -0.396897 0.165940 -1.784928 -0.085849 0.360562 0.753461 -0.998990 0.066449 -1.091221 0.771255 -0.308514 -0.161553 -0.289355
好O -0.719273 -0.014372 0.342368 0.231175 -1.362507 -0.437758 0.548667 0.574147 -0.614377 -0.887679 1.678567 1.143220 0.806774 -1.106737 0.375664 0.294986 1.117408 -0.254676 -0.405421 -0.302324 -0.854205 0.871737 -1.195682 -0.962446 -0.611249 0.279098 -0.741858 0.865053 0.949255 0.024906 -0.045098 -1.416692 0.460840 -0.055553 0.818338 -0.185741 -1.095916 -0.040704 -0.493928 -0.072432 0.027401 -1.985448 -1.833097 -0.020417 -0.728354 1.397102 -1.371496 0.083902 0.943722 -0.655700 0.971898 0.333184 -0.427260 0.177238 1.750253 -0.143679 0.593213 -0.436149 0.735932 0.162121 -0.867750 0.011502 -0.496304 -0.548515 -0.192343 -0.296207 -1.365103 0.941739 -1.023799 0.999978 1.228666 -0.680425 1.098709 -1.779375 1.335639 0.665926 -0.960870 0.314613 -0.302826 -0.027002 0.848966 -1.027730 -1.405545 1.457733 -1.599068 1.092692 1.894262 0.324393 -0.264037 1.427370 0.106474 0.792681 -1.426628 -1.066507 0.959645 -1.525417 0.147166 -0.837467 -0.299497 -0.417878
移O 0.232616 -0.770781 0.556655 1.132952 0.014049 -0.269032 -1.018946 0.389924 0.901790 -0.501706 0.640774 2.004212 -0.267273 -1.730715 0.323202 0.660569 0.721051 -2.489939 -0.207578 -1.115946 -0.649890 1.993027 -0.255894 -0.624636 0.988130 0.356228 -1.324284 1.174595 0.606992 0.749478 0.904140 -2.168356 0.133538 -0.099607 0.057803 -0.817731 -1.746117 0.278527 0.247642 -0.639277 0.806864 -2.229182 -1.172461 1.038351 -1.014418 -0.108718 0.867849 1.117430 1.699249 -0.981956 0.722922 0.956939 0.952142 -1.490950 -0.765809 -0.311201 0.438536 -0.428406 -1.645849 0.914755 0.080156 -0.498685 -0.223441 0.749687 0.770155 -0.917807 1.168949 1.899755 -1.438147 -0.419650 1.071765 -0.042937 1.308477 0.057208 -0.068555 -0.222633 -0.968577 0.095254 -0.939010 -0.387865 -0.154298 -0.476913 -1.251490 2.800820 -1.058582 1.225399 -0.899750 0.661528 -0.804521 -1.386562 -0.269250 1.105076 -1.596054 -1.801631 -0.338940 -1.542010 0.789665 -0.130831 -0.335198 -0.288162
端O -0.179085 -0.466898 0.979439 -0.861937 1.115640 0.316465 -1.236758 0.350954 1.223906 0.076486 0.518852 0.341505 0.819410 0.053762 -1.800102 0.538799 -0.206333 -0.511222 2.653761 0.250263 -2.137895 -0.108982 -1.010336 1.221154 1.563750 0.181472 0.559633 -0.254346 -0.119482 -0.407670 -0.507650 0.024609 0.435704 -0.393951 -1.342587 0.467256 -0.481283 0.384168 -1.077788 0.262529 1.461738 0.552957 -0.775525 -0.232445 0.146701 -0.733001 0.203543 -0.229738 3.383083 -1.393208 0.710086 -0.782185 -0.525333 -0.844899 -1.786974 -1.573495 0.804542 -0.291804 -0.502224 -1.212480 -1.353311 -2.224971 0.219994 -0.651773 1.043070 2.352595 1.242069 0.553774 0.541242 2.091391 -2.089112 1.015098 0.196961 -1.188890 -0.097159 -0.556189 -0.954194 0.194463 1.504697 0.314687 -0.433755 -0.285657 -1.551495 1.208621 -0.762072 1.131840 -1.087142 -1.711177 0.785217 -1.669320 -1.674941 -1.172331 0.581939 -1.248220 0.840467 -0.698244 0.524825 -2.000286 -0.334440 -0.692205
侵O 0.696257 1.545994 1.022750 -0.724648 0.520852 1.106154 -0.834884 0.429836 0.474646 -0.590929 -0.543156 -0.599516 0.545457 0.687561 -0.257222 1.332084 0.012099 -0.202196 0.484581 0.031693 -1.858186 -0.861563 0.033604 -0.774424 2.385974 -0.250794 1.159262 0.365549 0.108408 -2.745013 2.209576 0.015934 0.596648 0.685427 0.456095 -1.145423 0.113846 0.130760 -0.211114 -0.277638 -0.055218 -0.345751 -1.192351 0.389064 -1.254967 -0.414619 -1.069316 -0.133972 1.057588 0.549358 0.923155 -1.534310 0.366189 -0.795798 0.675507 -1.480539 0.056339 0.894823 -2.730449 0.207299 -1.564243 -1.080253 1.010802 -0.757364 -0.681761 1.249064 -0.922154 2.421796 0.827615 1.417840 -1.267435 -0.353790 -0.478161 0.772566 -0.332330 -1.192363 -1.254461 0.391538 1.601125 0.781329 -0.528479 -1.150187 0.223739 0.244914 -0.569592 1.010754 -2.316309 -1.515169 -1.027288 0.593198 1.861819 -0.957148 0.411017 0.444046 -1.304726 -2.635435 0.180509 0.071492 -1.643673 -0.612596
年O 0.807615 -0.160753 -0.205393 0.986349 -0.223150 0.141337 -0.270949 -0.570652 0.240197 -0.533680 0.841733 1.403355 -0.390627 -0.554797 1.332920 0.099677 0.563735 -0.395971 0.371628 0.212566 -0.655573 1.098257 1.128981 0.375569 -0.570676 0.552506 -0.349669 1.564542 1.097996 0.699013 1.199498 0.124688 -1.416063 0.173205 -0.560699 0.738931 1.716244 0.321634 1.054095 -0.009836 -0.243651 -1.216243 -0.583439 -0.485517 -0.566091 0.502118 -0.778842 0.754166 0.163285 -1.356061 -1.008317 1.434527 -0.287115 -1.760928 -0.568780 0.610290 -0.564547 -0.132283 -0.183888 -1.280260 0.120330 0.005952 0.365431 1.093059 -0.610534 -1.056334 -0.051966 -0.599582 0.187446 -1.270939 1.443673 0.252004 -0.742531 0.768831 0.446081 -0.691728 0.884265 1.472347 -0.041282 -1.106544 0.053037 -1.148325 1.035585 1.421044 -0.876039 -0.545645 -0.212134 0.691749 -0.278514 -0.391198 0.414332 0.525357 -1.262709 -2.128327 0.505033 1.359809 -0.407294 0.242142 0.978202 -0.152727
等O -0.725151 -0.010723 1.212617 0.930406 -1.338597 -0.469762 0.885815 -0.332956 -0.988306 -0.004439 1.395628 -0.309233 -0.108245 -0.096221 0.591688 -0.549448 1.234440 1.298414 -0.438487 -0.302403 -0.152227 -0.997108 -1.226497 -0.114653 -0.915823 0.611619 -0.283619 1.152019 0.442188 -0.085435 -0.353387 -1.085127 0.205105 -0.442890 1.090614 -0.531273 -0.172048 0.211925 0.104659 -0.549311 0.820306 -0.676545 -1.980749 0.923024 0.333111 1.468741 -1.500087 1.047952 -0.248429 0.662303 0.763015 -0.123299 -0.217505 0.122742 1.318158 -0.132386 -0.402419 -0.570666 0.851202 0.344110 -0.059044 0.362455 1.019523 -1.765629 0.752699 -0.203318 -0.230697 -0.215200 -0.393842 0.245986 0.543085 -0.277511 0.973456 -1.037999 -0.669265 0.266702 0.742669 -0.565063 0.203990 -0.033071 2.114539 -0.155295 -0.829237 -0.150409 0.197624 0.471952 1.912595 0.078336 -0.487952 0.790410 -0.368046 -0.121770 -0.402034 0.019090 0.753497 0.202042 0.314525 0.262419 0.998572 -0.728735
术E 0.419681 -1.366257 0.070464 -1.745376 -0.793598 -1.352222 -1.728296 0.150743 0.440116 0.017963 -0.364224 -0.757296 0.127655 -0.103212 -1.263503 -0.636925 -0.471098 -0.684154 -0.429312 -0.405316 0.434494 2.555504 -0.387552 0.648767 0.312576 0.499073 -0.497612 -0.869756 0.522210 1.060304 -1.766738 -1.183980 0.626952 -0.101244 -1.588523 0.371196 -1.563116 0.545232 0.625502 -1.352745 2.669108 -0.976936 -0.733644 -0.272906 0.910505 -0.524320 0.915409 -0.015866 -0.299491 -0.251332 1.000100 -0.528841 -1.630561 0.991747 -0.244015 0.672898 0.876113 0.259608 1.955696 0.793693 -0.055046 -0.225751 -0.879715 0.052735 -0.319363 0.104361 -0.824745 -0.566832 -0.273010 0.500455 -1.078635 -0.457263 0.126515 1.025657 1.381162 0.855217 -2.349610 0.619931 -1.917001 -0.394066 -1.142003 1.796296 -0.896039 0.939083 1.060444 0.311192 0.952584 -0.638541 -0.906368 -2.129788 -1.405037 -1.384193 -1.352167 0.313555 1.678760 -0.070223 -0.914504 -1.479175 2.422580 -0.110756
