3114 100
，O 0.308412 -0.154774 0.483548 -0.235300 0.520465 0.490493 -0.340682 -1.103006 0.274366 -0.104976 0.802851 -0.872982 0.794734 -0.209400 -1.053486 0.144365 0.164561 0.198538 -0.986931 0.500206 -0.394536 0.283651 -0.456411 0.996987 -0.032027 -0.278393 -0.147946 -0.179460 -0.426703 1.012205 0.057209 1.041745 -0.287352 0.245378 0.404331 -0.070832 -0.364788 -0.736472 -0.866865 -0.213206 -0.295501 0.152389 1.009180 0.255194 -0.656701 0.017221 0.092578 0.293233 -0.511889 0.372443 -0.393667 0.574155 0.940018 -0.070219 0.427996 0.234426 0.869694 -0.003748 0.493833 -0.755613 0.375510 1.097167 -0.682934 0.645956 -0.079241 0.531607 -0.151304 0.231777 0.265321 -0.840137 0.680362 0.737566 -0.318715 0.332934 0.083368 -0.578289 0.179848 0.167437 0.045975 -0.566785 -0.219760 -0.198014 -0.105499 -0.545928 -0.088096 -0.705086 0.625320 0.735188 0.619873 0.678595 0.369131 -0.063011 -0.354985 0.168552 -0.557779 0.164661 -0.209479 0.218937 -0.586593 0.072857
。O 0.882500 -0.358122 -0.121535 -0.488411 0.098899 1.051520 -0.289934 -0.876634 0.036638 0.225799 0.874382 -1.282384 0.789585 -0.758912 -0.582144 0.311188 0.319283 -0.257157 -0.691823 0.510169 -1.216285 0.249637 -0.564220 0.695479 0.509819 0.015874 0.008053 0.209915 -0.563291 -0.062360 0.402104 0.588211 0.296437 -0.126024 -0.277321 0.245504 -0.160042 -0.412566 -0.597057 -0.071486 -0.561920 -0.474757 1.056980 1.252303 -0.300489 -0.009494 -0.084678 -0.128992 -0.820201 0.391366 0.182812 0.384158 0.682377 -0.445531 0.064543 -0.059299 0.932797 -0.199368 0.423233 -0.500511 0.351421 0.855533 -0.288063 0.509144 0.505701 0.371391 -0.101667 1.057700 -0.018895 -0.633551 0.935623 0.148146 -0.376234 0.163818 0.510045 -0.087465 -0.021294 -0.167563 0.372670 -0.105609 -0.256600 -1.186393 -0.031436 -0.722082 -0.212288 -0.692122 0.421834 -0.095916 0.576593 0.661758 0.582970 -0.306555 0.189794 -0.645720 -0.350133 0.026414 -0.029333 -0.825570 -0.293841 -0.172335
无O -0.421618 1.173325 0.755791 -0.062344 -0.499756 0.473944 -0.861865 0.959928 -0.592116 -1.042066 0.164394 -0.981054 2.052586 -0.474081 -1.311175 0.531826 -0.290847 -0.445285 0.109509 -0.662393 -0.771323 0.687182 -0.794018 0.213355 -0.880840 -1.946859 0.067116 0.572305 0.389551 -0.389702 -0.647745 0.826436 -0.518460 -0.708628 0.403708 1.198228 0.663922 -0.320880 -0.642407 0.121628 -1.434185 -0.359048 0.112142 1.365237 -0.645122 0.046425 -0.343637 -0.620903 -0.831387 -0.085247 0.044425 0.974755 -0.140127 0.425495 0.711543 0.718147 0.690702 -0.939307 -0.699287 -0.373230 0.745589 1.151757 0.335736 -0.183524 0.856037 -0.875702 0.565223 0.360779 0.473247 -0.647952 0.015215 0.441120 0.418079 0.719612 -1.259969 -0.409045 -0.324208 0.659129 0.696332 0.222647 -0.793491 0.711617 0.950278 -0.828374 -0.008710 -0.334317 0.963928 1.216658 1.062348 1.559600 -0.118210 0.183379 -0.555286 0.386346 -1.453243 0.636446 1.047720 -0.235382 -0.108339 1.905165
1O -0.178935 -1.150376 -0.737991 -0.718736 -1.477867 -0.699313 -0.150241 0.145670 0.121162 -1.191852 -1.240676 0.504271 -1.700339 -0.567595 0.845136 -0.208788 -1.004753 -0.911630 -1.305637 0.450134 -0.060561 -0.480084 0.197131 -0.476060 0.977767 0.770651 -1.886300 0.378682 1.094064 -1.060767 -0.653026 0.138581 1.484086 1.084834 -0.572437 -1.490929 -0.976045 0.227408 0.870086 -0.474300 0.911887 -0.373400 1.317970 -0.600513 0.813769 -0.307723 0.550634 -0.003143 0.568891 1.205234 -0.007988 -0.538541 1.608339 0.169195 0.793830 -0.725295 1.037027 1.710485 1.362450 -0.898865 0.373668 0.236704 -0.667757 -0.279811 -0.520363 0.162475 -0.003572 -0.866321 0.722878 -0.513295 1.097628 0.201182 0.608476 -2.403642 0.818885 -0.093237 -0.530939 0.711260 -0.312403 0.611233 -0.369055 -0.050374 0.107858 0.425917 -0.404502 0.449426 -0.166494 0.311054 -1.567271 -0.049650 0.660061 0.490817 1.402384 -0.524944 -0.541152 0.899146 -0.572898 0.138077 0.142568 -0.810912
0O -0.789401 -1.538141 -0.518253 -0.823168 -1.766632 -1.211752 -0.123619 0.361379 0.508326 -1.305777 -1.611623 0.283864 -1.978719 -0.654285 1.607224 -0.464760 -0.903206 -0.989102 -1.472842 0.598533 0.271655 -0.226202 0.371543 -0.251464 0.742789 0.295065 -2.206174 0.356579 1.343189 -0.893999 -0.546479 0.125147 1.141164 1.115117 -0.823330 -1.114578 -1.184600 0.028176 0.964067 -0.411444 0.865879 -0.609328 1.214006 -0.716290 0.348230 -0.357954 0.851036 -0.140385 0.276518 1.364691 -0.379295 -0.655582 1.651527 -0.013940 1.068409 -0.578770 1.203581 1.910232 1.231853 -1.287450 0.227170 0.082602 -0.875045 -0.454127 -0.719484 0.177453 -0.168401 -1.104160 1.079195 -0.319687 0.728404 0.590801 0.473668 -2.430171 0.547680 -0.248241 -0.715249 0.897839 -0.487685 0.281403 -0.303686 0.544025 0.103714 0.693968 -0.276513 0.534171 -0.162472 0.942455 -1.578770 -0.362711 0.512478 0.896889 1.392387 -0.391112 -0.857981 1.212722 -1.188241 0.919420 0.202426 -0.923995
、O 1.182580 0.112494 -0.819766 -0.740092 0.460453 0.403436 0.217556 -0.387328 -0.131261 -0.328390 -0.279755 -0.480533 0.394695 -0.366513 -0.819906 0.228338 0.038603 -0.227076 -1.703653 0.748340 0.312205 -0.700078 -0.368529 0.549409 0.137944 -0.293962 -0.551497 1.125098 0.997373 -0.358903 -0.274204 1.160270 0.213718 1.250964 0.378936 -0.237263 -0.000734 0.336353 0.004837 0.600915 -0.272142 0.572055 0.445907 0.073171 -0.421540 0.624873 0.257428 -0.660402 -0.414301 0.227735 -0.365583 0.951080 1.043190 0.944116 0.137686 -0.409320 1.304707 0.259262 0.738014 -0.956083 0.097745 1.010357 -0.382501 -0.047206 -0.068748 -0.321100 0.607476 -0.455099 0.643490 -0.644433 0.920768 0.252348 0.174165 -0.512743 0.253720 -0.683591 1.012188 -0.087703 0.672368 -0.269341 -0.324291 0.496338 -0.245358 -0.708637 0.193276 -0.433390 0.311626 -0.196692 0.143692 0.617775 -0.428023 0.509498 0.008402 -0.035617 -0.230795 0.712790 -0.228026 -0.412203 -0.327121 -0.460738
及O -0.292933 0.617144 0.925281 0.249462 0.237070 0.126416 -1.049315 0.241088 1.065201 0.038194 0.597174 -1.004935 0.922719 -0.946651 -0.748405 0.639599 0.211054 -0.457616 0.272682 1.002723 -0.259033 -0.300678 -0.478906 1.212904 -0.743980 -0.379818 0.337021 0.782017 -0.310431 -0.108715 0.218394 0.202789 -0.315684 -0.812043 0.555885 1.042881 0.467928 0.491936 -1.304705 1.204948 0.725802 -0.582881 -0.445272 0.664402 -0.951459 -0.936953 -0.649359 -0.114253 -1.057401 -0.883669 -0.201277 0.850069 -0.090928 -0.478569 -0.141752 0.307051 0.443058 -0.874394 0.413150 0.483057 0.092560 0.606046 0.517972 0.773204 0.255959 0.031803 -0.439893 1.221422 0.238704 0.266047 -0.544448 -1.086558 -1.048552 1.103586 0.160301 -0.304804 -1.021615 -0.463539 -0.848280 0.034311 -0.705603 0.317829 -1.008649 0.285520 0.334222 -1.022857 -0.193072 -0.485291 0.602506 0.168650 -0.001571 -0.510547 -0.713297 -0.029705 -0.008527 -0.734385 0.129479 -0.228414 -0.248314 0.588723
：O 0.581531 -0.211288 -1.063766 0.079621 -0.524467 0.651042 0.086493 -0.507752 0.972082 0.443212 -0.948395 -0.703074 -0.430612 -0.563325 0.419269 0.117413 -0.039994 -0.837144 -1.185820 0.179632 -0.643021 -0.635559 -0.168515 0.144829 0.256460 0.135101 -0.645774 1.598122 0.327261 -0.424466 0.865794 0.381755 0.818435 0.498874 -0.944457 -0.192179 -0.425910 0.494774 0.261144 0.908508 -0.898242 -1.127958 1.677537 0.469996 -0.679208 0.654424 0.600126 -1.471784 0.098866 0.421766 -0.102811 -0.119110 0.796223 0.013573 -0.178746 -0.571248 1.786322 0.472512 0.082901 -0.644126 0.055551 -0.086402 0.111367 0.359455 0.445925 0.110433 -0.308881 0.899765 0.413987 -0.087773 0.708555 0.671305 0.774937 -0.698281 0.244736 -0.121243 0.130588 -0.073420 0.479405 0.091181 0.389612 -0.065849 0.466241 -0.962558 0.092995 1.014132 0.621156 -0.437627 -0.443479 0.342475 0.214700 -0.445576 0.909428 -0.924992 -0.648928 0.886512 -0.460147 -0.781246 -0.235117 -1.331963
2O 0.064691 -0.645216 -0.565710 -0.471397 -1.373968 -0.682298 -0.174896 0.097578 0.048540 -0.986618 -0.732916 0.670610 -1.087090 -0.338916 0.762098 -0.504295 -0.856826 -0.670225 -1.232708 0.370919 0.038146 -0.457956 0.014272 -0.092982 0.770902 0.688301 -1.380887 0.359532 0.885172 -0.930723 -0.644269 0.127161 1.134249 0.876586 0.140736 -1.454998 -0.948305 0.136389 0.911489 -0.321508 0.855715 0.132924 1.077740 -0.262357 0.795466 -0.270689 0.428412 0.001188 0.533328 0.802620 0.029652 -0.310860 1.443398 0.169787 0.686599 -0.540190 0.613853 1.030470 0.993336 -0.304938 0.092901 0.131435 -0.514438 -0.180578 -0.424940 0.061628 0.012743 -0.703713 0.717649 -0.497767 0.763967 -0.075450 0.601642 -1.823829 0.521248 -0.124752 -0.291776 0.338558 -0.262263 0.430620 -0.379288 -0.098664 -0.030169 0.251582 -0.241535 0.171713 -0.213210 0.119785 -1.256173 0.063057 0.431709 0.439368 1.201425 -0.496989 -0.105551 0.748832 -0.627604 -0.138367 0.197809 -0.831544
未O 0.185777 0.860457 1.169187 0.324989 0.243503 0.395988 -0.966583 -0.067638 1.375660 0.033948 0.027292 -0.821418 0.647787 -1.620602 -0.279520 0.826257 -0.317113 -0.522389 0.404126 0.820519 -0.203688 -0.908036 -0.426554 0.872650 -0.494351 -0.778896 0.411263 1.189713 -1.026649 -0.473857 -0.375812 0.438662 0.648749 -0.761908 -0.132647 1.228160 1.255700 1.405491 -1.223403 1.136443 0.778332 -1.369964 -0.809743 0.691571 -0.565448 -0.918497 -0.497621 -0.819739 -0.559535 -0.752195 -0.091794 0.647362 -0.580361 -0.253171 0.028121 0.457770 0.622049 -0.041164 -0.026201 0.761126 0.098546 0.140521 0.372533 0.692468 0.165299 -0.419961 -0.353962 1.646820 -0.210580 0.391577 -0.652433 -1.089049 -1.002249 0.871458 0.956631 -0.972842 -1.394877 -0.719277 -0.235848 0.624269 -0.563110 0.148219 -0.649258 0.472672 0.243412 0.109533 0.149247 -0.268337 0.094012 0.732921 -0.498455 -0.151522 -0.743832 -0.240869 -0.429961 -0.095534 0.769083 -0.917922 0.376746 1.207753
.O -0.104456 -0.942113 -1.001146 -0.568672 -0.254619 -0.494920 -0.005665 -0.064250 1.111636 -0.187750 -1.005683 -0.576007 -1.814034 -0.633607 1.201368 -0.950070 0.190577 -0.742300 -1.060379 0.551941 -0.347225 -1.198553 0.322763 -0.159985 0.749241 0.223740 -1.202926 0.643247 0.283127 -0.856408 0.012616 0.760019 0.778273 0.039177 -0.616569 -0.012728 -0.709425 0.716229 0.279025 0.946941 0.281407 -0.679058 1.249582 -0.183613 -0.870758 -0.413228 0.369292 -0.689595 -0.043558 0.208482 0.189588 -0.472099 1.278970 -0.430479 0.252418 -0.321989 1.620792 1.227358 0.630820 -0.731121 -0.141055 -0.004561 -0.164275 0.327672 -0.854162 0.122519 0.032302 -0.002866 0.804861 1.042570 -0.067761 0.908625 -0.253219 -1.457639 0.876179 -0.150763 -0.019827 0.032864 -0.044798 0.557435 0.205902 0.686136 -0.547880 -0.132828 -0.100035 0.347994 -0.029713 0.879604 -0.946765 -0.616358 0.682359 0.717343 1.020721 -0.957729 -0.753874 0.408846 -0.952950 0.463777 0.019119 -1.771726
痛E -0.641958 -0.045847 2.005427 -0.951438 -0.358539 0.474464 -0.792545 1.827259 0.372578 -1.463383 -0.606290 -0.502332 1.835427 -0.720194 -2.199043 0.594188 -1.048774 -0.635189 0.518638 -0.109917 -2.017385 1.321896 -1.278433 -0.282298 0.986960 -1.486158 0.974152 0.692546 1.103845 0.245362 -1.877978 -0.303134 -1.162620 -0.226000 0.892611 -0.111293 0.210075 0.668792 -0.919249 -0.786552 -0.024890 0.249858 -0.369380 0.202948 -0.640279 -0.197134 -0.219677 -0.196781 0.047131 -0.520033 0.063359 1.452759 0.548151 0.022440 1.334281 0.868728 -0.525418 -0.788402 0.583214 -0.404932 0.566133 1.516300 0.271291 0.577671 0.346843 0.061824 0.845192 -0.935217 1.022611 -0.863337 1.007893 0.674948 0.311318 0.073523 -0.683456 0.131983 -1.399235 1.417035 1.166930 1.771649 -0.433699 0.602690 0.305796 0.252849 -0.709744 -0.419714 -0.183566 0.459987 1.195170 0.343784 -0.405541 -0.799575 -0.270249 1.336538 -1.194229 -0.762365 0.691332 -0.591495 -0.141442 2.163174
音E -0.912869 0.756084 2.024729 0.748986 -1.648719 -0.148158 -2.012935 -0.203502 2.738674 -1.291362 -1.194973 -1.604219 1.391091 -1.690131 -0.196886 0.126243 -0.618309 -1.501678 -0.495509 0.152789 0.032530 0.883075 1.382976 1.725321 -0.561147 0.396681 0.895557 1.332969 1.131860 0.257017 -0.935647 -0.529139 0.421249 -0.159456 -0.984679 0.321465 -0.187622 0.308992 -2.139942 0.134442 0.458485 -2.518785 0.291704 0.920702 -2.302370 0.102699 1.627017 -0.824140 -0.545792 -1.155817 -0.234495 0.750693 -0.665727 -0.497585 0.266500 -0.200535 1.532889 -0.223918 0.199979 -0.205364 1.476910 -0.226984 -1.150735 1.427193 0.371553 1.464276 -0.613110 1.499216 -0.450220 0.278406 -0.169617 -0.884879 -1.169176 1.098815 -0.640385 -1.393894 -2.037956 -0.287469 -0.158757 -0.300579 -0.449171 0.959570 -0.367213 0.180247 -0.079655 -0.366497 0.579793 -0.576205 -0.831142 0.645857 -0.596847 0.705564 1.927344 1.311701 -1.173090 0.654330 0.411317 1.054141 0.007326 0.068323
/O -1.183297 -1.615125 -0.751838 -1.089617 -1.400898 -0.153265 -0.492801 0.318972 0.454981 -1.282361 -1.577585 -0.213233 -1.484369 -0.235527 1.777301 -0.469755 0.086498 -1.293471 -1.170954 0.604331 1.945596 -0.621901 1.145469 0.063610 0.085711 0.126928 -1.770887 1.809002 1.872808 -1.051375 -0.088744 0.543274 0.859559 1.746557 -1.566361 -0.517445 -1.235030 0.123525 0.261218 -1.092106 0.781805 -0.781725 1.053062 -0.369224 -1.757507 0.315607 1.350098 -0.821912 -0.961130 1.840714 0.122462 0.277831 1.026009 0.549387 0.930363 -1.201410 1.808104 1.373196 1.415605 -1.259626 1.153460 -0.273947 -1.718745 -0.240586 -0.779007 0.093588 0.161428 -0.955689 1.693842 -0.039769 0.988733 0.738987 -0.133069 -2.286118 -0.023639 -0.925972 -1.112503 0.123804 0.212757 -0.392518 0.004150 0.463004 1.213373 -0.216230 -0.501335 1.075387 0.199795 0.347603 -2.290365 0.409726 -0.176848 1.959419 1.077735 0.420079 -1.230047 2.169858 -0.918752 0.717713 0.781423 -0.439051
双B -2.034934 0.325287 1.424586 0.697595 -2.237746 -0.259664 -1.177466 0.635160 0.939244 0.533294 -0.508280 -0.855389 0.774493 -0.237120 -0.631580 -0.237865 -0.200969 -0.358954 0.647449 -0.454703 -0.216984 1.726633 -1.114988 -0.566510 -0.926604 0.204384 -0.307388 0.905901 0.421928 -0.157772 -0.524759 -1.118585 0.327010 -0.335617 -0.445439 -0.447220 -0.342893 0.041615 -0.825830 0.568375 -2.014971 -0.856018 0.676618 0.828895 -1.660539 -0.719475 -0.469468 -0.506840 0.538279 -0.315099 0.300192 -0.339228 0.502412 0.306124 -0.520937 0.696679 0.623389 -0.731773 -0.866022 -0.719027 0.684274 0.072435 0.631514 0.520734 0.302544 0.500239 0.100214 1.204414 0.212541 0.145961 -0.408907 -0.022961 0.289536 0.903505 -0.517781 -0.431603 -1.238258 0.630077 0.650915 -0.149879 -0.476034 0.323215 0.993063 -0.019400 1.126598 0.746138 0.818096 0.316788 0.224499 0.656975 0.197676 -0.615691 0.523720 -0.330270 -1.339132 0.492923 -0.822794 0.290381 0.246580 1.325792
常O -1.102874 -0.593948 0.432743 1.129671 -1.046966 1.496154 -1.056181 0.421890 0.674373 -0.508970 0.587307 -0.918822 1.766695 -1.998367 0.088872 0.040937 0.779898 -2.153237 0.488411 1.171840 -1.387891 0.353650 0.221972 -0.131496 0.098708 -0.072504 -0.496592 0.534345 -0.010099 0.512630 0.590250 0.433681 1.025873 -1.177601 -0.002274 1.033707 0.458364 -0.232470 -1.270661 1.694493 -1.293589 -1.435368 1.027619 2.011948 -0.120044 -0.509331 0.147037 -0.249424 -0.522595 -0.761551 0.714647 -0.623148 -0.055874 -0.645546 0.333854 -0.136040 0.496884 -1.049668 -1.074279 0.060502 1.292096 0.697044 0.301010 1.036443 0.855763 0.747224 -0.481897 2.014563 0.406112 0.709008 -0.316955 -0.579220 0.166338 0.215684 0.541026 -1.190170 -0.530015 -1.171385 -0.453645 0.059823 -1.188477 -0.637985 -0.566648 -1.016798 -1.193569 0.941677 1.813674 0.106662 -0.589583 0.607628 0.744689 0.688548 1.592162 -0.786689 -0.519118 0.711562 0.133126 -0.381658 1.066002 -0.603891
3O -0.548162 -0.209781 -0.685115 -0.576901 -1.101411 -0.762453 -0.091767 -0.118498 1.021579 -0.443555 -0.601105 0.066477 -1.319378 -1.098296 0.509986 -0.515516 -0.785114 -1.260376 -0.530890 0.545021 -0.260316 -0.643535 -0.066470 -0.244605 0.546681 0.470025 -1.684567 0.464001 0.502716 -0.440665 -0.479512 0.477142 1.323196 0.578821 0.053120 -0.784024 -0.535913 0.533558 0.613639 0.284693 -0.037766 -0.133941 1.178474 0.057793 0.032194 -0.553254 0.304894 -0.655952 0.822187 0.269095 0.134905 -0.566426 1.886746 0.050063 0.201315 -0.314164 0.549279 1.262924 0.790978 -1.139550 0.194464 0.012471 -0.015965 -0.055891 -0.412753 0.006259 -0.419732 -0.292425 0.110321 -0.042798 0.676225 0.649233 0.301613 -1.255530 0.468935 0.158256 0.505437 0.711476 -0.064557 0.556689 -0.024710 -0.709840 -0.168805 -0.141390 0.041915 0.445566 -0.148103 0.619169 -1.335189 0.171524 0.574756 0.623969 1.362570 -0.439527 -0.410989 0.689282 -0.493973 0.345944 0.517070 -1.218142
院O 0.482460 -0.942600 -1.235335 -0.444857 -2.588576 0.262861 -0.689134 -0.210079 0.316838 -1.405802 -1.648875 0.263371 -1.122221 -0.269732 1.252170 -0.373712 -0.175887 -0.659811 -0.007079 -0.732962 -1.356034 -1.819791 0.559951 -0.694676 2.006800 -0.382196 -0.645747 1.118425 0.033064 -0.935087 -0.009208 0.963138 1.133353 -0.176564 0.044603 -1.217028 -1.192856 -0.940829 0.606081 0.238095 0.894744 -0.399136 1.434461 -0.696711 1.039184 0.422346 1.318557 -1.384672 1.605154 0.105998 0.109447 -0.324996 1.456469 -1.033707 -0.971690 -0.799110 1.744228 0.834884 0.039839 0.596428 0.990359 -1.219888 -0.278606 -0.165016 0.862764 -0.677497 -0.923812 0.162414 -0.420545 -1.105678 0.042534 -0.114673 0.446241 -1.829193 -0.137932 1.033904 0.348369 -0.998883 -0.743619 0.602244 0.045071 -1.562803 0.193225 -0.649688 -0.092285 0.441120 -0.744278 -0.683981 -1.115801 0.168878 1.094084 -0.690975 2.092424 -1.457854 0.290365 0.095141 -0.516513 -2.152213 -1.030077 -0.968273
部E -0.287768 -0.001205 0.623984 -0.419111 -0.148031 0.431510 -0.428655 1.278111 0.800525 -0.439357 -0.374398 -1.701754 1.132451 0.365837 -1.747281 0.130405 -0.448633 -0.759659 1.139987 0.042237 -1.312910 0.049752 -1.081773 -0.431433 0.302225 -1.150424 0.032502 1.473168 0.360445 -0.731336 -2.115284 0.203440 -0.381453 -0.204374 0.261555 -0.169715 0.188596 1.182434 -0.722919 -0.127910 -0.210383 -0.276600 0.662428 0.292879 -1.074559 -0.127157 -0.430811 -0.988613 0.083426 -0.480525 0.357383 0.675474 0.188711 0.458113 -0.405862 0.180592 -0.530016 -0.897550 0.892467 -0.223776 0.362493 0.627994 0.634689 1.594203 0.500990 -0.276667 0.240286 0.461864 1.148146 -0.210552 1.247959 0.478062 -0.005045 -0.676410 0.570093 -0.016437 -1.037985 0.633134 0.730633 1.482723 0.567803 0.525699 1.293600 0.007619 -0.683679 0.784092 0.536806 -0.190537 1.233069 -0.411625 -0.049718 -0.669925 -0.753047 0.582725 -1.924847 -0.793396 0.624263 -1.406959 0.427574 1.579308
患O 0.333683 -1.175993 -1.819567 0.214814 -1.380345 0.986193 -1.271636 -1.289208 -0.723626 -0.998464 -0.421523 0.339102 -1.199011 -1.097239 -0.575230 -0.282296 0.229341 -0.587449 0.156779 -0.610674 -1.309365 -0.783689 -0.847078 -0.598666 0.783809 0.454214 -0.010121 0.357179 0.487395 -0.314243 -0.321675 0.614824 0.906643 -0.857326 0.473828 -1.180678 -0.668418 0.047747 0.137169 0.696120 0.999757 0.118641 1.581456 0.332271 1.023504 0.789116 -0.259098 -1.227803 0.145185 -1.436441 0.626096 -1.344642 2.241491 0.017428 0.383020 -0.927938 0.615561 1.017938 0.295573 -0.275081 0.933066 0.966165 0.747662 -1.443247 -1.058966 -0.240307 -0.552526 -0.756315 0.435902 -0.306385 -0.680403 -0.439536 0.099596 -2.829509 1.122377 0.388474 0.904281 -0.182958 0.134377 0.859605 -0.223822 -0.203060 -2.141022 -0.164054 -1.491477 0.759842 -0.937665 1.497752 -1.603914 -0.430828 1.468427 0.072039 0.295346 -0.745866 0.133064 0.331581 0.134729 -2.059399 0.209171 -1.826994
6O -0.790513 -0.868893 -0.699292 -0.510064 -1.336466 -0.661643 -0.259562 0.341385 0.817745 -1.464005 -1.209635 0.352543 -1.589363 -0.785566 0.966213 -0.752454 -0.584019 -0.878405 -1.454588 0.377946 -0.176969 -0.736032 0.295981 -0.467460 1.054100 0.684886 -1.936262 0.341252 0.918361 -0.710170 -0.272096 0.418533 1.610517 1.279967 -0.423436 -0.945268 -0.565556 0.260879 0.598245 -0.082373 0.117702 -0.358376 1.204083 -0.151928 0.034702 -0.356515 0.738134 -0.095221 0.790225 1.082070 0.246550 -0.506936 1.568197 -0.156262 0.787184 -0.586982 1.015788 1.217153 0.699587 -0.962243 0.504144 0.133636 -0.440336 -0.039240 -0.285754 0.339393 -0.314736 -0.287893 0.591778 -0.207091 0.764490 0.426009 0.552978 -1.922509 0.278322 -0.217620 -0.444636 0.665405 -0.314630 0.443934 0.078352 -0.036110 0.480848 -0.185552 -0.071280 0.534970 0.068184 0.293018 -1.679805 0.075559 0.673646 0.608651 1.907691 -0.338517 -0.739932 1.091765 -0.787520 0.321605 0.086615 -1.280283
4O -0.588717 -0.247029 -0.406751 -0.451827 -1.067970 -0.525058 -0.550775 -0.193099 1.150331 -0.347231 -0.453988 -0.186248 -0.623666 -0.971666 0.599584 -0.385597 -0.462438 -1.157715 -0.759599 0.369554 -0.289537 -0.263885 0.237623 0.010141 0.530704 0.965075 -1.479199 0.735443 0.646854 -0.940635 0.093400 0.050198 1.063992 0.255674 -0.359811 -0.843299 -0.434555 0.431906 0.027138 -0.179543 -0.248978 -0.660544 1.197383 0.476319 -0.429426 -0.421845 0.493547 -0.695767 0.292348 0.585643 0.419388 -0.212917 1.167827 -0.600917 0.525164 -0.419029 0.646928 0.849628 0.444527 -0.518845 0.364924 -0.184729 -0.349663 0.263906 -0.300376 0.214661 -0.045615 0.200086 0.380206 0.356755 0.663519 0.435661 -0.334534 -1.080649 -0.108567 -0.057819 -0.265232 0.082873 0.245628 0.421558 -0.424687 -0.382867 0.022714 -0.578882 -0.241436 0.301613 0.327037 0.166775 -1.298190 0.503677 0.512890 0.484697 1.882165 -0.234302 -0.471362 1.007018 -0.340035 0.240852 0.178508 -1.710913
腹B 0.005398 1.250559 0.854836 -0.479418 0.631263 0.377164 -1.273348 0.959141 1.821468 -1.931129 0.800151 -1.154470 1.699285 -1.706915 -1.357072 0.302269 -0.112494 -1.438965 0.348639 0.947227 -0.265078 -1.928711 0.373142 1.254092 0.666721 -1.710635 0.403730 1.474915 0.365757 0.558144 -2.434009 1.383585 0.261227 0.413058 0.572511 1.301440 1.228655 1.595566 -0.998443 0.808512 0.592932 -0.050593 -1.148421 -0.201055 -1.546120 -0.047108 0.871929 -0.991842 -0.453294 -0.344384 -0.535045 1.177083 -0.052340 -0.064213 0.523642 -0.113010 0.676923 -0.927605 0.933409 -0.884943 0.467354 0.515309 0.288517 1.085987 0.394964 -0.251704 0.198817 1.253180 -0.299775 -0.585655 1.063778 -0.596317 -1.384664 0.222035 -0.186143 -0.759914 -0.660242 0.141457 0.240742 0.932671 -0.871445 -0.330438 0.058986 0.195466 -0.757197 -0.821085 0.331390 -0.864182 0.187511 0.318886 -0.710052 1.062982 0.330133 0.960650 -1.186636 -0.724428 1.219510 -0.501000 -0.352385 0.375543
体E -0.794869 0.467991 -0.349440 0.441444 -1.510975 0.418107 -0.395009 -0.935519 2.430835 0.991390 -0.363141 -1.156718 0.010687 -1.756925 -1.485209 -0.097977 -0.300333 -1.712473 0.093472 -0.200016 -1.395480 -0.245572 -0.519590 -0.255673 -0.263076 -0.305254 -0.156267 1.263166 -0.874097 0.642682 -0.034927 0.992182 1.288254 0.779003 0.004923 0.214312 -0.092340 0.668604 0.019993 0.798989 -1.833931 -0.739041 1.445111 0.847220 -1.227764 0.177237 0.135327 -1.672742 1.329100 -0.811044 0.184018 -1.065877 1.740432 0.391763 -0.790168 0.048047 1.415774 0.374763 -0.351517 -1.266295 0.544644 0.758734 1.212955 0.406800 0.906766 0.339704 -0.735167 1.459153 -1.094618 0.300925 0.662757 1.264580 0.726608 0.470533 0.159107 0.097859 1.655576 0.772791 1.089545 -0.124761 1.021398 -1.655199 0.321484 -1.356606 0.758704 1.605936 1.623675 0.207097 0.014322 0.987876 0.709347 -0.349218 1.193090 -0.778127 -0.976029 0.313883 0.480080 -0.653573 0.282186 -1.296837
次O -0.527892 -0.900003 -0.072204 0.085187 -1.671842 0.332377 -1.210284 -0.535407 0.462337 -1.721017 -0.909516 -0.166217 -0.403689 -0.415422 0.421308 -0.682420 -0.470673 -0.706230 -1.757235 0.290020 1.503387 -0.112327 0.407963 0.083824 0.134193 0.628296 -1.147868 1.736831 1.698905 -0.703732 0.033369 0.721148 1.427523 1.678272 -0.795350 -1.503751 -0.974376 -0.078019 -0.061279 -1.719500 0.089784 0.117273 1.073323 0.075587 -1.396415 0.119739 0.966246 -0.405347 0.406156 1.487851 0.397717 0.520356 1.191733 0.503316 1.081344 -1.208443 1.465327 0.634078 0.452537 -0.682912 1.789039 0.022203 -1.193200 0.666113 -0.448914 0.517355 0.554694 -0.372984 1.485745 -0.465488 1.281366 0.222638 0.158434 -1.339561 -0.329460 -1.216772 -1.028354 -0.013369 1.005307 -0.583193 -0.404503 0.134861 1.576292 -1.104212 -0.242196 1.101946 0.283323 0.118872 -2.456306 1.465317 0.102837 1.404706 1.971440 0.866252 -1.036850 2.560380 -0.417954 -0.015268 0.578468 -0.425246
5O -0.632332 -0.945167 -0.633432 -0.773802 -0.639247 -0.991165 -0.007349 0.158698 0.559205 -0.522740 -0.994750 0.088834 -1.707516 -0.851541 0.966724 -0.328017 -0.333430 -0.651544 -1.006053 0.359581 -0.233229 -0.774575 0.238645 -0.310190 0.703372 0.821775 -1.451247 0.497082 0.902066 -0.707041 -0.019854 0.465695 0.767351 0.665265 -0.392484 -0.763077 -0.635975 0.307699 0.261729 0.514265 0.781041 -0.333324 1.057820 -0.292463 0.040146 -0.294379 0.491300 -0.531880 0.017251 0.340655 0.203771 -0.491179 1.290335 -0.472796 0.647226 -0.500084 0.795807 1.543068 1.123194 -0.696656 -0.322774 0.115717 -0.305732 -0.364179 -0.781835 0.013627 -0.191415 -0.837675 0.559140 0.199493 -0.127140 0.365701 0.116904 -2.059196 0.494765 -0.042674 -0.095890 0.455357 -0.471675 0.238011 -0.137163 0.578533 -0.816936 0.258594 -0.261201 0.169737 -0.111220 0.730201 -1.241661 -0.506777 0.587113 0.621069 0.905282 -0.672544 -0.345945 0.746035 -0.759855 0.604787 0.019167 -1.735595
见O -0.167287 0.333831 -0.120654 0.514786 0.373183 1.279054 0.691820 -0.115543 1.347842 -0.024187 0.691760 -0.529118 -0.098589 -1.050681 0.242215 0.364878 0.719592 -0.580250 0.566450 0.089082 -0.232626 -1.945827 -0.307818 0.133840 0.106185 -0.228315 0.429358 1.850541 -1.012320 0.311201 -0.003329 -0.059730 0.516049 -0.923734 -0.085809 1.406497 0.585148 1.545352 -2.560749 2.461778 -0.791443 -1.898256 1.445128 0.480824 -1.274840 -0.558148 -0.589311 -1.059492 -1.072474 -0.938865 0.099371 0.726175 -0.171008 1.010191 -0.388707 0.579095 0.339631 0.111135 0.401309 0.000113 0.497984 -0.528999 1.459588 0.999952 -0.171419 0.344466 -0.229328 1.679785 -0.076801 0.477946 0.102765 -0.347153 0.678896 -0.232978 1.532103 0.158785 -1.169980 0.117892 -1.048133 2.096042 0.473943 -0.400577 -0.087452 0.041506 -0.652218 0.938884 0.582249 0.240146 0.283725 -0.065166 -0.161104 0.007143 -0.332784 -0.414063 -0.639803 -0.969286 0.852579 -0.697332 1.038880 1.062415
正O -1.741320 -0.291962 0.664958 0.123297 -1.584584 0.767473 -1.685443 0.038122 0.323380 -1.414787 0.636373 -0.467906 1.238640 -2.685698 -0.919009 0.692175 -0.413979 -1.882850 0.748906 0.966262 -1.860033 1.669991 0.543122 1.140523 -0.352480 0.292535 -0.738190 1.124810 0.736638 1.166046 0.397148 -0.042342 1.387173 -0.640011 -0.538133 0.696418 1.083413 -1.092922 -1.673798 0.148189 -2.218676 -0.880898 0.835378 1.771461 -1.612380 -1.555454 -0.780344 -1.974842 -0.542710 -0.204985 -0.425406 -1.063187 0.881472 -1.914585 0.387080 -0.736874 0.142098 -0.989456 -0.408330 -1.590338 0.906529 -0.377750 0.332250 0.705049 0.866056 0.786227 -0.894824 1.504241 -0.584813 0.654427 -0.076540 0.229741 -0.668719 0.026593 -0.188315 0.400100 -0.917776 0.276931 -0.502137 -1.465582 -0.843329 -1.047308 0.844263 -1.352486 -1.292897 0.681125 0.403898 -0.187522 -0.221100 0.213798 0.547863 1.085507 1.908293 -0.485768 -1.113954 1.289729 -1.384283 0.410653 1.540066 -1.548559
性I -0.038438 1.241337 0.935647 -0.604908 -0.754465 -0.762992 -0.658193 0.470854 1.810345 -0.421992 -1.237810 -0.844879 0.557537 -1.276532 0.191490 0.072581 -0.458363 -0.786823 -0.898119 0.391832 0.542399 0.559921 1.577604 1.517297 0.401032 0.372507 1.653538 0.452964 1.059860 -0.053850 -1.421814 -0.099604 -0.532431 -0.015769 -0.926392 0.519367 -0.450457 0.464836 -0.476400 -0.389740 1.500708 -1.615484 0.014428 0.467547 -0.838488 1.133870 1.893399 -0.282634 -0.480366 -0.399009 -0.273693 1.108994 -0.826251 -0.603662 -0.228389 -0.450466 1.959099 0.235099 0.872626 -0.020108 0.225730 -0.150713 -1.263491 -0.051909 0.949828 0.356831 -0.623453 0.666706 -0.169981 0.348824 0.014588 -1.179518 -1.486513 -0.249807 -0.646626 -0.552769 -1.353000 -0.080973 -0.406530 0.733903 -0.835898 1.413135 -1.027408 1.530028 0.876790 -2.156596 -0.470683 -1.560314 -0.626298 0.235992 -1.373503 -0.035977 1.809880 0.646027 -0.449959 -0.345916 0.490520 0.592852 -1.275870 -0.108648
入O 0.000752 -0.292626 -0.913227 -0.822534 -2.693736 -0.383555 -0.227499 -1.085563 1.482768 -0.769121 -0.995393 -0.555780 -1.445162 -0.832201 0.715192 -1.425943 -0.334816 -0.121336 0.554357 -0.826234 -1.390571 -1.513080 -0.445861 -1.238671 0.973254 -0.959415 -0.547320 0.611019 -0.736228 -0.729619 -0.477224 1.562870 0.813482 -0.328838 0.301044 -0.387929 -2.032438 -0.487291 0.791683 0.081311 0.561025 0.052240 1.551781 -0.613394 0.246432 0.187063 1.011732 -1.838420 2.166482 -1.036439 0.666906 -0.494979 2.257775 0.082299 -1.484323 -0.829512 1.462309 0.816002 -0.138555 0.054111 1.118118 -0.716851 -0.348257 -0.180788 0.747134 0.144724 -0.505663 0.181326 -0.651885 -1.137191 -0.326999 0.147369 0.520799 -1.139549 0.007451 0.619686 2.204196 -0.113566 0.062226 0.279117 0.842332 -1.432244 -0.224898 -0.514134 1.237495 0.356738 -0.311375 0.783131 -0.608037 -0.037825 0.512191 -0.326735 1.593335 -1.020109 -0.147551 -0.536368 -0.437460 -1.606180 -0.655112 -1.350687
可O -0.024740 0.362898 0.639740 0.231359 0.796840 0.190160 -0.158075 -0.411485 0.579928 -0.200307 0.385289 -1.043167 0.518947 -1.668319 -1.052461 0.836092 -0.751898 -0.590969 0.710162 0.880003 -0.391767 -0.027559 -0.753787 0.053012 -0.714703 -0.969057 -0.422490 0.711468 -0.721645 1.589000 -1.071224 0.543190 0.315432 -0.691670 0.335758 0.953140 0.909689 0.232544 -1.293100 0.707921 -0.840019 -0.543346 0.018630 0.076977 -0.768918 -1.033030 -0.937016 -0.789269 -0.082775 -0.508037 -0.267116 0.254195 0.415035 -0.128600 -0.518373 0.118371 0.030629 0.427826 -0.195825 -0.663058 0.183608 0.181522 0.913261 0.980625 0.083881 0.139376 -0.577100 0.809030 -0.074904 0.500067 -0.864166 -0.037737 -0.253090 -0.195507 2.070121 -0.634924 -0.679825 0.541765 -0.354692 -0.136490 0.196195 0.688937 0.233215 0.459341 -0.538449 0.672892 0.026764 0.540505 0.263147 -0.691588 -0.219813 0.106694 -0.721296 -0.188018 -1.409527 -0.124325 -0.013473 0.325532 0.656342 1.079113
分O -1.363434 -0.267151 0.125441 -0.344337 -2.111806 0.319530 -1.119571 -0.204075 1.121200 -1.231943 -1.448845 -0.580648 -0.458556 -0.424476 0.577933 -0.738607 -0.025323 -1.072578 -1.443694 0.168819 1.619136 0.207434 -0.024473 -0.225760 -0.282008 0.633915 -1.456416 2.351656 1.971205 -1.522146 0.380962 0.264767 1.226058 1.942440 -1.029962 -1.341108 -1.244249 0.655588 0.377498 -1.505720 -0.130635 -0.182757 1.550951 0.468194 -2.307124 -0.091798 0.906926 -0.520840 0.440531 1.947828 0.518216 0.492248 0.844338 0.696162 1.203706 -1.320399 1.627376 0.405260 0.441650 -0.846651 1.665099 -0.113180 -1.040311 0.612494 -0.114702 0.151453 0.756246 -0.101849 1.988166 -0.430744 1.512800 0.461812 0.392241 -1.387976 -0.720456 -1.290336 -1.504935 0.161996 1.208010 -0.278386 -0.297118 0.440557 2.110698 -1.187091 0.154495 1.884650 0.805850 -0.218820 -2.466556 1.282697 -0.039819 0.894190 1.874484 1.068917 -1.744767 2.452037 -0.042938 -0.008000 0.586722 -0.120130
者O 0.536412 -1.506673 -0.428142 -0.655254 -1.313421 1.212383 -1.206217 -0.804962 -1.235396 -1.001494 -0.571618 -0.370529 -0.911577 -1.745955 -0.459304 0.796844 -0.096475 0.285876 0.927089 -0.274935 -2.175131 -1.674384 0.019327 -1.458195 1.140416 -0.320515 0.150009 0.466740 -0.126664 -0.282539 -0.468169 1.528539 1.314569 0.258911 -0.565334 -0.405488 -0.116308 0.020871 -1.013256 0.110924 1.788016 0.226477 1.614811 1.076814 0.690314 0.250231 -0.202546 -1.530094 0.237373 -0.633958 0.910612 -1.966211 0.851571 -1.086056 0.551683 -0.702072 1.184194 2.067208 0.404514 -0.256669 0.200346 0.469732 0.833510 0.172452 -1.410749 -0.181750 0.204815 -0.872912 -0.247437 -0.949228 -0.807725 -0.360737 -0.168107 -1.214967 1.072570 0.948619 0.254891 0.352490 -0.483342 -0.886757 0.565267 -0.889936 -1.928850 -0.047636 -1.054102 -0.293814 -0.905832 1.431868 -1.094094 -0.373692 1.200725 1.260288 -0.011578 -2.234473 0.613917 -0.829497 -0.436837 -1.232595 -0.233250 -0.645392
侧I -1.238325 -0.413406 0.962722 0.483732 -2.999282 1.109235 -0.830034 0.520806 0.373165 1.627224 -1.303070 -0.500550 0.375730 0.041156 -0.486303 0.493735 0.788509 -0.066516 0.911359 0.220922 -0.628824 2.543509 -1.700133 0.081055 -0.069646 0.124745 0.484506 0.432902 -0.523077 -1.346081 0.212265 -2.098930 0.500964 -0.006694 -1.101258 0.050087 -0.725689 0.172208 -0.041974 -0.011518 -0.837122 -1.191041 0.867277 1.620878 -1.055676 0.241633 -1.218606 -0.600415 0.786462 -0.075340 0.015471 -0.731096 -0.501829 0.100353 -1.005403 0.086603 0.322741 -1.092368 -0.117614 -0.675301 -0.650659 0.038556 0.905522 0.104197 0.662809 0.275822 -0.441847 0.576210 1.027739 0.616799 0.272428 0.292866 1.378142 0.345261 0.595829 -0.352016 -1.652918 0.132730 0.267195 1.054353 0.761296 -0.480619 0.676997 0.481743 0.810813 1.157620 1.044660 -0.820764 1.669646 0.557354 -0.283080 -1.907693 0.296086 -1.419286 -1.295129 0.367153 -0.879382 -0.698052 0.230287 1.406268
8O -0.948493 -0.800841 -0.696863 -0.948003 -1.303931 -0.728529 0.122425 -0.193224 0.824282 -0.710942 -1.483107 -0.082611 -1.812721 -1.039214 1.170516 -0.579489 -0.544168 -0.975357 -1.409235 0.739978 0.978074 -0.348357 0.599724 -0.361141 0.345780 0.704887 -1.836450 0.927013 1.406989 -0.340273 0.124577 0.817910 1.227300 1.370084 -0.811954 -0.932858 -1.113625 -0.000209 0.456456 -0.699448 -0.002661 -0.188951 1.644887 -0.270473 -0.764283 -0.078282 0.937948 -0.543978 0.469532 1.305611 0.191209 -0.071912 1.609766 0.101419 0.514861 -0.926978 1.335014 1.711326 1.003812 -1.393344 0.731664 -0.278365 -0.938243 -0.257203 -0.344371 0.019926 -0.495540 -0.901014 0.896967 -0.203572 0.624926 0.724614 0.335676 -2.035493 0.248921 -0.480484 -0.185925 0.788072 -0.079633 -0.016225 0.049245 0.252890 0.459581 -0.198235 0.305934 0.481798 -0.012994 0.707332 -2.278397 0.471070 0.122321 1.061931 1.867782 0.019337 -1.159255 1.936895 -0.847414 1.096711 0.279871 -1.143504
病O 0.324083 -0.202115 -0.615099 0.189193 -2.320958 1.297883 -1.674095 -1.751797 0.213549 -0.195368 -0.265109 0.077844 -0.111955 -2.002692 -0.089338 -0.513022 0.495111 -0.247597 0.837656 -0.253832 -0.489719 -1.187756 -0.412356 -0.240684 -0.551068 -1.239440 1.881225 2.206308 -0.208513 0.333779 0.822596 1.808110 0.673260 0.566548 1.120427 -0.638384 -1.698357 0.115666 0.585890 -0.228497 0.921856 0.952503 2.661520 1.594408 -0.068383 0.816634 0.856544 -2.634322 0.545057 -0.629843 0.689179 -1.157896 1.190592 -0.291634 0.325599 -0.862890 1.726246 1.391597 -0.198904 0.352880 0.391864 -0.056410 0.465941 -0.936117 -0.100251 -0.449834 -0.689415 -0.727028 0.298324 -1.038587 -0.558494 -0.264829 0.726220 -1.464711 -0.287481 0.213203 1.310830 0.256812 0.120244 -0.550826 0.975107 -1.306025 -1.134882 -0.621953 -0.210838 0.722113 -0.754936 1.058951 -1.335109 0.493999 0.441756 0.160146 -0.060947 -1.940505 0.611814 -0.050021 0.258507 -2.335623 -0.010338 -1.080991
9O -1.433398 -1.170221 -0.543050 -1.556019 -1.781404 -1.352584 0.077729 0.543157 0.735258 -1.151360 -2.000541 -0.085046 -2.324372 -0.707891 2.346472 -0.720549 -0.237079 -1.199389 -0.944589 0.711737 0.990635 -0.268950 1.468258 -0.172227 0.818113 0.513771 -2.100105 0.908470 1.538978 -1.006260 0.115243 0.694750 1.250282 1.129581 -1.527915 -0.573963 -1.414882 0.025017 0.891776 -0.704178 0.812256 -0.716018 1.486761 -0.316615 -0.559628 -0.318755 1.287922 -0.837026 0.068459 1.523013 0.150936 -0.205765 1.545847 -0.361937 0.493677 -0.931624 1.451265 1.671089 1.288676 -1.248947 0.730320 -0.830150 -1.499452 -0.638531 -0.363981 0.077404 -0.571324 -0.973909 1.126739 -0.008342 0.522603 0.311571 0.040795 -2.676674 0.035027 -0.195778 -0.615635 0.329338 -0.707990 0.124915 -0.164770 0.413122 0.346904 0.431413 0.115368 0.261945 -0.200253 0.405079 -2.414173 -0.104673 -0.112405 1.191784 2.054338 -0.219473 -1.028162 1.708932 -1.421521 1.187878 0.428225 -1.322905
心B 0.058489 -0.243064 0.161694 0.795818 -0.548853 0.830506 -1.050851 -0.432218 1.507608 -1.838673 -0.128409 -0.220417 -0.363449 -1.709163 0.535616 -1.009161 -0.101765 -0.385192 -1.239184 0.091440 1.089510 -1.211434 1.611625 0.564373 0.102738 0.627245 0.860431 1.476212 1.170862 0.564186 -0.455851 0.706115 1.015155 0.430869 -1.165281 -0.129575 0.108697 -0.124644 -1.648857 0.040338 -0.012033 -1.328901 -0.044566 -0.083438 -1.078396 0.240176 1.104795 -0.351852 -0.620768 -0.520224 0.560779 1.407265 -0.196870 0.332432 -0.222688 -1.184413 1.703961 0.251994 0.728532 -0.199919 1.864769 -1.018384 -0.433453 0.924403 0.449898 1.013217 -0.846755 1.553884 0.253079 0.240724 -0.076826 -0.667346 -1.114612 -0.141278 0.872568 -0.622450 -1.574386 -0.120071 -0.436990 0.634910 -0.197980 -0.230665 -0.777177 -0.645857 0.571390 0.191500 -0.561475 -1.076840 -2.116158 1.206683 -0.625227 1.035236 2.548149 0.586125 -0.386585 1.342402 -0.004976 0.139412 0.423277 -0.437990
-O -0.440997 -1.283934 -0.358144 0.309428 -2.093530 -0.262221 -1.463055 1.307848 1.281063 -2.484286 -1.788193 0.715991 -0.838849 -0.531780 1.193883 -0.969724 -0.506041 -1.208548 -2.189188 0.136122 -1.282094 -0.794053 0.070183 -0.054219 1.790342 0.421307 -1.814126 0.258776 1.635740 -1.763414 -0.503804 -0.594271 1.377081 1.192201 -0.374895 -1.343512 -0.742549 0.138009 0.643988 -0.175305 0.383746 -0.906770 1.164408 -0.169014 0.006061 -0.041959 1.476398 0.565881 1.005191 1.789512 0.019774 -0.599171 0.732423 -1.379104 1.569021 -0.690730 1.907376 0.731439 0.393077 -0.472498 0.283564 0.489381 -0.921495 0.518339 0.387392 0.512840 -0.118348 0.147394 1.218853 -0.453207 1.305160 0.500241 0.440234 -1.832505 -0.529072 -0.313824 -2.003011 0.417775 -0.040491 1.130517 -0.427838 0.592121 0.887958 -0.311969 -0.543838 0.045230 0.355213 -0.693260 -1.161857 -0.057306 1.478858 -0.368244 3.271484 -0.446960 -1.361582 0.620846 -0.477322 -0.192844 -1.641618 -1.560816
动O -1.116125 -0.179478 0.768361 -1.224298 -0.300766 0.921677 -0.445911 -0.653026 1.281033 -1.973590 0.585546 -2.546301 0.961524 -1.418676 -1.890959 -1.596617 -0.115515 0.703760 1.659335 1.430516 -1.369261 0.378160 0.285326 -0.878623 -0.044002 -0.097498 0.025304 1.644184 -0.114424 1.633629 -1.957101 2.115106 -0.072375 -1.767046 1.442623 -0.241847 0.421894 -0.446385 -2.347452 -0.118025 -0.972645 1.445897 0.959535 1.004315 -1.968711 -1.657069 -0.325976 -0.660543 0.978189 -1.016428 0.738593 0.512573 0.960447 -1.355903 -0.028330 -0.725060 -1.445759 -1.596485 -0.250300 -0.755364 1.802190 0.157501 0.781431 2.541737 1.479415 0.298296 -0.807976 0.797070 1.054325 0.133837 -0.882919 -0.362252 -0.548227 -0.940634 1.180883 -1.178259 -1.680958 -0.237531 -0.779469 -0.445993 -0.274141 0.389866 2.287467 -1.363167 -0.386698 0.539439 -0.338444 0.657016 0.387447 -1.089570 0.556511 0.592169 -0.388148 1.055681 -2.473647 0.240483 -1.564794 -1.123775 1.408295 0.220432
性O -0.958278 -0.303631 1.127714 0.001004 -1.192713 -0.497124 -1.985059 0.981745 0.544905 0.347344 -0.099905 -0.587463 0.973015 -1.334121 -1.341797 -0.319411 -0.073169 -0.268880 0.357730 -0.004267 -1.981936 0.427388 -0.650369 -0.046397 0.025000 0.830913 0.639918 0.219335 1.386539 -0.318917 -0.037782 -0.139624 -0.944467 -0.164564 0.814886 -0.982021 -0.402664 0.128229 -0.687941 0.112178 -0.045838 0.772701 0.803010 1.269166 -0.799209 -0.299015 -0.143317 -0.746701 0.064570 -0.362973 0.875157 0.113125 0.291663 -2.496939 0.723780 -0.071002 0.195315 -0.056181 0.221732 -0.800676 -0.790303 1.089474 1.030920 -0.064144 -0.160896 -0.017244 0.066026 -0.915226 0.798920 0.486437 -0.236136 0.201335 -0.653481 -0.566348 -0.914689 0.129649 -1.214901 0.975928 0.328604 0.358246 -0.743225 1.087669 -1.228221 -0.503196 0.104090 -1.114626 -0.077324 0.303537 0.304368 0.439441 0.602668 -1.024157 1.054927 -0.565758 -0.641090 -0.053570 0.117775 -0.262512 -2.088181 -1.654679
肿B -1.854099 1.272743 1.630114 0.644042 -2.195544 -0.608841 -0.914509 1.555293 2.520626 0.197582 -1.562575 -1.435372 1.017737 0.069392 -2.177332 0.697910 -1.074158 -0.697113 0.259105 -0.216993 -1.660852 -0.620178 -1.750128 0.140246 0.206892 -1.868864 1.209941 0.640945 -1.773064 -0.160772 -1.241483 0.579251 -0.774829 -0.251693 0.391201 0.992336 0.644248 1.721455 -1.745484 0.930253 -0.403462 -0.904814 -0.880905 -0.473957 -1.850091 -0.581074 -1.147520 0.077186 0.672442 -1.358697 -0.774238 0.195017 -0.146523 1.265901 -0.674322 1.709431 0.737905 -0.912691 0.433482 -0.056062 -0.638345 1.397608 1.730492 0.684953 -0.005973 -0.042758 -0.140044 0.292833 -0.653051 0.625343 0.632991 1.074512 -0.239514 1.200106 -0.801395 0.220544 -0.848672 1.760696 0.487264 2.200792 0.291682 -0.252013 -0.354577 0.392831 1.038340 0.309710 0.984370 0.801208 2.266041 0.741939 -0.139368 -1.221908 -1.294272 0.817161 -0.721825 -1.221490 0.842487 -1.003824 -0.528828 2.065248
mO -1.504130 -2.765620 0.111039 -0.591708 -1.094764 -1.681079 0.519517 -0.156766 1.137551 -0.445852 -1.637072 -0.865538 -2.679840 -0.159420 1.478210 -0.458933 -0.638684 -0.419840 -0.842093 0.162159 0.568419 -0.076798 0.780745 -0.066246 -0.283772 -0.989858 -1.587079 0.539851 0.668566 0.456532 -0.603859 0.946085 0.103942 0.560134 -1.582118 -0.285555 -2.152742 -0.177071 0.046003 0.339601 0.512392 -1.071566 1.063010 -1.841418 -1.185352 -0.987021 0.609521 -0.472798 -0.762546 0.471435 -0.631504 -0.185237 1.969995 0.935692 1.027492 -0.070133 1.739632 2.499814 1.764101 -1.912334 -0.294807 0.187973 -1.022621 -0.140704 -1.880278 0.253219 0.169606 -1.813899 1.124631 0.553702 -0.260860 1.918006 -0.064048 -2.013954 1.114950 -0.298303 -0.549917 1.294489 -0.539785 -0.126943 0.213908 1.739923 -1.301476 1.169359 -0.276954 1.044126 0.470423 2.955877 0.026897 -0.809830 0.446125 1.700033 -0.415664 -0.729553 -1.656040 1.598298 -1.722038 2.835089 0.832378 -0.415807
查B -0.692240 1.092175 -1.324551 0.135439 -2.183541 0.232838 -0.758181 -0.980041 2.920496 -0.072087 -0.332927 -1.399680 0.168218 -2.331310 -1.011042 -0.505793 -0.691505 -1.902468 0.932556 0.182122 -1.635597 -1.250425 -0.287284 -0.893047 -0.336743 -1.318510 -0.935468 1.710970 -0.196828 0.330045 -0.240989 1.925170 1.657172 0.233285 0.579905 -0.078507 0.043720 1.062201 0.507941 1.347028 -2.268962 -0.299485 1.886534 1.223435 -0.877624 0.192018 1.087441 -3.039683 2.294653 -1.306932 0.150694 -1.380717 2.130583 0.673019 -0.863085 -0.699238 1.245431 0.874915 -0.758175 -1.634168 0.996324 0.129090 0.715324 0.312280 1.189095 -0.287363 -1.265332 1.231827 -1.609355 -0.114570 0.539844 1.434586 0.403347 -0.226081 -0.767317 0.205660 3.081194 0.859760 0.742406 -0.107596 0.876454 -2.145578 0.517612 -1.943783 0.566515 1.642229 0.754506 0.529593 -0.307859 0.769330 0.738835 0.456879 1.366362 -0.972366 -0.566981 0.414877 0.105493 -1.264238 0.598791 -1.939253
头B -0.111703 0.569280 -0.711346 -0.544913 -1.120119 -0.214194 0.579068 0.584392 0.234795 -0.349429 -1.149089 -0.579033 -0.208943 0.587003 -2.327189 1.282566 -0.529764 0.467246 -0.379832 -1.013087 -1.547311 -0.777121 -1.039384 -1.500292 0.568535 -1.031896 -0.264436 0.636354 -1.130822 -1.940485 -1.288603 0.749649 0.546284 0.518412 0.073688 -0.325074 0.796687 1.026610 0.246195 0.303756 0.061791 -0.062822 0.165988 -0.082682 -0.331327 0.600592 -0.479364 -0.566205 1.136126 -0.060077 -0.485850 -0.633581 0.655831 1.289067 0.165673 -0.103680 1.036556 0.072854 0.009712 0.276217 -0.140136 1.321708 1.225784 -0.183202 0.084583 -0.741801 0.789973 -0.114121 -0.518560 0.056231 0.247293 0.797112 0.245566 -1.769887 -0.410023 -0.060923 0.562341 0.513556 1.087145 0.986336 0.278413 0.289282 0.851656 -0.140572 -0.433856 1.137771 1.561027 0.659480 1.817700 -0.141696 0.149383 -0.427254 -1.629911 0.072360 -0.566824 -0.589492 0.803304 -1.930239 -0.671538 0.615048
诊O 2.472006 0.721787 -1.056875 1.218870 -1.687336 0.715521 -0.048283 -0.153989 0.227541 -0.498875 -1.442652 0.949631 0.568744 -1.497222 0.078912 1.396146 -2.058136 -1.860770 -0.712405 -0.418031 -1.525622 -1.102330 0.679679 0.106047 0.999677 -0.523790 1.716868 1.753624 0.460851 0.500795 -0.913771 0.318181 0.629136 -0.579675 0.125573 -0.744265 -0.714873 0.011165 0.880608 0.163482 2.231288 -1.522813 1.760193 -0.956954 2.166761 2.117597 2.053224 -1.174088 0.767038 0.046931 -2.034790 -0.835704 -0.663210 -0.714471 -0.220899 -1.356379 2.564401 0.853148 0.532324 1.230924 -0.051281 -0.206803 0.221057 0.202934 2.094019 -0.207424 -1.175385 1.038696 -0.659693 -1.355310 0.344490 -1.046307 1.477362 -2.125232 0.535060 0.134485 -0.090249 -0.108539 -0.661003 0.533623 -0.567698 0.222193 -0.004326 1.124059 -1.135981 0.086363 -0.388558 -1.864453 -0.960352 -0.689305 -0.398526 -1.220430 1.590235 -1.556141 0.095711 -0.784602 1.560630 -2.044112 -1.751054 -0.810263
血B 0.549910 0.050889 -0.725435 -0.612730 -0.179533 -0.214694 -0.195359 -0.543293 -0.300406 -0.266016 -0.797256 0.492398 -1.319329 -1.128434 0.722290 0.717684 -0.390485 -0.611398 -1.771099 0.938197 2.151032 -1.316758 0.846351 0.659474 -0.227558 0.398988 -0.585839 1.708225 1.136659 -0.767912 0.353646 0.629923 0.480803 1.242310 -0.389562 -0.137907 0.778446 0.895647 0.260238 0.516280 1.408276 -0.322796 -0.683550 -0.511157 0.170654 0.686600 -0.147321 -0.941774 -1.096419 0.213809 -0.829535 0.445750 0.918254 1.727169 0.371693 -0.348663 0.860226 1.024286 1.487563 -0.621388 0.281722 0.715819 -0.347649 -1.670505 -0.545231 -0.154118 0.688114 -1.045447 0.181238 -0.294762 0.710644 -0.153772 0.056179 -0.559483 0.164254 -0.443522 0.140718 -0.021896 -0.111590 -0.549810 -1.080031 -0.383861 -0.387949 -0.224604 0.223533 0.684826 -0.353278 0.632848 -1.566930 0.876160 -0.950404 1.625056 -0.685304 0.588210 0.897512 1.525030 -0.436874 -0.544201 1.298702 -0.341078
7O -0.621477 -0.766941 -0.705320 -0.869066 -1.117141 -0.866130 0.100508 0.447680 0.530520 -0.940290 -1.366166 0.541599 -1.690450 -1.044802 1.265267 -0.359834 -0.539894 -1.087907 -1.410689 0.612608 0.038840 -0.330017 0.589925 -0.243607 1.013223 0.688561 -1.654672 0.209122 1.066927 -0.589549 -0.074183 0.393034 1.211166 0.970865 -0.599919 -0.701047 -0.725129 0.104182 0.921674 -0.282790 0.466946 -0.358800 1.343495 -0.250896 0.226940 -0.135150 0.830515 -0.109812 0.570026 1.303259 -0.146067 -0.542104 1.272567 -0.450990 0.775131 -0.696589 1.248210 1.423105 0.827163 -0.864469 0.165190 -0.111832 -0.763682 -0.446829 -0.095393 0.099954 -0.439100 -0.615771 0.690516 -0.080340 0.593089 0.389041 0.455810 -2.075808 0.252266 -0.183268 -0.355997 0.568837 -0.528902 0.466409 -0.274918 0.286536 0.067547 0.281766 -0.084032 0.062030 0.003381 0.214674 -1.813195 -0.097081 0.279985 0.576875 2.008034 -0.404583 -0.687830 1.080374 -0.735380 0.773000 -0.170514 -1.484420
于O 0.304601 -1.524673 -0.302693 -0.269602 -1.480615 0.522939 -1.598343 0.486503 0.028669 -2.577697 -1.040131 1.065975 -0.608719 -1.068993 -0.346958 -0.895857 -0.890195 -0.217618 -1.314572 0.094082 -1.971072 -0.410378 -0.644077 -0.191351 1.951758 -0.130180 -0.176767 -0.833771 0.305442 -0.408307 -1.476625 0.295199 1.236737 0.450104 0.242209 -0.909949 -0.623558 -0.187681 0.290343 -0.291845 1.028269 0.224369 0.488396 0.080685 0.924907 -0.412273 0.217212 0.909589 0.835732 0.269763 0.256648 -0.552852 1.409988 -0.780757 1.725728 -0.289785 1.295140 1.109987 0.564264 -0.705980 0.464169 1.071664 0.350855 0.094357 -1.033942 0.574111 0.481430 -1.077953 0.762679 -0.212178 0.654364 0.054696 0.037514 -1.444954 1.003309 0.193396 -1.274041 0.962818 0.184670 1.518676 -0.274776 -0.011961 -1.248396 0.504711 -0.726014 -0.670806 -1.078922 0.978490 -0.599681 -0.190549 1.154862 0.451409 1.641530 -0.766232 -0.077226 -0.440897 -0.609732 -0.300521 -0.694545 -0.430147
压B -1.744982 0.571281 1.609193 -0.228366 -0.191120 0.045059 -2.121416 1.881956 0.728345 -1.466926 -0.669548 -0.652438 1.369159 -0.562921 -2.763766 0.683204 -0.921897 0.307304 0.500579 0.233850 -0.073660 0.975173 -1.014504 -0.153198 0.211153 -1.612635 1.214825 0.443280 0.820274 -0.097311 -2.327523 -0.009232 -0.994294 0.689500 -0.097822 0.814060 0.097433 1.253123 -0.727468 -0.028278 0.395396 0.078321 -1.888102 -0.820164 -1.247679 -0.572151 -0.024455 0.554170 0.541493 -0.432683 -0.715788 1.389419 -0.649168 0.837695 0.218116 1.000079 0.323125 -1.173385 1.377596 -1.465312 0.149375 2.000656 0.789734 -0.364782 0.830118 0.170332 1.236346 -0.176598 -0.859320 -0.715924 1.579435 -0.533855 -0.450253 0.937606 -0.759215 -0.281885 -1.690753 1.340473 0.025982 0.389948 -0.633221 0.872300 -0.345742 0.694363 0.586971 -0.015463 0.280031 -0.406033 2.070035 0.619356 -0.308006 -0.504907 -1.444219 1.114898 -1.028474 -0.795891 0.656817 -0.518766 -0.781838 1.847471
神O -1.519819 -0.251766 -0.380883 0.820061 -0.743500 0.032627 -0.435215 -1.989591 1.031597 -1.342468 -0.663196 -0.947278 -1.696568 -2.257494 -1.517725 -0.080761 -0.309922 -0.046411 -0.224037 -0.819901 0.337485 -0.374144 0.024625 -1.355451 -0.931872 -0.557695 0.145411 1.108060 -0.101860 2.862325 -0.976558 2.338766 1.763879 0.949135 0.039969 -0.154584 -0.276082 -0.398998 -1.529330 0.480054 -0.258651 -0.829484 2.338648 -0.290825 -0.567468 1.240615 1.007215 -1.536134 1.782531 -1.559207 0.506708 -0.866255 2.020998 1.312410 -0.565979 -0.459127 2.286758 2.710481 -0.114247 -1.121744 2.070340 0.773433 0.398335 0.218439 -0.416091 0.823645 -1.077682 0.169778 -1.372025 -0.624120 -2.206237 0.092081 1.033311 -1.506445 1.662753 -1.266123 2.297394 1.092807 -0.057689 -2.096416 1.775000 0.989585 -0.828307 -0.372185 -0.402694 1.084442 0.071176 2.396573 -1.767077 -0.289152 0.579920 1.581618 0.260461 -0.459646 -1.609255 1.075473 0.324845 1.375717 0.692220 -0.256832
查E 0.785954 -0.364809 -1.439414 0.894507 -0.117152 1.205459 0.089602 0.027726 -0.153580 -1.047141 -1.092594 0.001933 -1.166098 -0.930409 -0.901749 1.318859 0.757347 -0.127523 -1.574571 -0.377479 -1.606018 -1.497355 0.933534 -1.139538 1.284828 2.069635 -0.124314 1.636753 1.114704 -1.778286 0.099201 -0.239769 2.068637 0.559785 -1.651965 -0.898112 1.760030 0.670380 -0.929261 2.003007 1.306741 -2.675949 0.655570 0.021850 0.903678 1.362363 0.461639 -0.887664 -0.489817 -0.522457 -0.190267 -1.627668 -0.830190 0.162627 0.413014 -1.716075 2.137415 0.363542 0.386180 1.142811 0.362644 0.946944 0.356612 -0.010631 1.113536 0.277244 0.018842 2.325773 -0.547943 0.694094 -1.219474 -1.420717 0.731881 -2.483331 1.709015 -1.234147 -0.850113 -1.678426 -0.539495 -0.250622 -0.574884 1.058599 0.758362 -0.946427 -1.418036 1.678186 1.226619 -1.850904 -0.820612 -0.911762 0.446802 0.054874 0.503340 -1.229023 -0.225367 0.462123 0.167174 -2.194970 -0.198754 -1.936642
异O -0.262324 0.632687 0.390985 0.948628 -0.358195 1.892273 -1.458415 -0.093861 1.558510 -0.669345 0.760699 0.225020 0.431669 -2.742747 0.096935 1.197456 0.291619 -1.559604 -0.235351 -0.082354 -1.993938 -1.118096 0.331482 1.892159 0.470673 0.505732 0.336958 2.272035 -1.397793 -0.610908 0.120054 -0.855646 1.662183 -0.573751 -1.192208 1.719229 2.296714 1.585647 -2.180745 1.760378 -0.387193 -3.413812 0.748394 1.075287 -1.382195 -1.494077 -1.710291 -1.891230 -1.844319 -0.386509 -0.694967 -0.611237 -0.478772 -0.486540 0.615417 -0.318429 1.369753 -0.531691 -0.048941 0.260808 0.407373 -0.779238 1.463587 1.006781 -0.231365 1.125929 -0.260628 3.504108 -0.525527 2.036005 -0.221764 -0.463061 -1.127974 0.208458 1.370554 0.008073 -2.804771 -0.554807 -0.962857 1.448267 -0.699729 -1.167549 0.266813 -0.498006 -0.999825 2.062818 1.286267 -1.326350 -0.032169 0.246671 -0.474140 0.150667 0.860737 -1.101218 0.066836 -0.324725 -0.353866 -1.673216 1.705700 -1.126382
肺E -1.004627 0.611348 1.991490 2.509859 -2.367086 0.436063 -1.319965 -0.991910 1.170120 1.039230 -1.056777 -1.291065 0.585933 -0.632202 -0.813621 -0.188771 -0.873066 0.388248 1.002670 -1.185407 0.189312 1.311034 -0.974704 0.619288 -2.090178 -0.013024 1.733515 1.207969 0.636564 0.875822 -0.658887 -1.128226 0.167807 0.079025 -0.822404 -0.777841 -1.718418 -0.276839 -1.839893 0.268395 0.215686 -1.721049 1.734597 0.383490 -2.440467 0.720351 0.233990 -1.204147 0.395245 -1.864986 0.530667 0.314508 -0.784074 0.001066 -1.332906 0.238674 0.903135 0.239834 0.182903 -0.765343 0.622749 -0.510779 0.636855 1.658887 -0.290692 0.597728 -0.817179 0.709639 -0.390338 0.192422 -1.375141 -0.535178 1.060493 1.453993 0.549729 -1.168750 -1.164193 0.574576 -0.102230 -0.463819 0.947179 1.370537 0.331387 0.246674 1.039591 0.914191 0.120204 0.868676 -0.158944 0.958960 -0.247699 -0.903140 -0.150338 -0.296694 -1.881112 0.593899 0.097266 1.491334 -0.357204 2.075536
；O 0.856017 -0.430853 -0.286708 -0.213361 0.070767 0.697331 -0.312061 -0.682223 0.540088 0.077248 0.183301 -0.842530 -0.716304 -0.825693 0.022074 -0.775357 0.167671 0.213756 -0.650523 0.740021 -0.178896 -0.562321 -0.021466 0.141830 0.567961 1.050792 0.135305 0.632267 0.511524 -0.205724 -0.163044 0.383210 0.651896 0.093827 -0.372557 -0.574060 -0.315682 0.167297 -0.617083 0.372778 -0.197261 -0.127420 1.010708 0.798243 -0.765681 -0.292971 -0.150491 -0.206405 -0.362347 -0.275667 0.776721 0.673655 0.617723 -0.275199 -0.205531 -0.422579 0.523690 0.150302 0.846908 -0.713548 0.229322 0.077813 0.056424 0.736435 0.043639 0.269663 -0.546908 0.650497 0.647117 0.005125 0.261934 -0.007899 -0.279693 -0.341218 1.160659 -0.237750 -0.916002 -0.006421 -0.078557 0.683864 0.116403 -0.489499 -0.584606 -0.592363 0.518385 -0.452559 -0.711729 -0.299339 -0.610526 0.549286 0.326063 -0.046066 0.795850 -0.628374 -0.572695 0.547096 -0.645743 -0.250808 0.094409 -0.601864
清O -1.186173 0.631308 0.565928 1.474271 -0.816370 -0.201120 -0.560506 -2.206989 1.632898 -0.336027 -0.790760 -1.178000 -1.521710 -1.758086 -0.919595 -0.362180 -0.555068 0.694961 -0.514055 -0.999973 1.041920 -0.238368 0.560416 -0.261564 -1.462698 0.211212 1.750343 0.836875 -0.168005 2.285829 -0.900130 1.234404 1.198888 0.761831 -0.566143 -0.208583 -0.727813 -0.003497 -1.783518 0.351319 0.849567 -1.860625 1.642558 -0.185919 -0.973049 1.700196 1.272457 -1.145466 1.011236 -2.158435 0.705199 0.069961 0.642095 1.254953 -0.864929 0.171522 1.981737 2.184314 0.341113 -0.415802 1.761066 -0.045513 0.059192 0.662276 -0.460234 1.153035 -1.271966 0.733804 -1.837702 -0.008636 -2.415627 -0.748464 0.853030 -0.047105 1.307826 -1.555387 1.085846 0.630702 -0.207119 -1.429434 1.475899 1.478952 -1.060816 0.409279 0.830698 0.522345 -0.163083 1.912539 -1.775043 0.644283 -0.304191 0.854773 0.132402 -0.082226 -1.201795 1.134528 0.734391 1.729100 0.591370 0.812846
治O 0.716374 -0.425997 0.005340 1.726961 -3.426774 0.464084 -0.624238 -0.548126 -0.694843 -0.966116 -0.223532 -0.589719 -0.480090 -0.453690 0.552742 1.166555 -0.575000 -2.038141 -0.003880 0.047939 -0.586784 -2.031139 1.082171 0.859305 2.212689 -1.012151 1.531200 -0.518539 -1.115927 -0.041450 -0.290115 0.524895 0.481843 -1.626030 0.092560 -0.529836 0.618108 0.236952 1.100281 -1.132879 3.479453 -0.106889 -0.306184 0.322581 2.116887 2.056847 0.975584 -0.128056 1.002929 -0.907639 -2.287895 -2.303267 1.736797 0.299738 0.332659 -0.073572 1.784596 1.151210 0.310638 0.699000 -0.406827 0.505844 -1.335237 -0.684176 -0.570095 0.384229 -1.733736 0.574068 -0.773912 -0.945545 0.669046 -0.455573 0.598792 0.527341 0.051142 -0.138194 1.339368 -1.382579 0.966257 -0.901128 -1.338439 -1.803985 -0.515373 1.535838 -1.540823 -0.263635 -1.225496 0.410808 -1.416241 0.732155 0.712936 1.523960 -0.223194 -0.366600 0.986423 0.435038 1.303600 -2.697235 1.268298 0.323586
右B -0.268563 -0.054409 0.924819 -0.350757 -1.538046 0.318558 0.172125 1.108541 0.608553 0.324850 -0.914054 0.100329 -0.118196 -0.056753 -0.623433 0.294014 -0.615786 0.288011 0.667003 0.406909 -0.923657 1.299865 -2.039883 -1.603564 0.584162 0.780925 -0.448261 0.668650 0.398202 -1.225157 -1.484605 -2.036013 0.348057 -1.167288 -0.285418 -1.168827 0.224997 0.948426 -0.190929 0.632243 -1.280392 -0.818240 0.933021 0.693964 0.025111 -0.925188 -0.927667 0.085498 1.241372 0.211324 -0.229396 -0.115948 0.020642 -0.083627 0.104318 0.509493 -0.204818 -0.441730 -0.124961 -0.330836 -0.234708 0.072639 1.223703 0.700577 1.078552 -0.210338 0.123241 0.702053 1.581475 0.002866 0.304015 -0.310210 1.135519 -0.608754 1.463158 0.048870 -2.420454 0.963250 0.439090 2.213950 -0.633573 0.628761 0.791493 1.017602 0.258149 0.483321 -0.037819 -0.930175 0.871220 -0.917634 0.324994 -1.715587 0.654468 -0.689516 -1.609869 -0.654175 -0.692548 -0.773791 -0.351436 1.917086
后O 1.188550 -0.347640 -0.365988 -0.831317 -0.860307 0.279766 0.076470 -1.169386 0.280454 -0.929842 -0.306558 -0.817109 -0.757009 -0.091948 -1.092400 0.315661 -0.368883 0.788300 0.468733 -0.509364 -1.484534 -1.325310 -1.011647 -1.393342 1.623043 -0.600562 0.268986 0.583802 -1.001363 -0.253655 -0.910082 1.213022 0.368029 -0.893294 1.041894 -1.078683 -0.491041 -0.147468 -0.390989 -0.047089 1.213381 0.736443 0.718698 -0.387031 0.660792 0.460564 0.264043 -0.710079 1.570428 -0.871894 0.229935 0.270629 1.311327 -0.056578 -0.390940 -0.171071 0.288145 0.533063 0.359805 0.896068 0.622187 0.515498 0.460142 0.474287 0.633539 -0.497676 0.047194 -0.298559 -0.248458 -1.626398 -0.075814 -0.203338 0.550605 -1.522088 0.336916 0.647714 0.614444 -0.339424 0.114647 0.534340 0.182242 -1.020215 -0.118250 -0.177985 -0.383469 -0.248528 -1.016868 0.693147 0.413051 -0.594745 1.031579 -1.000960 -0.825327 -0.308307 -0.152090 -1.005362 0.408574 -2.382560 -0.952070 0.471995
闻O -0.837137 1.919489 2.146440 -0.167977 -0.395046 -0.310703 -0.055233 -0.917487 1.983639 -1.278924 -1.159803 -1.418615 0.328824 -1.601692 -0.454295 0.885058 -0.316343 -0.074747 -0.772641 0.461441 0.679822 0.769855 1.996964 2.442650 -0.414450 1.251914 2.974107 0.556287 -0.298295 1.252202 -0.898843 -0.093830 0.241070 -1.251770 -0.452587 1.702926 1.300096 0.847257 -4.009953 1.554881 1.762361 -2.976638 0.525922 1.536164 -1.623022 0.922289 1.296404 -0.247191 -1.705728 -3.044552 -0.241630 0.674654 -2.137984 0.450516 -0.020370 0.593198 0.308118 0.074900 0.702913 1.077258 1.006523 -0.304173 -1.642713 0.527653 0.681954 1.247280 -0.934924 1.206972 -1.912319 0.232714 -1.549028 -2.584330 -0.483810 1.496973 -0.598524 -1.297079 -2.019332 -1.030674 -1.828734 -0.024714 -0.510244 1.561391 -1.146029 1.879534 -0.210332 -1.808868 -0.375327 0.187447 -0.353225 -0.360604 -1.206618 0.673726 -0.419275 1.941831 -0.208253 -0.339948 0.671060 1.399379 1.433728 1.814795
LO -1.887455 -0.996866 -0.113733 -1.864034 -1.873630 -1.986428 0.472638 0.489488 -0.393548 -0.433601 -2.013353 -0.319022 -2.156477 -0.009103 3.457561 0.006763 0.669561 -1.241248 -0.200057 0.626698 1.845950 0.292500 2.604589 0.935953 -0.033102 0.183399 -2.202138 1.000846 1.225930 -1.086284 1.096688 0.333337 0.691769 0.601790 -2.240319 0.517021 -1.197473 -0.278117 1.152831 -0.191996 1.435374 -1.243428 1.041309 0.084688 -0.423475 -0.302811 0.991498 -1.671037 -1.321139 1.220591 -0.612627 -0.748277 1.326341 -0.029227 0.543710 -0.433119 0.890334 1.349855 0.858177 -0.889480 0.478043 -1.259257 -2.109522 -1.568637 -0.873267 0.002113 -0.320879 -1.114790 1.177622 0.311025 -0.318973 -0.241535 -0.232586 -2.003667 -0.646517 -0.126903 -0.193722 -1.044065 -1.272869 -1.335807 -0.746512 0.986643 0.290008 0.958928 -0.192755 0.529858 0.244921 0.831207 -2.181159 -0.536585 -0.903224 1.957229 0.474742 -0.264385 0.073939 1.774132 -2.399202 1.364385 1.476435 -1.030636
呼B -2.337578 0.671004 1.792530 1.790329 -2.525865 -0.493082 -0.562106 -0.546158 0.319328 0.238898 -1.345313 -1.002107 0.899674 -0.827487 -1.536520 -0.230235 -1.210193 0.449896 0.321298 -1.574715 -0.259157 1.960395 -0.358649 0.580614 -1.685895 -0.141840 1.467435 -0.137243 0.111899 2.518825 -1.368936 0.121006 0.480745 0.231825 -0.657334 -0.201403 -1.710550 -1.350427 -1.730649 -0.475565 -0.167547 -1.525789 1.417561 0.146580 -2.221595 0.909725 0.995127 -0.706791 0.719316 -2.005562 0.907161 -0.483048 0.049378 -0.065422 -0.011509 0.256274 0.802165 0.766533 -0.636317 -1.611695 1.098445 0.248380 0.234671 1.487190 -0.668728 0.196685 -0.240614 -0.787530 -1.269040 0.734137 -1.928456 -0.563302 1.115318 0.556338 -0.501890 -1.798050 -0.491391 0.192465 0.527853 -1.561509 0.128517 2.569506 1.369321 1.025444 0.480834 0.634711 0.565326 2.455024 -0.105939 1.181929 -0.826696 0.455441 -0.764385 0.378012 -2.143610 1.298607 -0.513335 2.366154 -0.405300 2.133127
左B -0.381522 0.141277 0.539741 -0.309188 -1.103111 0.237562 0.337370 1.109271 0.415737 0.601521 -0.707189 -0.193266 0.155432 -0.071267 -1.065963 0.682647 -0.633757 0.101602 1.048807 0.461749 -1.019798 1.135312 -2.082546 -1.625079 0.462806 0.351144 -0.114145 0.856115 0.304784 -0.823858 -1.137700 -1.520756 0.188896 -0.944371 0.055555 -0.636069 0.401101 1.033518 -0.217486 0.753657 -1.632833 -0.404697 0.760031 0.609144 0.080122 -0.558915 -0.810428 -0.347787 1.248024 -0.176445 -0.223004 -0.122846 -0.102527 0.178912 -0.489914 0.382281 -0.282076 -0.611829 -0.110993 -0.226226 -0.347086 0.089947 1.179563 0.436937 1.511468 -0.250501 -0.071166 0.592502 0.802385 -0.299163 0.477160 -0.178056 1.321584 -0.613448 0.900205 0.289256 -1.441573 1.028810 0.417430 1.801544 -0.227079 0.272077 0.827786 0.745266 0.231364 0.508612 -0.026069 -1.091524 1.154715 -0.749567 0.200866 -1.899140 0.092261 -0.451020 -1.430923 -0.713835 -0.101856 -1.110054 -0.193061 1.648504
肢E -1.768416 -0.834297 1.949362 0.157846 -3.001914 1.518892 -2.018808 -0.418598 1.005784 -1.817215 -0.642448 -0.910355 1.183082 0.009653 -1.751810 -0.448844 -0.260572 0.170371 0.869387 0.513626 -1.058508 2.798931 -1.534368 -0.817561 -0.246009 -0.267025 -0.796561 1.554826 0.575921 -1.874299 -0.947157 -1.219496 -0.065797 -1.562013 0.236289 -1.804343 -0.346128 -0.291853 -1.243640 -1.593752 -0.636794 -0.497712 1.962178 1.819765 -1.614674 -1.221836 -0.897232 -0.152127 1.355759 0.106745 -0.066882 -0.403678 0.647140 -0.907734 1.017225 0.097465 -0.098073 -0.793108 -0.493482 -0.585166 1.977624 0.750755 -0.152584 1.911474 0.165616 0.686582 0.937228 0.689102 2.610883 0.280866 0.913284 0.505300 -0.167967 0.052791 0.335786 -0.735721 -1.983226 -0.252041 1.411341 -0.036826 -1.058736 0.945641 1.745767 -1.006586 -1.142944 1.261493 0.908566 0.620254 0.129722 0.032719 1.518292 0.213627 1.096239 0.589256 -2.292465 0.562061 -1.316231 -0.759738 1.060060 1.482622
症O 0.236961 -0.235612 -0.461177 1.147745 -2.350267 1.266789 -0.469733 -0.183040 0.023239 0.015925 -0.109976 -0.219824 0.366042 -0.844839 -2.545332 1.389894 -1.184213 -1.839481 1.612059 0.418017 -1.468248 -1.168371 -0.967258 -0.739869 1.296883 -1.551258 0.168072 0.536752 -0.246399 -0.030876 -1.361171 1.036793 1.010158 -0.428679 1.061756 -0.883637 0.858717 1.010052 0.413212 0.257282 0.828400 0.820474 0.080631 0.594532 0.723687 0.881930 0.039360 -0.984315 1.916765 -1.667060 -1.227608 -2.136550 2.055763 0.815111 0.109529 -0.025086 0.382129 0.690315 0.318993 -1.102166 0.165473 2.016495 1.051859 0.309380 -0.020029 -0.737138 -0.879238 -0.506764 -0.448006 -1.368706 1.094357 1.216766 0.956186 -0.126750 -0.349188 0.406734 2.080914 0.291382 1.383516 0.242232 -0.385527 -1.378240 -0.058673 0.134997 -1.062537 0.958571 -0.208491 0.716540 0.210842 1.339947 1.449520 0.350707 -0.810690 -0.742806 -0.242223 0.339616 1.001522 -2.258527 0.863846 0.467434
疗O 1.111333 -0.430611 -0.456858 1.716123 -2.557038 0.865601 -1.201612 -0.731075 -0.231881 -0.461713 -0.556979 0.318891 -0.135736 0.163384 0.024793 0.772053 -1.372953 -1.956898 1.518731 0.819425 0.590519 -1.349479 1.072653 0.738076 1.892419 -1.801239 0.704602 0.412137 -0.667741 -0.469163 -0.888881 0.830352 0.923072 -1.143238 0.359972 -0.419629 0.127110 0.456501 0.778860 -0.487558 3.112073 -0.554302 -0.504990 0.877920 0.797766 0.862749 1.293390 -0.825652 0.979477 -1.370075 -2.013342 -2.151368 1.177055 -0.319249 0.257821 -0.096120 0.791315 0.322088 0.584010 0.462356 0.101948 0.388194 -0.937380 0.366856 0.007428 -0.093019 -1.909172 -0.090433 -0.128905 -1.539415 0.702642 0.774436 -0.096260 -0.033692 -0.729881 0.826891 1.069507 -1.098472 0.344155 -0.508924 -0.220421 -1.340123 -0.943868 1.235808 -1.312082 0.361933 -1.674980 -0.198718 -1.265711 1.237363 1.365459 1.306669 -0.132630 -0.747130 1.163366 -0.093876 0.518291 -2.458457 1.204330 0.176731
发B -0.885512 -0.212389 -0.242941 -0.645049 -1.068945 0.740794 -0.182876 0.770882 -0.966072 -2.715701 -0.903180 0.460071 1.259260 -1.469777 -2.979141 1.468239 -0.602632 -1.070664 -0.618155 -0.783147 -2.260781 0.109707 -0.496827 -0.336062 1.344303 -2.678095 -0.116158 0.347691 -0.491243 1.962616 -2.357646 2.546687 0.503817 1.232128 1.694249 0.612110 0.702735 -0.749457 0.000985 -0.297822 0.260683 1.739377 -0.217085 -0.729087 0.364938 1.220250 0.354950 -0.109816 1.148455 -0.067099 -1.248493 -1.100469 1.298986 1.251936 1.473136 -0.527788 1.453382 0.179941 -0.769461 -1.158475 1.130949 2.757194 1.137416 -0.246844 0.035651 -0.818785 1.318666 -1.508518 -0.347916 -1.066119 0.216032 0.380152 0.792594 -1.378295 -0.937593 -0.734115 1.290533 0.784494 0.714854 -0.616623 -0.873710 0.381814 0.928947 0.383187 -1.399151 0.560024 1.236259 1.799710 0.783218 -0.480360 -0.104101 1.291323 -0.963398 0.592739 -0.344924 -0.273194 0.142521 -0.652902 -0.447593 1.354217
明O 0.721594 0.345554 1.587763 0.824051 -0.048936 2.117049 -1.446438 0.101855 0.637481 -1.302158 0.275497 1.340800 1.236070 -3.187973 -2.392098 1.237342 -1.765690 0.037675 -0.003396 0.264140 -2.623014 -0.093023 -0.784914 0.258181 1.400613 0.028519 2.234646 -0.275846 -0.902736 0.745282 -2.068777 -0.839438 1.594136 -0.158130 -0.195934 0.468158 1.131564 1.183512 -1.519285 -0.250899 0.572512 -2.131249 -0.390610 0.761681 0.863656 -0.621527 -0.942733 0.208307 -0.367097 -0.964225 1.032114 0.505203 -0.150777 0.226891 0.992667 -0.235908 1.783878 0.181314 0.009618 -0.190602 1.164949 1.097141 1.153795 0.635885 -0.344821 1.084241 0.555139 0.730242 -0.569016 0.708227 0.221988 -0.123610 -0.290211 -0.357699 1.226968 0.034115 -2.905415 0.880354 -0.011689 3.796182 -0.766725 -1.338557 -0.875429 0.516683 0.202793 0.684373 -0.146914 -0.330884 0.559027 1.762626 -0.661097 -1.429784 -0.045644 -0.014698 0.602626 -1.683461 0.612697 -1.720590 -0.264609 1.773542
触O -2.360798 1.893849 2.876819 -0.078844 -1.900185 -0.766954 -1.056843 1.026357 3.961396 -0.112312 -1.736824 -2.011975 0.929558 -0.297038 -1.275978 0.200441 -0.056316 -0.535500 0.197333 0.154929 -0.593539 -0.397098 -0.928685 1.220600 -0.132136 0.146567 2.341328 1.912681 -1.261509 -0.781630 -0.846305 -0.206706 -0.287710 -0.878293 1.161067 1.406641 1.185073 3.166304 -3.965179 2.642321 0.397385 -1.471338 -0.098750 1.482166 -3.160704 -0.600838 -0.938530 -0.761342 -0.053805 -3.191398 0.068075 1.200236 -1.278487 1.153632 -0.593357 2.353911 -0.413974 -1.757455 1.260896 0.972494 -0.131286 0.846714 1.026338 1.020002 0.178151 0.731883 0.214191 1.082690 -1.228809 0.378956 0.188189 -1.198785 -0.396241 2.368190 -1.209352 -0.057701 -2.048601 0.437914 0.004328 1.888862 0.405591 0.114132 -1.596217 0.399966 0.805278 -0.992700 0.697985 0.870688 1.770415 -0.171547 -0.264917 -0.542337 -0.785679 1.412696 -0.627790 -1.064856 1.161620 -0.427220 1.020991 2.055701
为O 1.084574 0.216757 -0.259993 0.995208 -0.540171 0.885015 -0.595505 -0.392742 0.133988 0.120765 -0.017619 -0.082923 0.730558 -2.005046 -1.172090 0.974311 -1.151424 -1.219029 0.473111 0.434540 -1.167011 -0.676732 -0.221891 0.249495 0.523090 -0.804821 0.736965 0.643226 0.685593 0.930376 -0.826047 0.613057 0.237999 -0.536768 0.550521 -0.422375 0.198552 0.453589 0.004658 0.101467 0.570943 0.005437 0.848792 0.084744 0.619840 0.882490 0.613647 -1.099207 0.479219 -0.541157 -0.872868 -0.845279 0.430151 -0.803725 0.519805 -0.418688 1.066005 0.937268 0.333638 -0.958483 -0.314451 0.796453 0.625826 0.172486 0.354368 -0.631512 -0.858544 -0.150883 -0.250369 -0.817016 0.517445 0.344839 0.228057 -0.251717 0.301839 -0.123645 0.210073 0.600483 0.406432 0.321078 -0.675943 -0.061380 -0.705520 0.321585 -0.798800 -0.235776 -0.562730 -0.011326 -0.305736 0.645493 0.323937 -0.112887 0.503395 -0.793175 -0.656670 0.102615 1.043371 -0.781895 -0.734583 -0.596918
下I -0.658416 -0.207619 1.515833 0.508681 -2.123658 1.047410 -1.503923 -0.360229 1.618459 -0.870972 -0.816403 -0.888949 0.915426 0.241870 -1.115347 -0.653420 -0.241436 -0.035763 0.473942 0.297139 -0.423895 2.208039 -1.811069 -0.247997 -0.399547 -0.627311 -0.533511 1.252729 0.122887 -2.262998 -1.061870 -1.616128 0.104971 -0.860217 0.008776 -1.323027 -0.445386 0.524547 -0.616600 -1.082703 -0.377132 -0.743352 1.570612 1.129077 -1.030283 -0.736292 -0.367719 -0.150310 1.251319 0.211238 -0.075634 0.135373 0.276744 0.153039 0.839549 0.274250 -0.195135 -0.352246 -0.115598 -0.550491 1.078054 0.222056 0.008260 2.141817 0.274898 0.020610 0.791097 0.831457 2.136109 0.041512 1.206226 0.307507 0.190052 0.779918 0.695807 -0.786201 -1.904820 -0.023029 1.401905 1.064756 -0.458634 0.606486 1.271159 -0.070844 -0.670948 1.481160 1.095473 0.167050 0.446321 0.007754 0.527961 -0.456188 0.913364 0.412874 -2.020338 0.570634 -0.441445 -0.479443 0.680216 1.445695
:O -0.561648 -0.276616 -1.515070 -0.995857 -1.248114 -0.171425 -0.116998 -0.431031 0.976657 -1.489159 -1.505723 -0.325708 -1.583647 -1.118378 0.367166 -0.521262 -0.273015 -1.267579 -2.330209 0.406770 0.331974 -0.458228 0.095484 -0.443155 0.645512 0.702932 -1.773808 1.975181 1.277350 -0.936905 0.259800 1.458068 2.152506 2.055728 -0.642932 -0.899945 -0.861138 0.604103 0.927519 -0.057040 -0.410329 -0.265678 2.359099 0.381989 -1.046600 0.355900 1.219643 -1.287211 1.059368 1.167553 0.341828 -0.053359 2.106682 0.660188 0.535430 -1.315093 2.268015 1.141157 0.573398 -1.006538 1.277693 0.192563 -0.971645 0.081817 0.413123 0.354487 0.166246 0.144362 0.395360 -0.436947 1.021226 0.322623 1.179037 -2.588836 -0.115373 -0.897950 0.862338 0.132214 0.651296 -0.618521 0.334629 0.245619 1.221876 -1.220948 -0.154839 1.266665 0.649964 -0.184019 -2.246505 0.364635 0.304902 0.853716 2.034081 -0.164987 -1.106398 2.018970 -0.504472 -0.188026 0.544549 -1.891774
细I -1.650806 1.009808 -0.104206 -1.377625 -1.708802 -2.273234 1.334924 1.053398 1.239921 1.696284 -3.485350 -0.478414 -3.179640 -1.432723 2.520405 0.536845 -0.195118 -1.507773 -1.670949 1.860278 2.004855 -0.465291 1.635511 0.338973 0.975498 1.644345 -0.526185 0.163314 1.678996 -1.510841 1.112859 -0.057808 -0.696225 -0.482673 -1.683426 0.556179 -0.361207 1.071726 0.300046 0.108412 2.584127 -1.446542 1.240968 -0.044215 -1.062844 0.818637 1.272929 -0.128160 0.401918 0.879037 -1.463242 -0.746352 0.129523 -1.407340 -0.603692 -0.078830 2.272160 2.255908 1.943775 -0.403780 -1.490632 -1.097413 -1.776235 -1.737428 0.294895 -0.739855 -2.512479 -1.082875 0.701808 1.140116 -0.650150 0.108483 -0.415225 -1.463265 -0.004847 -0.290664 -0.745787 0.178513 -1.497184 0.866453 -1.061683 2.287183 -0.966649 2.356857 2.000943 -1.619905 -0.867802 -0.127713 -3.083388 0.161357 -0.865486 0.542785 2.051075 0.295503 -0.905084 1.058783 -0.675256 1.620984 -0.777718 -1.298828
显O -0.020166 -0.527310 1.019753 0.111686 -0.157123 1.975533 -1.110798 0.565521 0.728553 -0.795687 -0.223214 0.878215 0.882838 -2.535900 -2.027058 1.125705 -0.798073 0.346189 0.250358 -0.243036 -3.144068 0.573969 -0.493590 -0.271376 0.879866 -0.974293 1.997444 0.442235 -1.283774 -0.288685 -1.148664 -0.448768 1.019529 -1.096862 -0.857079 1.362137 0.995525 0.790175 -1.322099 1.129771 0.025221 -2.578194 -0.730291 1.104129 1.001621 -0.170576 0.007639 0.172265 -0.364254 -0.928739 0.374625 0.923345 -0.332436 -0.765860 1.260730 0.934505 0.298709 0.668666 -0.267509 -0.568460 0.725007 1.205212 2.142581 0.344214 -0.312489 0.652057 0.920300 1.178733 -0.286490 0.794145 0.976813 -1.279219 0.682311 0.371562 1.150423 0.100507 -2.181623 0.568127 -1.039557 3.156520 -0.287218 -0.452156 -0.510385 1.346965 -0.678699 -0.140085 0.172717 0.275441 1.282184 2.005023 -0.583395 -1.066571 0.066844 -0.585021 -0.060932 -0.740106 1.242643 -1.494838 -0.426060 1.648570
肿E -1.730409 0.648136 1.003386 -0.560636 -1.869851 0.831154 -1.050815 0.332417 0.530608 -0.378112 -0.448168 -0.684620 0.622629 0.128081 -1.314291 0.377820 1.188121 -0.378049 0.064745 0.392641 -0.240830 1.549554 -0.661032 -0.587011 -0.410182 0.050456 -0.874669 1.515623 -0.727511 -2.445198 0.275361 -1.140819 -0.440483 -1.614128 0.094893 -0.130125 1.125245 0.850596 -0.688697 -0.047059 -0.863563 -0.798518 1.302913 2.167335 -1.230430 -0.866100 -1.804578 -0.275541 -0.085018 0.760259 -0.861369 -0.752366 0.383007 0.506349 1.392599 0.841165 0.019394 -0.977551 -1.164540 0.212592 0.713804 1.577133 0.443700 -0.078804 0.346106 0.040803 1.194445 1.200631 2.289850 1.157218 0.331028 0.460132 -0.549660 0.169432 -0.102373 -0.757280 -1.697224 -0.866816 1.105290 0.114917 -1.731855 0.927480 1.566785 -0.947659 -0.840179 1.508437 2.354209 0.591437 0.256813 -0.356684 0.502866 0.377110 -0.244979 0.004171 -0.957393 0.224950 -1.174188 -1.743596 0.937294 0.821401
检B 1.124842 0.045349 -1.370616 0.845667 0.074033 0.697981 -0.434685 -0.015291 0.184295 -1.521817 -0.836701 -0.732832 -1.607216 -0.686591 -0.492647 1.094984 -0.227794 -0.232281 -2.047674 -0.925698 -1.414053 -2.013874 0.726847 -0.605533 0.906953 2.015326 -0.200930 1.801793 1.153157 -1.773174 -0.836843 0.394378 1.983029 0.372695 -1.341516 -0.775268 2.306292 1.455826 -0.708942 2.243451 1.055479 -2.118927 0.283430 0.204801 0.624670 1.367025 0.269429 -1.177368 -0.077194 -0.973723 0.419570 -0.992216 -0.405689 0.251096 0.217481 -1.082582 1.764235 0.444520 0.668480 0.907072 0.310334 1.254480 0.518756 0.670288 0.661402 0.404886 -0.142860 2.472852 -0.291109 0.569168 -1.467820 -1.471214 0.715245 -2.163061 1.343697 -0.976147 -0.616110 -1.433049 -0.552507 -0.459303 -0.517138 1.310392 0.148897 -0.533710 -0.883646 1.219022 0.769525 -1.812499 -0.772740 -0.900509 0.853546 -0.136144 0.223583 -1.249066 -0.794330 0.627708 0.036217 -2.056819 0.128354 -2.073539
予O 1.207408 0.414487 -0.408858 -0.294010 -0.742035 0.525042 0.921627 -0.797435 -1.592413 -0.782541 -0.366471 -0.806611 -0.632092 0.616096 0.394603 1.361290 0.350064 0.951099 0.826450 -0.721417 -0.108609 -1.708679 -0.090114 -0.484870 1.335296 -0.659399 1.149833 1.061343 -1.076744 -1.314498 -0.904452 0.540906 0.210007 -1.570028 -0.115598 0.176255 -0.471208 0.159775 -1.448682 0.732231 2.913945 -0.808212 0.337504 -0.412167 0.644700 1.300466 0.197056 -1.035351 -0.284897 -1.689979 -0.117300 0.449208 0.831989 1.105923 -1.561548 -0.356515 0.497186 -0.001430 0.437781 1.943850 0.855191 -0.133083 0.236910 -0.168068 -0.674710 -0.484187 0.150410 0.573565 -0.720536 -1.076187 -1.836970 -1.823023 -0.322219 -1.644482 0.407711 0.372184 0.748591 -2.294964 -0.531738 -0.097200 -0.025133 -0.012797 -0.362952 1.113456 -0.711656 0.064362 -1.039340 -0.145408 -0.365535 -0.309800 -0.409799 0.086170 -1.522735 -0.383287 0.993537 -0.715101 0.370180 -3.091136 0.137994 1.725046
咳B 0.218865 -0.483960 -0.989748 -0.832622 -1.331699 0.807782 0.398424 0.954763 -1.599884 -2.532665 -1.298177 1.918443 0.335306 -2.155246 -2.378403 1.714715 -0.604188 -1.138430 -1.607077 -0.027759 -1.700080 -0.594051 -0.720439 -0.607197 1.402471 -1.844431 0.414811 0.874697 0.368501 0.593051 -1.280041 2.381865 0.688194 1.882779 1.895007 -0.023685 0.625406 0.000973 1.334075 -0.026784 0.732939 2.480846 0.136092 -0.550077 1.079571 1.289971 -0.155519 -0.428420 0.997310 0.284409 -1.167965 -0.872451 1.429277 1.735435 1.243878 -1.391117 1.713719 0.269495 0.147868 -0.579064 0.600346 2.255854 0.707484 -1.319466 0.556029 -0.894370 1.102976 -2.317686 0.055699 -1.402600 0.781236 0.021425 1.599542 -2.914384 -0.887705 -0.439118 1.614090 1.078237 0.006419 0.503605 -0.856464 -0.149791 0.226404 0.141794 -0.662406 0.397722 0.686248 0.782918 -0.096730 0.462162 -0.959615 0.663465 -0.614732 0.369393 0.434211 0.298222 0.435640 -1.847264 -0.306490 0.441454
出O -0.094007 -0.811119 0.102774 -1.033619 -0.858011 1.520868 0.377808 0.184999 -0.918127 -1.432082 0.293671 0.568016 0.089054 -0.778682 -0.000151 0.447719 0.127002 -0.112695 1.996888 -0.071259 -2.352884 -1.143764 -0.106451 -0.620965 2.358354 -1.177043 0.476928 0.091831 -1.426620 0.109273 -0.496890 1.101976 0.695533 -1.665595 0.301621 0.846473 0.163072 -0.447039 -0.374093 -0.013589 1.168185 0.191472 0.355955 0.422484 0.861522 -0.188676 -0.390860 -1.077231 0.245488 -1.012171 0.595971 -0.221943 1.119004 -0.792311 -0.318813 -0.438374 -0.404709 -0.861633 -0.233672 0.658055 1.099441 -0.473887 0.222341 0.167220 0.346868 -0.376634 -0.297737 0.061917 0.060984 -0.974161 0.060036 -0.843192 0.431152 -1.319199 -0.153876 1.355175 0.172575 -1.262319 -1.028966 1.514019 -0.191612 -1.749098 0.142358 0.296741 -1.373282 -0.023539 -0.390254 0.063327 -0.131008 -0.083749 0.060970 -0.364580 -0.208474 -0.263521 0.548787 -0.918218 -0.082311 -2.597235 0.485308 0.501719
胸B 0.319082 1.477137 0.185122 0.289427 -1.171882 0.176323 -0.065221 0.649484 0.972925 -0.401336 -0.616742 -0.674024 1.204952 -0.149511 -0.662675 0.688877 -0.318605 -0.858152 -0.930096 -0.824461 -0.191975 -0.444340 0.791092 0.813696 -0.077958 -0.756271 0.812759 0.480651 -0.032238 0.180156 -1.065134 0.373864 -0.494259 0.268800 -0.906503 0.566345 0.385183 -0.522178 0.170778 -0.138588 0.179344 -1.291530 -1.018174 -0.615197 -0.575672 1.551913 1.151167 -0.062875 0.180678 0.214701 -1.375462 0.355617 -0.724268 0.946013 -0.594903 -0.862763 2.076863 -0.527447 -0.065849 0.160892 0.413570 0.187429 -0.176195 0.163569 1.450257 -0.110302 -0.585659 1.434668 -0.527022 -0.265880 0.094404 0.206340 -0.615553 0.139636 -0.675215 -0.683593 -0.051991 -0.022053 0.700502 0.037254 -0.700635 0.166738 1.030230 0.211786 0.855232 0.130552 0.801473 -1.607852 0.577468 0.700274 -1.028539 -0.028844 0.629601 0.793550 -0.353798 -0.156524 0.983581 -0.600847 -1.117683 0.770382
腰B 0.347448 -0.313967 -0.524799 -0.867418 -0.109387 0.427978 0.222059 0.671525 -0.258553 -1.094737 0.099001 -0.899929 -0.185495 0.762223 -0.662070 -0.024482 -0.354502 -0.051177 0.797855 0.922141 -0.265880 -0.370075 0.288754 -1.059138 0.980547 0.154505 -0.384073 0.908854 0.636685 -0.970011 -1.631044 -0.021244 0.458891 -0.413993 -0.176321 -0.638814 0.420149 0.812939 0.426939 -0.381203 0.298314 0.222137 0.046141 -0.003438 0.274067 -0.397391 -0.093819 -0.301421 0.459338 0.322849 0.181392 -0.018072 0.058832 0.157850 -0.321838 -0.785101 -0.808982 -0.709064 1.000402 -0.187543 0.308486 0.069161 -0.234436 0.681858 1.242669 -0.135181 -0.242027 0.526988 0.717461 -0.562686 1.253515 -0.663676 0.527528 -1.902933 0.714061 -0.198672 -1.104311 -0.429823 -0.171487 0.747567 -0.209923 -0.117518 1.877290 0.347427 -0.889251 0.659337 -0.295800 -1.453820 0.140498 -0.831861 0.324164 -0.198247 -0.340601 0.259174 -1.170236 -0.034590 0.044618 -1.854553 0.862949 0.583001
咽B -1.973150 1.317288 0.584731 -0.952458 -1.699222 0.261065 -0.570101 1.577708 1.732707 -0.115585 -0.006085 -1.178592 1.092196 -0.351037 -2.362984 1.276736 0.653134 -2.087578 0.994352 0.399132 -0.462398 -1.419786 -1.270584 -0.680811 0.563057 -2.381341 -0.736271 1.946107 -1.734325 0.387967 -1.245052 0.786999 -0.045871 0.541287 1.489118 1.298614 1.484233 2.114540 0.106337 1.089304 -1.596980 1.593374 -0.613847 0.658583 -2.329703 -0.400330 -2.178133 -1.393666 1.138896 0.204617 -0.684344 -0.094066 1.698016 2.042930 -0.060839 0.814408 0.066157 -1.295987 0.084580 -1.346233 -0.381679 2.373775 2.260157 -0.377258 0.801124 -0.814969 0.723042 0.209961 0.888667 -0.211404 1.680455 1.526411 0.673165 -0.204454 -1.236950 0.104962 -0.354808 1.107792 0.843552 1.320720 -0.094973 -1.406187 2.118448 -0.599405 0.154102 1.224622 1.899663 0.577138 1.569017 0.024098 -0.271321 -0.505928 -1.782615 -0.227545 -1.352330 -0.572518 0.351526 -2.789047 0.119021 2.018542
胞I -1.358316 0.936763 -0.365843 -1.332742 -1.588470 -1.969355 0.940351 0.978373 1.386161 1.395255 -3.308617 -0.393166 -2.735268 -1.949551 1.806423 0.231295 -0.382959 -1.508634 -1.712476 1.725472 0.713777 -0.450415 1.106920 0.227410 1.474346 1.565302 -0.133087 -0.414508 1.270012 -1.215934 0.553188 0.301467 -0.569650 -0.721734 -0.990433 0.383650 -0.318595 0.766459 0.224117 0.240016 2.312026 -1.163321 1.519782 0.219343 -0.960065 0.848096 1.255489 0.097872 0.792131 0.403764 -1.234425 -0.973953 0.340045 -1.899232 -0.481525 -0.216589 2.463777 2.297361 1.666179 -0.471549 -1.479264 -0.625388 -1.353832 -1.365742 0.385091 -0.560429 -2.607381 -0.841312 0.339989 1.142508 -0.799713 0.283580 -0.572049 -1.547859 0.115690 -0.208185 -0.509505 0.479071 -1.105625 1.086827 -0.831077 2.257765 -1.663495 2.148391 1.686601 -2.063007 -1.049711 0.150440 -2.676361 -0.114306 -0.263736 0.380745 2.472421 -0.125182 -1.037673 0.537146 -0.300328 1.536670 -1.322313 -1.865517
大E -1.933196 1.990440 1.343538 1.103625 -1.848130 -0.985283 -0.225742 1.490026 2.844972 0.822787 -1.798617 -1.905330 1.153217 0.229724 -1.712422 0.741750 -0.966559 -1.105262 0.142753 -1.138604 -1.709446 -1.331794 -1.016230 0.433238 -0.485317 -1.327472 1.348466 0.815850 -2.021504 0.567936 -0.752181 1.042144 -0.535019 -0.201807 0.716157 1.610256 0.847287 1.891835 -1.855034 1.732211 -0.185614 -1.163413 -0.748673 -0.097009 -2.321148 0.108651 -0.617422 -0.451376 0.903662 -2.042849 -0.827654 0.318599 0.117848 1.432158 -1.174589 1.424516 1.061139 -0.989703 0.330687 0.381599 -0.576793 1.315130 2.087085 0.853219 0.342920 -0.242798 -0.522480 0.810893 -1.647812 0.736027 -0.089530 0.791908 -0.368649 1.394764 -1.150717 0.281251 -0.210472 1.085289 0.156764 1.248097 0.979134 0.041932 -0.057699 0.114365 1.616917 0.175878 1.178107 0.932802 1.981642 0.610986 -0.563733 -1.182872 -1.588129 0.816428 -0.260602 -1.160736 1.223682 -0.976603 -0.534261 1.785171
吸I -1.290134 1.410475 2.227065 1.850319 -2.002833 -0.063329 -0.227643 -0.950108 0.466694 0.645142 -1.132465 -1.175881 0.895516 -1.048288 -1.759334 0.221762 -1.344780 0.931551 0.486425 -1.217236 -0.657005 1.709161 -0.152776 0.852529 -1.336439 0.130580 2.142038 -0.247915 -0.199034 2.261159 -1.304984 -0.256302 0.385129 -0.485553 -0.466911 0.046003 -0.929424 -0.668038 -2.452438 0.234095 0.700774 -2.055908 1.354431 0.452044 -1.838495 1.278389 0.868628 -1.051614 0.243448 -2.723110 0.541351 -0.204937 -0.373688 -0.355457 -0.409781 0.678532 0.555130 0.729671 -0.650882 -0.560718 0.540809 0.077194 0.576403 1.451514 -0.352526 0.671149 -0.424976 -0.113695 -1.472764 0.756535 -2.756849 -1.138212 1.242506 1.060939 0.349030 -1.615547 -0.818356 0.101677 -0.487606 -0.842516 0.445369 2.418459 1.044052 1.382514 0.393399 0.003761 0.146638 2.081732 0.545829 0.825217 -0.722831 -0.521190 -1.053002 0.113891 -1.716092 0.443268 -0.095792 2.130199 -0.391540 2.291918
以O 1.530462 0.355760 -0.373951 0.043785 -0.813339 0.684382 -0.260400 -0.336029 -0.031332 -0.249172 -0.563821 0.361025 0.894843 -0.517095 -0.649285 -0.103899 -0.601383 0.043789 -0.399717 -0.306740 -0.682870 0.387914 -0.997370 -0.028485 -0.045848 -0.809163 1.349532 0.941415 0.522356 -0.430365 -0.652955 0.076447 -0.135051 0.311273 0.564631 -0.696165 -1.246264 -0.044082 1.132847 -0.460998 0.466230 0.346142 1.470554 0.259661 0.598748 1.143008 0.964328 -0.899297 0.835198 0.132970 -0.407062 0.226309 -0.214903 0.071553 0.131240 -0.422690 1.496498 0.389166 -0.158791 0.234370 0.150095 0.129072 -0.034874 0.080182 1.017160 -0.414284 0.347080 -0.166304 0.299462 -0.887606 0.511857 -0.558757 0.954384 -0.821299 0.228710 -0.451502 0.549216 0.327100 0.887459 0.352196 -0.077003 0.634987 0.022046 0.140313 -0.092564 -0.391001 -0.251632 -0.629507 0.236448 0.022984 -0.455914 -0.849531 0.581559 -0.736483 -0.399046 -0.538080 0.606530 -1.143246 -1.296300 0.156938
反I -3.751705 -0.953473 0.469273 -1.352342 -1.665970 0.324916 0.468444 2.343116 -1.571085 -2.061999 -0.288894 0.571740 -0.126649 -0.330887 1.509483 0.451283 2.209654 -1.489717 0.661588 0.565844 -1.004907 1.285754 1.415992 1.839721 1.497402 -0.650606 -0.535129 -0.360912 -0.824495 0.157968 1.116923 0.836673 1.981187 1.155327 -0.968781 2.944524 -0.184785 -1.303692 0.660743 0.721462 -0.701083 -0.290828 0.630485 2.125201 -0.852425 -0.392174 0.098151 -0.791914 -1.213113 0.243861 0.498828 -0.657890 0.628580 -0.630555 0.179667 -0.373437 0.480727 -2.125000 -0.550676 0.022019 1.023063 -0.553535 -1.324489 -0.857732 1.201376 0.243769 -0.861455 0.511347 -0.509923 -0.115958 -0.720661 -1.772362 1.127208 -1.272467 -1.969722 -0.022569 0.119786 -1.954663 -1.996622 -1.169752 -0.224128 -0.498751 1.743513 0.383252 -0.983542 -0.277870 1.361048 -1.248189 -0.159350 -0.209381 -0.573428 0.748448 0.355724 -0.573734 0.305090 1.091982 -2.138027 0.580436 2.088669 -0.043133
区E -1.596532 0.844996 2.314197 0.189016 -1.187528 0.812689 -1.111981 0.516103 1.141884 -0.811090 -1.442613 -0.987209 1.011715 -0.509587 -0.951247 1.430162 0.267728 0.257797 -0.717535 -0.241770 0.584945 1.526253 -0.194806 1.904022 -0.190590 -0.448826 2.451453 0.648752 -0.197836 0.403093 -0.295975 -0.485381 -0.927753 0.571287 -0.927133 1.585290 0.034182 0.221218 -2.194478 0.568912 1.206087 -1.344546 -0.741525 0.080483 -2.552098 0.226601 -0.134699 1.105529 -1.089505 -0.987465 -1.153496 1.492744 -1.713909 1.493107 -0.386482 0.496362 1.646306 -1.557208 1.036149 0.570745 0.693289 0.634665 -0.352011 -0.061907 1.056772 0.582721 -0.218821 1.077608 -0.709764 -0.600654 -0.256039 -1.333490 -0.477275 2.114762 -1.214456 -0.759985 -3.012813 -0.004662 -1.095553 0.010174 -0.533957 0.782115 -0.602622 1.264920 1.301543 -0.467678 0.383185 -1.079696 1.104767 0.942531 -1.215974 -1.145377 -1.252435 1.589335 -0.136952 -0.179533 0.084087 0.232054 0.076157 3.165518
年O -0.048020 -1.420823 -0.404175 -0.438195 -1.334310 0.473085 -1.770968 0.322175 -0.634353 -1.115360 -0.773029 1.026167 -0.573322 -1.148605 -0.324970 -0.482929 -0.094203 -0.136313 -0.780897 -0.026237 -1.266481 -0.519768 -0.565444 -0.237957 0.873894 0.183523 0.477236 -0.031632 0.666601 -0.698780 -0.239296 0.396962 0.320210 0.908162 0.411151 -0.839593 -0.991156 0.214224 0.420938 -0.234555 1.384269 0.971773 1.018153 0.481814 0.402516 -0.275544 -0.480643 0.142940 -0.211258 0.371306 0.596828 -0.623680 0.886264 -0.767418 1.469707 -0.405519 1.005594 0.918983 0.811993 -0.366998 -0.248879 1.008198 0.619115 -0.871789 -1.210823 0.110512 0.502946 -1.798615 1.043632 -0.295873 0.565693 -0.111725 0.068187 -1.608061 0.178809 0.561071 -1.141149 1.291166 -0.374270 1.114707 -0.080151 -0.021260 -1.898203 0.174192 -0.260308 -0.569182 -0.778112 1.101135 -0.822198 0.161038 0.818096 -0.066902 0.597004 -0.951247 0.553885 -0.407168 -0.219113 -0.921811 -0.755547 -0.891938
活O -0.957897 -0.277026 0.621603 -0.913211 -0.109128 1.047345 -0.642676 -0.550982 0.880498 -2.219270 0.273612 -2.147979 0.537814 -1.131704 -2.679287 -0.949064 -0.390225 1.096283 1.406064 1.262546 -1.890442 0.427834 -0.605155 -1.990802 -0.191111 0.111949 -0.466542 1.573399 0.219363 0.999544 -1.809244 1.853257 -0.043373 -1.579409 1.423496 -0.601028 0.847465 -0.602752 -2.258422 -0.270102 -1.197052 1.010922 1.344955 0.745255 -1.413088 -1.967280 -0.729553 -0.349629 0.879439 -0.643002 0.808703 0.251806 0.775813 -0.839848 0.116639 -0.876426 -1.087813 -1.364797 -0.043930 -0.613128 1.558818 0.499443 1.461924 2.376980 1.770030 0.320093 -0.541910 1.161328 1.450897 0.018008 -0.470675 0.050238 -0.261071 -1.538816 1.501801 -0.731899 -1.814119 0.475968 -0.806120 -0.242105 -0.245887 0.535334 2.410643 -1.083531 -0.502154 1.080063 -0.462878 0.503440 0.544098 -1.223789 1.015776 -0.038322 -0.567063 0.918881 -2.283269 -0.144332 -1.340003 -1.450597 1.256485 0.618226
不O 0.196159 -0.821128 0.743018 1.004584 -0.653172 0.932937 -1.160240 -0.151459 0.360618 -0.946725 0.261177 0.115428 0.229729 -1.040948 -0.377991 -0.898408 -0.823602 0.367658 -0.149500 0.557258 0.528781 -0.560263 0.190154 0.317964 0.263930 -0.206202 1.394630 0.503831 0.674586 1.262298 -0.791852 0.514448 0.319390 0.038557 0.088443 -0.356883 -0.103070 -0.374833 -1.261751 -0.460482 -0.120824 0.309018 -0.752291 -0.045159 -0.182962 -0.138097 -0.091230 0.347910 -0.033316 -0.988608 0.430523 1.344643 0.528677 0.115893 -0.207757 -0.171767 0.314889 0.043267 0.913199 -0.756632 0.956653 -0.019400 0.547135 0.649516 -0.342591 0.597027 -0.710658 -0.293069 0.530476 -0.320564 0.304722 -0.072256 -0.321224 0.409964 1.134156 -0.028009 -1.387950 0.896038 -0.145462 0.940305 0.235842 -0.791811 -1.043894 -0.116733 0.757139 -0.483901 -1.641240 0.192878 -0.710229 1.633500 -0.187256 0.447337 0.846717 0.185417 -0.198643 0.935278 -0.222538 -0.134975 0.439693 0.920668
叩B -2.570299 0.720745 3.269649 1.432594 -2.553194 -0.200770 -2.828223 0.994273 2.088462 -0.648031 -1.537211 -1.598121 1.296256 -0.952737 -1.483006 0.014296 -0.658693 -0.083999 0.339792 -0.667485 0.540080 1.686556 -0.802528 1.018912 -1.112657 -0.423008 2.595208 1.505020 1.027416 0.206280 -1.359035 -1.027091 -0.848051 0.391521 -0.476277 0.115167 -0.634660 0.754276 -2.735909 0.489626 0.681850 -1.158475 -0.436247 0.563742 -2.992797 -0.003046 -0.272998 -0.056819 0.002020 -1.986969 0.342007 1.472084 -1.442397 0.470206 -1.122195 1.162635 0.883060 -1.312566 1.250879 -0.464311 0.717128 0.409825 0.424346 0.793282 0.434262 1.106322 -0.343007 0.644385 -0.795328 -0.376096 -0.203841 -1.307457 -0.600866 2.198188 -0.867254 -0.791447 -3.078609 1.260364 -0.225950 0.231595 0.097009 1.312325 -1.412479 0.773857 1.567546 -0.447904 -0.090760 0.072471 0.568915 0.988813 -0.596181 -0.718957 0.284030 1.028434 -1.488413 0.163289 0.595376 0.840681 -0.346267 2.581268
热E -0.472907 -0.277494 -0.352827 -0.569306 -0.737686 0.634284 -0.453774 0.462188 -0.531924 -2.829468 -0.719088 0.526304 1.264707 -1.717245 -2.201998 1.070642 -0.752077 -1.556841 -0.543006 -0.536507 -1.912735 -0.037243 -0.829248 -0.472029 1.170409 -2.383281 -0.385365 -0.025097 -0.290823 1.241919 -1.914310 2.470680 0.666919 0.834724 1.127070 0.390280 0.834969 -0.415082 0.753659 -0.175113 -0.272577 1.495469 0.333212 -0.142706 0.250598 0.972083 0.284774 -0.709267 1.232163 -0.095327 -1.062418 -1.147955 1.421209 0.975731 1.489421 -0.162770 1.577643 0.253814 -0.548682 -0.838574 1.122653 2.263633 0.780198 -0.158783 0.383708 -0.437644 0.854572 -1.025591 -0.081273 -0.929902 0.374612 0.793604 0.876878 -1.596639 -0.480007 -0.246216 1.336252 0.952524 0.871909 -0.695348 -0.678215 0.550686 0.721007 -0.419015 -1.718222 0.566913 0.998297 2.087398 0.396716 -0.118126 0.242714 1.274609 -0.666398 0.445946 -0.711971 0.296720 0.133906 -0.637875 -0.055188 0.274000
部I 0.384211 1.588313 0.297944 -0.219007 -0.641296 0.079295 0.546151 1.673560 1.757832 0.826868 -0.658369 -0.768075 0.681411 0.067548 -0.247431 1.101278 -0.046007 -1.705544 -0.022590 0.031499 -0.914947 -1.306402 -0.810318 0.402185 0.533302 -0.610161 -0.262183 1.583202 -0.131432 -1.237041 -0.330784 -0.253374 -0.059605 0.193734 -0.078124 0.561377 0.665718 1.674088 0.555212 1.376990 -0.316426 -1.000896 0.078677 0.317183 -0.721627 0.530942 0.122949 -1.072757 0.505584 0.489817 -1.039573 0.594272 -0.219899 0.661929 -0.409691 0.135404 0.713693 -0.910080 0.449234 0.028221 -0.627659 0.632539 0.478908 0.420516 1.754856 -0.885231 -0.365490 1.532681 0.277659 -0.648266 1.544415 0.606397 0.870307 0.088533 -0.794651 0.110971 -0.358223 0.100391 0.708169 1.739870 -0.285595 -0.762150 1.373429 -0.255272 0.574402 0.631295 1.144183 -1.823451 1.150187 0.309167 -0.479031 -1.457791 -0.041658 0.004425 -0.838004 -0.717386 1.347996 -1.926917 -0.937898 0.789441
儿O 0.042147 -1.780332 -0.683911 -0.676535 -1.419380 1.522700 -1.153621 -0.818475 -1.154326 -0.588116 -0.629180 0.387236 -0.955286 -2.548309 0.367601 0.869412 0.155443 -0.424188 1.070979 -0.143792 -1.992392 -1.327033 0.045021 -1.238218 1.325843 -0.419519 0.024878 0.997233 0.304299 0.242568 0.658876 1.622002 1.496520 0.348371 -0.684943 -0.421288 -0.972967 -0.382191 -0.329967 -0.531291 1.199613 0.400829 2.601863 0.780246 0.642345 0.682154 0.379938 -2.280203 0.147524 0.160100 0.912990 -1.920984 1.083746 -1.935995 0.930052 -1.252750 1.587546 2.310633 0.231861 -0.596308 0.066831 0.121023 0.496263 -0.636069 -0.786653 -0.619264 -0.301360 -1.395873 0.273561 -1.026949 -0.617482 -0.039509 0.348364 -2.446773 0.455234 0.690707 0.093365 0.242307 -0.504646 -0.470292 0.240721 -1.068982 -1.365587 -0.362288 -1.318719 0.054130 -0.481275 1.563727 -1.683695 0.008203 1.011770 0.408234 0.636949 -2.537865 -0.112602 0.358425 -0.307577 -0.937917 -0.890189 -1.791677
日O 0.416272 -1.850025 -0.778246 -0.779649 -1.166643 0.234619 -0.179180 -0.650902 -1.477410 -1.694807 -0.433369 -0.394648 -1.019237 0.493471 1.067358 -0.354976 -0.444297 -0.250498 0.033190 0.272989 0.718144 -0.724468 0.979826 -0.621211 1.092101 -0.381275 -0.905021 0.516348 0.999350 -0.402476 -0.639305 1.004172 0.990329 0.577847 -0.806833 -1.318659 -1.361633 -0.602136 0.979238 -1.927684 1.890943 0.554903 0.741929 -0.435012 0.612994 0.248025 1.095857 -0.461901 0.085981 1.027297 0.175552 -0.239555 1.799938 0.021386 0.224518 -1.242334 0.656077 1.110113 0.995747 -0.506516 1.082811 -0.523024 -1.676171 0.149540 -0.826839 0.218425 -0.098030 -0.970359 1.056607 -1.429667 1.005796 -0.307654 0.423325 -2.331738 0.559695 0.037349 0.085663 -0.652175 0.047660 -1.013733 0.099070 -0.336910 1.089048 0.515277 -1.242587 0.603553 -1.210386 0.159726 -1.967843 0.050228 0.538264 1.515120 0.265963 -0.101293 -0.260681 1.163004 -0.430071 -1.152003 1.000758 0.115194
主O -0.025064 -0.711581 -0.789277 0.116821 -1.010488 0.798476 -0.150478 1.235423 -0.277430 -0.894694 -0.091081 1.014421 0.117326 -1.834433 -1.360091 1.126482 -0.950952 -2.147876 0.959871 0.642185 -2.787616 -1.675616 -0.247736 -0.958142 2.124158 -1.410528 -0.844013 0.119029 0.288649 0.451830 -0.804344 1.408961 0.542547 -0.595183 1.422124 -0.345438 1.242092 0.642758 1.000225 0.313118 0.015665 1.542215 0.482468 -0.297601 1.206722 0.140078 -0.297594 -0.991879 1.194153 0.080103 -0.911368 -1.745770 1.540469 -1.057056 1.206589 -0.554504 0.005139 0.141860 0.077003 -1.215901 -0.743617 1.288364 1.259976 -0.307510 0.372911 -1.344880 -0.595300 -1.070270 0.394062 -0.776921 1.419443 1.377469 0.696817 -1.288810 -0.774200 1.064012 0.883247 0.827055 -0.267918 1.432725 -0.792469 -1.357065 -0.027166 -0.393290 -1.382422 0.287484 0.580458 0.374997 -0.218727 0.211416 0.777371 0.082883 0.639787 -0.678404 -0.363394 0.205629 0.482929 -1.817981 -0.501009 -1.500264
中O -1.295243 -1.641153 0.627055 2.013409 -2.256778 0.432034 -2.099679 0.099008 -1.507767 -0.586756 -0.574490 -0.306710 0.177044 -0.017713 -0.516547 0.199732 -0.107033 -0.083283 0.349057 -0.926308 0.180857 0.942249 -0.027870 -0.282540 -0.439008 0.147918 0.854409 -0.299255 1.103875 1.129760 0.374790 -0.583599 -0.510885 0.296116 -0.391856 -0.857561 -0.456256 -2.068668 -1.418969 -0.710436 -0.157410 0.119081 0.111189 -0.355044 0.207496 0.516694 -0.994763 0.518262 -0.047704 -0.768035 0.286306 -0.574605 -0.107554 -0.189865 -1.813591 -0.330956 0.498843 -0.304032 0.692085 -0.407137 0.561278 0.088607 -0.115945 -0.773775 -0.063332 1.256397 -1.515768 -0.303173 -0.635145 -1.127110 -0.671281 -0.314498 0.150016 0.279623 0.364206 0.334795 -0.616757 0.947036 -0.944025 -1.584052 0.671783 0.043170 -1.321296 -0.171982 0.337810 -0.071614 -0.427531 0.308913 -0.870689 0.353068 0.816909 -0.188904 0.963392 -0.602640 -0.394020 1.033690 -0.232461 -0.090334 -0.030878 0.432217
合O 0.185762 1.305974 -0.063280 0.507818 -1.856930 0.276425 -0.530612 -1.750042 1.268314 1.019988 -0.172612 -2.049009 0.082066 -0.416906 -0.482911 0.280589 0.239012 -0.353990 0.903317 -0.285312 0.752844 -1.369918 0.654489 0.121989 -0.924157 -1.353976 0.993226 1.854583 -0.637165 -0.016466 0.718417 1.482747 -0.385474 -0.695071 0.163308 -0.079505 0.026361 0.494074 -0.226103 0.393412 0.495310 -0.085113 0.763818 1.456075 -1.020999 0.923006 1.129502 -2.317554 0.927661 -1.319883 -0.713118 -0.735266 1.210422 0.300320 -1.316527 -0.017830 0.985081 0.316269 -0.471929 0.368925 -0.008840 0.094206 -0.624035 -0.153802 1.069786 -0.055373 -1.650918 1.318445 -0.606749 -0.751746 -0.379978 0.218504 0.032881 0.904764 -0.574306 0.118262 2.216021 -0.972305 0.352863 -1.605874 0.629128 -0.838943 0.303152 -0.822412 0.725810 0.810141 0.132767 -0.341187 -0.300235 0.807679 0.599592 0.284155 -0.864404 -0.515350 0.225338 0.058931 0.372757 -2.489391 0.198973 -0.467270
给O 1.608798 -0.378369 -0.247165 -0.078050 -0.743485 0.278008 0.699798 -1.065205 -1.324652 -0.758422 -0.860749 -0.603842 -1.213546 0.305421 0.229311 0.711247 0.002067 0.655810 0.572189 -0.635474 -0.199048 -1.750262 0.209506 -0.381380 1.349047 0.043171 0.657038 0.875975 -0.717571 -1.423315 -0.334258 0.452433 0.544188 -1.686306 -0.659397 -0.350888 0.082550 -0.129750 -0.839971 0.937773 2.805922 -0.597387 -0.236371 -0.100361 0.400155 0.653716 -0.205675 -1.506600 0.234630 -1.428703 0.232263 0.039964 0.783255 0.119197 -1.342985 0.033955 1.164997 0.083095 -0.062442 1.329521 0.704981 -0.704979 0.517409 -0.094593 -0.713435 -0.589077 0.040443 0.999553 -0.716549 -0.499257 -1.267235 -1.570131 -0.512965 -1.730539 1.175634 0.501184 0.113403 -1.832325 -0.587908 -0.092736 -0.367057 0.421841 -1.205082 0.668284 -1.084136 0.239205 -1.271999 0.018003 -0.951793 -0.418362 -0.167526 0.207881 -0.899823 -0.701271 0.402141 -0.768911 0.154976 -2.916670 0.077293 1.003674
颈B -0.410834 0.187984 -0.338929 0.148624 -0.396080 0.209446 -0.236426 1.312377 -1.054306 -0.102819 0.335271 -1.426238 0.913020 0.928638 -0.909983 0.270434 0.375789 -0.653065 1.280731 -0.092020 -0.061355 -0.988103 0.336689 -0.646855 -0.031580 -0.578516 -0.266551 0.668375 0.710750 -0.386288 -1.532966 -0.036464 -0.944117 -0.045291 -0.102560 0.389230 0.955559 0.087680 -0.421684 0.614796 -0.329252 -0.014531 -0.650207 -0.277811 -0.006007 0.063809 -0.834240 -0.576947 -0.484485 -0.505875 0.168887 -0.219401 -0.079062 0.395138 -2.364774 -0.461394 -0.470797 -1.269573 0.856690 -0.228214 -0.050930 -0.137754 0.443079 -0.081446 0.956859 0.137588 -0.864155 0.944438 -0.095393 -0.356438 0.413389 -0.578875 -0.164570 -0.853926 0.742360 0.463438 0.044908 -0.144386 -0.762927 0.018400 0.305931 0.161823 1.398683 0.306629 0.207905 0.541495 0.305179 -1.751300 0.423335 -0.859716 -0.083132 -0.139017 -0.445935 -0.067645 -0.674217 -1.068642 0.260597 -2.233756 0.406807 0.845175
膜E -2.106964 0.485824 1.463890 -1.839737 -1.478607 0.151379 -0.174412 1.035371 -0.041490 -0.167987 -0.756744 -0.118856 0.365461 0.221047 -0.694098 1.195192 1.700373 -0.397598 -0.795342 0.295108 1.270023 0.308718 -0.323017 0.526082 0.675029 -0.796754 -0.757082 0.854366 -1.798914 -0.294079 0.345186 0.017678 -0.399438 0.754445 1.094961 1.455481 1.438814 0.478075 -0.535155 1.234968 -0.327198 1.327127 -0.760803 1.067440 -1.825106 -0.548018 -2.301991 0.052951 -0.255218 0.546549 -0.979746 0.249879 0.863941 1.734981 0.230916 1.364552 -0.494766 -1.531310 -0.183282 -0.168059 -0.455658 1.912938 0.272505 -1.625221 0.015427 0.005703 1.083876 -0.531692 1.055584 -0.049702 0.276005 0.061086 0.631285 0.636396 -1.336238 -0.539997 -1.046631 -0.500163 -0.144163 -0.397435 -0.676255 0.027616 1.507592 -0.004054 0.502304 0.369582 1.849905 0.739619 1.497172 -0.155106 -0.716538 0.169731 -2.152673 -0.171968 -0.067554 0.158797 -1.456419 -1.857059 1.053151 2.312649
gE -0.964286 -1.930987 0.025953 -0.118337 -1.184790 -0.755142 -0.003075 -0.898663 0.027325 -0.815518 -0.745896 -0.564266 -1.429359 -0.344754 1.104363 -0.321141 -0.303372 -0.086341 -0.131590 -0.674347 0.520179 0.078390 1.340736 0.075322 -0.419381 -0.671158 -0.551348 0.340043 0.401404 1.132504 -0.236671 1.103894 0.464058 0.203175 -1.379894 -0.282605 -1.703572 -1.266366 -0.310799 -0.326150 0.728346 -0.945154 0.809615 -1.065424 -0.572971 0.017792 0.983186 -0.962119 -0.583955 -0.256089 -0.059566 -0.297627 1.491658 0.307547 0.309338 -0.446447 1.462471 1.752804 0.593810 -0.952404 0.780258 -0.517246 -0.999128 -0.088128 -1.428738 0.479064 -0.172021 -0.974105 0.026667 0.130872 -1.208876 0.679362 -0.192632 -1.498300 0.611451 -0.337824 0.371757 0.113685 -0.432041 -1.468820 0.276813 0.899191 -0.882920 0.455915 -0.602996 0.781467 0.009642 2.057520 -0.753658 -0.189465 0.174778 1.894134 -0.006492 -0.659691 -0.637192 1.473868 -1.170720 1.705395 0.783039 -0.430667
膜I -1.103729 1.113697 1.747993 -0.292063 -1.108200 0.114751 -0.213571 0.463930 1.611265 -1.202038 -1.209795 -1.182400 0.296793 0.348692 0.451134 0.419983 0.353469 -0.138224 -1.317129 -0.162153 1.318320 0.275110 0.457817 1.395027 -0.181199 0.174182 0.632609 1.381312 0.288116 -0.596744 0.456366 -0.107346 -1.149031 0.175577 -0.906399 0.716145 -0.484384 -0.177918 -1.480147 0.234998 1.267731 -1.239449 -0.449496 -0.248979 -2.724919 -0.537352 0.657868 0.987717 -0.603993 0.649940 -1.239949 1.904415 -1.220626 0.927351 -0.261488 -0.187580 1.329647 -1.415240 0.685541 1.056493 1.144271 -0.200715 -1.274692 0.539142 1.496977 0.367840 -0.495371 1.593674 0.429146 -0.700838 0.189829 -0.536750 -0.361933 0.961920 -1.500860 -0.939816 -2.523767 -0.702570 -0.766305 -0.211492 -1.016173 0.658918 1.207003 0.192354 1.455045 0.362075 0.287152 -1.784317 -0.132665 0.569632 -0.687807 -0.632500 -0.040828 1.966319 -0.388611 0.259938 0.108855 -0.120465 -0.044620 2.136950
