4 100
O 0.026163 0.105044 -0.028393 -0.043523 -0.104091 0.047839 0.018918 -0.003745 0.089801 0.056048 -0.115562 -0.019717 -0.037375 0.008811 0.150346 0.071059 0.036359 0.019880 0.122679 -0.076875 -0.040264 0.185372 -0.204301 -0.024898 0.133100 0.054110 0.014133 -0.081172 0.013754 -0.032609 -0.071653 0.136084 -0.017254 -0.017534 -0.079801 -0.073863 -0.151202 -0.234903 -0.053529 0.055100 -0.072102 0.121704 -0.084914 -0.076636 0.043906 0.042261 -0.158785 -0.060611 -0.028465 -0.006116 0.074915 -0.052417 0.078758 -0.110916 -0.070551 0.136241 0.053823 0.050234 0.033922 0.038778 0.007975 -0.133666 -0.057952 0.130292 -0.088882 -0.077040 0.070054 -0.088675 0.096105 0.061707 0.032846 0.129718 0.106733 0.059961 0.000626 -0.073975 -0.094178 -0.077826 -0.149248 0.062741 0.116850 -0.076228 -0.049473 -0.016875 0.027779 -0.015116 -0.059723 -0.021574 0.018181 -0.103732 -0.072180 0.040487 -0.064500 0.038963 -0.160856 -0.020510 -0.011555 0.155481 0.017641 -0.072081
I 0.267348 0.508645 -0.148266 -0.099587 -0.231473 0.302682 -0.308933 0.392970 0.543549 0.190195 -0.515950 -0.275969 -0.029702 0.659000 0.457536 -0.017010 0.487330 0.626489 0.457926 -0.289813 -0.047841 0.460031 -0.497450 -0.539075 0.591089 0.146947 0.343399 -0.984165 -0.018721 -0.768614 -0.274000 0.375401 0.476517 -0.431662 -0.328203 -0.390139 -0.652851 -0.686624 -0.483544 -0.268340 0.052328 0.215254 -0.278680 -0.621115 -0.836499 0.630266 -0.282578 0.767080 -0.275455 0.887058 0.398313 -0.248556 0.020877 -0.213505 0.073918 0.356950 -0.418428 0.024766 0.767727 -0.308559 -0.300610 -0.629640 0.689634 0.411741 -0.184396 -0.138662 0.007114 0.263469 -0.441921 0.422557 -0.166421 0.502332 0.392700 -0.748432 -0.586572 -0.714247 -0.069613 -0.052737 -0.140370 0.274445 0.460444 0.208546 0.299116 -0.849722 0.153583 -0.026977 -0.192005 0.448722 0.789101 0.049769 0.613726 0.394220 -0.284631 0.016069 -0.563545 0.118370 0.170346 0.073080 -0.776923 0.198812
B -0.476337 -0.182328 0.435641 -0.290908 -0.470797 -0.189972 0.044520 -0.256850 0.189481 -0.239115 0.005591 -0.081688 0.331070 0.155853 0.140525 0.004317 0.343700 0.507931 0.279310 -0.125635 -0.473452 0.228141 -0.299030 -0.493235 0.316131 0.101950 0.326682 -0.827681 0.410713 -0.724683 -0.415440 0.509589 0.269185 -0.775832 -0.033123 -0.275773 -0.355333 -0.340329 -0.807791 -0.237551 0.247369 0.359196 -0.323900 -0.531010 -0.481654 0.375610 -0.352280 0.340065 -0.217155 0.437659 -0.139739 -0.029577 -0.215312 0.095541 0.182542 0.281945 -0.233834 0.198283 0.318831 -0.457177 -0.332010 -0.309589 0.256158 0.230476 -0.019201 0.191478 0.234320 -0.016079 -0.222084 0.213777 -0.165273 0.086013 0.077203 -0.437230 -0.353310 -0.372105 0.150425 0.068604 0.050029 0.327774 0.239464 0.082283 0.217645 -0.324300 0.086812 -0.020000 -0.170445 0.531509 0.368959 0.193926 0.315615 0.145037 -0.129936 -0.263040 -0.199229 -0.071094 0.390829 0.083049 -0.441187 -0.044230
E -0.007674 0.276456 -0.601683 -0.436172 -0.223930 0.385525 -0.420945 0.169609 0.146902 0.124293 -0.175987 -0.347990 0.302814 0.275940 0.288360 -0.070158 0.197570 0.264211 0.035521 0.021793 -0.672277 0.381998 -0.626887 -0.758148 0.413905 0.090430 0.532511 -1.009895 0.489581 -0.804278 -0.227837 0.411581 0.156591 -0.720273 -0.170445 -0.327197 -0.495870 -0.721268 -0.645153 -0.070092 0.194526 0.532825 -0.608275 -0.765590 -0.355420 0.138580 -0.191117 0.161840 -0.113041 0.290724 -0.259193 -0.214572 -0.051660 -0.123489 -0.064191 0.197789 -0.141548 0.289058 0.298270 -0.411001 -0.439694 -0.180855 0.115873 0.313801 0.070820 -0.034172 0.176134 -0.092323 0.007097 0.457380 -0.002077 0.036351 0.045622 -0.248646 -0.084408 -0.274047 -0.100562 -0.038330 -0.165392 0.032003 0.167822 -0.047584 0.196694 -0.190565 0.297383 0.137939 0.065973 0.395302 0.198393 0.229935 0.221699 0.080522 0.127413 -0.101637 -0.179806 -0.023772 0.153974 0.280722 -0.181883 0.009180
