2812 100
，O -0.027019 0.123873 -0.649291 0.300441 0.020368 0.142483 1.005181 -0.487220 -0.614383 0.578487 -0.337114 -0.981974 0.634048 -0.037439 0.153415 -0.203733 0.116695 0.277885 -0.397366 -0.546471 -0.043948 0.175748 -0.217847 -0.389571 0.143781 -0.671820 0.494451 0.821901 -0.543564 0.112429 -0.513714 0.213477 0.483276 -0.344248 0.124487 1.081615 -0.237634 -0.192681 0.693802 0.269598 0.176433 -0.502653 0.286744 -0.141158 -0.152788 -0.308049 -0.223371 -0.422944 0.567318 -0.732000 0.128816 -0.466836 -0.478369 -0.304585 -0.031378 0.349907 -0.492303 -0.161163 0.012772 0.458721 0.342694 0.175662 0.085815 -0.032252 0.345041 -0.388367 -0.129094 -0.110579 -0.215981 -0.291490 -0.106894 -0.143441 -0.103226 -0.148729 0.285527 0.026229 -0.020451 -0.091633 0.222097 -0.118344 -1.280383 0.163536 0.112009 0.135786 0.996330 0.148034 -0.206326 0.269017 0.278391 -0.214442 -0.010248 -0.104467 -0.200500 -0.087046 0.094729 1.077384 0.556126 0.557258 0.216942 -0.299723
1O 0.284953 0.598388 0.206217 0.842585 -0.143128 0.856217 0.625068 -1.312477 -1.679208 0.416461 0.347493 -0.517236 0.101477 -0.522658 1.446913 -0.392195 0.586325 -1.138967 0.610805 0.703992 -0.018355 1.092974 -0.569633 -0.452946 1.428861 -0.240825 0.702625 -0.337239 0.846598 0.841837 -0.765749 -0.584366 -0.326622 -1.649146 -0.179306 -0.381122 0.270251 0.122516 -0.486398 0.367060 -0.096540 1.020326 0.123530 -0.258746 1.077446 0.128118 1.908285 -0.456857 0.539983 -1.021292 0.770345 -0.056268 0.329702 1.112585 0.217255 -0.073123 0.297988 -0.252871 0.231771 0.507198 0.819491 0.387857 -1.374622 0.682648 0.712058 -1.016899 0.041032 0.106544 0.345231 -0.240769 -0.566313 0.792501 -0.097270 1.265351 1.205492 -0.455826 -0.265677 -1.124498 0.669384 -0.347262 -0.619013 -0.864043 -0.547496 0.246926 -0.560729 -0.179708 0.123886 0.542966 0.833827 0.107227 0.375430 -0.636324 1.639728 -0.926574 1.004509 0.771240 -0.245280 -0.195048 0.159490 -0.557396
0O 0.159136 0.773908 0.278900 0.944928 -0.117379 0.756070 0.819532 -1.436763 -1.820283 0.386351 0.129660 -0.316838 0.352390 -0.861666 1.431258 -0.475045 0.548225 -1.365992 0.478188 1.215296 0.340159 1.209376 -0.618646 -0.202173 1.304792 -0.324738 0.410164 -0.496597 0.892588 0.866189 -0.522167 -0.545476 -0.238397 -1.850157 0.034783 -0.551028 0.469796 0.172985 -0.670922 0.113274 -0.322912 1.185352 0.161637 -0.019502 1.065176 0.266525 2.241658 -0.586499 1.051340 -0.800441 0.797063 -0.405999 0.112842 1.077076 0.039850 0.056929 0.228086 -0.478222 0.407156 0.516108 1.043566 0.210070 -1.879150 0.703733 0.432355 -1.568910 0.108387 0.228463 0.188589 -0.336001 -0.937171 1.029326 -0.272437 1.571277 1.306489 -0.224510 -0.248811 -1.164791 0.840569 0.054402 -0.941917 -0.823270 -0.700182 0.199580 -0.878316 -0.289523 0.091316 0.709496 1.024438 0.211040 0.401409 -0.573550 1.744249 -1.200171 0.884310 0.751468 -0.279186 -0.518452 0.296256 -0.384579
、O -0.645725 -0.386168 0.183602 -0.107082 -0.385446 -0.501198 -0.227520 -0.085637 -0.260925 -0.498773 0.303112 0.145183 -0.185249 0.236471 0.724461 0.671181 -1.014790 -0.466492 -0.520513 -0.681617 -0.208176 0.096797 0.571582 0.349317 0.738666 -0.757230 0.957218 0.301285 -0.585731 0.785816 0.158471 0.535262 0.339055 -0.617208 0.741197 0.363985 -0.128391 -0.257188 0.783301 -0.156929 1.052384 0.095141 0.124433 0.382182 -0.307401 0.155847 -0.306565 -0.838993 0.598154 -0.600634 1.353699 0.457949 -0.381345 -1.149335 0.541878 0.646995 -0.489361 0.130261 0.676802 -0.953729 0.327824 0.175070 -0.686313 -0.035755 -1.487375 -1.033513 -0.511450 0.159389 0.548519 -0.871488 -1.092747 1.228484 0.351910 0.059420 -0.312400 -0.003135 0.790339 0.922868 0.079903 0.067783 -1.170361 -0.765747 0.688467 0.387134 0.023498 0.318918 -1.012279 -0.616036 0.255307 0.064918 -0.188036 -0.124024 -0.516440 -0.906443 1.003556 0.008329 -0.204831 -0.113371 0.320973 -0.736500
2O 0.358049 0.753531 0.133016 0.864550 -0.174341 0.932921 0.708337 -1.278037 -1.510415 0.632742 -0.136027 -0.336911 0.402122 -0.810813 1.293281 -0.399142 0.589428 -1.063468 0.700820 0.808169 0.078941 1.065453 -0.683505 -0.508904 1.445737 -0.125441 0.533244 -0.369261 0.693581 0.806016 -0.637183 -0.543256 -0.254632 -1.484541 -0.306583 -0.431760 0.393101 0.204869 -0.511036 0.312598 -0.032778 0.986584 0.032073 -0.169961 0.979997 0.106511 1.862145 -0.524076 0.514905 -0.900134 0.759156 -0.264597 0.279919 1.027261 0.125093 0.098725 0.291028 -0.180565 0.213253 0.638529 0.901501 0.447987 -1.393472 0.576506 0.478189 -1.041512 0.016507 0.126538 0.302669 -0.257068 -0.770997 0.740673 -0.180108 1.322667 1.057182 -0.447884 -0.376482 -0.833642 0.683295 -0.122772 -0.680709 -0.910066 -0.379960 -0.154601 -0.598823 -0.257579 0.181009 0.758692 0.869068 0.051760 0.722326 -0.787325 1.739730 -0.843180 0.937464 0.782324 -0.370647 -0.206476 0.281477 -0.528810
。O -0.567221 -0.023339 -0.286595 -0.397690 -0.369385 0.295208 1.309778 -0.997929 -0.862690 0.531688 -0.566520 -1.667908 0.695592 0.170499 0.453639 -0.459650 0.507110 0.139634 0.536709 -0.158845 0.284005 0.920927 -0.265888 -0.285209 0.398008 -0.641545 0.129301 0.341814 -0.181665 0.389696 -0.837251 0.135480 0.327891 -0.449024 -0.712515 1.167776 -0.023753 -0.053994 0.564151 0.632064 0.108430 -0.163396 0.912805 -0.082667 0.492974 0.273333 0.935415 -0.425827 0.663586 -0.395454 -0.339283 -0.322776 -0.081440 0.296179 -0.458348 0.026137 -0.878395 -0.341482 -0.111565 0.807477 0.403934 -0.091705 -0.750616 0.671378 1.007774 -0.181138 0.249974 -0.095893 -0.359723 0.524128 -0.265396 -0.050637 -0.553201 -0.243506 0.666817 -0.127327 -0.726458 -0.847773 0.456359 -0.129562 -1.794600 0.170004 -0.563977 0.037264 0.445643 0.599755 0.170832 0.082968 0.305706 -0.416002 0.155201 -0.117999 0.657568 0.104735 -0.129702 0.987106 0.976540 0.755780 0.261993 -0.469158
无O -0.772941 -1.366979 -1.795635 0.857591 -0.476971 0.856271 0.409195 0.080969 -0.832047 0.035835 0.608602 -0.150126 0.139769 0.264538 -1.161738 0.319584 -1.700134 -0.500298 -0.044604 0.196708 -0.737940 -0.379312 0.718483 -0.770158 0.336116 -0.833087 0.296710 0.121903 -0.641964 0.803408 -0.651651 0.282312 -0.786328 -0.625231 -1.249988 1.473817 0.572152 -0.452543 -0.000385 -0.487745 0.654262 -0.570391 -0.389253 0.198735 -0.232131 -0.151585 -0.619301 -1.336445 -0.993054 -0.820036 0.679629 0.408065 -1.092131 -0.843136 -0.974626 -0.131865 -0.784850 -0.538690 -0.032265 0.533050 -0.144961 1.109094 -0.405703 -0.465038 -1.320943 0.887542 -1.222108 0.242064 2.375810 -0.497741 -0.660923 0.655225 0.143275 -0.307043 -0.391488 -0.622048 -0.123055 0.494545 -1.396404 0.823856 -0.748204 -1.055884 0.743606 0.153898 0.830420 0.485734 -0.597633 0.841095 -0.072701 -0.478911 0.783077 -0.793623 -1.403620 -1.137105 0.773181 0.975300 -0.061611 0.628235 -0.626434 0.516054
-O 0.073958 0.512015 0.794677 0.790878 -0.714920 0.909501 1.073128 -1.350806 -1.713670 0.041787 0.231070 -0.082216 0.344935 -0.498953 1.358392 0.115851 0.667040 -0.849828 1.125911 1.189847 0.265471 0.993608 -0.122639 -0.243388 1.247074 0.163669 0.612372 -0.953767 0.774169 0.855552 0.105365 -0.343109 -0.089978 -1.743958 -0.128892 -0.534852 0.310063 0.295778 -0.418868 0.636166 -0.196505 1.617698 0.647996 -0.131368 1.195338 -0.062270 2.990455 -0.801095 0.408687 -1.269206 0.973357 -0.045679 0.671200 0.999224 0.334370 0.210576 0.481371 -0.485687 0.806767 0.563631 1.128677 0.887919 -2.363188 0.594078 0.695634 -0.849547 0.422120 0.149650 0.455351 -0.090679 -0.429725 0.955404 0.015879 1.719615 1.315476 -0.530976 -0.605188 -1.015166 0.858449 -0.160441 -0.460144 -0.789693 -0.794159 0.428217 -1.092460 -0.440869 -0.191562 0.427796 0.996873 0.229846 1.169684 -0.880053 1.904404 -0.921377 1.361163 0.678329 -0.281544 -0.400943 -0.126400 -1.102665
）O -0.491351 1.153479 1.459237 -0.373968 0.170103 -0.948028 -1.148863 -0.088486 0.041557 -0.345237 0.273215 -0.276072 -0.672583 0.636704 0.870853 -0.109763 1.235064 -0.750482 0.073069 0.309557 -0.409338 0.669259 -0.643046 0.635479 -0.133589 -0.004429 -0.043001 -1.072329 0.545358 0.118756 -0.199850 -1.272510 -0.600703 -0.348098 0.315118 -0.349371 -0.191494 0.533563 -1.112733 0.006500 0.553744 0.688634 0.007488 0.106109 0.147123 -0.367414 2.287537 -0.154031 -0.339909 -0.568719 0.168454 -0.026749 1.403478 -0.276451 0.285005 -0.003891 0.510679 0.054783 0.782612 0.984635 -0.217358 0.549487 -1.144316 0.110204 -0.159159 -0.636263 -0.004524 0.203884 0.035853 0.218004 -0.814831 0.242496 -0.300176 0.349674 0.354816 0.801116 -0.227488 -0.979727 0.025245 -0.497207 -0.018201 -0.727905 -1.534188 0.160955 -0.713620 -0.339547 -0.083718 -0.054787 0.733515 0.149315 -0.348471 -0.863998 1.226458 0.162268 0.469837 -0.012195 -0.004017 -0.792359 -0.692478 0.123687
院O -0.069878 0.803159 -0.113107 1.279684 -0.682946 0.598358 2.593891 -0.350998 -0.551827 0.772305 -1.213197 -1.612162 1.207865 -0.708177 -0.330658 -0.039562 0.200823 0.467644 1.794177 1.772763 0.107404 0.295021 0.267305 -1.329507 -0.302392 -0.373126 1.073261 -1.004915 0.726327 0.106878 0.949785 0.515123 -0.557668 -0.798951 -1.190687 0.715464 0.922648 -0.048979 -1.181825 0.012872 -0.908676 1.236954 0.879113 0.820608 1.010137 0.251704 0.848027 -0.975764 0.807094 -1.199089 0.571948 0.024890 -1.800083 0.548790 -0.495309 -0.291001 0.568528 -1.741475 -0.164930 1.450272 1.353491 -0.423155 0.087234 1.436310 2.210763 1.189500 0.631410 -0.689471 1.132507 -0.157980 0.842055 0.333675 0.254837 0.377848 1.162178 -0.501372 -1.254209 -2.350828 -0.555206 -0.322943 -0.595459 -0.296727 -1.074500 -0.432857 -0.079541 0.192432 0.789521 0.468166 -0.304182 -1.455050 1.866740 0.353329 0.236646 -0.865099 0.024396 0.947180 0.554657 0.310396 0.831465 -0.509997
后O -0.010007 0.607262 -0.126061 -0.368992 -0.147895 0.651048 1.073842 -1.142891 -1.157006 0.516716 -0.866604 -1.651309 0.602666 -0.167487 -0.103685 -0.301251 -0.097868 0.593818 1.462643 0.224371 0.449001 0.545975 0.242601 -1.257959 -0.267495 -0.433355 -0.126288 -0.531844 0.342240 0.919487 0.039122 0.192451 0.341443 0.484162 -0.781661 0.513912 -0.001082 0.106160 -0.274136 0.355483 -0.317272 -0.280949 0.960436 1.269449 0.768506 0.833655 0.921928 -0.729576 1.091258 0.131652 -0.708699 -0.855265 0.692050 0.706973 -1.853601 0.101686 -0.449782 -0.125062 0.017272 1.627484 0.274879 -0.500366 -0.528362 0.819763 0.875492 0.192862 0.206317 -0.204029 -0.524751 0.437939 -0.525358 0.427734 -1.153280 0.116442 -0.164887 -0.218306 -1.099647 -0.466931 0.565600 0.240834 -1.210263 0.104356 -0.175652 -1.111925 -0.651887 1.068517 -0.178874 0.198533 0.382584 0.237747 0.659911 -0.215394 0.655948 -0.079453 -0.550920 0.580117 0.199626 0.501363 0.487516 -0.373366
（O -0.702101 1.093785 1.359643 -0.829357 -0.144206 -0.653815 -0.262098 -0.746182 -0.895953 -0.279512 0.465764 -0.402990 -0.321140 0.605420 1.132688 0.100077 0.942890 -0.264042 -0.090341 0.171527 -0.126860 0.696348 -0.851467 0.772126 0.183833 -0.370581 -0.211459 -0.399917 -0.090564 0.169357 -0.323301 -0.981280 -0.581136 -0.280819 0.890467 -0.398550 -0.838730 0.319564 -0.444777 -0.125696 0.608936 0.486803 0.347749 -0.441284 0.269814 -0.222950 2.521988 -0.320174 0.590340 -0.904652 0.246221 -0.196708 1.166594 -0.217006 0.610216 0.273783 0.304515 0.120907 1.005881 1.077340 -0.079276 0.287377 -1.461437 0.357263 -0.251796 -1.096603 -0.305387 0.382964 -0.457341 0.103182 -0.866421 0.427148 -0.166030 0.484962 0.716845 0.576063 0.262084 -0.715654 0.305701 -0.522140 -0.807525 -0.435973 -1.345926 0.361465 -0.364259 -0.314405 -0.139959 0.048322 0.597967 0.266325 -0.564756 -0.567485 1.307614 0.318728 0.757665 0.472147 -0.082240 -0.751079 -1.084120 -0.240108
癌O -0.217253 1.345281 1.447831 -0.376526 -0.114638 -0.151395 -0.593224 -0.169820 -0.197988 -1.110789 -0.854766 -1.756970 -0.237147 0.207419 0.927297 -0.136223 1.429110 0.202287 1.432559 0.173857 -0.482840 -0.287625 -1.013231 0.109303 -0.653369 0.574168 0.138997 -0.372669 0.584482 0.567790 -0.609027 -0.464556 -0.193474 1.315099 -0.446500 -0.398759 -0.432117 -0.093647 -1.207163 0.157802 0.595077 0.827430 -0.219942 0.858835 -0.072785 0.586536 2.570909 0.447311 0.123405 -0.269739 0.274299 0.773180 -0.443532 0.007384 0.918586 0.925351 0.502447 -0.378528 0.489410 1.762625 -0.348622 0.545945 0.016378 0.618976 1.291893 -0.130266 0.633698 -1.125322 0.503154 0.543940 -1.299953 0.202632 -0.287087 0.337326 1.356465 0.095834 -1.370868 -1.572786 0.030398 -1.386236 0.097918 -0.648830 -1.158305 -0.210915 -0.595660 -0.134555 1.509004 0.596500 -0.455428 -1.317798 0.611949 -0.713941 1.718040 1.469795 1.317865 0.590162 0.154404 0.144897 0.362077 -1.279508
化O -0.021963 0.353881 -0.413426 0.433800 -1.450760 0.073367 1.094822 -1.229777 -1.118832 -0.038787 0.801996 -2.449665 -0.306814 0.539319 0.532197 -0.557650 0.737022 -0.238410 0.061500 0.768360 -0.975425 0.219990 0.091743 -1.332823 0.059406 -0.456309 0.167887 -1.097284 0.004148 0.173725 0.052721 0.351570 1.160611 -0.135235 -0.527023 0.250102 -0.447345 0.386781 0.027032 0.418013 0.335664 -0.035616 0.632132 0.286499 1.728555 0.190014 1.737253 -0.980398 -0.745096 -0.344332 -0.487251 0.628196 0.476904 -0.975999 -0.930483 0.184275 0.435093 -0.338447 1.096983 1.021727 0.684566 0.317723 -1.182097 1.005841 1.581295 0.511256 -0.222159 0.099581 -0.260894 -0.414113 0.076788 0.733926 -0.975975 0.479994 0.969581 -1.201875 -1.112996 -1.471650 -0.192803 -0.324486 -0.933960 -0.127059 -1.087088 0.144402 0.464655 0.338094 -0.172029 -0.507119 0.836161 -0.251262 1.919740 0.335064 0.586076 0.383413 0.235584 1.829268 -0.227029 1.035873 0.400574 -0.249239
疗O -0.338033 0.312601 -0.769986 0.488747 -1.582891 0.820829 2.221535 -1.251135 -2.090890 1.149692 1.000225 -1.440049 0.685754 0.686716 -0.105964 0.460064 -0.110558 -0.284851 1.442029 1.023076 -0.593852 0.459287 0.641045 -1.509290 0.081122 -1.499517 0.342656 -1.270577 0.448630 -0.285910 1.045950 0.550780 0.304669 -0.321773 -1.373660 1.065578 0.062734 -0.229144 0.326567 0.799520 -0.028875 0.464038 1.026676 0.578272 2.324855 0.260624 0.965015 -1.871361 -0.260243 -0.974525 -0.052364 0.365257 0.415250 -0.852836 -1.650357 -0.163383 0.862313 -0.611692 0.435111 1.548255 1.286451 -0.630549 -0.750179 1.004494 1.392394 1.022091 -0.433799 -0.229788 0.693883 -0.640092 0.109384 1.346202 -0.819484 -0.111362 -0.312274 -1.295139 -0.803275 -1.590734 -0.200059 -0.279612 -1.097285 -0.250246 -1.160353 0.040988 0.074726 0.041870 -0.303443 -0.791568 0.099877 0.007424 1.807750 0.561465 0.365478 -0.766939 0.416650 1.840153 -0.067021 1.285849 0.011384 0.484418
术O -0.521377 0.846573 0.518075 -1.156137 -0.226442 0.973239 0.741244 -1.495581 -0.065081 0.710561 -0.399594 -1.046713 0.431857 0.131138 -0.098738 -0.061903 0.734314 -0.210129 1.641055 1.031510 1.062472 1.311973 -0.554059 -0.792331 0.296822 -0.450832 -1.241412 -2.179324 0.328609 0.539755 0.228037 -0.448612 0.046457 0.769556 -0.327316 -0.046613 0.525516 -0.026937 -0.396149 0.794650 0.448243 0.137788 1.649260 1.254547 0.192704 0.354583 1.292005 -0.485485 0.456918 -0.608147 -0.338038 -0.171960 1.889371 -0.088188 -0.881637 0.411096 0.307006 0.842450 0.419139 1.959935 0.419900 0.076912 -0.829515 1.094976 1.704511 0.524937 -0.104800 0.185948 -0.502299 0.971393 -1.389767 0.350082 -1.489674 1.303662 -0.739789 0.415594 -2.121872 -0.313451 0.680279 0.712494 -0.532779 0.363026 -1.056464 -1.387529 0.083131 -0.060868 -0.078572 0.094140 -0.074348 -0.155406 0.691557 -0.517074 1.054129 1.188099 0.203139 0.643957 -0.192025 0.627415 -0.413860 -0.516750
+O -0.317326 0.859003 1.368493 -0.211066 0.435737 -0.815173 0.004098 0.109133 0.266894 -0.466208 1.587307 0.879860 -0.389282 0.864156 0.507260 0.049582 -0.087751 -0.966214 -0.823615 0.353070 0.996323 0.586199 0.054393 1.619726 0.161129 -1.043739 -0.025670 -1.058987 0.738322 0.563695 0.726024 -1.297870 -1.239320 -1.456113 1.918574 -1.352717 -0.391598 0.561924 -2.000467 0.010394 -0.586258 1.009145 0.311499 0.386316 -0.420600 -0.590625 2.172002 -0.739788 0.156275 -0.281959 -0.465849 -0.726747 1.460521 0.181510 -0.424948 0.128280 0.362911 -0.451881 1.673835 -0.433968 -0.369375 0.782221 -1.828296 -0.206459 -1.504621 -1.219803 0.049629 0.870690 -0.108897 -0.022070 -0.462319 0.364459 -0.522799 1.351816 0.318013 2.021868 -0.082239 -0.355836 0.165500 0.677059 -0.653106 -0.048424 -1.014549 1.249123 -1.971768 -0.343202 -0.157487 -0.381275 1.303864 0.090366 -1.531641 -0.621781 0.371299 -1.193348 0.552288 -0.135479 -0.344438 -0.936083 -1.269547 0.611706
患O -1.024481 -1.186856 -0.401014 0.285955 -0.668972 1.792918 1.599892 -1.128378 -1.566309 0.359091 0.240911 -1.283876 0.248671 -0.254060 -0.047089 0.085874 -0.215725 0.386275 1.252307 1.641739 0.128095 1.242530 0.499795 -0.666266 -0.236619 -0.730688 0.365230 -0.221163 0.873961 0.380932 -0.430493 0.315839 -0.904564 -0.504294 -1.667510 1.484616 1.197695 -0.078694 -0.561243 -0.106807 -0.141396 -0.116686 0.620978 1.405105 1.426777 0.321488 0.717231 -1.693754 1.007726 -0.786082 0.413935 -0.394077 -0.830030 0.997478 -1.171829 -0.447311 -0.570824 -1.366080 0.025213 1.158029 0.026599 -0.439811 -0.929169 1.402255 1.443570 0.455460 -0.236616 -0.002091 0.761242 -0.423833 -0.634226 0.488026 -0.414257 0.163056 0.972527 -0.759717 -0.392541 -1.299921 -0.360510 1.766080 -1.714483 -0.664451 -1.144675 -0.708512 0.873585 0.630524 -0.760415 0.623406 0.646669 0.342250 0.602764 -0.186596 -0.219643 -1.774770 -0.267752 1.250853 0.691201 -0.570185 0.101306 -0.430960
5O 0.327221 0.859188 0.247890 0.968810 0.006207 0.355133 0.376462 -0.949262 -1.394792 0.473782 0.246184 -0.197865 0.170246 -0.537516 1.328836 -0.747136 0.606973 -1.186915 0.055622 0.640324 -0.055921 1.199602 -0.756080 -0.266994 1.414225 -0.040963 0.572678 -0.050282 0.602050 0.719809 -0.704575 -0.603222 -0.398587 -1.789538 0.111188 -0.497273 0.023256 0.092554 -0.759169 -0.052536 -0.121209 0.947044 -0.443544 -0.514786 0.784080 -0.143288 2.061326 -0.421648 0.358536 -0.701007 0.752999 -0.119957 0.002874 0.940416 0.402859 0.013600 0.340596 -0.429826 0.518167 0.063220 0.958479 0.615824 -1.257741 0.059798 0.189436 -1.189512 0.053679 0.224392 0.265260 -0.369446 -0.545363 0.684295 0.061354 0.996398 1.061692 -0.155706 -0.133644 -0.700852 0.514627 -0.349341 -0.714556 -0.697715 -0.468161 0.302886 -0.692057 -0.525074 0.025937 0.853242 0.971233 0.125120 0.281588 -0.735161 1.813062 -1.100995 1.049821 0.821020 -0.197830 -0.285309 0.045457 -0.378196
者O 0.141918 -0.472716 -0.387168 -0.134531 0.161477 0.926638 2.352592 -0.099116 -1.487814 0.144406 -0.022903 -0.803019 0.433060 -0.699358 -0.372254 -0.737643 -0.423665 0.354423 1.004953 2.002249 0.426889 0.616289 0.416201 -0.710559 0.327008 -0.640285 1.004884 -0.865680 -0.260961 0.037741 0.065155 -0.424950 -0.817393 -1.492309 -1.548250 1.386014 0.892555 -0.266125 0.219457 0.325095 0.099554 0.157149 0.813123 1.149165 2.127484 0.651550 0.825967 -0.881743 1.017192 -1.269606 -0.212572 -0.753340 -1.273693 0.477588 -1.346385 -0.042591 -0.212774 -1.064404 -0.370202 1.447992 0.789362 -0.593584 -0.925858 0.402908 1.008032 -0.237167 -0.387550 -0.059973 1.379593 -0.351874 -0.608968 -0.182190 -0.866606 -0.036405 0.931279 0.156628 -0.607954 -1.324510 -0.362149 0.539451 -2.115410 -0.455655 -0.831000 0.392368 0.775451 1.065655 0.393352 0.965473 0.138551 0.105363 -0.047116 -0.578670 -0.484701 -0.756031 0.462420 0.742411 1.108423 -0.068348 -0.481709 0.582866
3O 0.113292 0.848555 0.303031 0.824245 0.109439 0.100641 0.184753 -0.871280 -1.357226 0.452391 0.034975 -0.399016 0.108125 -0.461136 1.362732 -0.548239 0.785704 -1.020342 0.081966 0.519058 -0.419713 1.005212 -0.798568 -0.165592 1.015825 -0.099963 0.410730 -0.070132 0.451481 0.339404 -0.692371 -0.639595 -0.359113 -1.462335 -0.150620 -0.170915 0.119413 0.129172 -0.551406 -0.164239 0.148110 0.805106 -0.424506 -0.429896 0.791906 -0.097856 1.772073 -0.341019 0.292028 -0.733069 0.753977 -0.136596 -0.077323 0.523021 0.527003 -0.095920 0.322697 -0.224142 0.317726 0.496395 0.750578 0.329426 -1.003770 0.288623 0.291597 -0.939752 0.034652 0.131164 0.234697 -0.274869 -0.524591 0.551309 0.015083 0.687052 0.903791 -0.254863 -0.010211 -0.937396 0.457612 -0.645328 -0.622621 -0.792047 -0.720781 0.194140 -0.333286 -0.335113 0.023673 0.750913 0.749397 0.109706 0.360965 -0.577255 1.647215 -0.797025 0.728292 0.868544 -0.048614 -0.417807 0.162143 -0.360998
4O -0.028119 0.856485 0.515131 0.678058 0.078662 0.446517 0.637901 -1.130512 -1.379901 0.324565 0.211124 -0.632838 0.272526 -0.464197 1.434658 -0.449510 0.843228 -0.871038 0.320838 0.752870 0.122918 1.443418 -0.616053 -0.093184 1.045143 -0.402744 0.616891 -0.515723 0.738638 0.327180 -0.250605 -0.459207 -0.241411 -1.549823 -0.129468 -0.133578 0.377122 -0.049673 -0.560305 -0.018737 -0.139911 1.003887 0.103168 -0.038546 1.116307 0.302009 1.892428 -0.731051 0.688518 -0.966760 0.796602 -0.179225 0.023212 0.735020 0.238445 -0.022960 0.399066 -0.473434 0.325993 0.389900 0.830425 -0.089226 -1.211167 0.852573 0.720227 -1.157292 0.165638 0.088785 0.036331 -0.521596 -0.542268 0.736605 -0.329128 1.008864 1.112849 -0.304831 -0.251147 -1.299115 0.844120 -0.390476 -1.073158 -0.622097 -0.870583 0.450235 -0.551190 -0.089073 -0.016814 0.286104 0.924851 0.213648 0.336763 -0.329576 1.589330 -1.300087 0.756143 0.818106 0.166106 -0.414201 0.284422 -0.605644
.O 0.509316 1.949136 -0.599231 1.488613 0.121398 0.783701 0.157593 -0.934651 -1.205211 1.004826 -0.240673 0.175868 0.716974 -1.063898 1.463555 -0.734462 0.679610 -1.061936 -0.253987 0.455319 -0.272349 0.907304 -1.324414 0.085771 1.570547 0.014229 0.361603 0.237023 0.017541 0.353225 -0.538703 -0.307960 -0.208525 -1.603667 -0.124965 -0.787479 0.366150 0.085466 -0.940694 -0.450314 0.208679 1.158956 -1.175835 -0.672970 0.193880 0.082643 1.672754 -0.884193 -0.141168 -0.169310 1.088193 -0.380821 -0.929682 0.648810 0.544271 0.383194 0.604396 -0.410521 0.479222 -0.240604 1.292292 0.503226 -1.028160 0.033738 -0.216694 -1.239787 -0.122400 -0.054767 0.406391 -0.923477 -1.105181 0.853437 0.170961 0.939421 0.741707 -0.632899 0.033896 -0.166758 1.115629 -0.457012 -0.625711 -1.196871 -0.118441 -0.438471 -0.963393 -0.788943 0.234929 0.674798 1.122554 -0.034998 0.959493 -0.877150 2.413969 -1.611520 1.012487 1.309430 -0.608033 -0.177697 0.928164 -0.181947
行O 0.668179 0.775014 -0.101748 1.052553 -1.105881 0.590958 2.179660 -0.388943 -0.059554 0.707547 -0.075714 -0.722267 0.310828 -0.027968 0.178312 0.381983 0.763870 0.748593 1.049139 0.733854 0.403491 -0.017863 0.461374 -0.808827 0.941914 -0.153964 1.182634 -0.611282 0.516579 0.276451 0.664915 0.306320 0.053111 -1.450307 -0.787073 -0.350108 1.009349 0.926283 -0.816939 0.609474 -1.393909 1.146434 0.689170 -0.349257 0.645457 -0.540020 0.230340 -0.946518 0.112788 -1.096960 -0.332350 -0.764937 0.218619 1.147892 0.369200 -0.313625 0.941155 -1.038585 -0.097461 -0.124966 0.974389 0.692045 -0.087372 0.725087 1.728747 0.814459 0.562723 0.228635 -0.046747 -0.135537 1.274318 -0.166976 0.124132 0.485945 0.038646 -0.375605 -1.138457 -0.899225 0.068619 0.003099 0.375932 0.187019 -0.431181 -0.840673 -0.169913 -0.027350 0.350241 -0.792654 0.317008 -1.047321 1.229918 0.141337 0.624916 -0.775779 -0.196044 0.415762 0.282208 0.397213 0.392313 -0.456786
见O -1.201458 0.267117 0.867223 -1.149076 0.455831 0.350466 -1.052643 -0.079753 -0.018795 -1.034225 -1.432175 -1.597300 -0.059786 1.052217 0.746752 -0.205299 0.802096 0.701334 1.639409 -1.394274 -0.713730 -0.046440 -1.847802 -0.345245 0.114118 -0.161302 -0.102012 0.555061 0.102942 0.531411 -2.069923 -0.628486 -0.609596 1.625383 -1.124888 0.205589 -0.333086 -0.360258 -0.319294 0.476440 0.758038 -0.238527 0.032079 -0.322154 -0.574946 0.746117 1.813707 0.402821 -1.273726 -1.009959 -0.054284 1.504997 0.312521 -0.314543 -0.010231 -0.701886 -0.492004 0.452354 -0.274969 2.023489 -0.512331 2.117209 -0.131247 -0.308435 -0.151097 1.305690 -0.277703 -0.808984 0.609741 1.320915 -1.405061 -0.736206 0.091387 -0.851078 1.048095 -0.046852 -1.550101 0.166387 -0.195333 -1.799076 -1.340279 -0.576207 -0.071501 0.411204 0.176115 0.695634 1.127390 1.322508 -0.088123 -0.576786 0.551725 -1.115015 1.336804 1.729967 1.409722 0.851123 0.518463 1.637034 -0.964456 -1.168649
于O 0.186785 0.810732 -0.151161 1.454619 -0.784821 1.448953 1.034870 -0.788827 -0.443792 0.605720 -1.244803 -0.726380 0.925125 -1.036496 0.530440 0.274273 0.789785 0.082263 1.617717 0.959759 0.561461 0.254530 -0.668170 -0.153851 0.777831 0.122996 0.595291 -0.137464 0.868887 0.600148 -0.346856 0.358585 -0.273488 -0.755300 -0.809582 -0.147306 0.461312 -0.141513 -0.996777 0.346212 -0.772636 1.206720 0.124469 -0.130723 0.219151 0.147499 1.198828 -0.116584 0.274360 -1.055025 0.774638 -0.216368 -0.659565 1.443773 0.223089 0.189126 0.454010 -0.818519 -0.161836 0.834951 0.926491 0.457893 -0.325853 0.941756 1.036084 -0.072250 0.701565 -0.785445 1.127887 -0.124134 0.081897 0.368357 0.372350 0.717159 2.013658 -0.801273 -0.411806 -1.003291 0.174880 0.101548 -0.217605 -0.498045 -0.016734 -0.552059 -0.064005 -0.769502 0.999950 0.962231 -0.063930 -0.979427 1.227232 -1.022762 0.998949 -0.407661 1.021561 0.603272 0.079491 0.353987 0.840441 -0.989236
MO 0.216838 0.724718 0.722790 1.537665 0.392291 -0.948660 0.065059 0.069538 -0.890085 -0.370389 1.030853 0.164065 0.084555 -0.312970 1.366221 -0.842063 0.442003 -1.390290 -1.401183 0.271286 0.015736 0.531601 -0.493569 0.990068 0.103052 -0.612442 0.102107 0.052131 1.100785 0.033704 -0.100803 -0.432824 0.048124 -1.589800 1.235911 -0.863606 0.169420 -0.219087 -1.471269 -0.945932 -0.791359 0.961661 -1.132919 0.128062 -0.047844 -0.073125 1.890231 -0.358888 -0.085943 -0.071889 0.185368 -0.072948 -0.794555 0.028818 -0.048878 0.214097 0.492042 -0.643792 1.081971 -0.521392 0.887079 0.742432 -1.016150 -0.643280 -0.490431 -1.169490 0.342758 0.191616 -0.214644 -0.470626 -0.494083 0.484325 -0.143222 0.944413 0.702775 0.742837 0.316423 -0.400846 0.863084 -0.652418 -0.871805 0.234856 -0.707170 1.719167 -1.002090 -0.545265 -0.152157 0.677242 0.898791 0.374313 -0.425787 0.416556 0.879165 -1.570082 0.839401 1.143482 -0.232680 0.036594 0.395404 0.630215
病O -0.621556 1.369408 0.251362 -0.828391 0.335539 0.431267 0.673672 -1.077625 -0.573238 1.305226 -1.398389 -1.358837 0.716775 -0.837387 0.101811 -0.154142 0.833754 0.518478 1.463696 1.030003 0.355914 1.402731 -1.011114 -0.488673 -0.354846 -0.864382 -0.943896 -1.353258 0.016639 -0.107282 0.717794 -0.667741 -1.043523 1.545294 -0.545395 0.570238 0.628983 -0.075173 -0.728562 -1.087845 0.647452 -0.161464 0.963078 1.469207 0.795124 0.594005 0.643422 -1.045218 1.361495 -0.268987 -0.124507 -1.451941 0.581726 -0.506253 -1.047573 0.066122 0.080425 0.267985 -0.269373 2.775432 -0.355965 -0.649811 0.226654 1.621707 0.302718 -0.774167 -0.422967 0.289799 -0.281435 -0.539396 -1.621342 0.305811 -1.735637 0.433974 -0.078427 0.066254 -0.319705 -0.311514 0.735758 0.547460 -1.665161 -0.161114 -0.707916 -2.090370 0.745675 0.219599 -0.546357 0.675654 0.021714 0.353463 0.617595 -0.364124 1.034522 0.071485 -0.100569 0.881141 0.256459 -0.626726 -0.130982 0.047623
6O 0.149794 0.935686 0.365655 0.732650 -0.147284 0.410011 0.306406 -1.182580 -1.478545 0.611529 0.043326 -0.386810 0.138115 -0.442571 1.467579 -0.463856 0.737766 -1.191423 0.366904 0.703932 0.071121 1.177588 -0.682500 -0.034392 1.372040 -0.269628 0.321706 -0.442169 0.700487 0.748944 -0.602654 -0.707635 -0.375029 -1.648865 0.066791 -0.394978 0.167661 0.074745 -0.771388 -0.001427 0.033032 1.108119 0.005574 -0.319826 0.787447 -0.008260 2.417680 -0.469463 0.509328 -0.623262 0.541155 -0.396969 0.484767 0.914100 0.087573 0.046933 0.301802 -0.258834 0.460675 0.633386 0.843032 0.398426 -1.634113 0.601572 0.219951 -1.379220 0.104845 0.215380 0.258534 -0.257038 -0.764910 0.892545 -0.299947 1.080104 0.990469 -0.118354 -0.095808 -0.988648 0.779434 -0.320991 -0.773631 -0.764501 -0.754924 0.086408 -0.713318 -0.382105 -0.046590 0.552755 0.852629 0.104311 0.270205 -0.834533 1.862332 -0.856795 0.862212 0.641616 -0.218478 -0.497948 -0.022712 -0.350318
诊O 1.008547 1.467703 0.700885 0.927320 -1.106887 0.309980 2.134585 0.075260 0.451565 0.505943 -0.948224 -0.910186 0.417635 -0.631679 0.185034 1.132703 1.060129 1.295434 1.777321 1.438821 -0.306176 -1.410304 -0.209796 -0.567842 -0.822371 0.090170 1.387298 -1.073125 0.392441 -0.405113 2.005929 0.465374 -0.147609 0.518359 -0.341382 -0.944034 0.710526 1.018769 -1.278824 0.540123 -0.688825 1.545428 0.040044 1.476056 0.803250 -0.320762 -0.096712 -0.782418 0.634228 -1.576281 1.068208 -0.443557 -1.675848 -0.264060 0.925751 0.225958 2.373330 -0.815464 0.318985 1.547946 0.912414 0.294342 0.983920 1.762938 1.297323 1.327139 0.972419 -0.691844 0.950995 -1.405327 0.799958 0.436668 0.145615 0.513406 1.330269 -0.554435 -0.525759 -1.347544 -1.004588 -0.984282 0.253215 -1.256667 -0.725749 -1.656077 0.636759 -0.615440 1.149126 -0.181643 0.152305 -2.069656 2.126731 0.418127 -0.098585 0.146271 0.692559 0.545692 -0.294395 -0.387750 1.069016 -1.515667
IO 0.049057 -0.540089 1.585341 1.156053 -0.543079 -1.740504 0.692404 -0.272065 -1.745904 -1.092730 0.724860 -1.422963 -0.191069 -0.248622 1.445992 -0.423436 0.385872 -2.019981 -0.247646 0.930216 0.120089 -0.460932 0.394951 0.557714 -1.552258 -0.044639 -0.519774 -0.899947 2.371459 0.422243 0.247071 0.478445 1.412860 -0.584353 1.926495 -0.322792 0.195208 -0.523488 -1.008057 -0.291715 -1.090641 0.832628 -0.086104 1.843435 0.349090 0.200125 3.256757 0.463201 1.329649 0.208967 0.114700 0.555110 -0.529107 -0.737622 -0.928548 0.547256 0.125827 -0.731479 1.453713 1.647497 1.418820 0.202456 -2.260243 -0.032634 0.508597 -1.042654 1.148726 -0.361072 -0.008732 0.715156 -0.803845 1.345395 -1.012962 1.316801 1.367530 0.840075 -0.348024 -2.049360 0.437526 -0.923369 -0.688983 0.801137 -1.624728 2.000187 -0.591532 -0.400892 0.078840 0.971993 0.108928 -0.234859 0.247031 0.829147 -0.149556 0.762923 0.988394 1.006484 -0.255381 0.148848 0.911571 0.102611
“O 0.860575 1.393005 0.298822 0.303374 -0.849651 -0.226217 1.705541 -0.630847 0.429543 0.351666 -0.675399 -0.083437 0.514650 -0.760689 0.549026 0.624503 0.569263 0.370529 0.214437 0.372866 0.035510 -1.000881 0.023263 0.415874 0.471106 0.445269 1.042720 0.009594 -0.317186 0.040570 0.979895 0.378373 -0.249887 -0.588460 0.487503 -0.669233 0.334373 1.078716 -0.195771 0.976127 -0.426002 1.014479 0.206734 0.625513 -0.346320 -0.342906 0.298523 -0.306032 1.417392 -0.579496 0.660827 -0.968254 -0.650111 0.584551 1.149888 1.310892 0.566115 -0.594096 0.443729 0.092105 0.910033 0.008861 -0.001982 1.109040 0.336114 -0.018018 0.726174 -0.327928 0.059893 -0.516730 0.570113 -0.074231 0.158671 1.163711 1.008587 0.388962 -0.330102 -0.967592 -0.141339 -0.135601 0.446506 -1.155006 -0.517670 -1.435201 -0.227670 -0.461914 1.067375 -0.478880 0.397178 -1.497965 0.257577 -0.487782 0.279859 -0.095966 0.425836 -0.112712 -0.186921 -0.813926 1.098084 -0.922985
”O 0.004514 1.008603 0.022347 -0.137559 -0.822546 0.202134 0.965278 -0.896489 -0.155109 0.376041 -0.668717 -0.957383 0.645990 -0.268063 -0.003094 0.236920 0.516491 -0.151148 0.697174 0.761627 0.410626 0.073436 -0.129139 -0.161941 0.299430 -0.031691 0.422911 -0.636716 0.030856 0.465883 0.264341 0.328321 0.247303 -0.143972 -0.374377 0.007540 0.099927 0.321107 -0.077792 0.915129 -0.165477 0.519836 0.608121 0.350463 0.234393 0.297889 1.007540 -0.306472 0.813571 -0.635251 0.293419 -0.201839 0.218318 0.355466 -0.103401 0.722285 0.179615 -0.324425 0.182281 1.013539 0.609931 -0.522848 -0.931933 1.361106 0.957623 0.141176 0.617126 -0.454628 0.133402 0.236234 0.169447 0.613440 -0.352580 0.618618 1.030008 0.062463 -0.651363 -1.338688 0.062950 -0.206968 -0.304541 -0.574992 -0.411164 -0.949751 -0.448918 -0.006546 0.798807 -0.387832 0.275490 -0.989475 0.559126 -0.449487 0.588871 0.300472 0.108734 0.138341 0.050131 0.028859 0.760303 -0.881466
：O -0.312053 2.805847 1.347610 -0.161963 0.116363 -0.862018 -0.696411 -0.358863 0.279320 0.509118 -0.581828 -0.198613 0.101112 0.045548 1.290769 0.266232 2.125675 0.515723 -0.036020 -0.162965 -0.131603 -0.007123 -1.410072 1.105067 -0.287181 -0.445099 -0.462572 -1.089432 0.345443 -0.503511 0.594229 -1.049013 -0.423809 0.751721 0.764927 -0.444581 0.492110 0.765105 -1.316247 -0.880452 0.655090 0.905316 -0.079517 -0.159610 -0.700445 -0.742015 1.950686 -0.708500 0.099724 -0.719092 0.274898 -1.097619 1.145962 -0.647769 1.000080 0.436950 0.993865 0.823488 0.447769 2.053375 0.143645 0.614764 -0.465648 0.758458 -0.198304 -0.834292 0.049589 0.424591 -0.819240 -0.416342 -1.147989 0.215524 -0.816337 0.766257 -0.274976 0.861294 -0.066694 -0.383060 1.340656 -1.196892 0.203757 -0.433157 -1.195064 -1.281784 0.091886 -0.524538 -0.084099 -0.465273 0.427476 -0.394964 0.041043 -0.604469 1.634900 0.447065 0.355933 0.785751 -0.507706 -0.898566 -0.252301 0.118518
明O -1.584473 -0.519268 -2.221039 0.366181 -0.566277 1.102239 0.191706 -0.081094 -0.525501 0.213266 -0.648446 -1.332307 0.570893 0.804377 -1.506709 0.290103 -0.429042 0.494336 0.367004 -0.234637 -1.040035 -0.693486 -0.132299 -0.749219 0.341504 -0.721331 -0.313549 0.158499 -1.041353 0.762472 -1.438990 0.293519 -0.778291 0.052341 -2.417922 1.970647 0.015880 -0.207154 -0.204143 -0.201024 1.373625 -0.512938 0.126609 -0.605166 -0.808866 -0.032452 0.174289 -1.058505 -2.261616 -0.261311 -0.311120 0.203972 -1.015473 -0.817532 -1.080931 0.330143 -1.205191 -0.323037 -0.594996 1.600913 -0.643153 1.444893 -0.123207 0.032762 -0.729291 1.674675 -1.272993 -0.301668 2.566850 0.534827 -0.915321 -0.281847 0.200225 -1.205327 -0.012188 -0.740930 -1.673910 -0.298677 -1.389740 0.268061 -0.688163 -1.094173 0.176109 -0.482360 1.004659 1.188515 0.427650 0.591534 -0.574617 -1.702689 0.591071 -1.569128 -0.451525 -0.046337 0.408359 1.584370 0.831125 1.338314 -1.099854 0.452446
未O -1.135644 -0.019040 0.045530 -0.936450 0.000448 0.322864 0.142886 -0.509628 -0.430980 -0.380822 -0.786340 -0.948457 0.287200 0.897566 -0.252053 -0.519542 -0.161040 0.606557 0.962121 -1.158904 -0.888043 -0.116391 -0.768143 -0.857844 -0.167690 -0.102843 -0.426487 0.120769 -0.529366 0.695569 -1.194878 -0.220559 -0.679527 0.776690 -1.371940 0.590449 -0.547330 -0.240194 0.120360 0.252485 1.003337 -0.003586 0.287485 -0.286630 -0.041564 0.073058 0.968646 -0.002997 -0.838257 -0.165924 -0.226576 0.905891 -0.232121 -0.285625 -0.221793 -0.484848 -0.801161 0.527855 -0.125436 1.195027 -0.367638 1.560689 0.138326 -0.086695 -0.071768 1.714225 -0.111298 -0.558590 0.728069 0.995527 -0.810857 -0.237753 -0.344146 -0.730917 0.737698 0.013563 -1.474950 -0.073004 -0.414157 -1.134157 -0.997675 -0.491217 0.085870 0.102440 -0.055242 0.829102 1.142313 1.287825 -0.360379 -0.880336 0.444423 -0.796170 1.332750 0.834880 0.731774 0.493841 0.306262 1.711726 -0.773554 -0.825545
显O -1.570216 -0.536997 -2.239463 -0.073088 -0.739104 0.825145 0.037205 -0.393252 -0.554536 -0.270160 -0.454806 -1.753591 0.286210 1.218282 -0.960311 -0.052506 -0.743566 0.606409 0.198413 -0.697450 -1.073105 -0.369949 -0.428410 -0.425803 0.250276 -0.822046 -0.057311 0.086484 -0.721914 0.904234 -1.818317 0.172030 -0.733189 0.299320 -2.147116 2.148615 0.552147 -0.101176 -0.299643 -0.145590 1.127594 -0.910653 -0.231207 -0.331151 -0.948710 -0.081368 0.139054 -1.263846 -1.964609 -0.669710 -0.439994 0.446039 -0.510316 -0.719827 -1.102582 0.389398 -1.350428 -0.232588 -0.947918 1.624868 -0.619045 1.237951 -0.288750 0.155966 -1.019751 1.512137 -1.370398 -0.020921 2.484257 0.763377 -0.522364 0.126220 -0.064411 -0.833449 -0.243714 -0.810345 -1.071821 -0.078529 -0.748919 -0.041900 -0.773330 -1.080050 0.118677 -0.140802 0.916376 1.492086 0.280949 0.045676 -0.502397 -1.541733 0.779332 -1.583395 -0.641101 -0.488783 0.443767 1.664494 0.563111 1.304947 -0.979318 0.804897
为O 0.180411 0.219775 0.153601 0.014194 -1.181630 0.200097 0.990775 0.096220 -0.406391 0.204593 0.571580 -1.468804 -0.435315 0.296103 0.411567 -0.251460 1.177959 1.607513 0.889426 0.085575 -0.526177 -0.567635 -0.124450 -0.899713 -0.127222 0.033476 0.841978 -0.016675 0.280955 -0.459854 -0.218911 0.394062 0.474685 0.547236 -0.836338 0.237985 0.936676 0.508013 0.096588 -0.007439 -0.369584 0.026887 -0.368458 -0.252071 0.911582 -0.273879 0.670336 -0.577852 -0.184033 -0.857478 -0.519081 -0.079551 -0.398367 -0.083315 0.346454 -0.361956 0.804996 -0.442373 0.295045 0.769782 0.704385 1.184722 -0.014371 0.257317 1.352156 1.004904 -0.185888 0.000324 -0.202245 -0.436262 0.005700 -0.381854 -0.018545 -0.400828 0.227429 -0.626320 -0.178386 0.056471 0.086149 -0.390267 -0.370600 -0.094548 -0.540655 -0.487529 1.728820 0.134493 -0.049009 -0.662115 0.191526 -0.382878 1.114700 0.414320 0.389426 0.737731 0.570661 1.291872 -0.059399 0.536563 -0.194339 0.109402
可O -0.170497 -0.255099 0.315485 0.591373 0.845362 0.791184 -0.182736 0.269770 0.088818 0.447349 -0.322171 -0.311641 -0.372006 -0.440401 -0.047282 -0.110284 -0.368856 0.106279 0.797803 -0.371289 -0.443107 -0.293981 -0.602703 -0.832153 -0.882465 -0.221356 -0.542600 0.558579 -0.208405 0.014134 -0.654781 -0.004502 -0.451806 0.551583 -0.399320 0.282708 0.328086 -0.562430 -0.649637 -0.078138 -0.012576 -0.719718 -0.375964 0.827264 -0.178895 0.286145 -1.036999 0.041377 0.316499 -0.299390 0.195550 -0.013997 -1.280459 -0.468122 -0.456665 -0.867744 -0.056637 -0.141796 0.224776 1.011580 -0.443877 1.007646 1.167178 -0.581672 -0.047586 0.548899 -0.300726 -0.643770 0.133177 -0.208210 -1.684321 -0.781347 -0.035643 -0.654849 -0.525038 -0.282742 -0.113326 0.780454 -0.488427 0.292895 -0.588367 0.042931 0.131917 -0.462911 0.684210 -0.370894 0.040232 2.043688 -0.123922 0.678505 0.237998 -0.187968 -0.577741 0.655651 0.201896 0.662296 -0.128021 0.801858 0.422241 -0.304295
我O 0.672191 0.939588 0.108454 1.615686 -1.269870 0.963527 2.652479 -0.620118 0.015794 0.977360 -1.105895 -0.924405 0.695024 -0.741979 -0.209764 0.990702 0.887472 0.405941 2.032234 1.596501 -0.057593 -0.075534 -0.013883 -1.110412 0.445994 -0.306234 1.458404 -0.660558 0.507377 0.289647 0.971395 0.482114 -0.631670 -0.859173 -1.337657 -0.337031 0.841318 0.509227 -1.188839 0.552207 -1.294673 1.763629 0.356707 0.332740 1.185091 -0.460153 0.189735 -1.113029 0.420378 -1.858446 0.545829 -0.611166 -1.099619 0.821477 0.648658 -0.500466 1.323500 -1.683404 -0.112386 1.067590 0.769793 0.291819 0.289028 2.029471 1.814410 0.849292 1.340183 -0.521093 1.051643 -0.711729 1.324604 0.510757 -0.120881 0.315507 1.192240 -0.958029 -0.724902 -2.076663 -0.915452 -0.769458 0.197241 -0.809952 -0.580263 -1.095691 0.231879 -0.535619 1.032444 0.292208 0.157058 -1.787463 2.285377 0.202542 0.838791 -0.644455 0.476646 0.594726 0.272129 0.026637 1.259675 -1.571962
CO -0.158464 1.327937 1.069174 0.894507 0.150609 -1.646124 -0.200231 0.169639 -1.014696 -0.420806 -0.174689 0.420218 0.014675 0.095373 1.238956 -0.992257 0.978538 -0.764030 -0.957562 0.109963 -0.869208 -0.014004 -0.917389 0.736685 0.032666 -0.326292 -0.126548 -0.097339 1.081741 -0.049483 -0.376542 -1.013629 -0.372427 -0.560442 0.605770 -0.631052 0.144035 0.359418 -1.474914 -1.218365 -0.094338 0.881501 -1.271204 -0.266582 -0.197075 -1.163279 2.316944 -0.408479 -0.019189 -0.280449 -0.161338 -0.131424 0.129750 -0.049455 0.577636 -0.252898 -0.070912 0.201543 0.752644 0.280620 0.678875 1.124384 -0.628161 -0.810750 -0.403600 -0.267272 0.448028 0.658384 0.007408 0.305833 -0.501370 0.374769 -0.235122 0.553093 0.069026 1.379472 -0.187446 -0.716226 0.405208 -1.449887 0.265980 0.139691 -0.870415 0.448319 -0.475383 -0.408405 0.023056 1.136179 0.438456 -0.298917 0.047257 0.202247 1.950326 -0.357534 0.394918 1.258075 -0.134711 -0.158415 -0.222602 0.604529
及O -0.549566 0.082075 0.760836 -0.512769 0.462756 -0.538476 0.019230 0.555945 0.366123 -0.489454 -0.573795 -0.724689 -0.171561 0.683120 1.049511 -0.226867 -0.465624 0.390053 0.485988 -0.969393 -0.236014 0.094569 -0.589871 -0.182050 0.040226 0.485653 0.254671 0.753587 -0.504270 0.531978 -0.572861 0.272307 -0.204534 0.507642 0.159193 0.375977 -0.295737 0.270707 -0.162168 -0.146150 0.225503 -0.050323 -0.006823 0.254845 -0.345749 0.453437 -0.130456 0.585359 0.293147 0.352980 0.244561 0.872804 -1.357934 -0.936621 0.759554 -0.161739 -0.268163 0.145046 -0.483428 -0.083472 -0.064263 0.379116 0.748267 -0.520090 -0.684570 -0.139246 -0.021303 -0.098894 0.066135 0.260779 -0.805070 -0.243153 0.572379 -0.961576 -0.487978 0.226674 -0.724958 0.471893 -0.337670 -0.758911 -0.681168 -0.185082 0.027804 -0.049257 -0.078284 0.525947 0.551832 -0.031446 -0.685536 -1.017153 -0.591418 -0.179413 0.180115 1.147278 0.161155 0.069530 0.501168 0.544229 0.240356 -0.479802
入O -0.346023 0.416123 0.020445 0.350148 -0.814987 0.948289 2.170040 -0.867133 -0.011722 0.553825 -0.713300 -1.719661 0.736522 -0.119229 -0.936147 0.618899 0.392262 -0.109456 1.932419 1.694381 0.710883 1.327176 0.336905 -0.958688 0.383306 -0.622739 0.602615 -1.153199 0.344754 0.550973 0.452336 0.489680 -0.553361 -0.605430 -1.550061 0.877484 0.372042 -0.276550 -0.881871 0.850199 -0.900289 0.744635 1.000863 1.171367 1.008880 0.588294 0.562508 -1.100813 1.011662 -1.698154 0.277035 -0.331157 -0.608024 0.720330 -0.485093 -0.220909 0.112832 -1.739773 0.126261 1.280464 0.444083 -1.057013 -0.239662 2.222004 2.258821 0.626778 1.196498 -0.674597 0.990846 0.037654 0.543795 0.704234 -0.979019 -0.059876 0.997793 -0.419500 -1.601621 -2.517135 -1.075279 0.169822 -0.830264 -0.393859 -1.099545 -0.596586 -0.067013 -0.195665 0.846008 0.581298 -0.035236 -1.212969 1.256480 -0.302142 0.360185 -0.406717 0.340090 0.537658 1.204280 0.293230 0.917109 -1.426696
巴I -1.925060 0.833718 1.742851 -0.877613 1.402642 1.437666 -1.649120 0.329991 0.381093 -0.875648 -0.093328 -1.485779 -0.797070 1.271055 2.263027 0.113932 1.048257 0.736206 2.377695 -1.250636 1.381626 1.417654 -1.898494 1.424780 1.309391 -1.035457 0.369410 -0.072312 1.236315 0.783924 -2.111378 -0.985263 -1.557008 0.018100 -0.397334 -0.702435 0.505742 -0.678185 -2.377553 0.516897 0.195148 1.119523 0.123250 -0.992413 -0.705249 1.458173 2.153396 0.363618 -0.578108 -1.190598 0.357914 0.817852 0.189201 0.918880 0.815280 -1.041293 0.209328 -0.035357 -0.113390 0.669523 -1.154590 2.160470 -0.769075 0.055617 -0.743713 -0.849387 -0.643242 -0.153952 0.220619 0.352750 -2.524509 -0.575788 0.413817 -0.034589 1.991232 -0.336927 -0.560430 0.485538 1.170685 -0.519799 -2.644917 -0.669050 -0.201331 2.019661 -0.726754 0.283946 0.929512 -0.095918 0.676200 -0.010714 -0.968914 -1.613880 1.204290 -0.537182 1.764880 -0.103729 1.006417 0.494305 -1.391019 -1.870700
结E -1.696470 0.246390 1.749392 -0.704268 1.557894 1.435961 -1.587788 -0.116632 -0.008120 -0.893719 -0.456663 -1.185515 -0.788551 0.987750 2.372910 0.160974 0.948695 0.716952 2.120692 -1.170285 0.930748 1.543012 -1.848575 1.107559 1.073597 -0.926427 0.482583 -0.259532 1.309821 0.452375 -2.089657 -1.152725 -1.688928 -0.198105 -0.821880 -0.211059 0.515205 -0.929892 -2.134028 -0.011514 0.415508 1.279389 -0.032156 -0.634246 -0.397652 1.398369 2.486629 0.544599 -0.394645 -1.195986 0.472173 0.977574 -0.141923 0.791145 1.059514 -1.105154 0.366360 -0.032843 0.002890 0.781077 -1.035318 1.931302 -0.512376 0.246653 -0.670948 -0.812216 -0.304103 -0.486309 0.517130 0.466521 -2.582162 -0.537976 0.497499 -0.267346 1.930112 -0.010941 -0.596547 0.379002 0.960832 -0.999255 -2.648129 -0.717208 -0.603045 2.073711 -0.490491 0.422650 0.961483 0.573611 0.224732 0.225985 -0.657879 -1.519298 1.552944 -0.297308 2.003831 0.319682 0.832396 0.328584 -1.271930 -1.799423
腹S -0.553619 -2.032081 -0.989452 0.368703 -0.776408 1.194238 0.722861 0.197919 -0.863349 -1.023177 0.103484 -0.245184 0.125933 -0.662592 -0.883088 0.537139 -1.515171 0.049112 1.128340 0.565581 -0.734194 -0.709991 1.008175 -1.065730 0.342704 -0.131970 1.355816 0.074024 0.288822 1.638590 -0.863522 0.568582 0.027921 -0.246660 -1.090022 1.036867 1.403477 0.216256 0.490813 0.303062 0.923303 -0.318342 -0.055206 1.163257 -0.298135 0.180865 -0.740796 -1.034098 0.308203 -2.075348 1.841760 1.051762 -1.256218 -0.265777 0.005721 0.783739 -0.855120 -0.045768 0.176920 0.593161 0.140277 1.760339 -0.603672 -0.158835 -0.370177 0.863835 -1.013845 0.508512 2.369529 -0.018178 -1.290877 0.661632 0.427066 0.938003 0.285469 -0.510149 -0.888120 0.968154 -1.056243 0.585052 -0.624416 -1.613492 1.421158 -0.221499 1.442057 0.819340 -0.533023 0.931896 -0.011759 -0.860669 0.775640 -0.816952 -1.435688 -0.460598 1.924856 0.812036 -0.099387 0.428247 0.030955 -0.975182
治O 0.633297 -0.193872 0.116161 0.289420 -1.703400 0.600520 2.197508 -1.270937 -0.757115 0.196194 0.268072 -1.570516 -0.249923 -0.202813 0.205796 -0.045218 -0.429965 0.598576 1.302688 1.037652 -0.751138 0.105124 0.981697 -2.024364 -0.243302 -0.844596 0.666680 -0.679326 -0.279718 0.435666 0.997766 0.470520 0.465297 0.592363 -0.826758 0.063868 -0.594173 0.554478 0.626154 0.500836 0.081814 0.287642 1.499676 1.602778 2.874183 0.463328 0.650168 -1.206723 0.494397 -0.403399 -0.563863 0.366049 -0.068518 -0.508626 -1.709692 -0.865091 0.155540 -0.606534 0.997549 1.096382 0.595572 -0.045196 -0.770956 1.637329 1.916221 0.842386 0.152492 -0.185848 -0.248566 -0.795898 0.167766 1.201537 -1.376550 -0.006323 0.790787 -1.094618 -0.524558 -0.910571 -0.414352 0.346091 -1.430112 -0.320016 -0.433727 -0.831772 0.501446 0.636351 -0.100876 0.122920 0.579717 0.009162 2.198298 1.054956 0.472305 0.538797 0.294727 0.663228 -0.540618 1.031755 1.023508 -0.250491
前O -0.680433 0.071769 -1.479097 1.095181 -0.394649 1.218953 1.761288 -0.334419 -0.768736 0.707902 -0.926960 -1.054475 0.909149 -0.149301 -0.283498 -0.033171 -0.096286 0.608508 0.560721 0.864279 -0.051109 0.367025 -0.260338 0.118432 0.604839 -0.715958 1.288606 0.176868 -0.089350 0.099977 -0.815460 0.113486 -1.595930 -1.399372 -2.164700 1.452646 0.460588 -0.089421 -1.134730 0.155724 0.056960 0.623729 -0.220546 -0.302452 0.658985 -0.403164 0.631029 -0.998005 -0.223809 -1.182280 0.114458 -0.696553 -1.722666 1.050940 -0.284958 -0.167095 -0.462614 -1.352270 -0.671372 0.929965 0.047145 0.459079 -0.146467 0.926076 0.089165 0.667095 -0.104809 -0.418847 2.207249 -0.326987 0.211724 -0.065798 0.291432 -0.389673 1.966072 -0.301911 -0.232479 -1.537339 -0.967723 0.501306 -1.620508 -1.121605 -0.449847 -0.083278 0.772132 0.389232 0.815597 0.953690 0.255045 -1.302502 0.375415 -1.397906 -0.003601 -1.696458 0.233741 1.108053 1.160057 -0.089335 -0.274294 -0.219640
查O -0.850182 1.423868 0.857042 0.244348 -0.826894 -0.100816 1.283902 -0.709042 -0.392381 -0.373719 -1.714154 -0.958518 0.343391 0.028235 0.454072 -0.003664 1.603306 1.963991 1.213727 -0.102078 -1.054263 -0.379038 -0.547405 -0.101559 -0.697636 -0.939375 0.167433 -1.415814 0.950607 -0.212243 0.110468 -0.568465 -0.423597 0.647815 -1.707226 0.182880 1.270713 0.822390 -0.567900 -0.417162 0.691559 1.142757 0.386617 0.381929 0.399755 -1.253897 0.889856 -1.221644 -0.147616 -1.808275 -0.385771 -0.889386 0.774722 0.189747 0.587687 -0.747487 -0.088663 0.721373 -0.036285 1.782654 0.464200 2.403643 0.347399 1.030380 1.370259 1.636360 0.456864 0.223353 0.345550 0.283324 -0.348130 -0.114152 -0.527388 0.391898 0.764638 0.854138 -1.073480 -0.437781 0.984872 -1.271539 -0.462323 -0.126831 -0.506103 -1.271077 1.367628 0.744317 0.250718 0.516169 -0.006940 -0.947373 1.072180 -0.052876 1.982779 0.191203 0.455931 1.454127 0.079937 0.842468 -0.215327 -0.557829
GO 0.503654 0.338740 0.289656 2.068667 -0.096501 -0.690090 0.803148 -0.210484 -1.388670 -0.641329 2.514647 0.123431 -0.238989 0.105522 1.516901 -0.356059 -0.186279 -2.390587 -2.006224 0.514791 0.691806 0.139406 0.399343 1.247536 0.561691 -1.743122 0.613825 -0.514044 1.988806 0.352462 0.600791 -0.049859 0.471081 -2.858612 2.147835 -1.546720 0.629154 -0.388275 -1.755508 -0.527392 -1.689102 1.405097 -0.706416 0.595557 0.176035 0.068602 2.297850 -1.177497 0.366314 -0.099799 -0.140226 -0.052851 -0.157275 0.216686 -0.988142 0.265693 0.597799 -1.258554 1.815782 -1.439217 1.231265 0.450259 -2.121392 -0.112726 -0.785778 -1.852026 0.152134 0.209240 0.111886 -1.184734 -0.519314 1.607384 -0.786335 1.971403 0.794509 1.081455 0.490402 -1.280074 0.973066 0.088737 -1.091724 0.140952 -0.745290 2.815078 -1.828574 -0.451530 -0.033399 -0.556654 1.404260 0.294099 -0.649151 0.887331 0.158068 -2.751179 1.102618 0.944989 -0.614469 -0.011407 0.344655 1.183948
/O -0.689646 0.025661 1.863539 0.157613 0.839007 0.042858 -0.815992 -0.041774 -1.043902 -0.953501 0.700671 -0.560163 -0.911070 0.508048 2.295830 -0.380002 0.434942 -0.690388 0.954007 -0.073111 0.179673 1.332387 -0.789919 0.718808 0.654267 -0.351156 0.806543 -0.105619 1.433173 0.287706 -0.951884 -0.733025 -0.670057 -1.056531 0.132362 -0.573206 -0.024146 -0.583718 -1.321382 0.004518 0.091191 1.171870 -0.284591 -0.256242 0.903898 0.898519 2.442421 0.250246 0.276269 -0.660954 0.747965 0.997031 -0.385916 0.475113 0.907548 -0.902229 0.600803 -0.316458 0.786192 -0.357868 0.008935 0.960427 -0.999559 -0.204740 -0.130472 -1.299572 0.166956 -0.007738 -0.067430 -0.055890 -1.435367 0.338881 0.289491 0.411091 1.530172 -0.193012 0.203768 -0.357901 0.692563 -0.885942 -1.721331 -0.322282 -0.894596 2.377372 -0.969033 -0.071243 0.015136 0.544839 0.728904 0.872469 -0.283453 -0.157811 1.373793 -0.949237 1.450714 0.244039 0.437013 -0.277860 -0.372463 -1.234355
7O -0.106002 0.928527 0.696160 0.602210 -0.089478 0.321402 -0.056162 -1.057834 -1.396849 0.481360 -0.195389 -0.271084 -0.031193 -0.275266 1.793086 -0.390275 0.840506 -1.027207 0.590123 0.478484 0.015585 1.363913 -0.837977 0.174610 1.557278 -0.085583 0.479423 -0.318945 0.697407 0.782144 -0.833805 -0.802718 -0.532420 -1.682005 0.032315 -0.332697 0.065700 0.092095 -0.816723 -0.042392 0.234611 1.262152 -0.027985 -0.698672 0.692731 -0.058588 2.495140 -0.234387 0.550182 -0.793945 0.824430 -0.184082 0.482888 1.026657 0.661758 -0.147886 0.244443 -0.129760 0.315792 0.484830 0.797666 0.609115 -1.567710 0.452127 0.044007 -1.525305 0.150533 0.341309 0.320798 -0.085926 -0.835932 0.852441 0.110489 0.872290 1.135496 -0.173916 -0.018958 -0.851819 0.778330 -0.575859 -0.735439 -0.828906 -0.684588 0.115847 -0.707518 -0.387599 -0.091124 0.600242 0.731707 0.050278 0.154842 -1.020779 2.100186 -0.749500 1.005736 0.427223 -0.081097 -0.630479 -0.203945 -0.720096
出O -0.455459 -2.438539 -0.370511 0.106630 -0.882317 0.759987 2.213777 0.054074 -1.033562 -0.336067 -0.154433 -1.689478 0.182579 0.177221 -0.527532 -0.188328 -0.936944 0.169096 1.604198 1.184782 0.660110 1.195446 0.853368 -0.931610 0.480006 -0.051432 0.568618 -0.161762 1.043374 1.137536 -1.067282 1.223896 -0.180925 -0.260940 -1.659889 1.482530 1.184582 -0.376572 -0.284011 0.271907 -0.729089 -0.223978 0.042593 1.632718 0.495022 0.551970 -0.026023 -0.400264 0.915904 -0.840067 -0.320614 0.315482 -1.669176 0.792622 -0.335336 -0.153745 -1.125144 -1.100551 -0.230944 -0.189701 0.496773 0.399086 -0.276575 0.350794 1.214559 0.467944 0.616885 0.384534 1.509043 0.924904 -0.188194 0.447647 -0.288353 -0.447866 -0.156873 -0.377041 -1.541782 -0.310671 -1.109184 0.928450 -1.242521 0.726807 -0.257726 0.196808 0.905464 1.090809 -0.277178 0.777193 -0.610263 -1.167594 0.297181 0.150143 -0.438223 -0.368933 0.515075 1.157210 1.646658 0.536828 0.309086 -0.481428
DO 0.204691 0.864943 0.588488 1.389365 -0.569930 -0.474761 1.009162 -0.827467 -0.891209 -0.258873 2.154979 -0.233008 -0.005766 0.346907 0.881116 -0.160187 0.160631 -2.050140 -1.334128 0.656958 0.574537 0.658615 0.678179 0.407757 0.577670 -1.296844 0.604919 -1.434977 1.640028 0.472788 0.849587 -0.121362 0.604527 -2.233479 1.611604 -1.075558 -0.200974 0.004032 -1.369274 0.481382 -1.162385 1.193730 0.293468 0.470603 0.734524 -0.379299 2.169699 -1.417482 0.184218 -0.674971 0.016301 -0.126411 1.317004 0.181128 -1.155943 0.420350 0.663586 -1.002692 1.717863 -0.728974 1.206664 0.200413 -2.296541 0.440734 0.141921 -1.422919 0.178616 0.293411 -0.262432 -0.743951 -0.004858 1.447809 -0.751772 1.864902 1.137063 0.691397 -0.351148 -1.653631 0.819942 0.415884 -0.870619 0.165836 -0.973494 2.077164 -1.805455 -0.531191 -0.289950 -0.621124 1.559887 0.426353 -0.263038 0.346806 0.348435 -2.022564 0.915751 0.752257 -0.753015 0.232216 0.064164 0.571653
常O -0.828681 0.493937 -1.359539 1.400241 1.130444 0.518498 -0.450316 0.471580 0.607867 1.428326 0.033442 -0.247954 -0.155426 0.521644 -1.510856 -0.207512 -0.830774 -0.238460 -0.225075 -0.796146 -0.774540 0.337412 -0.236914 -1.187058 -0.398943 -1.605746 -1.286795 0.212926 -1.046300 -0.197802 -0.327658 -0.210896 -1.385559 -0.236388 -1.090890 1.302272 -0.244020 -1.413321 -1.435256 -1.496004 0.082537 -0.732667 -0.823604 -0.047155 -0.721249 -0.540360 -1.078755 -1.218082 -1.414263 0.081949 -0.372751 -0.499500 -1.078930 -1.395118 -1.754437 -1.854351 -0.275565 -0.717459 0.372044 1.340519 -0.679097 1.462715 1.096496 -0.514636 -1.274000 1.262185 -0.803721 -0.589549 1.168688 -0.894148 -1.266746 0.122205 -1.047326 -1.906197 -1.275759 -0.095131 -0.498507 0.581491 -0.966513 0.309066 -1.169941 0.106926 -0.271543 -0.142460 0.670146 -0.633691 -0.575497 2.280117 -0.095611 0.227002 0.631317 -0.703712 -0.373660 -0.829110 0.030865 1.143646 0.298968 1.450472 -0.821117 0.705009
以O 0.000279 0.112218 0.606992 -0.468425 0.602826 -0.193702 1.661540 -0.202276 0.242095 0.449878 -0.410171 -0.403084 0.384432 -0.691373 -0.431582 0.653267 -0.054642 0.199284 0.578441 1.719357 0.343899 0.498044 0.762222 -0.390592 -0.585808 -0.479988 0.425283 -0.931258 -0.937322 -0.096963 2.045154 0.226189 -0.100389 -0.501975 0.037454 0.563913 0.825020 0.001044 -0.070659 -0.362699 -0.240358 0.519733 0.686682 1.932700 0.582003 0.660958 -0.946223 -0.867092 1.924234 -0.480737 0.941708 -0.645370 -1.608407 -0.983203 0.081856 0.301036 0.761340 -0.801017 0.326991 1.033381 0.042224 -1.728369 0.214140 1.481760 0.792488 0.299010 0.609158 -0.042085 0.261846 -0.795945 -0.401189 0.331982 -0.630877 0.349625 -0.950478 0.181782 -0.534910 -1.323059 -1.005562 0.397735 -0.713829 -0.793857 -1.140574 -1.425431 0.017757 0.563480 -0.252941 -0.404271 0.344549 -0.635140 0.972898 0.695365 -0.877772 -0.788077 -0.953424 -0.052888 0.648124 -1.126702 1.158690 -1.262501
体O -0.329648 0.738908 -1.272081 0.859757 0.165201 -0.301486 0.171964 -0.190040 -0.456304 1.230450 0.226016 -0.752490 0.307299 0.344008 -0.601103 -0.541429 0.240544 -0.327059 -0.957934 -0.298714 -1.186412 0.011948 -0.454939 -0.914378 -0.393155 -0.759395 -0.809746 0.290771 -1.244256 -0.262842 -0.293664 -0.346161 -0.673236 -0.083452 -0.702640 1.334713 -0.690643 -0.488206 -0.313185 -1.079344 0.746529 -0.549630 -0.778383 -0.462288 0.130559 -0.911261 0.656072 -1.065067 -1.138802 0.036718 -0.242855 -0.586200 -0.510693 -1.216894 -1.025995 -0.651854 -0.329769 -0.287848 0.620702 1.774392 -0.060328 0.961898 -0.122509 -0.509264 -0.605761 0.702175 -0.699214 -0.093344 0.861172 -0.832694 -0.389795 0.239799 -0.992629 -1.049875 -0.585742 -0.160447 -0.343337 -0.162988 -0.630146 -0.212273 -0.869865 -0.145442 -0.459179 -0.446256 0.947466 -0.475544 -0.407693 1.560404 0.137092 -0.056303 0.959881 -0.715552 0.035051 -0.189541 0.045044 1.752344 0.036215 0.783400 -0.901819 0.763224
个O -1.171284 -0.054980 1.349199 -0.194904 0.973866 1.110705 -0.371730 -0.226491 -0.223216 -0.593270 0.306035 -0.589500 -0.820440 0.749923 1.671564 0.269129 0.308525 -0.106402 1.451787 -0.060587 0.176807 1.365652 -0.965853 0.287404 1.068621 -0.307676 1.278014 -0.258706 0.506515 0.292254 -1.057001 -0.692807 -1.703007 -1.261843 -1.054667 0.055105 -0.055415 -0.331250 -1.337965 0.766685 0.556468 1.224741 0.041760 -0.627866 1.044857 0.820965 1.482693 0.120523 0.040192 -1.422509 1.229084 1.075837 -0.573079 0.693486 1.260789 -1.249992 0.451297 -0.559924 0.100241 -0.061038 -0.692597 1.000084 -0.435176 0.591236 0.001808 -0.539488 -0.259498 -0.270901 0.906935 -0.273133 -1.233972 -0.143907 0.649415 -0.071064 1.976087 -0.514784 -0.367068 -0.773163 -0.297538 -0.407816 -1.788531 -1.302421 -0.657215 1.693520 -0.571897 0.060815 0.826159 0.704571 0.751618 0.247781 -0.295209 -1.172027 0.908239 -1.043462 1.429627 -0.373263 0.821381 -0.403863 -0.909066 -2.089803
月O -0.504308 0.290504 -1.327368 1.754023 -0.504944 1.926354 1.842867 -0.333911 -0.654566 0.336351 -0.567938 -0.432888 0.782162 -0.325077 0.059299 0.400461 -0.062615 0.660372 0.761771 1.054665 0.103217 0.392539 -0.139739 0.083002 1.289943 -0.473385 1.878309 -0.083652 0.298864 0.235988 -0.584463 0.084023 -1.841715 -2.189576 -2.113158 0.626207 0.714059 -0.003158 -1.408052 0.399713 -0.200850 1.471312 -0.280405 -0.774615 0.847435 -0.483142 0.885874 -1.285799 -0.367877 -1.745961 0.904497 -0.420967 -1.650695 1.731966 0.439348 -0.253841 0.122223 -1.684161 -0.539007 -0.162884 0.419033 1.025508 -0.391263 0.896017 0.327189 0.421496 -0.095218 -0.487099 2.578310 -0.928159 0.491412 0.142481 0.952256 0.160072 2.861929 -0.666096 -0.170474 -1.313538 -0.553921 0.694408 -1.472952 -1.639257 -0.028532 0.404447 0.364647 0.004019 1.114787 0.777788 0.340693 -1.190071 0.644278 -1.728990 0.437722 -2.562754 1.101152 0.618544 0.835900 -0.032680 -0.431039 -0.767593
次O -0.146693 -0.330179 -0.268114 0.752899 -0.571792 0.731522 1.766065 -0.226404 -1.212352 0.316716 0.915779 -2.102663 -0.157453 0.811299 0.289305 0.004137 0.183012 0.219102 1.394387 1.023275 0.298018 1.382304 0.724842 -1.552704 0.117724 -0.986551 1.256763 -1.003393 0.712147 -0.455551 0.430798 0.539796 0.149147 -1.042840 -1.219729 1.018683 0.120721 -0.679276 -0.645525 0.192531 -0.633420 0.673263 0.489424 0.274472 2.290548 0.672374 0.765328 -1.149895 0.001265 -1.450952 0.364485 0.687624 -1.333572 -0.032981 -0.545306 -1.183975 0.942388 -1.780710 0.325301 0.308950 1.311793 -0.605292 -0.243861 0.839943 2.143535 0.561926 0.105446 -0.407559 0.280958 -0.780550 0.613090 0.658357 -0.146407 -0.814052 0.779136 -1.527144 -0.831709 -1.882792 -0.641502 -0.373514 -1.911450 0.268229 -1.382277 1.725455 0.516964 0.104718 -0.477900 -0.202508 0.330152 0.145830 1.727099 1.118916 -0.205833 -1.334835 0.596366 1.215349 1.133767 0.584169 -0.164751 -0.479245
性O -0.032947 0.359063 0.127707 -0.396969 -1.057296 -1.315625 -0.414549 0.213811 -0.480875 0.178095 -0.874199 -0.961048 0.322896 -1.115643 0.171887 -0.046001 0.540909 0.098986 0.013909 0.124431 -1.102435 -1.327955 -0.406343 0.769340 -0.995739 -0.281185 -0.530042 1.511450 -0.516819 -0.029481 -0.275305 0.311344 0.770263 1.592153 0.702022 0.258096 0.327177 -0.062418 0.947622 -1.119204 0.627552 -0.619312 -0.882437 0.765851 -0.953671 0.559467 0.449098 0.293022 1.117867 0.305523 0.445638 -0.230047 -1.489581 -1.374470 0.275208 1.392705 -0.612788 -0.039876 1.027169 1.425537 0.532700 -0.340172 -0.207848 0.138555 -1.156328 -0.584448 -0.018325 -0.365059 0.098978 -0.147364 -1.307221 0.510629 -0.291283 -0.497119 -0.198907 -0.133892 1.497764 0.343167 -0.428724 -0.578386 -0.229353 -1.145208 -0.161266 -1.403460 1.574975 -0.445839 -0.029960 -0.119927 -0.152102 -1.058864 0.864947 0.436703 -0.403002 1.717759 0.544605 1.453455 -0.476679 -0.575881 1.379673 0.957029
组O -2.057448 1.354398 2.441349 -1.392681 -0.377607 -1.204163 -2.226333 -0.233641 -0.563211 -0.678663 0.221130 -1.224974 -1.584696 2.386922 3.234035 0.541747 0.487802 -0.639197 1.062807 -1.926337 -1.417664 1.021086 -0.972613 0.719056 0.659011 -1.571818 0.352094 -0.939133 0.787434 0.165111 -1.187286 -1.091691 0.430805 0.903853 -0.013786 0.221139 -0.699143 0.156832 -0.421230 0.276818 2.247963 1.120085 0.215276 -0.627186 0.373741 0.637368 2.493343 -0.670626 -0.928064 -1.451003 0.611193 1.974147 1.060042 -2.006023 0.593540 -0.425214 0.724449 1.197191 0.610287 1.024949 0.340939 0.321789 -0.762085 0.959995 -0.401582 -0.277937 -0.722687 -0.081136 -0.471904 0.398375 -2.136205 1.131346 0.225345 -1.058978 -0.628332 -0.124334 -0.237538 -0.435617 0.732637 -2.630652 -1.335109 -1.298471 -1.989527 1.326984 -0.197044 0.488054 -0.754977 -1.398650 0.330003 0.683888 0.126389 -0.370481 2.046080 0.884238 1.165335 0.499951 -0.122974 0.644796 -1.053194 -0.661012
术E -0.646972 1.291017 0.808263 -1.602151 0.838781 1.634496 -0.013867 -0.643478 2.129045 0.669201 0.381598 -0.200565 -0.057424 0.825347 -1.039299 0.862576 -0.015563 0.496865 1.737415 0.028508 2.581498 0.913557 0.070989 0.409543 -0.158953 -1.424581 -0.904788 -2.576828 0.702953 0.795913 0.999354 -1.183589 -1.268376 0.936428 0.467549 -0.727011 0.352291 0.288376 -2.062896 1.243814 -0.524201 0.072705 2.315538 1.651445 -1.078409 0.122568 0.143446 -0.928611 0.212937 -0.223689 -1.276767 -1.464797 3.384778 0.695085 -2.243066 -0.288658 0.302372 0.255217 0.653840 1.580776 -1.505261 0.342664 -0.466657 1.245626 0.232867 0.055734 -0.335901 0.322981 -0.752388 0.640488 -1.450407 -0.395500 -1.902273 1.254133 -0.764205 1.518791 -1.898967 0.217465 0.652293 2.135711 -0.537491 0.417138 -0.523186 -1.240023 -1.335408 0.167181 0.197088 -0.732060 0.584159 0.192239 -1.025734 -1.136296 -0.361131 0.347414 -0.325622 -0.776632 -0.488352 0.322995 -1.049254 0.120228
现O -0.508157 -1.345334 -0.889241 -0.366045 -0.398120 0.244878 1.186074 1.016394 -1.132389 -0.879958 0.181909 -1.545286 0.115669 0.231141 -0.343150 -0.698778 -0.603730 1.427253 0.740929 0.578427 0.354216 -0.728305 0.723496 -0.239158 -0.446636 -0.100878 1.116371 0.088460 1.078829 0.093202 -0.894269 0.222028 0.032047 -0.150519 -0.890317 1.236968 1.700430 -0.035634 -0.424773 -0.370629 -0.146937 -0.325127 0.206648 0.330009 0.094936 0.608824 0.452511 -0.334707 0.218449 -0.442915 -0.366956 0.183392 -1.705546 0.362415 -0.385951 0.230064 -0.467385 -0.968740 -0.757248 0.534214 0.691881 0.472782 -0.225501 -0.689662 0.560108 0.819784 -0.894049 0.200783 0.659964 0.694280 -0.267374 -0.915562 0.785141 -0.086572 0.585769 0.067283 -0.539905 -0.103709 -0.168007 0.341130 -1.379340 0.064940 -0.141690 1.067397 1.243487 1.380247 0.013551 -0.590689 -0.546845 -0.774423 -0.133403 0.372298 -1.654437 -0.453640 0.313826 1.136138 0.836731 0.414555 -0.736230 1.041933
大O 0.000208 0.843510 -0.373894 1.435504 0.904604 -0.123164 -1.138274 0.453470 -0.181577 1.239997 -0.108790 0.118781 -0.283063 -0.796093 0.244745 -0.614368 0.255377 -0.667994 -0.446871 -0.738199 -0.853731 0.080090 -1.185633 -0.228373 -0.324076 -0.627394 -0.600743 1.378920 -0.347308 -0.703838 -0.982461 -0.395681 -0.610822 0.002559 0.070215 0.162208 -0.278063 -1.187714 -0.866145 -1.296818 0.072649 -0.518072 -1.920676 -0.497266 -0.468143 -0.200998 -0.294526 -0.001085 -0.210489 -0.277326 0.609840 -0.227812 -1.509122 -0.724581 -0.122706 -1.166201 0.108330 -0.513506 0.862142 0.758530 0.078212 1.008422 0.695339 -0.861346 -0.914167 -0.288030 -0.527747 -0.889046 0.147971 -1.063364 -1.461419 -0.243499 -0.002495 -1.080209 0.232338 -0.288696 1.384218 0.597485 -0.193408 -0.399663 -0.913658 -0.448722 -0.006312 0.104142 1.012494 -1.516610 -0.368707 2.475633 0.394100 0.961341 0.455301 -0.221100 0.329841 -0.015132 0.814534 1.125384 -0.296371 0.303715 0.269864 0.348362
便O -0.321981 -0.258214 -0.925189 2.136585 1.548814 0.378870 -0.263446 0.900077 0.060267 1.483267 1.055551 0.063098 -0.622204 0.198104 -1.014067 -0.499436 -1.535441 -1.030089 -0.355047 -0.661230 -0.756758 0.758667 0.076631 -1.710521 -0.362887 -1.534847 -0.824736 0.883424 -0.750303 -0.200384 -0.484726 -0.156145 -1.285178 -0.642419 -0.198501 1.220451 -0.560704 -1.914624 -1.421475 -1.476456 -0.324906 -0.877869 -1.329703 0.068279 -0.204176 -0.578252 -1.291769 -1.037884 -0.731159 -0.466395 0.327274 0.020693 -1.927521 -1.494676 -1.540351 -2.622293 -0.226447 -1.059383 1.129643 0.724978 -0.225488 2.148440 0.883102 -1.503368 -1.530308 0.637347 -0.979970 -0.611767 1.171618 -1.494591 -1.550221 0.401110 -0.748793 -1.876325 -1.097089 -0.183274 0.069922 1.121687 -1.250666 0.377134 -1.967688 0.191404 0.160969 0.811817 0.822190 -1.347759 -1.230507 3.492173 0.237463 1.236183 0.830963 -0.332311 -1.015481 -0.919924 0.849573 1.363780 0.147547 1.655596 -0.845707 0.408982
示O -0.448474 3.151670 1.980270 -0.294089 0.063344 -1.359874 -0.641441 -0.359053 0.604117 0.489687 -1.505752 0.072289 0.116351 -0.239543 1.846665 0.339377 2.237509 0.555780 0.006236 -0.591843 -0.237544 -0.135993 -1.497719 1.620566 -0.059540 -0.863370 -0.233286 -1.052004 0.344061 -0.455379 0.617401 -1.303451 -0.115602 1.094610 0.762051 -0.820012 0.980609 1.100987 -1.149817 -1.122160 0.861035 1.238433 -0.067477 0.276039 -1.246803 -0.857340 1.461964 -0.663606 0.720350 -0.919933 0.205550 -1.450086 1.194184 -0.752169 1.240387 0.280657 0.771013 1.256465 0.343572 2.339309 0.314203 0.779816 -0.475688 1.225944 -0.227836 -0.738224 0.429043 0.548269 -1.059159 -0.299891 -1.430632 0.213832 -0.844254 0.935458 -0.684601 1.501077 0.047248 -0.111395 1.646656 -1.811214 0.077556 -0.750820 -1.082558 -2.144970 0.268217 -0.149327 -0.238369 -0.522240 0.502049 -0.637366 0.290077 -0.142377 2.156137 0.668135 0.069746 0.739787 -0.730084 -0.768721 0.444212 -0.135415
肠E 0.140096 2.050384 0.617404 -0.728212 0.303904 0.352697 -0.098693 -0.299066 1.291286 0.737458 -0.888907 -1.549588 -0.358801 -0.782962 0.748610 0.275285 1.899741 0.439233 1.581820 0.840043 1.120048 -0.330092 -1.330058 0.865154 0.118381 1.312828 -0.145677 -0.625252 -0.188387 -0.293071 0.371183 -0.196985 -0.543157 1.208406 0.711162 -0.988941 -0.006506 1.383522 -1.742169 0.794561 -0.569808 0.538725 -0.002514 0.740269 -0.744642 -0.250340 2.011875 0.694256 1.454803 -0.285276 0.604771 -0.938441 -0.329722 0.366004 1.613182 0.850099 1.713018 -0.787410 0.620541 2.896264 0.107304 -0.285242 -0.876400 1.778134 1.060158 -0.296391 0.651547 -0.750986 -0.266092 0.397594 -0.389697 -1.497598 -0.231508 1.230235 1.647398 -0.311316 -0.964643 -1.489412 0.019717 -0.519170 0.462617 -1.226669 -1.736688 -1.497594 0.519129 -1.196390 1.549898 -0.008358 0.297624 -1.335961 0.196802 -1.644641 0.656991 2.139648 0.790922 0.405586 0.037253 -1.740371 0.466953 -1.152322
理O -0.501593 2.275390 1.503571 -0.694627 1.228167 1.030329 -0.876783 -1.332661 0.205005 1.126813 -0.897947 -0.719514 0.358119 -0.491098 0.864745 0.023680 2.188343 0.637515 1.119279 0.912298 0.883290 2.093605 -1.198478 0.000739 -0.448422 -1.142049 -1.202571 -2.078614 0.170410 -0.071804 0.896912 -1.188404 -0.073464 1.013357 -0.162283 0.501036 0.770855 -0.103093 -0.568887 -0.804109 1.040905 0.535032 1.246289 1.808643 0.631892 0.390157 1.622998 -1.079114 0.716714 -0.500877 0.428768 -1.239879 1.541734 -0.473370 -0.791243 -0.455114 0.842142 1.180001 0.361963 3.257720 -0.179353 -0.710628 -0.811383 1.653929 1.396447 -1.011958 0.253844 0.317621 -0.920798 -0.552936 -2.435743 0.936828 -2.534461 0.533660 -1.210907 0.245554 -0.900239 -0.449607 1.905812 -0.116235 -1.109396 -0.230522 -1.524494 -2.172771 0.576317 0.194229 -0.923377 -0.041121 0.798711 0.689017 0.597009 -0.423591 1.744174 0.423264 -0.394482 0.823631 -0.132340 -0.722089 0.316140 -0.374419
TO 0.012114 1.006518 1.758698 0.623725 -0.532684 -1.936372 0.709351 -0.171363 -0.659196 -0.957806 0.128962 -0.162919 -0.016554 0.009356 1.033851 -0.070281 1.359570 -0.332364 -0.881429 0.178602 -0.498632 -0.771544 0.213140 1.092267 -0.803295 -0.886765 0.103353 -1.114878 1.515979 -0.237402 0.732351 -0.810454 0.743966 -0.593568 0.800778 -0.753633 0.914617 0.861357 -0.846945 -0.400690 -0.365071 1.251481 0.020037 0.741633 -0.247112 -0.856862 1.858846 -0.700737 0.384511 -0.920016 -0.354321 -0.729352 0.896471 -0.399741 0.293740 0.324349 0.309348 0.140340 1.142272 0.936658 0.890336 1.126248 -1.228390 0.381231 0.638574 0.136072 0.793098 0.710151 -0.993713 0.441724 0.021896 0.166512 -0.749668 1.614764 0.355393 1.638568 -0.360116 -1.122405 1.093501 -1.424244 0.087658 0.105793 -1.347865 0.594462 -0.399190 0.173594 -0.210669 -0.173328 0.838036 -0.298509 0.320450 1.130639 1.028450 -0.306183 0.117555 1.034226 -0.367833 -0.118599 0.547315 0.406753
来O -0.117496 -0.771244 0.538541 0.386345 0.551844 0.811883 2.180879 0.252980 -0.252862 0.487830 0.071482 -0.462873 0.066111 -0.218508 -0.848776 0.557614 -0.580682 0.537297 1.329627 2.215164 0.148663 0.849440 1.033928 -1.268455 -0.630922 -1.286403 0.678189 -0.923248 -0.518370 -0.248502 1.890849 0.179449 -0.930583 -1.044159 -0.924119 1.510606 1.168831 -0.288081 -0.323961 -0.621650 -0.304804 0.386901 0.999432 2.371928 1.727233 0.578133 -1.510841 -1.543264 1.442711 -1.599862 1.204507 -0.628136 -2.395514 -0.803675 -0.343243 -1.000985 0.681236 -1.508154 0.190548 1.208797 -0.015279 -1.224761 0.788510 1.291918 1.057545 0.541010 0.164932 0.146283 1.022298 -1.640558 -0.124772 0.275413 -0.719198 -0.678390 -0.698190 -0.386676 -0.744212 -1.369400 -1.766059 0.580048 -1.489631 -0.657954 -1.375992 -0.589043 0.879653 0.428073 -0.798900 0.659374 0.453287 -0.105635 1.315440 0.745005 -1.589622 -1.525482 -0.390362 0.435607 1.312240 -1.006237 0.410891 -0.961525
分O 0.192059 1.538428 0.531590 0.116765 -0.798523 -1.222455 -0.748524 -0.149503 -1.302735 -0.203209 1.407105 -2.184519 -0.244286 0.436220 0.853274 -0.009303 1.966908 -0.982312 0.148661 0.614221 -0.954204 -0.736671 -0.958744 0.018284 -1.527177 0.523653 -1.268951 -0.780480 0.367693 -0.453882 -0.023358 -0.274151 1.199309 1.283330 1.115627 -0.154607 -0.125251 0.012468 -0.250970 -0.476258 -0.170522 -0.415230 -0.951763 0.313612 0.098848 0.370888 3.287233 0.055309 -0.764727 0.188148 -0.101668 0.559720 0.360610 -2.089080 -0.355864 1.414523 1.508435 -0.236863 1.333819 2.913174 0.934094 0.002071 -1.560659 -0.551237 0.502877 -0.470282 -0.263171 -0.534835 -0.411420 0.091708 -1.075476 0.810431 -0.753748 0.191778 -0.107239 -0.735287 -0.014252 -1.453587 -0.008383 -1.362198 0.506732 0.014077 -2.034980 0.075476 0.618045 -1.213307 0.004978 -0.741467 -0.036891 -0.472299 0.767638 -0.019208 0.377726 2.429827 1.159297 2.546460 -0.864120 -0.130593 -0.059573 1.442505
复O -0.180258 -0.787694 0.781744 -0.274936 -0.366698 0.379412 1.912977 -0.590362 -1.999681 -0.274167 -1.185482 -0.203951 0.846443 -0.188056 0.351113 -0.798088 -0.499819 1.266150 1.238549 0.307177 0.218629 -0.149027 0.499556 -0.462880 -0.351795 -1.751060 0.808179 -0.374338 1.738415 0.105191 -0.305262 -0.951353 -0.471499 0.899045 -1.052049 1.052376 0.618645 0.073811 -0.560424 -0.096473 0.742135 0.514904 0.946152 1.147352 1.039475 -0.745176 1.132418 -0.704528 0.994695 -1.590358 -0.474913 -0.572102 0.378374 1.020731 -1.185477 -1.042888 -0.917230 0.834025 -0.146681 2.200757 0.409135 1.368032 -0.485126 -0.034904 1.079181 1.290467 -0.112037 0.912529 -0.260344 0.761271 -0.477790 -0.045563 -1.161427 0.992502 1.024372 1.257146 -0.707172 0.095964 0.627111 -0.619762 -2.104684 0.491368 0.144150 0.509940 0.841587 1.131444 -0.674251 2.119869 0.413376 0.607141 1.072536 0.874177 0.357876 -0.509238 0.160514 1.046441 -0.119682 1.241108 -0.356996 -0.090062
转O -1.342287 -0.934772 0.026507 -1.451322 0.260339 1.846846 -0.570734 -1.489563 -1.243277 -0.499549 -1.859022 -2.240650 0.317605 0.138175 0.128933 -0.605136 0.329873 0.027805 2.168540 0.118071 1.061626 0.268228 -0.994250 0.244058 0.383175 -1.752395 -0.584139 -0.134206 0.743352 1.592801 -1.662764 -0.910329 0.757618 0.423368 -2.131879 0.091348 0.226138 -0.631697 0.523951 0.542408 1.674087 0.530394 1.241989 1.059483 0.293673 1.568076 1.141885 1.198128 0.284029 -1.423796 0.828938 0.651402 -0.569368 0.524357 0.453144 0.379417 -0.630785 0.532600 -0.030382 2.315001 -0.298353 0.799609 -0.670826 0.437378 1.343978 0.047955 -0.460021 -0.437449 0.397771 1.854764 -2.504286 -0.745391 -0.398018 0.821208 2.555055 -0.030165 -0.768130 -0.554250 0.202573 -1.165771 -2.583306 -1.559664 -0.448068 0.573136 0.808538 0.503792 1.313553 1.401945 0.079488 -0.231975 1.406345 -0.595307 1.206372 1.337123 1.149537 0.638500 0.604573 1.378867 0.266248 -1.309783
下O 0.196585 1.083530 0.074102 0.140218 0.091903 -0.078169 1.102040 0.190627 0.544958 0.460840 0.535381 -0.688294 -0.399693 1.192069 0.204075 -0.255167 0.830515 0.260147 0.372642 -0.351686 -0.140569 0.285912 -0.105006 -1.544409 1.506197 1.357695 0.262609 -0.162558 -1.137528 0.576324 -0.179912 -0.170804 -0.530589 -1.678753 -0.364476 -0.010123 0.355387 1.010482 -0.800371 0.077468 -0.970085 0.471089 0.326446 -1.574479 -0.577305 -0.762624 1.215986 -0.362579 -0.962451 -0.097986 -0.655352 0.160767 0.010003 0.105766 1.366440 -0.334622 0.670606 -0.709983 -0.001282 0.101800 0.442712 1.686148 -0.054818 -0.715769 0.532145 0.907275 -0.106086 0.578866 0.060198 0.400779 0.752330 -0.828224 0.510719 -0.542739 -1.943432 0.126614 -2.519230 -0.277406 -0.234516 -1.025108 1.307503 0.062819 -0.793806 -1.033946 -0.876684 -0.206087 0.390936 -0.815631 0.094566 -1.457337 0.430179 -1.148663 1.088075 0.531146 -0.017641 0.544739 0.622400 0.228249 -1.089922 -0.466784
胃S 0.592688 1.014638 1.257105 0.077245 -0.117453 -0.435394 0.846564 -0.384399 -0.190344 0.382897 -0.941601 -0.155197 0.404264 -0.781243 0.762028 0.303618 0.893499 0.199225 0.372493 0.478004 -0.890672 -0.410529 -0.466497 -0.813477 -0.395212 0.584181 0.143263 -0.247022 -0.391128 -0.063612 0.876929 0.024802 0.334357 0.381817 0.295395 -0.315893 0.345327 0.535846 0.419076 -0.042650 0.255421 0.511353 -0.070505 0.743630 0.476328 -0.357483 0.490061 -0.203248 1.236889 -0.885638 0.980857 0.059687 -0.623700 -0.674326 1.054610 0.295673 0.915384 0.383571 0.583516 1.368268 0.848769 0.316282 0.383576 0.424811 0.726373 0.601647 0.654125 -0.065559 -0.261621 -0.761494 -0.271871 0.277002 -0.278616 0.304656 -0.321448 0.232195 -0.254272 -0.320958 -0.251597 -1.229454 0.146982 -0.779778 -0.296161 -1.826736 0.613826 -0.761054 -0.058246 0.670773 0.468802 -0.301308 1.319716 -0.031533 0.748368 0.913259 0.411412 0.611094 -0.465942 -0.432025 0.782733 -1.308921
小O -0.049299 0.713803 -0.332287 1.562546 1.514665 0.140523 -1.010882 0.646837 0.185188 1.395226 0.308090 0.115593 -0.304918 -0.490581 0.032412 -0.621800 -0.324105 -0.988985 -0.394537 -0.597207 -0.351545 0.573387 -0.894704 -0.612640 -0.160487 -1.103387 -0.776132 1.010383 -0.364729 -0.394210 -0.702133 -0.541257 -0.937504 -0.280736 0.300502 0.281360 -0.556616 -1.341820 -1.329267 -1.304578 -0.207728 -0.376295 -1.540289 -0.406299 -0.177511 -0.183190 -0.484708 -0.346894 -0.185362 -0.042420 0.410408 -0.222249 -1.442061 -0.860984 -0.710781 -1.824245 0.207713 -0.739818 0.926832 0.571153 0.135378 1.259800 0.627360 -0.937920 -1.277156 -0.329441 -0.451115 -0.717281 0.144275 -1.070346 -1.480433 0.067398 -0.497749 -1.252590 -0.274295 -0.210911 0.958495 0.961912 -0.282590 -0.174696 -1.556307 -0.002598 -0.103936 0.664498 0.591598 -1.631144 -0.688188 2.727075 0.392758 1.308125 0.495581 -0.177583 0.000745 -0.494336 0.725095 1.093315 -0.051142 0.889773 -0.129215 0.381854
一O 0.397569 -0.033361 -0.097645 0.197805 -0.517232 1.063440 1.328700 0.164461 -0.269141 1.030884 0.884477 -1.419866 -0.468396 0.338941 -0.292894 -0.096073 0.436455 1.473646 1.435535 0.032219 -0.464078 -0.493940 -0.140908 -1.895231 -0.538811 -0.473288 0.818420 0.351305 0.169699 -0.712748 -0.175037 0.089491 -0.214680 0.411859 -1.188500 0.436302 0.543237 -0.065093 -0.229674 0.640854 -0.770030 -0.444656 0.218693 0.039877 1.572909 0.042841 -0.345947 -0.688102 -0.284264 -0.971383 -0.616290 0.038497 -1.093488 -0.071306 -0.695362 -1.568894 1.081565 -1.294530 0.392376 1.056990 0.319465 1.044293 0.859089 0.090850 1.944013 1.550519 -0.505419 -0.678869 -0.403758 -0.700154 -0.163940 -1.145108 -0.109420 -0.971294 0.546967 -0.966133 -0.181232 -0.179062 -0.451209 -0.029316 -1.244661 0.103191 -0.590247 0.088921 1.661010 -0.388901 0.458278 0.559112 0.167407 0.302779 1.121494 0.774915 -0.386496 0.571228 0.550270 1.058543 0.043020 1.284713 0.042253 0.275892
8O 0.138505 1.039736 0.456234 0.838587 0.129394 0.177321 0.072496 -0.759435 -1.245501 0.474149 0.244042 -0.174512 -0.061949 -0.312592 1.530754 -0.521574 0.758963 -1.039621 0.161815 0.514448 -0.197315 1.032235 -0.806646 -0.111205 1.356096 0.003996 0.469605 -0.158444 0.428312 0.491372 -0.655567 -0.715885 -0.413808 -1.700928 0.106358 -0.461104 0.158763 0.168245 -0.835703 -0.145733 0.017856 1.029219 -0.397142 -0.721298 0.646390 -0.126401 2.034560 -0.379469 0.233197 -0.641968 0.741886 -0.111742 0.046523 0.656025 0.719314 -0.063841 0.591634 -0.239167 0.480044 0.190712 0.826941 0.577073 -1.144192 0.045915 0.062947 -1.099157 -0.019549 0.263916 0.146292 -0.364366 -0.657443 0.562766 0.195769 0.795795 0.711328 -0.225245 -0.039700 -0.639358 0.547075 -0.583661 -0.503597 -0.672961 -0.701758 0.206899 -0.626131 -0.580808 -0.146583 0.518325 0.880631 0.220040 0.281842 -0.749121 1.745002 -0.956513 0.843674 0.755518 -0.131275 -0.509879 -0.093127 -0.493008
重O -0.986026 -0.177307 -2.532614 1.400793 -0.295382 0.584895 0.860030 -0.292320 -0.752057 0.721641 0.214783 -1.036814 0.515672 0.766928 -2.131461 -0.004280 -0.901817 -0.428944 -0.577766 0.229226 -1.402406 -0.147042 0.220944 -1.471631 -0.054897 -0.854239 -0.818355 -0.071789 -1.533481 0.358498 -0.334215 0.388465 -1.095800 -0.903341 -1.498977 2.229633 -0.169951 -0.686948 -0.604317 -0.985534 0.484923 -0.749738 -0.359843 -0.366718 -0.313424 -0.955568 0.087842 -1.684159 -2.166387 -0.322015 -0.357596 0.153280 -1.251475 -1.583972 -1.537846 -0.225964 -0.890617 -1.105313 0.058185 1.668632 -0.467469 1.328765 0.083759 -0.473253 -1.092881 1.697211 -1.169346 -0.243148 2.791337 -0.349952 -0.313376 0.545269 -0.558286 -1.449679 -0.770485 -0.443160 -1.188579 -0.814860 -2.021730 0.348058 -0.621450 -0.704369 -0.374376 -0.271106 0.755332 -0.029185 -0.188682 1.670771 -0.159757 -1.126641 1.299796 -1.557794 -0.754285 -0.779707 0.339564 1.966714 0.535600 1.249865 -1.033576 0.969774
切O -0.780545 0.723539 1.712235 -1.481491 1.264989 -1.216720 0.979934 -0.900553 0.357931 -0.336671 -0.182927 -1.093808 -0.251855 1.627249 0.766522 -0.758667 0.266612 0.170936 1.127588 -0.812075 -0.545326 1.762367 -0.562813 -1.915763 0.622369 1.712347 0.157117 -0.133780 -1.742922 1.014529 0.193982 -0.567262 -1.350758 -0.002880 0.017863 1.471973 -1.743107 0.649551 -0.179220 0.429627 0.526476 0.110682 1.015421 0.257292 0.525103 -0.864436 2.429728 0.238823 0.505471 -0.268937 0.412359 1.389966 -0.385289 -1.067052 0.971183 -1.027034 -0.775499 -0.078465 0.057410 1.721681 -0.333629 1.404567 0.210806 -0.493514 0.624589 1.356301 0.778294 0.004755 0.528325 1.253066 -0.511914 -0.231959 -0.221292 -0.947312 -0.886956 1.217528 -4.169666 -1.036311 -1.549210 -1.156911 -0.545634 -0.296962 -1.576551 -0.723641 -0.698091 0.565654 1.167746 2.134912 -0.285429 -1.507792 0.080365 -1.692026 1.620275 2.227751 0.771298 -0.017695 0.888886 0.797751 -1.584952 -2.084965
9O 0.091649 1.152414 0.631523 0.854616 0.100143 0.604494 0.432585 -1.065384 -1.226651 0.549559 -0.081157 -0.073979 0.097672 -0.474303 1.746154 -0.316591 0.925889 -0.798731 0.662996 0.596237 0.090133 1.377788 -0.772127 -0.090830 1.786900 -0.081741 0.758615 -0.363078 0.485590 0.577381 -0.555884 -0.794953 -0.571456 -1.990791 -0.222428 -0.435585 0.476282 0.269786 -0.788979 0.025216 -0.028847 1.419077 0.022444 -0.760158 0.744677 -0.072392 2.061366 -0.530871 0.475427 -1.032063 0.901164 -0.327245 0.179413 1.087943 0.948164 -0.224866 0.538671 -0.260014 0.280119 0.249848 0.882248 0.688554 -1.294753 0.481453 0.366787 -1.145142 0.214626 0.384953 0.185089 -0.351780 -0.598925 0.607121 0.161652 1.105054 0.851655 -0.276681 -0.295788 -0.733959 0.874198 -0.584043 -0.578170 -0.824814 -0.658174 -0.021176 -0.720923 -0.386080 -0.111257 0.454951 0.974432 0.109779 0.491730 -0.831203 2.079215 -1.231858 0.890146 0.600600 -0.029668 -0.611054 0.002433 -0.963208
发O -1.299223 -0.419064 0.863751 -0.859034 -0.110295 -0.172260 0.500795 0.127040 0.058455 -0.375925 -1.417647 -1.021835 0.069254 -0.906221 -0.267432 0.327917 1.168295 1.226157 1.480381 1.051175 0.171757 0.299371 0.013372 0.969117 -0.571597 -1.052365 0.324556 -0.077834 0.290870 -0.366673 -0.087529 0.128493 -0.537960 0.771520 -1.554046 1.342781 1.990816 -0.202943 0.273513 -0.865022 0.183289 -0.056502 -0.274998 1.850956 -0.320453 0.676706 -0.486381 -0.624419 1.796151 -1.446745 0.661898 -0.917592 -1.523439 0.005127 0.603113 0.181646 -0.901796 -0.851735 0.203074 1.457561 -0.157203 -0.400542 -0.090500 1.740038 0.789705 -0.042091 0.607807 -0.140668 0.771243 0.114980 -1.134028 -0.270505 -0.591495 -0.423866 0.466489 0.276570 0.103836 -0.728823 -0.271184 0.098950 -1.077810 -0.909091 -1.232156 -1.048273 2.070354 1.055824 -0.060715 0.233994 -0.063470 -0.838385 0.408091 0.427967 -0.093623 -0.004820 0.041737 0.731884 1.402811 -1.208352 0.936588 -0.502645
期O -0.295515 0.221477 0.050230 0.803845 -0.154024 -0.057254 1.288010 -0.905892 -1.958159 0.105739 0.243326 -2.271477 0.291279 0.356187 1.013460 -0.991259 0.407854 -0.031525 0.054377 0.398169 -0.856268 0.728730 -0.088089 -1.379150 -0.543824 -0.605656 0.284301 -0.916959 0.633940 -0.283883 -0.010816 0.207305 0.826937 -0.587649 -0.887832 0.983648 0.031344 -0.059919 -0.390596 0.028465 0.112630 -0.046997 0.391946 0.909673 2.180904 0.010741 1.738375 -1.013859 -0.113370 -0.406793 -0.549446 0.299952 -0.424840 -0.621583 -1.261409 -0.326802 0.573934 -0.360746 0.490631 1.448381 1.059713 -0.128272 -0.479668 0.127410 1.750050 0.466385 0.035715 -0.272313 -0.395487 -0.346226 -0.214111 0.283393 -1.003287 -0.072699 0.586042 -0.641821 -1.037380 -1.732127 0.117843 -0.687467 -1.732032 0.563418 -1.436241 1.136835 0.731061 0.572783 -0.340809 0.765682 0.288137 0.529020 0.918456 0.568807 0.424953 -0.297241 -0.257135 1.838924 0.384620 0.851084 0.046492 0.059712
腺O 0.326497 0.784593 1.018551 -0.313819 -0.611321 -0.799310 -0.503153 -0.096570 -0.699286 -0.212978 0.397851 -2.039627 -0.199729 -0.135997 1.293736 0.070935 1.648976 -0.952973 1.318237 0.522324 -0.224629 -0.790896 -1.293905 0.179567 -1.332078 1.527199 -0.968068 -0.292557 0.582265 0.050018 -0.210173 0.453662 1.224730 1.076305 1.385449 -0.776641 0.036827 0.240137 -0.199462 0.308060 -0.791153 -0.039657 -0.520296 0.530580 -0.180348 0.937925 3.184372 1.448919 0.083193 0.306093 0.458065 0.997436 -0.715304 -1.368980 0.513070 1.354030 1.406284 -0.370652 1.075686 2.743257 1.179473 -0.308881 -1.670818 -0.098701 0.339464 -0.509315 0.672543 -1.146809 -0.157463 0.611263 -0.990549 0.203287 -0.078106 0.285484 1.115556 -0.971873 -0.233948 -1.650121 -0.527500 -1.409231 0.243701 -0.504602 -1.771577 0.003080 0.127482 -1.178558 1.249539 -0.261583 -0.206500 -1.163972 0.648567 -0.638971 0.409849 3.211322 1.446689 1.357958 -0.559232 -0.361018 0.773310 0.066304
因O -1.001815 -0.372408 -0.943240 0.028511 -0.560006 0.322160 1.347000 0.179668 -0.178867 -0.632070 -0.683718 -0.419472 0.722906 -0.148418 0.032920 0.199782 0.054987 1.153385 -0.281636 1.055299 0.335937 -0.616861 0.149872 1.515396 0.269599 0.181382 1.645833 -0.030703 -0.052221 0.344902 -0.500490 0.315618 -0.764483 -1.345073 -1.067636 0.913856 1.512350 1.014375 -0.646654 0.024738 0.295456 0.544837 -0.518546 0.095002 -0.699169 -0.555671 0.436882 -0.650447 0.515534 -0.884349 0.517697 -0.683932 -1.606466 0.923379 0.902099 1.388187 -0.506836 -0.680269 -0.899690 0.244037 0.033348 0.146654 -0.795484 0.611091 -0.286919 0.472360 -0.169072 0.260777 2.238785 0.237437 0.074721 -0.363540 1.245502 0.652121 1.584983 0.741157 -0.308152 -0.943950 -0.688738 0.987224 -0.642508 -1.492202 -0.055098 -0.678105 0.772495 1.387452 0.930696 -0.666834 0.057043 -2.228523 -0.625165 -1.429416 -0.849719 -1.466154 -0.045385 0.491486 0.795197 -1.003806 -0.260910 -0.248645
食O 0.204756 -2.193166 -0.353920 0.745577 1.013736 1.701516 1.204753 0.670281 -0.152448 0.757953 0.659868 -0.136218 -0.468721 -0.442383 -1.199059 0.644537 -2.171128 -0.098265 1.201740 0.524966 -0.372351 -0.437892 0.817291 -2.174042 -1.035269 -0.996985 -0.291242 0.653170 -0.783182 0.114351 0.036112 0.359870 -0.410087 0.299667 -0.503785 1.201992 0.886205 -0.774196 0.033179 0.357176 -0.290535 -1.283899 0.425564 2.230255 0.511289 0.725353 -3.159202 -0.527924 0.900372 -0.893897 0.693061 0.235236 -2.817225 -1.396557 -1.138788 -1.567650 0.017771 -0.696762 0.577108 0.957296 -0.828905 0.608106 1.641447 -0.360023 0.294624 1.140010 -0.854317 -0.354494 0.852666 -1.087325 -1.821642 -0.698183 -0.163164 -0.927930 -1.575683 -0.585645 -0.267071 0.883647 -1.979931 1.330970 -1.380107 -0.300832 0.400347 -0.607968 1.480984 -0.303722 -0.645090 2.191331 0.066706 0.979341 0.951879 0.564441 -2.876803 0.163414 -0.003026 0.630958 0.000003 0.818958 0.792609 -0.310595
检O -0.480882 2.384966 1.893491 -0.591563 -0.102385 -0.550569 0.781561 -0.070239 0.226609 0.420426 -1.681328 -0.625882 0.426697 0.403141 0.527566 0.123441 1.850192 2.100450 0.967646 -0.086559 -0.701165 0.099326 -0.987923 -0.263872 -0.419575 -1.031101 0.255644 -1.309874 0.185601 -0.683359 0.643071 -1.279236 -0.939927 1.732981 -0.671658 0.723638 0.888131 0.546714 -0.895452 -1.022354 1.240816 1.094472 0.580795 -0.020259 0.081690 -1.457512 1.307106 -1.258922 0.150485 -1.941969 -0.044385 -0.598854 0.536519 -0.720591 1.179861 -0.829024 0.901319 1.124464 0.010818 2.974128 0.052999 1.281284 0.763666 1.189851 1.254423 1.117077 0.309727 0.663485 -0.478299 -0.519536 -0.418149 -0.028861 -1.344826 -0.261467 -0.763946 1.251259 -0.891746 -0.337442 0.499548 -2.220340 -0.580118 -0.317083 -1.041608 -1.616760 1.397163 -0.135331 -0.430481 0.347786 0.215859 -0.725241 1.281951 -0.000386 1.788636 0.660043 0.127189 1.252725 -0.027743 0.048681 -0.603312 -0.769914
淋I -1.408289 -0.184705 1.574903 -0.666284 1.954184 2.173395 -1.671036 0.887764 1.482371 -1.231014 0.580917 -0.130377 -1.505066 1.031779 2.364322 0.903825 0.146003 0.773848 2.457655 -1.588377 2.048509 0.600507 -1.502695 2.605671 1.499460 -1.196080 1.341457 0.338587 1.490812 0.737957 -2.086500 -1.320196 -2.146653 -0.992832 0.496269 -1.472667 1.267676 -0.283871 -2.756090 0.720003 -0.764261 1.738087 0.260884 -1.117427 -1.565232 1.701952 1.120418 1.021951 -0.283925 -1.017246 0.432953 0.363390 -0.408233 1.623897 1.807289 -1.331620 0.786401 -0.481536 0.002599 -0.869626 -1.676994 2.563117 -0.514418 0.364296 -1.859392 -1.799123 -0.181779 -0.499324 0.791096 0.295539 -2.501395 -1.344252 1.383611 0.555530 2.244311 0.276739 0.228639 1.262838 1.016175 -0.166024 -2.220987 -0.913473 0.034740 2.604156 -1.483084 0.366728 1.498566 -0.736904 0.453187 -0.029949 -1.953237 -1.849876 0.464851 -0.870533 2.146539 -0.909777 0.601479 -0.243752 -1.053456 -1.597409
神O 0.223213 -1.931784 1.249061 0.694059 2.052793 1.062448 1.844736 0.847735 -0.114535 0.752258 0.264617 0.475947 -0.602505 -0.939474 -0.672421 0.704679 -2.190925 -0.632250 1.363761 1.547833 -0.111867 0.276982 0.828189 -1.587813 -1.748743 -0.997282 -0.552420 0.213597 -1.180007 0.064730 1.483658 -0.101559 -1.180872 -0.268773 0.489290 1.197413 1.202085 -0.592412 -0.560922 -0.656368 -0.508217 -0.631314 0.662605 3.540821 0.874901 0.824813 -3.101550 -0.720172 2.442025 -0.860491 1.425622 -0.275467 -3.543802 -1.918903 -0.761054 -1.584401 0.284956 -1.047028 0.758229 1.847701 -1.057311 -0.483554 1.575196 -0.056232 -0.303133 0.180285 -0.430549 0.008987 0.735177 -1.607948 -2.330896 -0.552978 -0.514078 -0.635197 -2.082267 0.302272 -0.341995 0.085402 -2.617600 1.424528 -1.688893 -0.511829 -0.835652 -1.400778 0.839995 -0.173116 -1.086689 2.847383 0.364641 1.138622 0.661050 0.468366 -3.129064 -0.064663 -0.565889 0.290762 0.315864 -0.712034 1.050530 -0.925529
予O 0.767238 0.728119 -0.273751 -0.082345 -0.753540 0.277927 1.535397 -1.499848 -1.121529 0.725486 -0.118995 -0.295460 0.759259 -0.438756 -0.208893 0.211636 -0.696498 -1.163854 0.193655 1.070876 0.118158 0.163336 1.070302 -1.221005 0.805685 -0.410705 -0.653074 -0.704505 -0.711342 1.129552 1.494290 0.521274 0.790408 -0.623752 0.227759 -0.728564 -0.267332 0.182532 0.812323 0.494131 0.145696 0.442658 1.135288 1.701663 0.882484 0.638737 0.606867 -1.156659 1.306867 0.776044 0.030661 -0.303099 0.843911 0.004457 -1.006626 1.033183 0.043926 0.343899 1.267985 -0.252065 1.159393 -0.520609 -0.842786 0.683736 0.650919 0.117861 0.371478 0.225205 -0.227948 -0.571272 -0.473812 1.925310 -1.252619 1.008512 -1.077571 0.074802 -0.953259 -0.033887 0.344762 0.616304 -0.551863 -0.181788 0.180527 -1.897786 -1.678739 -0.153796 -0.536949 -0.262458 0.754697 0.148993 1.095560 0.027279 1.005079 -0.796249 -0.149262 0.171770 -0.805771 0.069022 1.054830 -0.888941
肠I 0.230488 1.767425 0.852588 -0.805765 0.845787 0.886629 0.038906 0.601655 3.234446 1.027358 -0.174270 -0.118574 -0.870255 0.205726 0.046544 0.975106 0.373478 0.732450 1.757612 -0.651054 2.085894 -0.546690 -0.528272 0.747049 0.539210 0.258048 0.132083 -0.432453 -0.582199 0.412371 0.765216 -0.613629 -1.198794 0.509305 1.301859 -1.531290 0.236740 1.549032 -2.305634 1.308096 -1.471306 0.570224 1.063705 0.471449 -2.012498 -0.363492 -0.656312 0.506068 0.878954 0.112386 -0.473069 -1.331224 0.475600 0.494952 0.738914 -0.502084 1.316591 -0.806837 0.359303 1.178798 -0.925418 0.786374 0.027239 1.244528 -0.195416 -0.053245 0.371504 -0.341691 -0.785116 0.537806 -0.362331 -2.151294 -0.021700 0.798484 -0.125943 0.786859 -1.345070 0.214319 -0.092406 0.551551 0.702040 -0.608352 -0.719858 -1.565818 -0.833549 -0.738504 1.412265 -0.870624 0.371977 -1.316216 -0.727300 -1.146524 -0.447219 1.758508 -0.099184 -1.117415 -0.393159 -0.762521 0.129525 -0.603399
(O -0.405833 1.581676 2.347419 0.100205 0.826615 -1.057804 -0.232372 -0.483747 -0.601095 -0.164933 0.398262 0.459811 -0.628466 0.697390 2.546057 -0.348364 0.896582 -0.493853 0.121345 -0.321676 0.527770 1.655803 -0.582369 1.210036 0.797920 -0.485723 -0.130923 -0.527839 0.300213 0.061973 0.006037 -1.223085 -0.411667 -1.135565 1.796823 -0.774935 -0.535188 0.159026 -1.573735 -0.577186 -0.759976 1.169700 0.061397 -0.232582 -0.074251 -0.318104 2.299333 -0.057565 0.989748 -0.311836 -0.119593 -0.459923 0.341504 -0.088579 0.996447 -0.896208 0.600480 0.062778 0.876971 0.256841 0.329307 0.657176 -1.251396 -0.434400 -0.529647 -1.413823 0.683154 1.032182 -1.220598 0.154966 -0.989378 0.301008 0.147424 0.550689 -0.154214 1.287845 -0.492269 -0.323135 0.985651 -1.083749 -0.731769 0.670386 -1.485720 0.764090 -1.318662 -0.320522 -0.479430 0.303839 0.606475 0.426312 -0.803881 0.190807 1.757343 0.036556 0.213152 0.606197 -0.084435 -0.683245 -0.408563 -0.289783
变O -1.447583 1.073952 -0.978201 -0.104534 -0.638962 -0.315016 -0.767615 -0.501331 -0.229521 0.211917 -0.621468 -1.344007 0.626569 0.677435 -0.978295 0.426461 0.849740 -0.117682 -0.038533 0.160226 -0.782791 -0.198336 -0.576676 0.505836 -0.379321 -1.006971 -1.011224 -0.564889 -0.678748 0.136100 -0.567542 -0.236848 -0.242659 0.535441 -1.176206 1.358223 0.361212 -0.207027 -0.292641 -0.919071 0.794459 -0.311504 -0.374568 0.179916 -1.115734 0.172121 1.221153 -1.093371 -1.498290 -0.074761 -0.407758 -0.335931 -0.052456 -1.113650 -1.051027 0.957739 -0.429859 -0.327480 0.017257 2.352871 -0.127736 -0.391441 -0.902421 0.900624 -0.539760 0.516653 -0.279104 -0.401617 1.710825 0.552217 -0.567818 0.709095 -0.800137 -0.751638 -0.622722 -0.204080 -0.657546 -1.483890 -0.503123 -0.580037 0.291518 -0.910112 -1.252003 -0.687375 0.632425 0.648180 0.214574 -0.602720 -0.509806 -1.560424 0.590990 -0.739851 0.156969 0.198348 -0.100258 1.573814 0.334330 -0.046669 -0.338849 1.399639
)O -0.282099 1.610301 2.582574 0.048638 1.039142 -1.178257 -0.577191 -0.169304 -0.407295 -0.505426 0.145024 0.479733 -0.791892 0.563313 2.171675 -0.438403 1.142533 -0.576802 0.553728 -0.053913 0.116799 1.367286 -0.556200 0.848781 0.697686 -0.131508 -0.189993 -0.845567 0.637659 0.103457 0.097870 -1.368221 -0.506485 -0.913130 1.296714 -0.586158 -0.035762 0.223950 -1.570154 -0.514444 -0.571820 1.227707 -0.023828 -0.106675 -0.114463 -0.239969 2.056682 0.293355 0.903497 -0.158189 0.024630 -0.146621 0.529475 0.105687 0.984141 -0.739725 0.519108 0.266138 0.684874 0.486880 0.196758 0.704899 -0.791487 -0.431792 -0.181438 -1.093295 0.810427 0.960450 -0.680196 0.381078 -1.003224 0.299571 -0.029025 0.564744 -0.583572 1.240651 -0.835821 -0.711544 0.716262 -1.305688 -0.079900 0.446686 -1.497686 0.254742 -1.476385 -0.136797 -0.236817 0.359442 0.519772 0.064151 -0.700249 -0.076859 1.751294 0.163676 -0.003406 0.264148 -0.006766 -0.643381 -0.297897 -0.529223
正O -0.577782 0.428896 -1.038644 1.634574 1.594497 0.184437 -0.463365 0.945074 0.590059 1.779094 0.500484 0.118606 -0.404947 0.206552 -1.345584 -0.325181 -1.154596 -0.846177 -0.436390 -0.645206 -0.463507 0.531523 -0.173587 -1.329133 -0.529435 -1.848906 -1.275746 0.446758 -1.065370 -0.295306 -0.102273 -0.378207 -1.553290 -0.357596 -0.367079 1.184662 -0.569236 -1.674644 -1.614295 -1.632351 -0.119984 -0.677070 -0.971206 0.125331 -0.479129 -0.430319 -1.484503 -1.224443 -0.961431 -0.069167 -0.193888 -0.561762 -1.312962 -1.595700 -1.861620 -2.444113 -0.232874 -0.954837 0.957535 1.000413 -0.433469 1.612455 0.965756 -0.953277 -1.638247 0.676587 -0.991110 -0.601183 0.978991 -1.306909 -1.370309 0.120446 -1.082532 -2.048554 -1.540618 0.076741 0.144132 0.915645 -1.047477 0.312626 -1.720921 0.154586 -0.146210 0.123739 0.465262 -1.073013 -1.179102 2.901456 0.132574 1.123148 0.657193 -0.304727 -0.878880 -0.867908 0.083183 1.173266 0.310804 1.336521 -0.820260 0.693516
中O -0.342973 1.278624 0.078143 -0.680700 -0.331039 0.291240 -0.543505 -0.586915 -0.376913 0.127924 0.223137 -1.848017 -0.207881 0.586660 0.184600 -0.147103 1.234256 0.490608 0.859619 -0.266162 -0.074518 -0.293799 -0.691963 -0.193092 -0.334503 0.183082 -0.148282 -0.630213 0.255800 0.254252 -0.587227 -0.365565 0.414644 1.042169 -0.490107 0.300842 -0.064230 0.485674 -0.455788 0.485082 0.336496 -0.477513 0.177980 -0.168503 -0.144392 0.244485 1.855650 -0.214716 -0.529759 -0.166127 -0.475606 -0.091700 1.332676 -0.122728 -0.331218 0.838551 0.465722 0.076713 0.437993 2.025522 -0.189082 0.329689 -0.718603 0.346898 0.657023 0.033160 -0.301970 -0.317114 -0.504700 0.473470 -0.686359 -0.359766 -0.507254 0.161992 0.319207 -0.486173 -0.909693 -0.652890 0.354702 -0.378504 -0.006871 -0.292348 -0.851800 -0.464169 0.223878 0.151849 0.441237 -0.729725 0.260743 -0.369748 0.299332 -0.894894 0.593397 1.172235 0.406756 1.021235 -0.104481 0.177282 -0.491705 0.110682
移O -1.343624 -0.469883 2.253497 -0.829910 -0.284177 0.217626 -1.250768 -0.711734 -0.972492 -1.228481 -1.683913 -1.262492 -0.580608 -0.457279 1.854092 0.716648 1.017200 0.149073 3.164457 -0.765872 -0.978758 0.620493 -1.313116 0.083789 -0.041200 -0.171086 0.700298 0.380958 1.448860 0.626251 -2.156154 -0.412738 -1.138488 1.449224 -1.938973 0.205298 0.448890 -0.785845 -0.609444 0.612369 0.554836 0.319224 -0.207643 1.213232 0.269013 2.020925 2.096788 0.073791 0.782004 -0.707468 -0.107444 0.954356 0.262279 0.875065 -0.680539 -0.944492 -0.938651 -0.514298 0.575977 1.838704 -0.448825 0.863573 -1.252912 1.809770 0.342460 0.095096 0.421824 -1.462324 0.114812 1.387346 -2.415528 -0.106689 -0.207679 -0.019217 1.468830 -1.197507 -0.455279 -0.340422 0.408318 -0.626643 -1.165913 -1.174250 -0.821853 0.251677 -0.204841 1.603299 0.625938 1.604148 -0.025000 0.253511 0.899875 0.037672 2.018877 0.445930 1.597990 0.394138 0.355542 -0.039705 0.613918 -1.411250
痛S -0.555789 -2.422978 -0.735636 0.260258 -0.430074 1.103961 0.852898 0.317148 -0.796434 -1.043311 0.497410 0.272529 -0.174962 -0.616614 -1.147410 0.578207 -2.002564 0.001696 1.016041 0.852862 -0.590662 -0.477946 1.435436 -1.186420 0.073457 -0.223387 1.283533 -0.023827 -0.002057 1.382995 -0.172865 0.595305 -0.307187 -0.056836 -0.801805 1.215493 1.294072 0.074880 0.596866 0.307052 0.975570 -0.511715 0.189651 1.632669 -0.049974 0.065064 -1.351206 -1.239603 0.640832 -1.950473 1.942210 0.866716 -1.299734 -0.625612 -0.005845 0.506853 -0.935097 -0.114351 0.318376 0.220701 -0.284943 1.408280 -0.321784 -0.188819 -0.616045 0.834441 -0.998845 0.646507 2.323602 -0.153604 -1.153301 0.687330 0.401985 0.737068 -0.242184 -0.398606 -0.696176 1.134856 -1.394683 1.115814 -0.639033 -1.493849 1.448284 -0.363134 1.180936 0.836903 -0.715910 0.991536 0.118806 -0.558769 0.593996 -0.585121 -1.844881 -0.536425 1.503030 0.433173 -0.177924 0.079668 -0.013223 -0.836073
胃B 0.460882 1.695441 1.205413 -0.471587 0.762967 -0.101684 -0.321848 0.565538 1.734818 0.547832 -0.490534 0.221595 -0.224095 -0.279368 0.790630 0.427889 1.359990 0.608910 0.789726 -0.454982 0.456989 -0.132602 -1.221277 0.493616 0.014637 0.832190 0.052174 0.156401 -0.687191 -0.067757 0.322666 -0.489662 -0.624687 0.643777 1.086285 -0.964935 0.470622 0.943780 -0.905817 -0.080335 -0.562919 0.470664 -0.159030 -0.318244 -1.247017 -0.210839 0.074400 0.759303 0.220870 -0.144729 0.154152 -0.606565 -0.463711 -0.231185 1.801165 0.140638 0.930375 -0.044937 -0.085525 0.947705 -0.629108 0.364322 0.646451 0.260025 -0.129273 -0.430425 0.655843 -0.228425 -0.469616 -0.013694 -0.495516 -0.982925 0.313500 -0.159747 -0.510803 0.619026 -0.325160 0.006931 -0.032557 -0.818887 0.848072 -0.339855 -0.580743 -1.703949 -0.105636 -0.685271 1.048964 -0.349519 0.080889 -1.124557 -0.245462 -0.696184 0.492542 1.604373 0.199521 -0.277945 -0.321224 -0.855885 0.272768 -0.512013
好O -0.279753 -2.064820 0.392729 0.264060 -0.313510 0.953610 1.183662 -0.976696 -1.706757 -0.198507 -0.418932 -0.915117 -0.164163 -0.444095 0.395367 -0.191471 -1.481498 0.129194 2.307533 0.087974 -0.246653 0.747811 0.646990 -1.606195 -0.887030 -0.571637 -0.122329 -0.011657 0.912763 0.624061 -0.720767 0.594958 -0.409464 1.373496 -0.930138 1.227084 -0.178028 -0.761595 -0.061634 0.312725 0.119331 -1.000449 0.611633 2.458479 1.479406 0.671899 0.310760 -0.369917 1.089121 0.148119 -0.605931 0.227018 -0.531779 0.001833 -2.709208 -1.672600 -1.487963 -0.113528 0.330830 2.117054 -0.196939 0.737876 -0.624698 0.104174 0.358531 0.522842 -0.204821 -0.239474 0.328536 0.580111 -1.881051 0.729336 -1.045921 -0.178856 -0.158715 -0.759715 -0.755008 0.441434 -0.344492 1.151327 -1.874129 0.737392 0.158670 -0.107245 0.775620 1.305032 -0.676403 2.782272 -0.460127 1.080584 0.951028 0.679210 -0.585321 0.815243 0.506531 1.072729 -0.404248 1.354292 0.429584 0.105581
切I -0.294211 1.127722 1.076981 -1.712018 0.723846 0.735805 -0.280189 0.183355 2.864666 0.657980 0.861883 0.315915 -0.545485 1.178964 -0.596874 1.231403 -0.531189 0.143859 1.226882 -0.794810 2.394256 0.014339 0.196127 0.926281 0.020759 -1.308393 -0.577321 -1.296113 0.047808 1.051559 0.789996 -1.195572 -1.041779 0.527096 1.558126 -1.340161 0.147557 1.075361 -1.826527 1.502905 -0.995575 -0.019371 1.946214 1.383559 -2.024030 0.035984 -0.703727 -0.505157 0.473680 0.000659 -1.339202 -1.516479 2.401078 0.137515 -1.588122 -0.168466 0.419300 -0.095334 0.972829 0.692256 -1.618958 0.565503 -0.646651 0.757984 -1.004289 -0.451081 -0.375013 0.379640 -0.940586 0.582844 -1.336424 -0.808436 -1.001539 0.939463 -1.266236 1.854388 -1.225587 0.690645 0.233838 1.916099 -0.066172 -0.154438 -0.510159 -1.309781 -1.527748 0.064596 0.415335 -1.567829 0.861179 -0.559432 -1.699647 -0.735236 -1.115616 0.973946 -0.454817 -1.230197 -0.888658 0.082397 -0.515396 0.587952
侵O -0.454829 0.342406 1.137161 0.759060 1.180177 -1.366090 -0.849223 1.388337 -0.148434 -0.839749 -0.536893 -1.411763 -0.000735 0.501432 1.717303 -1.692905 -0.993174 -1.222567 0.239618 -0.048730 -0.402391 0.331441 -1.434328 -0.765771 -0.629205 1.425702 -0.974429 0.363788 1.150340 1.813236 -1.094435 0.610480 0.543302 0.550393 1.543804 -0.830702 -0.442598 0.064268 -2.244959 -1.231245 -0.510692 0.042184 -1.309147 0.768633 -0.861146 1.007698 1.409028 1.443035 -0.114609 1.665218 0.385358 2.241025 -2.395846 -1.500857 0.479304 0.628964 0.485309 0.466231 -0.265698 -0.172534 0.832832 0.557101 0.755701 -2.348718 -1.399396 -0.501257 0.071560 0.126763 0.394495 1.154062 -1.687036 0.407709 0.937328 -0.556420 -1.306355 0.257219 -1.711482 0.685194 -0.544698 -1.497916 -0.015362 0.913677 -0.005152 0.557834 -1.471561 -0.149602 0.665782 0.673906 -1.053137 -1.492976 -0.632305 -0.414185 0.458169 1.662032 0.513788 1.271267 0.028129 0.964849 0.679554 -0.143111
状O 0.555355 -1.188511 -0.706695 0.321072 -1.200956 -0.176593 0.693813 -0.298834 -0.837808 0.189712 0.155690 -1.760078 -0.016223 -0.632177 -0.332440 -0.024461 -0.505886 -0.697365 0.825805 0.316108 -0.310550 -1.184586 0.544264 -0.909084 -1.191412 0.763178 -0.789169 1.173282 -0.506157 0.646997 -0.324859 1.267992 1.238932 1.092499 0.502377 0.510304 -0.514524 -0.417465 1.061169 0.111599 -0.588539 -0.940889 -0.066898 1.192943 0.117497 0.889483 0.778060 0.927376 0.725996 1.034218 -0.165057 0.572287 -1.604649 -1.142611 -1.068735 0.674304 -0.809217 -0.931603 0.830893 1.698218 0.572687 -0.249372 -0.852552 -0.223565 0.040010 -0.099177 0.551174 -1.077562 0.584821 0.339888 -0.554087 0.752436 -0.431374 -0.448587 0.472426 -1.093559 -0.043113 -0.620545 -1.010766 0.165021 -0.175354 -0.004556 -0.155852 -0.454890 0.725172 -0.447984 0.644856 0.921390 -0.779586 -1.043551 1.063424 0.137607 -1.174977 2.421574 0.790182 1.013165 -0.479248 0.758546 1.291555 0.441882
